#Layer 5 Biases:
-0.101679854094982147 -0.039337690919637680 -0.007991558872163296 -0.037871669977903366 -0.009100704453885555 -0.033024594187736511 -0.099953807890415192 0.007506698369979858 -0.009020347148180008 0.012025301344692707 -0.016795501112937927 0.017537707462906837 -0.017308911308646202 0.030158353969454765 -0.063968233764171600 -0.025886485353112221 0.054484177380800247 -0.072438560426235199 -0.011785419657826424 -0.006737496238201857 0.041163939982652664 -0.024524144828319550 0.026776038110256195 0.079420574009418488 0.035398006439208984 -0.081145912408828735 0.014180811122059822 0.066388040781021118 -0.014002544805407524 -0.016360765323042870 -0.057287700474262238 0.022754773497581482 0.021591885015368462 -0.020537843927741051 0.078075774013996124 0.005344888195395470 0.036017552018165588 0.024571128189563751 0.018640855327248573 0.024573292583227158 -0.012872505001723766 -0.017264943569898605 -0.025577802211046219 -0.086965627968311310 -0.021034624427556992 0.040557719767093658 0.018051238730549812 -0.038211241364479065 0.052810616791248322 0.005271428264677525 -0.005171964410692453 -0.071277283132076263 -0.101716652512550354 0.002604207722470164 0.025858126580715179 -0.057577434927225113 -0.022616999223828316 0.020188501104712486 0.029460106045007706 -0.012597785331308842 0.047551788389682770 0.049483634531497955 0.050859469920396805 0.051557611674070358 0.001770345377735794 0.034889679402112961 0.011206196621060371 -0.075712651014328003 -0.031420543789863586 -0.001751473057083786 -0.057587288320064545 -0.051010388880968094 0.098810777068138123 -0.055246017873287201 -0.076432228088378906 0.013881285674870014 -0.015615260228514671 0.059073135256767273 -0.043764427304267883 0.040961693972349167 0.063292473554611206 -0.012097223661839962 0.012750856578350067 0.026487840339541435 -0.099947638809680939 -0.038504876196384430 0.044760148972272873 0.043303482234477997 0.019728343933820724 -0.130589514970779419 0.001639834488742054 -0.063558772206306458 -0.002600964624434710 -0.046247404068708420 0.015587632544338703 -0.050445877015590668 0.052334364503622055 -0.027807002887129784 -0.043551623821258545 -0.065280452370643616
