#Layer 4 Biases:
-0.006658062338829041 0.035747736692428589 0.078973963856697083 -0.006234967149794102 -0.032193835824728012 -0.077378161251544952 -0.020905073732137680 0.025164151564240456 -0.027602154761552811 -0.027195665985345840 -0.013363044708967209 0.027260797098278999 0.032653536647558212 0.059875030070543289 0.039775609970092773 0.059737961739301682 0.010416310280561447 -0.074076659977436066 -0.040667194873094559 -0.050718866288661957 0.013066802173852921 -0.024308804422616959 0.030380358919501305 0.083001308143138885 0.006219551898539066 0.042350567877292633 0.020217869430780411 0.031257279217243195 -0.144757285714149475 -0.029680581763386726 -0.012517591938376427 -0.021127779036760330 -0.042647939175367355 -0.029166454449295998 -0.045321449637413025 -0.031640693545341492 -0.036422785371541977 -0.062795154750347137 0.024464398622512817 0.044389668852090836 -0.039320100098848343 -0.014445221051573753 0.050868712365627289 0.038928613066673279 0.001389466924592853 0.053156971931457520 -0.050964049994945526 -0.033084079623222351 -0.007515618577599525 -0.066153414547443390 0.008331703953444958 -0.046630550175905228 -0.034989181905984879 -0.056828387081623077 -0.049866326153278351 0.022546455264091492 0.058478947728872299 -0.030244905501604080 -0.025366241112351418 -0.014868316240608692 -0.054237868636846542 0.013135299086570740 -0.038584277033805847 0.001335831126198173 0.022579075768589973 -0.017378764227032661 -0.011622313410043716 0.055013701319694519 0.016493920236825943 -0.004319143947213888 -0.061703871935606003 -0.037204630672931671 -0.023971760645508766 -0.102140039205551147 -0.022403620183467865 -0.053081996738910675 -0.022504946216940880 0.010254879482090473 -0.040818981826305389 0.002283702138811350 0.012031576596200466 0.041906125843524933 0.024687925353646278 0.048102285712957382 -0.075222857296466827 0.042928371578454971 -0.029341265559196472 -0.116200298070907593 0.014586212113499641 0.022635186091065407 -0.016679571941494942 0.058763355016708374 0.042174734175205231 0.041445568203926086 0.069057352840900421 -0.001895796973258257 0.034289307892322540 0.020876152440905571 -0.035738158971071243 -0.066301241517066956
