#Layer 6 Biases:
-0.019125813618302345 0.070628218352794647 -0.071978524327278137 0.010102814063429832 -0.014439124614000320 -0.013768310658633709 -0.011511468328535557 0.023127434775233269 0.055424842983484268 -0.035895586013793945 -0.008514080196619034 0.044758222997188568 0.044322539120912552 -0.065462656319141388 -0.009620769880712032 -0.017927952110767365 0.078243196010589600 -0.055158190429210663 0.020426912233233452 0.005023820791393518 0.010254065506160259 -0.017988430336117744 0.024518569931387901 -0.027729712426662445 -0.015793623402714729 -0.046106852591037750 0.035773061215877533 -0.051998123526573181 -0.046267192810773849 0.012621344998478889 0.007093852851539850 0.038581512868404388 0.001532314810901880 -0.044373605400323868 -0.016396474093198776 -0.027248937636613846 0.019433988258242607 0.066236101090908051 0.036163076758384705 0.062064643949270248 0.009128166362643242 -0.009176299907267094 -0.002880118321627378 0.029402755200862885 -0.008887054398655891 0.101129978895187378 -0.013898316770792007 -0.066923245787620544 0.031432140618562698 0.009436091408133507 -0.055235616862773895 -0.033984486013650894 0.022870292887091637 0.005593499634414911 -0.009821561165153980 -0.019495861604809761 -0.021245865151286125 -0.030722897499799728 -0.030907955020666122 -0.014429287984967232 0.004667949397116899 -0.044709771871566772 -0.015315790660679340 -0.064125753939151764 0.032478790730237961 -0.041200149804353714 0.023190226405858994 0.024868756532669067 0.063889063894748688 0.046121902763843536 0.000037105946830707 0.036993142217397690 -0.019484018906950951 -0.020618978887796402 0.053871151059865952 0.022206014022231102 -0.054343584924936295 0.060888726264238358 -0.049586892127990723 0.010982325300574303 0.032232411205768585 0.005294700153172016 -0.025590032339096069 0.055615309625864029 -0.021861353889107704 -0.006865658797323704 0.013939714059233665 -0.087835811078548431 0.054462462663650513 -0.021612703800201416 0.024985214695334435 0.043580602854490280 0.047544274479150772 -0.013845779001712799 0.003803842468187213 -0.003552637994289398 0.044508047401905060 0.004007226787507534 0.010865743272006512 0.006876889150589705
