#Layer 3 Biases:
-0.061219379305839539 -0.013787286356091499 -0.022197555750608444 -0.012411546893417835 -0.109196797013282776 -0.051005721092224121 -0.029884738847613335 -0.007426576688885689 0.057366926223039627 0.004755103494971991 -0.030198747292160988 0.046573657542467117 -0.048985321074724197 -0.047495100647211075 0.031455829739570618 -0.072884611785411835 0.057426154613494873 0.023946400731801987 0.076002120971679688 0.072445467114448547 0.048909261822700500 0.025130001828074455 -0.052871182560920715 -0.069842666387557983 -0.062550172209739685 0.043580088764429092 -0.022967020049691200 0.012136302888393402 0.018615875393152237 0.027458056807518005 -0.012229872867465019 -0.027707843109965324 -0.061874371021986008 -0.044782023876905441 -0.008616116829216480 0.041803553700447083 0.095987640321254730 0.023014998063445091 -0.039636421948671341 0.026419036090373993 0.018904184922575951 0.023615008220076561 -0.041846644133329391 0.118315130472183228 -0.032739575952291489 0.059593480080366135 0.056981153786182404 -0.015630898997187614 -0.026210365816950798 0.007461310364305973 0.100074209272861481 -0.038176976144313812 -0.014565911144018173 0.063961803913116455 -0.016169471666216850 -0.023079810664057732 -0.024925738573074341 0.028562610968947411 0.067423567175865173 -0.028523137792944908 -0.036166768521070480 0.021841678768396378 0.004433090332895517 -0.007441137451678514 -0.025852086022496223 0.004893490578979254 -0.033532589673995972 -0.018171593546867371 -0.007802652660757303 0.028451343998312950 -0.002750006038695574 0.008254775777459145 -0.033670183271169662 -0.072010874748229980 -0.068054459989070892 -0.034239724278450012 0.030311355367302895 0.071112416684627533 -0.032049123197793961 -0.065035954117774963 -0.103452764451503754 0.024562980979681015 -0.010945711284875870 -0.057252533733844757 0.006692759227007627 -0.004545328207314014 -0.030675170943140984 0.035322912037372589 -0.054925139993429184 0.018490154296159744 -0.001367745455354452 -0.014112631790339947 -0.025651823729276657 -0.020842129364609718 -0.009400138631463051 -0.023568114265799522 0.033251248300075531 0.061712358146905899 0.036700256168842316 -0.050857752561569214
