#Layer 0 Biases:
0.047635283321142197 0.106037229299545288 -0.103982090950012207 0.138030380010604858 -0.122637748718261719 -0.064748711884021759 -0.084312178194522858 0.116388022899627686 -0.058755677193403244 -0.011141966097056866 0.088317334651947021 -0.170660421252250671 0.005994861479848623 0.064309820532798767 0.047540873289108276 -0.149984925985336304 -0.117130607366561890 0.085592754185199738 0.143242835998535156 -0.117770195007324219 -0.075639568269252777 -0.061552148312330246 0.096419982612133026 -0.087037302553653717 0.068249017000198364 0.029306860640645027 0.060292840003967285 -0.026103394106030464 0.072023160755634308 0.107410609722137451 -0.092717736959457397 0.062631174921989441 -0.081824898719787598 0.117170982062816620 -0.009201322682201862 0.140748515725135803 -0.125671178102493286 0.000528399657923728 0.084934554994106293 -0.079461440443992615 -0.059701304882764816 -0.107341647148132324 0.106862843036651611 -0.081037409603595734 0.022999851033091545 0.185609951615333557 -0.019985588267445564 -0.081358008086681366 0.031585056334733963 0.085919030010700226 0.119951538741588593 0.161277055740356445 -0.143298983573913574 0.012978237122297287 0.128800377249717712 -0.102780245244503021 -0.087347872555255890 0.016007641330361366 0.084984868764877319 -0.069842800498008728 -0.112196549773216248 -0.012961778789758682 0.097240842878818512 0.063220515847206116 0.115410901606082916 0.093049786984920502 0.095318816602230072 0.013880019076168537 -0.003316937014460564 0.112923406064510345 -0.076293066143989563 -0.123431913554668427 0.126384198665618896 0.090908505022525787 0.009055021218955517 0.109110102057456970 -0.110255450010299683 0.059162963181734085 -0.101432524621486664 -0.057247735559940338 0.101555719971656799 -0.096754625439643860 -0.089483417570590973 -0.075439073145389557 -0.033577442169189453 -0.002916048280894756 0.054174855351448059 -0.122794911265373230 0.003296179929748178 -0.071550711989402771 -0.023484446108341217 0.069121114909648895 -0.115758776664733887 -0.094497874379158020 -0.066098511219024658 -0.105174534022808075 0.072823442518711090 -0.013766928575932980 0.145992845296859741 0.019398830831050873
