#Layer 2 Biases:
-0.026367677375674248 0.051261436194181442 0.039563629776239395 -0.005709989927709103 0.077294856309890747 -0.012408876791596413 -0.040856018662452698 0.075408428907394409 0.011709792539477348 0.068307876586914062 0.019564788788557053 0.059286821633577347 -0.066016718745231628 -0.075080022215843201 -0.087845072150230408 0.015467824414372444 -0.019343849271535873 0.012190651148557663 0.005105816293507814 -0.071808151900768280 0.095962636172771454 0.070743843913078308 0.055419206619262695 -0.073436491191387177 0.041341062635183334 0.007765430491417646 0.033941805362701416 0.047194477170705795 0.026304336264729500 -0.072444126009941101 0.013255246914923191 -0.108869791030883789 0.016715144738554955 -0.137927353382110596 0.024320986121892929 -0.067872926592826843 0.023645469918847084 -0.042861033231019974 -0.004278464242815971 -0.005044645629823208 0.033079605549573898 -0.002096212934702635 -0.047619394958019257 -0.091593056917190552 -0.083067424595355988 -0.018767992034554482 0.027626868337392807 -0.013671452179551125 -0.053576976060867310 0.010702905245125294 0.058159168809652328 -0.006092980969697237 -0.070046156644821167 0.008442419581115246 0.006088671274483204 0.019218152388930321 0.022227464243769646 -0.082759141921997070 0.030917793512344360 0.028544101864099503 -0.112770833075046539 0.057011157274246216 -0.034405220299959183 0.041584003716707230 -0.047611977905035019 -0.042428027838468552 0.006521602161228657 -0.045780643820762634 -0.108044847846031189 0.055376023054122925 0.052259061485528946 0.009750814177095890 0.030023436993360519 -0.086497746407985687 -0.092646881937980652 -0.075598239898681641 -0.011474235914647579 0.043884966522455215 0.028197323903441429 -0.037874054163694382 -0.067183755338191986 -0.004742228891700506 -0.012592576444149017 -0.020384225994348526 -0.045301832258701324 0.100610665977001190 0.022746903821825981 0.062474552541971207 -0.072754308581352234 -0.005772666074335575 0.008600873872637749 -0.064860232174396515 -0.034131530672311783 0.030062101781368256 -0.071716614067554474 -0.019771853461861610 0.083538390696048737 -0.125453412532806396 -0.047341112047433853 -0.068678952753543854
