#Layer 7 Biases:
0.021384928375482559 0.035428609699010849 0.028387805446982384 -0.022877655923366547 -0.005479185841977596 0.009667598642408848 -0.004422772675752640 0.000822080241050571 0.010372467339038849 0.015534780919551849 -0.001254710019566119 0.030517794191837311 -0.012517970055341721 -0.014707272872328758 0.026197955012321472 0.011885287240147591 0.036543890833854675 0.033215694129467010 0.022404052317142487 -0.022030403837561607 0.023063912987709045 0.020794976502656937 0.009182061068713665 0.004626912064850330 0.011174526065587997 -0.028565421700477600 -0.013983636163175106 -0.007176546845585108 0.021290048956871033 -0.036482248455286026 0.006174637004733086 0.030450670048594475 0.010088507086038589 -0.003647537901997566 -0.001307269325479865 0.001127124181948602 0.005853240378201008 0.016182264313101768 0.034703973680734634 0.011356002651154995 0.002524325391277671 -0.008141729049384594 0.007923311553895473 -0.012153035961091518 -0.010826336219906807 0.013676163740456104 0.025584958493709564 0.009438138455152512 0.041738051921129227 -0.014620002359151840 -0.005782459396868944 -0.032162565737962723 -0.025722721591591835 0.017769273370504379 -0.020670246332883835 -0.021278040483593941 0.000148849809193052 0.011891560629010201 -0.018531519919633865 0.021296907216310501 0.041299875825643539 0.027257602661848068 -0.028387274593114853 -0.045457195490598679 0.007022786885499954 -0.008174934424459934 0.036845602095127106 -0.012525848113000393 -0.021738892421126366 -0.011593314819037914 0.000780967879109085 0.019015770405530930 0.015922676771879196 -0.041389640420675278 -0.027606295421719551 0.005497633479535580 -0.029534051194787025 0.016352461650967598 0.029734028503298759 0.009428346529603004 -0.010903120040893555 0.028013058006763458 -0.032375808805227280 -0.015380036085844040 -0.016512427479028702 -0.031527481973171234 0.033708788454532623 0.037115778774023056 -0.029425418004393578 0.016316022723913193 -0.013523131608963013 -0.030878826975822449 0.005914370529353619 0.020769745111465454 -0.034219563007354736 -0.008572890423238277 -0.039788581430912018 0.047597270458936691 -0.024118799716234207 -0.002406512852758169
