#Layer 0 Weights:
-0.138691648840904236 -0.120145328342914581 -0.059995319694280624 0.052226733416318893 0.209674760699272156 0.111633442342281342 0.083221212029457092 -0.052519667893648148 -0.082410104572772980 -0.058874033391475677 -0.227981001138687134 -0.030579261481761932 -0.135171249508857727 -0.220318496227264404 -0.025901010259985924 0.033482782542705536 -0.030880298465490341 -0.075698330998420715 -0.066622570157051086 0.028474858030676842 0.309788078069686890 -0.082142874598503113 -0.282792270183563232 0.228213503956794739 -0.025219812989234924 0.181920692324638367 0.014927625656127930 -0.055901065468788147 -0.105786040425300598 -0.155021354556083679 0.241479024291038513 -0.252424865961074829 -0.207163706421852112 -0.012597834691405296 0.232543125748634338 -0.105395339429378510 0.001304495963267982 0.246410638093948364 -0.256491631269454956 0.226784899830818176 0.252312213182449341 -0.045436438173055649 -0.129467427730560303 0.180590152740478516 -0.303853183984756470 -0.109679505228996277 -0.069466799497604370 0.121552221477031708 -0.048148568719625473 -0.174114271998405457 -0.100702978670597076 0.029302647337317467 0.048958823084831238 0.163924932479858398 -0.253103405237197876 0.197900876402854919 0.048155277967453003 -0.183606594800949097 -0.195710316300392151 0.268937021493911743 0.219345480203628540 -0.138685718178749084 -0.164863988757133484 -0.227430507540702820 -0.110215283930301666 -0.202727437019348145 -0.086513623595237732 -0.255745708942413330 0.181310683488845825 0.132977575063705444 -0.202448174357414246 0.068390265107154846 -0.161040365695953369 0.188078343868255615 0.087126664817333221 0.102460458874702454 0.192620128393173218 -0.153410837054252625 0.060072593390941620 0.183566123247146606 -0.094605006277561188 -0.136930555105209351 0.211610928177833557 -0.103956937789916992 -0.171735122799873352 0.038007624447345734 -0.259811788797378540 0.063229687511920929 -0.176809400320053101 0.124019958078861237 -0.227319762110710144 -0.274410098791122437 -0.075693510472774506 0.212985932826995850 -0.004244369454681873 0.182733938097953796 -0.050322417169809341 -0.149007424712181091 -0.039704639464616776 -0.162606000900268555
0.074902378022670746 -0.066538713872432709 0.121766023337841034 -0.147516161203384399 0.102786809206008911 -0.038408640772104263 0.045918107032775879 -0.103106938302516937 0.108262129127979279 0.019264945760369301 0.079640440642833710 0.134886533021926880 0.068701937794685364 0.141697809100151062 -0.042256556451320648 0.157055184245109558 0.092819035053253174 -0.109179534018039703 -0.109548009932041168 0.115204103291034698 -0.258540242910385132 0.143440589308738708 0.194430351257324219 -0.099878400564193726 -0.048585537821054459 0.085145249962806702 0.070524334907531738 0.032272316515445709 -0.113682754337787628 0.051198650151491165 0.000711423810571432 0.191608890891075134 0.233775645494461060 -0.127802461385726929 -0.186275854706764221 -0.023995196446776390 0.119950398802757263 -0.269836813211441040 0.070843324065208435 0.036369919776916504 -0.200904548168182373 0.114567250013351440 -0.043212067335844040 -0.058910455554723740 0.294579476118087769 -0.028067350387573242 -0.031899236142635345 -0.033586315810680389 -0.052234575152397156 -0.002145421924069524 -0.036104787141084671 -0.171110957860946655 0.045607656240463257 0.131125286221504211 -0.044321887195110321 -0.044782359153032303 0.150366067886352539 0.125861033797264099 0.095772527158260345 -0.067592367529869080 0.015222912654280663 0.110356435179710388 -0.052352350205183029 0.086275964975357056 -0.021038159728050232 0.029438670724630356 -0.031479664146900177 0.121735155582427979 -0.186143621802330017 -0.202256217598915100 -0.174652740359306335 0.130082637071609497 -0.052618712186813354 -0.230032935738563538 0.007611794397234917 -0.172644689679145813 0.037407357245683670 0.068264737725257874 0.079230025410652161 -0.112965218722820282 -0.010115858167409897 0.200493916869163513 -0.082114249467849731 0.133231341838836670 0.173422232270240784 0.016028113663196564 0.208758831024169922 0.160485953092575073 0.154551312327384949 0.010957946069538593 0.223910033702850342 0.180067718029022217 0.152889505028724670 -0.043469339609146118 0.058880493044853210 0.019387489184737206 0.071187064051628113 0.172749295830726624 -0.102845534682273865 0.165045246481895447
