#Layer 6 Weights:
0.250670820474624634 0.140143245458602905 0.150546342134475708 0.114273332059383392 0.237881928682327271 0.159615278244018555 -0.124923236668109894 -0.142174094915390015 -0.023317163810133934 0.189587786793708801 0.077853038907051086 -0.124401926994323730 -0.192205995321273804 0.112046599388122559 -0.100390896201133728 0.126991793513298035 0.121347539126873016 -0.052607107907533646 0.145955651998519897 0.012334544211626053 -0.132623717188835144 -0.123551174998283386 -0.053095847368240356 -0.158819779753684998 -0.065625108778476715 0.106439650058746338 -0.217026993632316589 0.138494729995727539 -0.023998523131012917 0.137519940733909607 -0.029149115085601807 0.011506660841405392 0.023633411154150963 0.121957980096340179 0.091458566486835480 0.033473245799541473 0.100865006446838379 -0.165042251348495483 0.064534246921539307 0.123524136841297150 -0.074642114341259003 0.179395332932472229 -0.051571637392044067 0.112372361123561859 0.263558030128479004 -0.041760489344596863 -0.004152873530983925 0.154151946306228638 -0.085310213267803192 -0.007975909858942032 -0.291966199874877930 0.030949719250202179 -0.062100797891616821 -0.038948919624090195 0.055063407868146896 -0.138647571206092834 0.021728746592998505 -0.030742069706320763 0.181626290082931519 -0.109405174851417542 0.084424488246440887 0.039966844022274017 -0.085999041795730591 0.084978505969047546 -0.082711763679981232 -0.040357496589422226 -0.154967188835144043 -0.170884251594543457 -0.121541462838649750 -0.169033795595169067 0.072177417576313019 -0.267120152711868286 -0.187248855829238892 0.303857147693634033 -0.085610561072826385 -0.234393060207366943 0.180616602301597595 -0.050580944865942001 0.078484274446964264 0.023694101721048355 0.108671300113201141 0.173180148005485535 -0.105533197522163391 -0.148095443844795227 -0.240137338638305664 0.080633878707885742 -0.165731042623519897 0.427624583244323730 -0.040178533643484116 -0.034225448966026306 0.122940815985202789 0.142048567533493042 0.105471119284629822 0.053548842668533325 0.074051648378372192 -0.052502725273370743 -0.076150543987751007 -0.016873791813850403 -0.065366826951503754 -0.163762509822845459
0.001875831163488328 0.024696582928299904 0.161277234554290771 0.164003208279609680 0.082364350557327271 -0.025490736588835716 -0.003536717034876347 -0.202521428465843201 0.013538159430027008 -0.150730326771736145 0.071135558187961578 0.108269721269607544 0.101344637572765350 -0.016626898199319839 0.071394309401512146 0.098058275878429413 -0.064338773488998413 0.145370513200759888 0.021584063768386841 0.175075054168701172 -0.158997654914855957 0.088765926659107208 -0.056799419224262238 0.127395778894424438 0.039884284138679504 0.185038164258003235 0.161184236407279968 -0.033037044107913971 0.173018380999565125 -0.062914274632930756 0.013450657017529011 -0.116583630442619324 -0.176256343722343445 -0.007030657492578030 -0.015119675546884537 0.021224956959486008 0.092591270804405212 0.111997723579406738 -0.075810596346855164 -0.181760072708129883 -0.021857680752873421 -0.071032784879207611 -0.034152168780565262 -0.204993203282356262 -0.073207922279834747 0.050227027386426926 0.007104979828000069 0.181215703487396240 -0.100513637065887451 -0.122036725282669067 -0.204695507884025574 0.128417417407035828 -0.055724781006574631 -0.016348468139767647 -0.129350438714027405 0.269874900579452515 0.067261345684528351 -0.042128641158342361 -0.109937004745006561 0.174676343798637390 -0.131384477019309998 0.143387660384178162 0.061669483780860901 -0.010866221971809864 -0.114372625946998596 0.201228544116020203 0.062981471419334412 0.005675365217030048 -0.152413904666900635 -0.160031005740165710 0.100099787116050720 -0.094556689262390137 0.161174446344375610 0.094121612608432770 0.011889439076185226 -0.159736260771751404 0.162891432642936707 -0.097966887056827545 0.046050243079662323 0.080312669277191162 -0.159705385565757751 -0.071146287024021149 -0.009738135151565075 -0.123792983591556549 0.097010172903537750 0.164976015686988831 0.067753873765468597 -0.130166411399841309 -0.031885586678981781 0.111692175269126892 -0.070220477879047394 0.023804318159818649 -0.115338809788227081 -0.144074812531471252 -0.091656677424907684 0.106697961688041687 0.098224923014640808 0.066727437078952789 -0.073017142713069916 -0.127518221735954285
0.157949805259704590 -0.029032321646809578 0.009233132936060429 -0.010145136155188084 -0.047356724739074707 -0.040535096079111099 -0.087224751710891724 0.031843718141317368 0.131177484989166260 0.190844982862472534 -0.044158324599266052 0.164152041077613831 0.189135223627090454 -0.160291403532028198 0.016065673902630806 -0.036858528852462769 0.045605935156345367 -0.006033434066921473 0.158089205622673035 -0.158362597227096558 0.169298574328422546 0.204136103391647339 -0.269080996513366699 -0.174603670835494995 0.026461996138095856 -0.040847674012184143 -0.019134936854243279 -0.100657545030117035 -0.104875355958938599 0.133854687213897705 0.129378661513328552 0.211952894926071167 0.095203936100006104 0.180682078003883362 0.065251953899860382 -0.109616294503211975 -0.023244010284543037 -0.094974264502525330 0.136319667100906372 0.131232500076293945 -0.016612634062767029 0.128367125988006592 -0.022606471553444862 0.023172760382294655 0.098385095596313477 0.010495831258594990 0.069659657776355743 -0.087454989552497864 0.018470635637640953 -0.114240199327468872 -0.031020702794194221 -0.160311266779899597 0.059016939252614975 0.005384992808103561 0.100617542862892151 -0.017507135868072510 -0.042541828006505966 0.135517284274101257 -0.237990126013755798 -0.177876114845275879 0.053630612790584564 -0.108084291219711304 0.011740745045244694 -0.146286115050315857 -0.067955099046230316 -0.113613359630107880 0.095684267580509186 -0.099633194506168365 0.041049182415008545 -0.130181834101676941 0.090885490179061890 0.159629911184310913 -0.204564422369003296 0.156389683485031128 0.006271154619753361 0.019249647855758667 0.065556019544601440 0.088914252817630768 0.075401514768600464 -0.031963985413312912 0.197188213467597961 -0.021001216024160385 -0.034025158733129501 -0.093733645975589752 -0.317903012037277222 -0.129238933324813843 -0.031083863228559494 -0.073052935302257538 -0.041873466223478317 -0.015867423266172409 -0.101530209183692932 -0.052889510989189148 -0.098903276026248932 0.008225725963711739 0.119593374431133270 -0.178726091980934143 0.115414530038833618 -0.028491849079728127 0.114587552845478058 -0.143617376685142517
0.110702775418758392 0.096036784350872040 0.092866212129592896 -0.010488064959645271 0.143390759825706482 0.091883815824985504 -0.107392534613609314 0.101635918021202087 -0.113386049866676331 0.168032377958297729 0.077043682336807251 -0.140314117074012756 0.162122353911399841 0.038471192121505737 0.150441184639930725 -0.140340372920036316 0.187657028436660767 0.097840920090675354 0.045522723346948624 -0.244654104113578796 0.123527728021144867 0.105333939194679260 -0.064198121428489685 0.089937478303909302 0.010693790391087532 0.122058846056461334 0.109522506594657898 -0.008357709273695946 -0.140156954526901245 0.052258361130952835 -0.164498180150985718 -0.070309922099113464 0.087416745722293854 -0.052430782467126846 -0.243935585021972656 -0.337811768054962158 -0.069710470736026764 -0.105442866683006287 0.165492311120033264 0.020809333771467209 -0.015695367008447647 -0.169473454356193542 0.161946386098861694 0.037816591560840607 -0.085406154394149780 0.002576365135610104 -0.097102597355842590 -0.062267336994409561 -0.174664407968521118 -0.040456492453813553 -0.100877255201339722 -0.149332553148269653 0.175454616546630859 0.128679752349853516 -0.834924042224884033 0.031282298266887665 -0.026477396488189697 0.134862989187240601 -0.158845260739326477 -0.002544685732573271 0.036987584084272385 0.039286859333515167 -0.189282134175300598 -0.037490613758563995 0.057436067610979080 -0.001352316467091441 -0.168829262256622314 -0.024397077038884163 0.062123864889144897 -0.105211421847343445 -0.123748831450939178 -0.073267228901386261 -0.116315834224224091 0.205179259181022644 -0.161376193165779114 0.124875850975513458 0.134308636188507080 0.043834306299686432 0.142015025019645691 0.048104479908943176 0.154178857803344727 0.054860670119524002 -0.049899008125066757 0.115752376616001129 -0.114999912679195404 -0.028899366036057472 -0.030676512047648430 0.188902944326400757 0.009121591225266457 -0.160652950406074524 0.138935714960098267 0.023407142609357834 -0.135531008243560791 -0.126731067895889282 0.072283186018466949 -0.170081332325935364 0.090592242777347565 -0.009580794721841812 0.027640173211693764 -0.141276285052299500
-0.111129634082317352 0.058291494846343994 -0.129769787192344666 0.069559283554553986 0.175612866878509521 0.082565248012542725 -0.160316050052642822 -0.089638262987136841 -0.056394178420305252 -0.177156031131744385 -0.057548541575670242 -0.097551010549068451 0.061725765466690063 -0.062077566981315613 0.121905826032161713 0.047294739633798599 0.148558035492897034 -0.079466283321380615 0.047943159937858582 0.051691815257072449 0.090531967580318451 -0.107053093612194061 0.069092608988285065 0.093883045017719269 -0.083542317152023315 0.051660198718309402 -0.166552901268005371 0.110721454024314880 -0.138414055109024048 -0.043438773602247238 0.075250178575515747 -0.060144349932670593 0.066661618649959564 -0.150322422385215759 -0.123764313757419586 0.137701094150543213 0.077452622354030609 -0.040713917464017868 -0.142815962433815002 -0.084677919745445251 -0.009740651585161686 0.064526408910751343 0.045738000422716141 -0.096213892102241516 -0.124047622084617615 0.149801388382911682 -0.109039440751075745 0.099367603659629822 0.109004363417625427 0.008339030668139458 0.218918398022651672 -0.180010497570037842 0.014762936159968376 -0.179667517542839050 -0.087623491883277893 -0.057674575597047806 0.030353641137480736 0.173548504710197449 -0.086013048887252808 -0.088931627571582794 -0.133693471550941467 0.097191303968429565 0.166772991418838501 -0.072189725935459137 0.074353322386741638 -0.155328124761581421 0.053419508039951324 0.196755439043045044 -0.122232697904109955 -0.001331858919002116 0.120859973132610321 0.102660544216632843 -0.082751356065273285 -0.058742180466651917 0.067604191601276398 -0.080014750361442566 0.002556907245889306 -0.066793158650398254 -0.011338214389979839 0.071833834052085876 -0.142718032002449036 -0.106203652918338776 -0.038953732699155807 -0.018440036103129387 0.193296864628791809 -0.061325743794441223 0.043165661394596100 0.093054257333278656 -0.041856739670038223 -0.060647260397672653 -0.140966877341270447 0.060936123132705688 -0.097968369722366333 -0.080922335386276245 0.128192886710166931 0.012775138020515442 -0.039821814745664597 0.149919643998146057 0.211706578731536865 0.046783175319433212
0.083396106958389282 0.009603130631148815 0.147784978151321411 0.018791604787111282 0.159307926893234253 -0.132607430219650269 -0.024494711309671402 -0.135406628251075745 -0.057136062532663345 0.226860314607620239 -0.010266336612403393 0.031280796974897385 0.164524063467979431 0.095463670790195465 0.142207235097885132 0.149436727166175842 -0.065408028662204742 -0.131144404411315918 -0.011320665478706360 -0.170908764004707336 -0.067082896828651428 0.110651917755603790 0.089850626885890961 0.224456518888473511 0.215048179030418396 -0.109203480184078217 0.035004138946533203 -0.019299857318401337 -0.024550409987568855 -0.171053886413574219 0.096574522554874420 -0.079717755317687988 -0.076710216701030731 0.103492349386215210 0.153346806764602661 -0.214520186185836792 -0.187822043895721436 0.035886850208044052 -0.085348457098007202 0.131663620471954346 -0.088844723999500275 0.137529030442237854 -0.131695568561553955 0.257485479116439819 0.142932504415512085 -0.086319223046302795 0.161030381917953491 0.144982144236564636 0.109406307339668274 -0.118541799485683441 -0.010468006134033203 -0.056756868958473206 0.124204568564891815 0.127425163984298706 -0.011376825161278248 -0.124437481164932251 0.113943368196487427 0.105907015502452850 -0.086051099002361298 -0.099648892879486084 -0.127702519297599792 0.099253170192241669 -0.103521510958671570 0.202640891075134277 0.051347889006137848 0.174433022737503052 0.033525213599205017 0.054141312837600708 -0.092998556792736053 -0.002899167360737920 -0.009521417319774628 -0.003792754840105772 -0.141182109713554382 0.120265558362007141 -0.046801257878541946 0.019731905311346054 0.073905400931835175 0.187558367848396301 0.098744675517082214 0.088601164519786835 -0.109927020967006683 0.135563731193542480 0.022936519235372543 0.080128468573093414 -0.413551211357116699 0.028300825506448746 0.037209618836641312 0.116736687719821930 0.031493503600358963 -0.191354542970657349 0.013341275975108147 0.035298723727464676 -0.170691668987274170 0.053621329367160797 -0.082950748503208160 -0.110797487199306488 0.163159057497978210 -0.140437647700309753 -0.200240492820739746 0.082032993435859680
0.008180648088455200 -0.211893960833549500 0.376624435186386108 -0.024428622797131538 -0.055942162871360779 0.110906682908535004 0.091209225356578827 0.142092451453208923 -0.005833300296217203 0.160215795040130615 -0.141951948404312134 -0.018001839518547058 0.076910413801670074 0.232462078332901001 0.037591338157653809 -0.006243617273867130 -0.079729102551937103 -0.021462999284267426 -0.175902292132377625 0.083640880882740021 0.090667046606540680 0.132076904177665710 0.165402248501777649 0.024015583097934723 0.480177581310272217 0.004750833380967379 0.161269500851631165 0.047629021108150482 -0.035695962607860565 -0.130358695983886719 -0.008753937669098377 -0.052655111998319626 -0.157077848911285400 -0.065218836069107056 0.021677877753973007 0.049049455672502518 -0.097056679427623749 0.071879513561725616 -0.107066176831722260 -0.090877614915370941 -0.076197706162929535 0.197485968470573425 -0.067557305097579956 0.276858717203140259 0.127728760242462158 0.038464184850454330 0.207028120756149292 0.081287883222103119 -0.004765995312482119 -0.118330650031566620 -0.563540518283843994 0.129349440336227417 -0.182769104838371277 0.026116682216525078 0.061302471905946732 0.000928368419408798 0.205281645059585571 0.067877545952796936 -0.115672089159488678 0.167761862277984619 -0.042696084827184677 0.153729751706123352 0.154632002115249634 0.065871551632881165 0.059640668332576752 0.194132715463638306 -0.133151978254318237 0.080340862274169922 -0.050883382558822632 0.022510269656777382 0.169283092021942139 -0.115096434950828552 0.164806336164474487 -0.075756609439849854 -0.087452128529548645 -0.172045350074768066 -0.066485993564128876 -0.033851627260446548 0.116245508193969727 -0.009166351519525051 -0.173550188541412354 -0.078068584203720093 0.107378445565700531 0.035068918019533157 0.064235568046569824 -0.116610556840896606 -0.003127354197204113 0.199779212474822998 -0.067943587899208069 -0.080348923802375793 -0.096662119030952454 0.068035759031772614 0.053285576403141022 -0.118122793734073639 -0.071571983397006989 -0.100671961903572083 0.003368100151419640 0.029615815728902817 -0.246838405728340149 -0.007304170168936253
0.031978461891412735 0.128049343824386597 0.146373271942138672 0.164878547191619873 -0.051353659480810165 -0.097662538290023804 -0.130779087543487549 0.039604805409908295 -0.185433074831962585 0.176844120025634766 0.030808001756668091 -0.137059554457664490 0.150487154722213745 -0.114157058298587799 -0.026573367416858673 0.108715966343879700 -0.222627386450767517 -0.037303056567907333 0.010450449772179127 -0.061379037797451019 -0.170793682336807251 -0.181275427341461182 -0.108728818595409393 0.130523204803466797 0.043489977717399597 -0.036502595990896225 -0.079282857477664948 0.032100420445203781 -0.004029442090541124 0.163650572299957275 0.068440429866313934 0.003191004507243633 0.042337279766798019 0.065579339861869812 0.035952199250459671 -0.117126338183879852 -0.046999547630548477 -0.190965116024017334 0.135941177606582642 -0.109802730381488800 0.057874035090208054 0.157672911882400513 0.155012339353561401 -0.171660825610160828 -0.085121758282184601 -0.143350958824157715 -0.078458502888679504 0.025517839938402176 0.026773419231176376 -0.067696072161197662 -0.096834279596805573 -0.135523498058319092 -0.092040143907070160 0.013555324636399746 -0.049417436122894287 -0.002054210519418120 -0.110325589776039124 0.170975819230079651 -0.043937850743532181 -0.133008152246475220 -0.032470248639583588 0.059773463755846024 -0.004742269869893789 -0.130075365304946899 -0.076421998441219330 0.026651818305253983 -0.081825211644172668 -0.037158291786909103 -0.113863095641136169 -0.043742109090089798 -0.017613187432289124 -0.224549591541290283 -0.016497714444994926 0.084801450371742249 -0.010399100370705128 -0.114104650914669037 -0.068792939186096191 -0.123283714056015015 0.192740380764007568 0.153986752033233643 0.044547565281391144 -0.166007325053215027 0.055178403854370117 -0.096484221518039703 0.105246633291244507 0.183813095092773438 -0.140915766358375549 0.313042312860488892 0.053372245281934738 0.099684685468673706 -0.092257194221019745 0.115140244364738464 -0.015005199238657951 -0.108829505741596222 -0.148806244134902954 0.085641272366046906 -0.070227734744548798 0.126788467168807983 0.100166715681552887 0.078265100717544556
-0.118951790034770966 0.013491510413587093 -0.184475541114807129 -0.087386049330234528 0.034425344318151474 -0.065885372459888458 -0.014132849872112274 0.031827006489038467 0.004937472287565470 0.035231821238994598 -0.127932518720626831 0.018762744963169098 0.063662059605121613 0.128634274005889893 -0.105929739773273468 -0.089223906397819519 -0.072062171995639801 -0.188901364803314209 -0.046617519110441208 -0.060371842235326767 0.139220297336578369 -0.037594199180603027 0.128407076001167297 0.025743143633008003 0.030709017068147659 -0.027832329273223877 0.141442298889160156 0.145504519343376160 0.039510246366262436 -0.034476973116397858 -0.034788548946380615 -0.026722582057118416 -0.139996647834777832 0.071668088436126709 -0.086071088910102844 -0.072635598480701447 0.052617538720369339 0.097973719239234924 0.034978635609149933 -0.081982418894767761 0.097025021910667419 -0.116188958287239075 -0.120429687201976776 -0.167308568954467773 -0.078220121562480927 -0.127905473113059998 -0.144118532538414001 -0.030804371461272240 -0.058733664453029633 -0.133015528321266174 0.224756136536598206 -0.016640992835164070 -0.114817209541797638 -0.071317717432975769 -0.148466512560844421 0.047298222780227661 0.035536374896764755 -0.021074034273624420 -0.129271566867828369 -0.151561632752418518 0.116716220974922180 -0.157654643058776855 0.023147763684391975 0.072694152593612671 -0.105619229376316071 -0.192845076322555542 0.010434549301862717 0.020112190395593643 -0.086305841803550720 -0.124096207320690155 -0.057126089930534363 -0.064139023423194885 -0.085705183446407318 -0.082673422992229462 -0.046843662858009338 0.029049713164567947 0.157387658953666687 0.097862452268600464 0.150071427226066589 0.148786038160324097 -0.044229540973901749 -0.141556903719902039 0.039379294961690903 0.178105339407920837 0.110609181225299835 0.099766284227371216 0.096331000328063965 -0.101115129888057709 0.136769458651542664 0.059737887233495712 0.117935687303543091 0.113879576325416565 -0.117622360587120056 -0.093096256256103516 0.101973898708820343 0.099155709147453308 0.114249289035797119 -0.008086031302809715 0.059201791882514954 0.123330280184745789
-0.080678358674049377 0.026247320696711540 -0.241259232163429260 0.067051306366920471 0.087213568389415741 0.134161770343780518 0.108612410724163055 -0.112698495388031006 0.039713051170110703 -0.185299560427665710 0.045275874435901642 -0.147828459739685059 -0.022724008187651634 -0.116987213492393494 0.031538877636194229 -0.119099549949169159 0.051574494689702988 0.070280469954013824 0.151723146438598633 -0.133200690150260925 0.090659268200397491 -0.028885390609502792 -0.008940858766436577 -0.011407873593270779 -0.058871291577816010 -0.018013983964920044 -0.086096577346324921 0.124563008546829224 -0.139966085553169250 0.114999994635581970 -0.065899945795536041 0.089172765612602234 0.146109744906425476 0.086312636733055115 -0.066466979682445526 -0.153805464506149292 -0.167775332927703857 -0.157246813178062439 0.183621466159820557 0.027998087927699089 0.190498575568199158 -0.094853624701499939 0.028451867401599884 -0.138318166136741638 0.092373773455619812 0.145132899284362793 -0.017351677641272545 -0.029733529314398766 0.075320877134799957 -0.056433487683534622 -0.018285211175680161 -0.184263855218887329 0.147961348295211792 0.172345146536827087 -0.115570485591888428 -0.016381261870265007 -0.076831780374050140 0.132160246372222900 -0.120126634836196899 0.166500404477119446 0.106081955134868622 -0.124700732529163361 -0.166679516434669495 -0.179067149758338928 -0.137630447745323181 -0.166606515645980835 -0.011424519121646881 0.011612927541136742 0.136931851506233215 0.144445165991783142 -0.156253188848495483 -0.126760706305503845 0.099565438926219940 -0.081613510847091675 -0.057851053774356842 -0.127804696559906006 0.241165935993194580 -0.076515063643455505 0.035475458949804306 0.127964854240417480 0.148765206336975098 -0.008626623079180717 -0.020681768655776978 0.185495555400848389 0.045960642397403717 -0.177378997206687927 -0.092414349317550659 -0.087935961782932281 0.005090591497719288 0.082243502140045166 0.206456080079078674 -0.032605320215225220 0.041275572031736374 -0.138191953301429749 0.101297497749328613 -0.152876779437065125 0.094002000987529755 0.043964628130197525 -0.048199545592069626 0.155956760048866272
0.194414943456649780 -0.094753287732601166 -0.264859110116958618 -0.077320620417594910 0.173264726996421814 0.143055394291877747 0.141953721642494202 0.047057807445526123 0.203830465674400330 -0.074647136032581329 0.138560652732849121 0.133125334978103638 0.161025613546371460 -0.093332700431346893 0.139321938157081604 -0.037190396338701248 0.106555052101612091 -0.159735813736915588 0.007918540388345718 -0.196797922253608704 -0.085396692156791687 0.110362388193607330 0.044969595968723297 -0.134760648012161255 -0.047928936779499054 -0.023911477997899055 -0.041972976177930832 -0.080661691725254059 0.034837789833545685 -0.013943496160209179 0.035582922399044037 0.023493755608797073 -0.024584252387285233 -0.014430246315896511 0.145653814077377319 -0.303678959608078003 -0.182229831814765930 -0.121112808585166931 0.181173965334892273 0.007954617962241173 0.101041033864021301 -0.123023778200149536 0.051406081765890121 -0.156517371535301208 -0.145916447043418884 0.083227694034576416 -0.005214609671384096 -0.159754037857055664 -0.229593679308891296 0.031571414321660995 0.230553105473518372 -0.177108064293861389 -0.120517328381538391 0.061391554772853851 -0.181030213832855225 -0.174084544181823730 -0.026175884529948235 -0.039221338927745819 0.107801720499992371 -0.131108045578002930 -0.060633420944213867 0.019632324576377869 -0.146103352308273315 -0.145547434687614441 0.109128549695014954 -0.094661571085453033 0.002949761226773262 0.052050482481718063 0.197073355317115784 -0.099688299000263214 -0.001976190600544214 0.102475158870220184 0.166982606053352356 0.000382619939045981 -0.165274888277053833 -0.132840797305107117 0.148469075560569763 0.126189664006233215 -0.119868323206901550 -0.117641702294349670 0.211117997765541077 -0.101051814854145050 0.066267035901546478 0.135498106479644775 -0.173443704843521118 -0.071710392832756042 0.029537647962570190 -0.150833144783973694 0.064457938075065613 0.036153521388769150 0.218980222940444946 -0.080977566540241241 0.113230854272842407 -0.112487375736236572 -0.038091570138931274 -0.179596617817878723 -0.012484586797654629 -0.159117296338081360 0.246001869440078735 -0.065759427845478058
0.077830120921134949 0.076956629753112793 0.118826448917388916 -0.069032691419124603 -0.109712876379489899 0.180207476019859314 -0.121527001261711121 -0.028993777930736542 -0.016562646254897118 -0.068929113447666168 0.146173313260078430 0.001804865896701813 0.120018191635608673 0.163583070039749146 -0.066472053527832031 0.058273449540138245 -0.199848532676696777 0.041065312922000885 0.083320364356040955 0.183543130755424500 0.110997162759304047 -0.093173973262310028 0.111285500228404999 -0.099926322698593140 -0.089688599109649658 -0.014221208170056343 0.180000513792037964 -0.009832597337663174 0.187168002128601074 -0.040782433003187180 0.185619160532951355 -0.142145067453384399 -0.091577827930450439 -0.050167936831712723 0.134985804557800293 0.224281638860702515 -0.020489536225795746 0.049892429262399673 -0.153566434979438782 -0.056899458169937134 0.045590378344058990 0.058114774525165558 0.132424175739288330 0.092360049486160278 0.042553715407848358 -0.079883031547069550 0.069316215813159943 0.080673791468143463 0.054359674453735352 0.032485410571098328 -0.222159072756767273 -0.109858676791191101 -0.085959963500499725 -0.257326811552047729 0.490689933300018311 0.253455877304077148 -0.138856351375579834 0.070941306650638580 0.118082277476787567 0.099626421928405762 -0.104953803122043610 -0.106241442263126373 0.166078254580497742 -0.001612167339771986 -0.042360395193099976 0.118810027837753296 0.115011833608150482 -0.133563235402107239 0.057182777673006058 0.048179015517234802 0.093758367002010345 0.176641479134559631 -0.088449403643608093 -0.109444640576839447 0.122276499867439270 0.026560969650745392 -0.249418228864669800 0.161620348691940308 0.038304481655359268 -0.046712487936019897 -0.158323839306831360 -0.178527086973190308 -0.077464811503887177 0.043724626302719116 -0.073052011430263519 0.082166254520416260 -0.115940660238265991 0.105785615742206573 -0.085329234600067139 -0.107542797923088074 0.012192317284643650 -0.157609418034553528 0.009311863221228123 -0.139758855104446411 0.054913304746150970 0.109243646264076233 0.036611098796129227 0.078772857785224915 -0.079060807824134827 -0.056698139756917953
0.117839999496936798 -0.162754341959953308 0.295556604862213135 -0.071469098329544067 -0.208984076976776123 -0.133952543139457703 0.076748646795749664 0.036443371325731277 0.162337973713874817 -0.079678028821945190 0.035470411181449890 0.158193364739418030 0.044791206717491150 -0.143949553370475769 0.087085023522377014 0.012680882588028908 -0.184438854455947876 -0.156376332044601440 0.082707263529300690 -0.186828970909118652 0.047012891620397568 0.014737998135387897 -0.084159083664417267 0.056479107588529587 -0.119138829410076141 -0.140318006277084351 0.077543459832668304 -0.079938307404518127 -0.068123064935207367 -0.020335962995886803 -0.122244708240032196 0.059624601155519485 0.068059444427490234 0.112219944596290588 0.044897269457578659 0.315147101879119873 0.133932992815971375 0.062846399843692780 -0.002051137853413820 -0.013605266809463501 -0.061207439750432968 -0.118273712694644928 -0.180753439664840698 -0.102397941052913666 -0.021509308367967606 0.010214352048933506 -0.061847649514675140 -0.183801621198654175 -0.029526460915803909 -0.017798786982893944 -0.061741460114717484 0.003066835924983025 0.133880674839019775 -0.128817096352577209 0.040937267243862152 0.091305412352085114 -0.128245115280151367 -0.025760641321539879 -0.066017962992191315 -0.195356428623199463 -0.131568744778633118 0.075258791446685791 0.162528976798057556 0.053589500486850739 -0.065421737730503082 0.182786300778388977 -0.129133254289627075 -0.070576973259449005 -0.022456454113125801 -0.139385342597961426 0.141241371631622314 -0.160086035728454590 0.156237706542015076 -0.036788742989301682 -0.012997778132557869 0.137416616082191467 -0.178747206926345825 -0.103187315165996552 0.087151221930980682 -0.074629098176956177 -0.019288823008537292 -0.103412166237831116 -0.007927938364446163 -0.101013518869876862 0.231905177235603333 0.212231636047363281 -0.046847339719533920 -0.110523521900177002 0.247142538428306580 -0.048850782215595245 -0.162718132138252258 -0.002483112970367074 -0.053096927702426910 0.066292092204093933 -0.127871334552764893 0.089575655758380890 0.123091205954551697 0.111436106264591217 0.038107391446828842 0.033345181494951248
0.105749487876892090 0.101164989173412323 -0.174888789653778076 0.096327699720859528 -0.080651976168155670 -0.144132971763610840 0.008705398067831993 0.147785067558288574 -0.142846941947937012 -0.033946905285120010 0.027497475966811180 0.161594703793525696 -0.001525509636849165 0.057326715439558029 0.118965730071067810 0.037069227546453476 0.113669939339160919 -0.039035771042108536 0.029976148158311844 0.012801719829440117 0.118908055126667023 -0.114087209105491638 -0.102891854941844940 -0.079985536634922028 -0.103630796074867249 -0.199206218123435974 -0.034173604100942612 0.004847655538469553 0.132370218634605408 0.131333678960800171 0.013436925597488880 0.154904991388320923 0.017007229849696159 -0.053283281624317169 0.054050710052251816 -0.008431808091700077 -0.135601580142974854 -0.069827675819396973 -0.116331867873668671 -0.084268927574157715 0.024125874042510986 -0.046604953706264496 0.002018664265051484 -0.029527317732572556 0.180917233228683472 -0.042683206498622894 -0.115101993083953857 -0.124164469540119171 -0.113797567784786224 0.039352972060441971 0.128571242094039917 -0.121683940291404724 -0.026335895061492920 0.171894162893295288 -0.154230907559394836 -0.013559267856180668 0.083452813327312469 -0.077669978141784668 0.126636177301406860 -0.150531634688377380 0.038025382906198502 0.123752795159816742 -0.071425601840019226 -0.054461099207401276 0.091070003807544708 -0.104575082659721375 0.139151632785797119 0.041079141199588776 -0.019084777683019638 0.178031861782073975 -0.200626462697982788 0.079516977071762085 0.060098975896835327 0.046625606715679169 0.086079761385917664 0.060259710997343063 -0.100644841790199280 0.170266866683959961 0.108739688992500305 -0.173865944147109985 0.026744415983557701 0.188044533133506775 0.072812221944332123 0.179175719618797302 -0.177719131112098694 0.083459943532943726 0.102550946176052094 -0.068693332374095917 -0.110901169478893280 -0.015870282426476479 0.124003008008003235 0.166417598724365234 -0.024554407224059105 0.164554640650749207 -0.042862821370363235 -0.157251253724098206 0.181560531258583069 -0.043655022978782654 0.153329983353614807 -0.059014227241277695
0.041269663721323013 0.062835782766342163 0.036357980221509933 -0.210651010274887085 -0.092905156314373016 -0.145248547196388245 0.163171187043190002 0.024271186441183090 -0.077879928052425385 0.041980452835559845 -0.077769190073013306 -0.059786461293697357 -0.087257392704486847 0.102587647736072540 0.153527706861495972 -0.020916193723678589 0.064070560038089752 0.032263789325952530 0.134952545166015625 -0.275130063295364380 0.146574184298515320 0.010178728960454464 -0.179197818040847778 -0.011734432540833950 -0.084140077233314514 -0.043313749134540558 -0.062491804361343384 -0.080624036490917206 0.076573230326175690 -0.018207898363471031 -0.036193385720252991 -0.079257063567638397 -0.031753856688737869 -0.116545192897319794 0.222943514585494995 -0.336866170167922974 -0.112957067787647247 -0.257743328809738159 0.073270276188850403 -0.151105299592018127 0.215002894401550293 -0.119401663541793823 -0.160191625356674194 0.249839574098587036 0.177471771836280823 -0.126423567533493042 -0.136807397007942200 -0.151643633842468262 -0.230408504605293274 -0.149255603551864624 0.180587664246559143 -0.106202863156795502 0.120310790836811066 0.181860893964767456 -0.682313382625579834 -0.110753864049911499 -0.120127283036708832 -0.100511193275451660 0.012726944871246815 -0.000106354615127202 0.157089158892631531 -0.093949198722839355 0.122272916138172150 -0.059432867914438248 -0.145606771111488342 0.087380193173885345 -0.100941874086856842 0.079852737486362457 -0.095038637518882751 0.011052892543375492 0.098567865788936615 0.047299649566411972 0.096300512552261353 -0.082062549889087677 -0.123086072504520416 -0.163832083344459534 0.555770337581634521 -0.077469944953918457 -0.120844006538391113 -0.077016390860080719 0.243662461638450623 0.016589405015110970 -0.011493123136460781 0.180489301681518555 -0.130589932203292847 -0.065933085978031158 0.111854881048202515 -0.024253638461232185 -0.017266592010855675 0.041898332536220551 0.153553992509841919 0.001927459728904068 0.007763773668557405 -0.068259939551353455 -0.003457292681559920 0.062689550220966339 0.061274334788322449 -0.010356737300753593 -0.098119899630546570 -0.121022179722785950
0.097529351711273193 -0.044752057641744614 -0.077494844794273376 -0.096302330493927002 0.111335031688213348 0.180765897035598755 0.195386260747909546 -0.115649364888668060 -0.029986046254634857 -0.069490954279899597 0.082311853766441345 -0.165563717484474182 0.036749213933944702 0.022212449461221695 0.075715377926826477 0.094504080712795258 -0.050346605479717255 -0.068801581859588623 -0.129657402634620667 -0.004953799303621054 0.065424613654613495 -0.049639567732810974 -0.003974939696490765 0.022850949317216873 0.201429232954978943 0.021665990352630615 0.202253952622413635 0.179375067353248596 0.104178026318550110 -0.108457058668136597 0.005179749801754951 0.085731886327266693 0.160347998142242432 0.168084502220153809 0.057296998798847198 0.091695830225944519 -0.001776340766809881 0.028939582407474518 -0.202037394046783447 -0.061136770993471146 -0.083032183349132538 -0.019670106470584869 0.163884624838829041 0.050869915634393692 -0.103905849158763885 -0.014116968959569931 0.025736650452017784 -0.083094440400600433 0.121042281389236450 0.150219649076461792 -0.311206459999084473 -0.035394825041294098 0.152484044432640076 0.007087454199790955 -0.339611381292343140 0.140194043517112732 -0.004798228852450848 0.150637894868850708 -0.156318262219429016 -0.070652030408382416 0.219004422426223755 0.027044879272580147 -0.018287256360054016 0.089416749775409698 -0.111506983637809753 -0.098186939954757690 0.192731544375419617 0.112600989639759064 0.056223157793283463 -0.126387804746627808 -0.139979928731918335 -0.144472703337669373 0.153841152787208557 -0.006920975167304277 0.014002768322825432 -0.139045178890228271 -0.019084626808762550 -0.121500186622142792 0.018955146893858910 -0.049441054463386536 -0.105602532625198364 -0.033532109111547470 -0.018652176484465599 -0.023621523752808571 -0.045097444206476212 -0.191517800092697144 -0.152855947613716125 0.029765145853161812 0.329062104225158691 0.118780225515365601 0.021478338167071342 -0.099618755280971527 0.087722577154636383 -0.024323353543877602 -0.055845972150564194 0.070119887590408325 -0.070521600544452667 -0.031615257263183594 -0.076959542930126190 -0.041203320026397705
-0.086752183735370636 0.125686183571815491 -0.216938495635986328 0.150852516293525696 -0.002908142982050776 -0.137641966342926025 0.175136387348175049 -0.011140610091388226 0.205629542469978333 -0.099582903087139130 -0.077980160713195801 0.196150511503219604 0.056506101042032242 -0.160777062177658081 -0.201148524880409241 -0.163984999060630798 0.081675134599208832 -0.137332990765571594 0.123444788157939911 0.172091796994209290 0.113741286098957062 0.139116615056991577 0.038382206112146378 -0.116811618208885193 -0.337185531854629517 -0.085409581661224365 0.067423358559608459 -0.171648412942886353 0.023173246532678604 -0.017672911286354065 0.169954732060432434 0.078519985079765320 -0.134025126695632935 0.059253338724374771 0.057618364691734314 0.137185215950012207 0.018848253414034843 -0.085572354495525360 0.035766914486885071 0.125792533159255981 -0.028866106644272804 -0.007391411345452070 -0.062953189015388489 0.330189317464828491 -0.092657804489135742 0.187811449170112610 0.030269678682088852 0.024700280278921127 0.031791102141141891 0.029473977163434029 0.255309969186782837 0.127435937523841858 0.087654165923595428 -0.090215623378753662 -0.187645316123962402 0.057013824582099915 0.003756897523999214 0.064401015639305115 0.079874634742736816 -0.122401192784309387 -0.081443913280963898 -0.045894298702478409 -0.102065026760101318 -0.081300601363182068 -0.072425529360771179 -0.161063522100448608 0.103484071791172028 0.015789730474352837 -0.002494205255061388 0.076800584793090820 0.129697173833847046 -0.078298538923263550 0.140814602375030518 -0.047509811818599701 0.149991989135742188 0.180961444973945618 0.155253186821937561 0.017296008765697479 0.034924175590276718 -0.135060712695121765 0.112919367849826813 0.048256698995828629 -0.079503282904624939 -0.003358772024512291 0.079913750290870667 -0.132538259029388428 0.123732134699821472 -0.073671795427799225 0.121522687375545502 0.015243143774569035 -0.049909181892871857 -0.069391064345836639 -0.053566757589578629 -0.035453725606203079 -0.117122776806354523 0.031512044370174408 0.226319178938865662 0.115609101951122284 0.123230025172233582 0.116267159581184387
-0.072052836418151855 -0.029136927798390388 0.108219079673290253 0.049603465944528580 -0.123681373894214630 0.048311036080121994 -0.157944589853286743 0.159259885549545288 0.035055574029684067 -0.024344537407159805 -0.134118929505348206 -0.104394905269145966 0.006848520133644342 0.044779732823371887 -0.157763600349426270 0.032597709447145462 -0.102804996073246002 0.160960078239440918 0.024661155417561531 0.028290811926126480 -0.120842404663562775 0.099977351725101471 0.093101203441619873 0.056467127054929733 0.246715396642684937 -0.042350884526968002 -0.098535798490047455 -0.078179292380809784 0.049978394061326981 0.006367290392518044 -0.038896843791007996 0.060913391411304474 0.001681729452684522 0.183337390422821045 0.106412671506404877 -0.002041012747213244 -0.155360788106918335 0.092545039951801300 0.128925219178199768 0.003630945226177573 0.123175084590911865 0.147331371903419495 0.069943599402904510 -0.004192960914224386 0.086494043469429016 -0.081468552350997925 0.110724046826362610 -0.063734382390975952 -0.106059975922107697 0.117176167666912079 -0.200220316648483276 -0.145758479833602905 -0.117909230291843414 0.071007162332534790 0.031634770333766937 -0.075281858444213867 -0.037421848624944687 0.070193290710449219 0.029536738991737366 0.037670370191335678 -0.012606006115674973 -0.043921560049057007 -0.129931032657623291 0.084895707666873932 -0.142080679535865784 0.111669465899467468 0.061785575002431870 -0.140618145465850830 0.072743497788906097 -0.076767563819885254 0.059460964053869247 0.028185965493321419 -0.114389516413211823 0.164097920060157776 -0.132601812481880188 -0.140068218111991882 -0.147961616516113281 -0.157328814268112183 0.111904360353946686 0.111950278282165527 0.111988767981529236 -0.111800208687782288 0.185268387198448181 -0.059278357774019241 -0.007950914092361927 0.101321496069431305 -0.103479050099849701 0.231260538101196289 0.072611182928085327 0.134958386421203613 0.104551807045936584 0.113256961107254028 -0.047410450875759125 -0.008779676631093025 0.016841905191540718 -0.040402922779321671 -0.004003739450126886 -0.095059558749198914 -0.056413304060697556 -0.133074507117271423
0.056779175996780396 0.000691489258315414 0.201214447617530823 0.065408371388912201 0.045287542045116425 0.148572847247123718 -0.058895744383335114 -0.117925874888896942 0.069764852523803711 -0.027887979522347450 0.212096348404884338 -0.161058276891708374 -0.089290522038936615 0.115922167897224426 0.130271106958389282 -0.074756652116775513 0.077574901282787323 0.140275970101356506 -0.087529011070728302 -0.030568422749638557 0.009519628249108791 0.133524492383003235 0.085488289594650269 0.174618810415267944 -0.080235563218593597 -0.169658750295639038 0.117602229118347168 0.066764287650585175 -0.118466854095458984 0.032669544219970703 0.059534918516874313 -0.099552951753139496 -0.026061326265335083 0.124842412769794464 0.077325306832790375 0.005395132116973400 -0.150922060012817383 0.174964204430580139 0.076641574501991272 0.038397677242755890 -0.164705529808998108 -0.018171770498156548 0.084284797310829163 -0.324946969747543335 -0.012190080247819424 -0.091797448694705963 0.047819778323173523 0.163251295685768127 0.072905324399471283 -0.000228665754548274 -0.018425691872835159 0.074905768036842346 -0.023213224485516548 0.084785550832748413 0.246290788054466248 0.177232205867767334 0.089083269238471985 -0.152592718601226807 -0.098731234669685364 0.104828633368015289 -0.084636822342872620 0.066357672214508057 0.022050069645047188 0.120295025408267975 -0.042209576815366745 -0.032443456351757050 -0.038949243724346161 0.019840450957417488 -0.118126533925533295 -0.080349609255790710 0.143054038286209106 0.137868762016296387 0.091897264122962952 -0.110542804002761841 -0.067668028175830841 -0.049416482448577881 -0.176563099026679993 0.198197826743125916 -0.012007952667772770 0.120646320283412933 0.136897519230842590 -0.101307272911071777 -0.166283711791038513 -0.042211987078189850 -0.056816495954990387 0.118185870349407196 0.071130394935607910 0.026532417163252831 0.066744811832904816 0.061906296759843826 0.012344911694526672 -0.120804361999034882 0.076647236943244934 -0.182503655552864075 -0.066382564604282379 -0.093198947608470917 -0.032574336975812912 -0.188504785299301147 0.058982286602258682 0.096903249621391296
-0.021781500428915024 0.124601580202579498 0.121711678802967072 0.070088706910610199 -0.064115636050701141 -0.027999812737107277 -0.158094674348831177 0.136648878455162048 0.130872398614883423 -0.186500340700149536 -0.153166502714157104 -0.058450028300285339 0.076470896601676941 0.105342343449592590 -0.083147332072257996 0.080501817166805267 0.057051435112953186 -0.005075678694993258 0.071233607828617096 0.084681466221809387 -0.161409616470336914 0.002668421715497971 0.077954836189746857 0.097500085830688477 0.022299651056528091 0.015292230062186718 0.071666546165943146 0.069711163640022278 0.090561963617801666 0.091136530041694641 0.142979919910430908 -0.014690356329083443 0.036821443587541580 -0.080063857138156891 -0.219241827726364136 -0.154653474688529968 -0.047247938811779022 0.053781032562255859 -0.004039586521685123 0.042154416441917419 -0.130845516920089722 -0.107900142669677734 0.151010558009147644 0.053503677248954773 0.053716465830802917 0.166383698582649231 0.184399798512458801 0.056742280721664429 0.169943287968635559 -0.133887171745300293 -0.103160500526428223 -0.069357812404632568 0.010599577799439430 -0.081700406968593597 -0.324065506458282471 -0.007459506392478943 0.124187543988227844 0.075422286987304688 0.045372612774372101 -0.004007318522781134 -0.157486587762832642 0.096402466297149658 -0.136459842324256897 0.103727862238883972 0.031454764306545258 0.145643055438995361 0.038283482193946838 -0.049396906048059464 0.036600083112716675 -0.002987907268106937 -0.039611145853996277 -0.230022817850112915 0.128722429275512695 -0.155564486980438232 -0.091215752065181732 0.004092688206583261 -0.133805036544799805 0.068455539643764496 0.136430948972702026 -0.089527122676372528 -0.132502913475036621 0.005853833165019751 -0.005513956304639578 0.038545813411474228 0.224639356136322021 0.043701864778995514 -0.108232043683528900 0.005214118864387274 -0.150167629122734070 -0.198819726705551147 0.112610250711441040 -0.022174287587404251 0.038162954151630402 -0.056064739823341370 -0.152649030089378357 -0.107424639165401459 0.006578367203474045 0.126293554902076721 0.035563219338655472 -0.048844926059246063
-0.325736284255981445 0.197721585631370544 0.225674942135810852 0.023384090512990952 -0.099322155117988586 0.022128492593765259 -0.101105034351348877 0.115120701491832733 0.159157559275627136 -0.259290128946304321 0.016574317589402199 -0.001115456921979785 0.039784420281648636 0.139419928193092346 -0.087401859462261200 0.034573931246995926 0.005143096204847097 0.121971212327480316 -0.129185974597930908 -0.051109977066516876 0.077718205749988556 0.039994858205318451 0.140397980809211731 -0.124191284179687500 0.032299049198627472 0.063709333539009094 0.063617475330829620 0.024976411834359169 0.130971118807792664 0.175941705703735352 0.224847197532653809 0.025513948872685432 0.088852740824222565 0.039587110280990601 -0.012224937789142132 0.230637729167938232 0.148387730121612549 0.020425673574209213 -0.158540949225425720 0.089440055191516876 -0.210218459367752075 -0.178797185420989990 0.124451436102390289 -0.255844980478286743 -0.253295570611953735 -0.224001750349998474 0.089991554617881775 0.097813889384269714 0.047959372401237488 0.170915901660919189 0.176056891679763794 0.126649573445320129 -0.012872834689915180 -0.221694067120552063 0.156044736504554749 0.022526338696479797 -0.008911862969398499 0.072857268154621124 0.149515017867088318 0.109729684889316559 -0.115130543708801270 -0.009533211588859558 0.146570280194282532 0.061358831822872162 -0.142097562551498413 -0.145380914211273193 -0.073068276047706604 0.211350023746490479 -0.133745416998863220 -0.060140848159790039 -0.010042620822787285 0.164212614297866821 0.018484923988580704 -0.387465834617614746 0.040825452655553818 0.008536526001989841 -0.095555230975151062 -0.070155523717403412 0.199858039617538452 0.191592097282409668 0.090911448001861572 0.119081810116767883 -0.216685652732849121 0.015008546411991119 0.081619165837764740 -0.024006472900509834 -0.072265975177288055 -0.160059392452239990 0.153620406985282898 0.187454715371131897 -0.193547368049621582 -0.034243628382682800 0.081501305103302002 -0.025125905871391296 -0.078557573258876801 -0.144007369875907898 -0.068790890276432037 0.033226743340492249 0.085384771227836609 0.104709133505821228
-0.000175204739207402 -0.037661414593458176 0.197110474109649658 0.173953562974929810 0.028983870521187782 0.150368854403495789 0.173743665218353271 -0.065447762608528137 -0.067903578281402588 0.008277221582829952 0.142272502183914185 0.095450520515441895 -0.034293308854103088 -0.079357840120792389 0.155060932040214539 0.017378481104969978 0.138246640563011169 0.124501474201679230 0.079881407320499420 0.088139027357101440 -0.163541987538337708 0.022958587855100632 0.063411168754100800 0.038990698754787445 -0.013913453556597233 0.231529861688613892 0.092647016048431396 0.260324358940124512 0.058824457228183746 -0.028900789096951485 0.055744946002960205 -0.123086638748645782 -0.076535791158676147 -0.077240243554115295 0.079517848789691925 0.179423540830612183 -0.000531433674041182 -0.033609908074140549 0.117703102529048920 -0.211140841245651245 0.040684808045625687 0.051115751266479492 0.009145583957433701 0.218725770711898804 0.058905556797981262 -0.154778316617012024 0.043875575065612793 -0.169004857540130615 -0.089044876396656036 -0.123924784362316132 -0.051971793174743652 0.208663880825042725 0.002088046865537763 -0.147276490926742554 0.046785958111286163 0.006733947899192572 -0.129789680242538452 0.104015775024890900 0.095153674483299255 0.047866191715002060 -0.020048905164003372 -0.022009806707501411 -0.097941957414150238 0.076516941189765930 0.136310592293739319 0.122618027031421661 0.079391315579414368 -0.038115765899419785 0.028772475197911263 -0.004408144392073154 0.102307811379432678 -0.186710536479949951 -0.190833508968353271 0.018968440592288971 0.002590887481346726 0.025068283081054688 0.121789887547492981 0.044846057891845703 -0.180352032184600830 -0.054760307073593140 -0.070117346942424774 -0.116913877427577972 0.069531545042991638 -0.141670778393745422 -0.130035042762756348 0.004978798795491457 0.137153536081314087 0.115050584077835083 -0.010497883893549442 0.059941329061985016 -0.119070366024971008 -0.022573312744498253 0.014129661954939365 -0.117009654641151428 -0.164746999740600586 -0.117964625358581543 0.005807067733258009 -0.053162071853876114 -0.037615388631820679 -0.019623400643467903
0.038886941969394684 0.034506656229496002 -0.064442619681358337 0.153862774372100830 0.213923364877700806 -0.076492965221405029 0.048354279249906540 -0.169594317674636841 -0.090489655733108521 -0.034887373447418213 -0.167355850338935852 -0.156719475984573364 0.229283556342124939 -0.039964910596609116 -0.162754520773887634 0.051788520067930222 -0.152462556958198547 0.071599557995796204 0.021184613928198814 -0.210461691021919250 -0.041372928768396378 0.047542273998260498 -0.130867674946784973 -0.215841114521026611 -0.137910559773445129 -0.010061012580990791 0.147601574659347534 0.078110598027706146 0.138127401471138000 -0.314989298582077026 -0.201143831014633179 -0.092351205646991730 -0.092913977801799774 0.023572634905576706 0.128784269094467163 -0.283063918352127075 -0.316614061594009399 -0.045097544789314270 0.008285220712423325 -0.108291514217853546 0.068400546908378601 -0.056741334497928619 -0.025304613634943962 0.249984830617904663 0.107519283890724182 0.112241469323635101 -0.150148645043373108 -0.162187293171882629 -0.095940344035625458 0.081267111003398895 0.118817381560802460 0.100079134106636047 0.104540921747684479 0.009605946019291878 -0.177923798561096191 0.030005486682057381 -0.029706280678510666 0.037695631384849548 0.046600461006164551 0.061470162123441696 -0.042500440031290054 0.041852641850709915 0.010591447353363037 -0.207569137215614319 0.013860051520168781 -0.230185523629188538 0.093421891331672668 0.062485907226800919 -0.038549188524484634 0.099228531122207642 0.000451050262199715 -0.130445703864097595 -0.181387543678283691 0.111981429159641266 0.074282743036746979 -0.009571474976837635 0.406346678733825684 -0.101571887731552124 -0.127017185091972351 0.133120492100715637 0.162265464663505554 0.136375233530998230 0.080591991543769836 -0.105539456009864807 -0.194822043180465698 -0.075063198804855347 0.105642102658748627 0.082928940653800964 0.093118712306022644 0.055514823645353317 0.005846249870955944 0.116230577230453491 -0.103539928793907166 -0.025514228269457817 -0.058101348578929901 -0.106083028018474579 0.003211064497008920 -0.082657650113105774 0.007826975546777248 0.065590597689151764
-0.118167415261268616 -0.028281614184379578 -0.077731005847454071 -0.081553503870964050 -0.170490503311157227 -0.127405196428298950 -0.016894785687327385 0.063252024352550507 0.039794508367776871 -0.120212718844413757 -0.145113483071327209 0.162540629506111145 0.054859615862369537 -0.059455238282680511 -0.081253729760646820 0.058559026569128036 0.137043565511703491 -0.027469184249639511 0.151127666234970093 0.129024386405944824 0.143569037318229675 -0.003838331205770373 0.027653317898511887 -0.191537693142890930 -0.115687571465969086 -0.207799524068832397 0.201312273740768433 0.120523095130920410 -0.143904700875282288 -0.049699008464813232 0.154132142663002014 -0.073418788611888885 -0.101062722504138947 -0.120779700577259064 -0.148106470704078674 -0.075762011110782623 0.047194663435220718 0.118232950568199158 0.060644090175628662 -0.009765062481164932 -0.085501596331596375 -0.054256502538919449 0.115900859236717224 -0.054590158164501190 -0.060655917972326279 -0.020514866337180138 -0.174211755394935608 -0.074841126799583435 0.160045728087425232 0.087408773601055145 0.174322009086608887 -0.045604258775711060 0.064523495733737946 0.102995112538337708 0.089121982455253601 0.136504903435707092 -0.039619028568267822 -0.165873423218727112 0.059343826025724411 0.029552455991506577 0.056549750268459320 0.027168294414877892 0.146922856569290161 0.011007724329829216 0.051555793732404709 0.071197494864463806 0.119031012058258057 0.080338351428508759 0.096578657627105713 0.007521557621657848 -0.031622219830751419 0.198301017284393311 0.035084668546915054 0.068842843174934387 -0.129405349493026733 0.197261244058609009 0.105256125330924988 -0.069515660405158997 -0.081097617745399475 0.049553673714399338 0.108610481023788452 0.048954412341117859 -0.134676665067672729 0.089061081409454346 0.219446495175361633 0.092154875397682190 0.077677696943283081 -0.302862852811813354 0.099341541528701782 0.030400339514017105 0.065061256289482117 -0.105990380048751831 0.118988595902919769 -0.178319036960601807 -0.039647188037633896 -0.155108124017715454 0.107046350836753845 -0.097844883799552917 -0.009496829472482204 0.063742086291313171
0.232900604605674744 -0.148461446166038513 0.085305891931056976 0.158397808670997620 -0.012870348989963531 -0.088747404515743256 -0.021371705457568169 0.011018315330147743 0.094189658761024475 0.000126511105918325 0.125662207603454590 -0.036721695214509964 0.028254743665456772 0.091010265052318573 0.142346307635307312 0.059703856706619263 -0.032325156033039093 -0.000303363369312137 0.150095388293266296 -0.141676753759384155 -0.007562638260424137 0.042236741632223129 -0.174298465251922607 -0.030617786571383476 -0.111495502293109894 -0.009569226764142513 0.134657144546508789 -0.143536627292633057 -0.066064953804016113 -0.026921993121504784 -0.156364172697067261 0.168301209807395935 0.154457256197929382 -0.067403689026832581 0.001749721821397543 0.105037681758403778 0.055070094764232635 0.015052924863994122 0.134179085493087769 0.078185521066188812 0.210322454571723938 0.174512028694152832 0.111945644021034241 0.261327505111694336 0.167511224746704102 -0.057719338685274124 0.000041390983824385 -0.094973616302013397 -0.120623536407947540 0.052115820348262787 -0.167202085256576538 0.031194953247904778 0.085893765091896057 -0.036084249615669250 0.044876411557197571 -0.206401690840721130 -0.168767958879470825 -0.061514381319284439 0.019975598901510239 0.089597500860691071 0.093550503253936768 0.204164817929267883 -0.000811343197710812 -0.066208556294441223 -0.105729848146438599 0.041641172021627426 0.061205685138702393 -0.108387641608715057 0.038473829627037048 0.132119074463844299 -0.074357584118843079 -0.100064657628536224 -0.227736711502075195 -0.057859219610691071 -0.102637186646461487 -0.205971300601959229 0.080737076699733734 0.034162510186433792 0.217387825250625610 0.115595102310180664 0.126437023282051086 -0.095213808119297028 -0.156208276748657227 0.100148089230060577 -0.794763982295989990 -0.094954885542392731 0.177334159612655640 -0.147422894835472107 -0.045775447040796280 0.064038403332233429 -0.117009475827217102 0.150900498032569885 -0.100688762962818146 -0.063068144023418427 0.023618945851922035 -0.176743298768997192 -0.108176045119762421 0.047801479697227478 0.055197130888700485 -0.138489276170730591
0.067566774785518646 0.113462924957275391 -0.228035256266593933 -0.045125048607587814 -0.037937738001346588 0.148423090577125549 0.024522652849555016 -0.018762743100523949 -0.062501855194568634 0.170006752014160156 -0.065878771245479584 -0.110143840312957764 0.127424389123916626 -0.097445517778396606 -0.156056106090545654 -0.103801958262920380 -0.042523615062236786 0.171312361955642700 0.020212372764945030 -0.124724537134170532 -0.148995041847229004 -0.206807211041450500 -0.096825525164604187 -0.148380696773529053 -0.177781015634536743 0.007988822646439075 -0.031475730240345001 0.090013451874256134 -0.072279110550880432 -0.145396888256072998 -0.114015221595764160 0.146700903773307800 -0.140937626361846924 0.025049112737178802 -0.153307884931564331 -0.213785678148269653 -0.119049429893493652 0.040851380676031113 0.054518241435289383 -0.118000514805316925 -0.028774237260222435 -0.013495839200913906 0.026893394067883492 0.005151208955794573 -0.015246355906128883 0.024737255647778511 -0.175082236528396606 0.145699769258499146 -0.091784060001373291 0.095773629844188690 0.166458308696746826 0.057948723435401917 -0.096948415040969849 0.066002488136291504 -0.292922884225845337 -0.063120327889919281 -0.169960573315620422 0.039998732507228851 -0.076794438064098358 0.085999622941017151 0.041196066886186600 -0.025720473378896713 0.160382136702537537 -0.255382895469665527 -0.214511513710021973 -0.170089155435562134 -0.109346896409988403 -0.084914021193981171 0.101337052881717682 -0.196930810809135437 -0.121578626334667206 -0.117279767990112305 0.080249279737472534 -0.050074074417352676 -0.080454111099243164 -0.088696062564849854 -0.117959484457969666 -0.016024850308895111 -0.078999519348144531 -0.121467515826225281 0.026855630800127983 0.105810962617397308 0.004719461314380169 0.128111556172370911 0.281870961189270020 -0.063093528151512146 0.168890923261642456 -0.006030200514942408 -0.176432520151138306 0.058800682425498962 -0.079782851040363312 -0.142264753580093384 0.048323024064302444 0.091808840632438660 -0.047194350510835648 -0.036517284810543060 -0.072291724383831024 0.133903354406356812 0.239378273487091064 0.101815558969974518
-0.148870229721069336 0.010807536542415619 0.052169889211654663 0.078258797526359558 -0.123813390731811523 0.036376230418682098 0.142355248332023621 0.099233031272888184 0.131135866045951843 -0.094824612140655518 -0.111953474581241608 -0.163446605205535889 -0.129136905074119568 -0.033274218440055847 -0.047793462872505188 0.135039612650871277 -0.071682192385196686 -0.073914833366870880 -0.078823633491992950 -0.107982531189918518 0.137776091694831848 0.049309004098176956 0.100434400141239166 -0.235233396291732788 0.044743184000253677 -0.106774300336837769 -0.115899465978145599 -0.102253295481204987 0.062358904629945755 -0.073311746120452881 0.068881757557392120 -0.190294906497001648 0.088801272213459015 -0.074351496994495392 -0.012365862727165222 -0.108112268149852753 0.175628468394279480 0.003331364598125219 -0.058083385229110718 0.009184036403894424 0.117515325546264648 -0.082083083689212799 -0.122460484504699707 0.163017094135284424 -0.275772273540496826 -0.095186047255992889 -0.027925143018364906 0.169355034828186035 0.003234653966501355 0.026115834712982178 0.106662385165691376 0.188091799616813660 0.110916815698146820 0.058435011655092239 0.119645297527313232 0.055655937641859055 -0.075669206678867340 0.040574312210083008 0.012835389003157616 0.107650093734264374 -0.091844260692596436 -0.017746057361364365 -0.053886402398347855 -0.160957366228103638 0.092819318175315857 -0.018331887200474739 0.144291505217552185 0.013524302281439304 0.135988518595695496 0.024945238605141640 0.053587824106216431 0.208931311964988708 0.154767110943794250 -0.211867019534111023 -0.084197752177715302 -0.125667557120323181 0.011068930849432945 -0.193826749920845032 -0.164531350135803223 -0.116305969655513763 0.003405279247090220 0.010208870284259319 -0.061871610581874847 0.015985593199729919 0.201109007000923157 0.065770886838436127 0.139767989516258240 0.145752146840095520 -0.125480428338050842 0.195753172039985657 0.101359672844409943 -0.056393302977085114 0.008183813653886318 0.121755801141262054 -0.164360389113426208 0.097663678228855133 -0.062656521797180176 -0.096960790455341339 -0.153794005513191223 0.032764241099357605
0.099268205463886261 -0.075372561812400818 -0.350445926189422607 -0.101615212857723236 -0.016985965892672539 0.086318641901016235 -0.116664998233318329 0.128896653652191162 0.028417125344276428 0.134827792644500732 0.102512530982494354 -0.013385162688791752 0.110454112291336060 -0.217252388596534729 -0.014204645529389381 0.103386707603931427 -0.021679112687706947 -0.013757973909378052 0.049056086689233780 -0.172221720218658447 -0.087698213756084442 0.002783281495794654 -0.161765798926353455 -0.120331525802612305 -0.567052423954010010 -0.076741017401218414 0.134216904640197754 0.006534360814839602 -0.208055689930915833 -0.164689972996711731 -0.118785373866558075 -0.138624250888824463 0.130338624119758606 -0.013788921758532524 -0.184024795889854431 -0.073718130588531494 0.077217310667037964 0.046398933976888657 0.170057162642478943 0.086250111460685730 0.206680670380592346 -0.221003457903862000 0.141881704330444336 -0.005129632540047169 0.042346756905317307 0.260956585407257080 -0.067391738295555115 -0.133498430252075195 -0.107828147709369659 0.050314303487539291 0.576898455619812012 -0.209214463829994202 0.031117416918277740 0.039169449359178543 0.017518201842904091 -0.140350654721260071 -0.083739534020423889 0.146785214543342590 -0.001188424648717046 0.087577722966670990 0.041259601712226868 -0.219440475106239319 -0.134870231151580811 -0.160014629364013672 -0.090083554387092590 -0.199922382831573486 0.070242740213871002 0.051265373826026917 0.169640496373176575 -0.103726111352443695 -0.174487575888633728 0.001850200467742980 0.072615928947925568 -0.029774123802781105 0.021012715995311737 -0.088243074715137482 -0.036875180900096893 -0.016144132241606712 -0.144010782241821289 -0.144458621740341187 0.020090745761990547 0.009180656634271145 0.103158146142959595 0.199911624193191528 -0.123093642294406891 0.114367514848709106 0.087648726999759674 -0.039754714816808701 0.220219165086746216 -0.190271556377410889 -0.019917648285627365 0.198546066880226135 -0.093484051525592804 -0.080514669418334961 -0.158299416303634644 -0.032292339950799942 -0.097586624324321747 0.048941630870103836 0.184548661112785339 0.064923852682113647
0.147516205906867981 -0.059788592159748077 -0.017852971330285072 0.105301223695278168 -0.097492754459381104 0.090338528156280518 0.123778812587261200 0.139773264527320862 0.025205038487911224 -0.044375810772180557 -0.081086240708827972 0.086698405444622040 0.154018640518188477 0.009976293891668320 0.008369074203073978 -0.231642454862594604 -0.071034513413906097 -0.048653453588485718 -0.080853961408138275 0.089981876313686371 0.018176009878516197 0.094611056149005890 -0.126129910349845886 -0.116334646940231323 -0.028167314827442169 -0.012039157561957836 -0.239116922020912170 -0.003223170293495059 0.222965463995933533 -0.116427071392536163 -0.090361766517162323 -0.117090649902820587 -0.018501058220863342 0.002149586100131273 -0.214337676763534546 -0.507808864116668701 0.066096290946006775 -0.070633858442306519 0.110961847007274628 -0.140296980738639832 0.224161401391029358 0.007365901954472065 -0.052221722900867462 0.569790422916412354 -0.058251760900020599 0.161153763532638550 -0.114989995956420898 0.029398865997791290 -0.254374444484710693 0.037879947572946548 -0.157011583447456360 0.126780867576599121 0.186946183443069458 0.011029849760234356 -0.543293595314025879 0.040243182331323624 0.073175705969333649 0.120551735162734985 0.131970822811126709 -0.017673831433057785 0.035960726439952850 -0.173013374209403992 0.041143450886011124 -0.094139851629734039 0.011054595932364464 -0.087244100868701935 0.008862428367137909 -0.151845589280128479 0.195884764194488525 -0.135103732347488403 0.180350333452224731 -0.054157484322786331 -0.120738968253135681 0.219470068812370300 -0.112317875027656555 0.012339929118752480 -0.148366287350654602 -0.101184375584125519 -0.115799851715564728 -0.197858259081840515 0.157179296016693115 0.051889721304178238 0.039585679769515991 0.028767848387360573 -0.074067845940589905 -0.105183430016040802 -0.080918379127979279 0.093493700027465820 0.007700333837419748 0.033091157674789429 0.106528379023075104 -0.008417281322181225 -0.067601025104522705 -0.099386617541313171 0.005232081748545170 -0.046741742640733719 0.169175788760185242 -0.100958772003650665 0.016034517437219620 0.065511405467987061
0.159978032112121582 0.013047404587268829 0.139679476618766785 0.063242837786674500 0.136054202914237976 0.185015976428985596 -0.167640119791030884 -0.041195075958967209 0.063036866486072540 0.036608990281820297 0.114900022745132446 0.107119582593441010 -0.056663390249013901 0.000183693613507785 0.005644402001053095 -0.123020388185977936 -0.095539420843124390 0.100395970046520233 0.149485081434249878 -0.102766826748847961 0.023110587149858475 0.067098513245582581 -0.019771803170442581 0.100089088082313538 0.180264785885810852 -0.159663721919059753 0.192092686891555786 -0.004344527143985033 0.099959850311279297 0.003340511582791805 0.052993379533290863 -0.142687737941741943 0.072665110230445862 -0.108679674565792084 -0.106765732169151306 0.024652650579810143 -0.183587133884429932 -0.112304911017417908 -0.082813411951065063 0.112491145730018616 -0.090213492512702942 0.036172486841678619 -0.018439292907714844 -0.012385562062263489 0.155436381697654724 -0.105403557419776917 -0.056082569062709808 0.061423346400260925 0.149050250649452209 -0.163748458027839661 -0.066431023180484772 0.149283781647682190 -0.061158098280429840 0.090360090136528015 0.098867923021316528 -0.073712095618247986 0.121707811951637268 -0.049167085438966751 -0.082620188593864441 -0.123021721839904785 -0.015485371463000774 -0.086589306592941284 -0.071582250297069550 -0.125768125057220459 0.193002209067344666 0.096977323293685913 0.118121527135372162 0.103152476251125336 0.178190320730209351 0.011720369569957256 -0.027325646951794624 -0.091777957975864410 -0.163212999701499939 0.157456099987030029 -0.108070239424705505 -0.167821362614631653 0.049200668931007385 0.122834332287311554 -0.018746318295598030 0.033789753913879395 -0.111528553068637848 -0.008073959499597549 0.135647371411323547 0.047870427370071411 -0.121477007865905762 0.024913104251027107 0.187039628624916077 -0.190733283758163452 0.035783048719167709 -0.044025439769029617 0.013960521668195724 -0.078889615833759308 0.054648790508508682 0.149570330977439880 -0.051124177873134613 0.102933183312416077 -0.051021002233028412 -0.036900945007801056 -0.064706869423389435 -0.072136044502258301
0.103101089596748352 -0.129469007253646851 -0.012617168016731739 0.032771762460470200 0.130412399768829346 0.146494999527931213 0.053710553795099258 0.127964481711387634 0.092959068715572357 -0.074990823864936829 -0.040607333183288574 0.068092837929725647 0.116189785301685333 -0.006076395977288485 -0.061232116073369980 -0.115959160029888153 0.043833766132593155 -0.059848610311746597 -0.044892061501741409 -0.040313955396413803 0.022523498162627220 0.025297610089182854 -0.125887781381607056 -0.108847700059413910 0.001808519358746707 0.054006479680538177 -0.171789482235908508 0.068550951778888702 0.000895794364623725 -0.067263014614582062 -0.069951556622982025 -0.064741708338260651 -0.075038485229015350 0.152658194303512573 0.008146759122610092 -0.189114242792129517 0.155712857842445374 -0.100859858095645905 0.120457671582698822 -0.075016342103481293 -0.066674493253231049 0.194453909993171692 -0.173854261636734009 0.103429645299911499 0.143203422427177429 -0.100551582872867584 -0.050444912165403366 -0.057528410106897354 -0.104513771831989288 0.061725676059722900 -0.184480875730514526 -0.151042103767395020 0.002092733746394515 0.054770957678556442 0.099174104630947113 0.099578954279422760 0.068527765572071075 0.149361044168472290 -0.159923285245895386 -0.046837702393531799 -0.038316085934638977 -0.011503485962748528 -0.097879059612751007 0.132413849234580994 -0.078525699675083160 -0.084808900952339172 -0.122572816908359528 -0.054402559995651245 -0.063171833753585815 -0.012126534245908260 -0.160645216703414917 0.001714039710350335 0.076478488743305206 0.057312998920679092 -0.048001367598772049 -0.104764766991138458 0.082252584397792816 -0.092026911675930023 0.050492241978645325 0.149142637848854065 0.058511957526206970 0.188494369387626648 0.036728419363498688 0.019325023517012596 -0.112639680504798889 0.139489859342575073 -0.063074208796024323 0.188810512423515320 -0.107892058789730072 0.098116837441921234 -0.031407963484525681 -0.037294033914804459 0.019849292933940887 -0.131956979632377625 0.148218616843223572 0.066830657422542572 0.008757499046623707 0.130290761590003967 -0.158826351165771484 -0.113330669701099396
0.039162680506706238 0.171156823635101318 -0.156083241105079651 -0.112701915204524994 0.050510790199041367 -0.167341783642768860 -0.117206126451492310 -0.025758707895874977 0.008738121949136257 -0.046349629759788513 0.076058894395828247 -0.012544666416943073 0.153635516762733459 -0.024248421192169189 0.027414454147219658 0.000758518290240318 0.167081862688064575 -0.022448789328336716 0.009740972891449928 0.111390985548496246 0.144572645425796509 -0.078731127083301544 -0.121032744646072388 0.177023872733116150 0.171955555677413940 -0.160275459289550781 0.100260332226753235 -0.007505973335355520 0.036129899322986603 0.103982992470264435 -0.127670988440513611 0.072023198008537292 0.188818246126174927 0.133230164647102356 0.052510946989059448 0.130173712968826294 -0.141786694526672363 -0.113188393414020538 0.090073719620704651 0.169101834297180176 0.160881504416465759 -0.004913187120109797 0.065892972052097321 0.082474790513515472 -0.125855311751365662 -0.133092567324638367 0.097962565720081329 0.058997694402933121 0.130416348576545715 -0.036405250430107117 0.300398677587509155 -0.012172991409897804 0.109466232359409332 -0.050207860767841339 -0.055168505758047104 -0.172373265027999878 0.010984455235302448 -0.052468318492174149 -0.071585617959499359 0.142679825425148010 0.005034575704485178 -0.023517783731222153 -0.015994766727089882 -0.134088888764381409 -0.017448065802454948 0.087649054825305939 -0.095181621611118317 -0.172871112823486328 -0.114788100123405457 -0.137157678604125977 0.157473593950271606 -0.165657326579093933 -0.135335236787796021 -0.073966056108474731 -0.051793672144412994 0.121538788080215454 0.169448032975196838 0.151266604661941528 -0.030563324689865112 -0.184876039624214172 0.018559420481324196 -0.108847454190254211 -0.141434714198112488 0.116424068808555603 0.074056424200534821 0.150674253702163696 0.117899663746356964 -0.110958263278007507 0.017724813893437386 -0.092852152884006500 -0.064180493354797363 0.156283006072044373 -0.021046118810772896 0.100237093865871429 -0.036339867860078812 -0.042922846972942352 -0.057517137378454208 0.016770109534263611 0.073477841913700104 -0.108438745141029358
0.086276881396770477 -0.100421831011772156 -0.118221141397953033 -0.021582415327429771 -0.102164104580879211 0.080851852893829346 -0.031872432678937912 -0.136188700795173645 0.026668567210435867 0.151106581091880798 -0.177903160452842712 0.143530398607254028 -0.055868647992610931 -0.076817713677883148 -0.035037748515605927 -0.049965977668762207 0.182983040809631348 -0.122436530888080597 -0.028510106727480888 -0.117363281548023224 -0.091290712356567383 0.183572873473167419 -0.279628098011016846 -0.005427065305411816 -0.091374821960926056 0.109869174659252167 -0.090742744505405426 -0.287958890199661255 -0.089993119239807129 0.066399201750755310 0.086698457598686218 0.182455569505691528 0.209607139229774475 0.190986379981040955 -0.090337716042995453 -0.141416549682617188 -0.172024086117744446 -0.057687200605869293 -0.045155908912420273 0.100786179304122925 0.007152607198804617 -0.189436376094818115 -0.082598254084587097 0.192069411277770996 0.045218456536531448 0.173144847154617310 -0.050750311464071274 0.049858175218105316 -0.089573808014392853 0.104726724326610565 -0.032880902290344238 -0.076379604637622833 0.083008736371994019 0.073922656476497650 -0.286129713058471680 -0.126461178064346313 -0.123795516788959503 0.127362802624702454 0.053741555660963058 -0.085856877267360687 0.188784688711166382 0.124880015850067139 -0.042462244629859924 0.117467410862445831 -0.018386561423540115 -0.092985048890113831 0.062151756137609482 -0.071117214858531952 -0.079112984240055084 -0.082327961921691895 -0.123897947371006012 0.086408481001853943 -0.048653669655323029 -0.139366939663887024 0.108101263642311096 -0.006002702750265598 0.336847245693206787 -0.064966261386871338 0.122245237231254578 -0.076470032334327698 0.099393978714942932 -0.044835533946752548 0.129256546497344971 0.090923562645912170 -0.095582701265811920 0.032369140535593033 0.147021934390068054 -0.076108478009700775 0.173264771699905396 -0.116860605776309967 0.018380094319581985 0.140785917639732361 0.070820815861225128 0.012631832621991634 -0.002812085207551718 -0.131270095705986023 0.118824400007724762 -0.095181480050086975 -0.037075955420732498 -0.096719376742839813
0.030451374128460884 -0.011437857523560524 -0.051764313131570816 0.109384134411811829 0.190665766596794128 -0.164571255445480347 -0.014728764072060585 0.160051286220550537 -0.209573701024055481 0.060001999139785767 0.003324525896459818 0.188960969448089600 -0.139169350266456604 -0.018514694646000862 0.159200027585029602 0.114978790283203125 -0.165864840149879456 -0.022308524698019028 0.052125405520200729 0.161590233445167542 -0.047637939453125000 -0.181960731744766235 0.017442388460040092 0.030941201373934746 0.065774939954280853 -0.001413101563230157 -0.145652949810028076 0.143634498119354248 0.060135416686534882 0.030094031244516373 0.004167926497757435 0.139417454600334167 -0.098757147789001465 -0.089225396513938904 0.080291166901588440 0.030502848327159882 -0.066106587648391724 -0.034467805176973343 -0.092268005013465881 -0.133611708879470825 -0.094525270164012909 -0.019884658977389336 0.163436353206634521 -0.092303045094013214 0.169969335198402405 0.084633797407150269 -0.088707700371742249 0.121118173003196716 -0.063183352351188660 -0.039019465446472168 -0.004982578568160534 -0.096050098538398743 0.146948218345642090 -0.027936460450291634 0.047917556017637253 -0.144532769918441772 -0.030248306691646576 0.238860145211219788 -0.079230420291423798 0.165803626179695129 -0.005784026347100735 0.143529400229454041 -0.040856976062059402 -0.130230367183685303 0.069063596427440643 0.040287721902132034 -0.105791166424751282 -0.153000235557556152 -0.157948449254035950 -0.151516228914260864 0.059317402541637421 -0.078596845269203186 0.037892457097768784 0.043944217264652252 -0.085359498858451843 0.030602080747485161 -0.126752600073814392 -0.040740489959716797 -0.087705656886100769 0.016593977808952332 0.079798445105552673 -0.176467701792716980 0.009356397204101086 -0.070939749479293823 -0.121946856379508972 -0.037310227751731873 0.085040174424648285 -0.043499313294887543 -0.148877531290054321 0.128358185291290283 0.160118103027343750 -0.042711436748504639 -0.083485051989555359 0.002765706973150373 -0.168237447738647461 0.078349575400352478 -0.007842936553061008 0.204500898718833923 0.129261776804924011 -0.080495625734329224
-0.015426456928253174 -0.131882309913635254 -0.148685440421104431 -0.007000985555350780 -0.202483311295509338 0.010063535533845425 0.074086748063564301 0.098966583609580994 0.085624165832996368 -0.031279556453227997 -0.011306427419185638 -0.161402687430381775 -0.010762394405901432 0.100854769349098206 0.018971554934978485 0.141680642962455750 0.034870304167270660 -0.095350243151187897 0.178683996200561523 0.115234106779098511 0.140852048993110657 -0.135981306433677673 0.151010379195213318 -0.051988843828439713 0.076022647321224213 0.083129025995731354 0.260098844766616821 -0.023014398291707039 -0.022837150841951370 0.101504392921924591 -0.008315285667777061 0.103254377841949463 0.109581381082534790 -0.202764168381690979 0.157161295413970947 0.228570044040679932 0.217943623661994934 0.139925718307495117 0.142295822501182556 0.079676643013954163 -0.108136922121047974 -0.018808679655194283 -0.195940285921096802 -0.010029950179159641 -0.099738843739032745 -0.107127904891967773 0.007623104844242334 -0.162026286125183105 0.183610528707504272 -0.117636673152446747 0.022928593680262566 -0.004330291412770748 0.026781756430864334 0.035438608378171921 0.594069361686706543 -0.078222297132015228 0.158878967165946960 -0.109125591814517975 -0.017821498215198517 -0.049051132053136826 -0.050735060125589371 0.049106277525424957 0.034283410757780075 0.091610714793205261 0.078726388514041901 -0.111608348786830902 0.092547215521335602 0.077155128121376038 -0.095050916075706482 -0.055152110755443573 0.042361512780189514 -0.075745791196823120 -0.019799292087554932 0.112838983535766602 0.080755829811096191 -0.168602317571640015 -0.138813301920890808 -0.044163279235363007 -0.094854556024074554 0.060394752770662308 -0.163259834051132202 -0.083521530032157898 0.083163589239120483 -0.078457556664943695 -0.011311030946671963 0.220689311623573303 -0.113181807100772858 -0.090257488191127777 0.276992022991180420 -0.125957116484642029 -0.081234805285930634 -0.166792884469032288 -0.022314494475722313 0.088888250291347504 -0.020539540797472000 -0.094880133867263794 0.039364010095596313 -0.004346670582890511 -0.003253076691180468 0.037765238434076309
-0.021506009623408318 -0.136658012866973877 0.003467447822913527 -0.092980757355690002 -0.193412274122238159 0.011173525825142860 -0.149912819266319275 -0.183414310216903687 -0.097452111542224884 0.058174341917037964 -0.027456721290946007 -0.154179841279983521 -0.070854112505912781 0.018011949956417084 -0.167858242988586426 0.034188948571681976 0.178618654608726501 -0.039719872176647186 0.179282978177070618 -0.038201771676540375 -0.077485665678977966 0.047906845808029175 -0.128173977136611938 -0.081530630588531494 -0.040318198502063751 0.016336878761649132 -0.015527533367276192 0.158377319574356079 0.142462134361267090 0.033051554113626480 0.086639218032360077 -0.130293294787406921 0.023355696350336075 -0.178053304553031921 0.095379106700420380 0.090783834457397461 -0.039030626416206360 0.051660805940628052 0.042055819183588028 -0.072952486574649811 0.010538487695157528 -0.156275689601898193 0.047006696462631226 -0.271364510059356689 -0.120241358876228333 -0.101295687258243561 -0.038802653551101685 0.094195917248725891 -0.027529353275895119 0.152743190526962280 0.259858518838882446 0.107311479747295380 0.132642298936843872 -0.178689301013946533 -0.001375461346469820 0.079590961337089539 -0.018442632630467415 0.006934687960892916 -0.020981164649128914 -0.173277676105499268 0.070905625820159912 -0.024149414151906967 0.063056752085685730 0.022605299949645996 0.018458846956491470 0.064022451639175415 -0.058252532035112381 0.061776805669069290 -0.070767842233181000 0.090239010751247406 0.114567287266254425 0.177689805626869202 0.032726559787988663 0.048443797975778580 -0.146717101335525513 0.030121440067887306 0.078901089727878571 -0.149276390671730042 -0.032792329788208008 -0.115141615271568298 -0.121800236403942108 -0.124301284551620483 -0.030529635027050972 -0.143740504980087280 0.157349169254302979 -0.018315551802515984 0.162155747413635254 -0.326908916234970093 0.010146034881472588 0.214683935046195984 -0.107074066996574402 -0.032704241573810577 -0.014842554926872253 0.008698383346199989 0.106271326541900635 -0.082103177905082703 0.153202384710311890 0.120661452412605286 0.008160869590938091 0.103816799819469452
-0.054396774619817734 0.160433888435363770 0.062937937676906586 -0.078018330037593842 0.035136979073286057 0.043983291834592819 0.054594762623310089 0.269759804010391235 0.180929064750671387 -0.107562787830829620 0.044123318046331406 -0.132951080799102783 0.063300468027591705 0.059996277093887329 0.035681929439306259 0.151223987340927124 0.110329493880271912 0.082234315574169159 -0.090347521007061005 -0.163165226578712463 -0.146119073033332825 0.100074112415313721 -0.030464770272374153 -0.133726343512535095 -0.176903367042541504 0.018886400386691093 -0.054933883249759674 -0.072131805121898651 -0.243726983666419983 0.172013014554977417 0.143344625830650330 -0.013678552582859993 -0.048369362950325012 -0.154282182455062866 0.012765673920512199 -0.072292715311050415 0.087607227265834808 0.140490606427192688 0.153744116425514221 0.053577046841382980 -0.080067016184329987 -0.040805421769618988 -0.117794878780841827 -0.072265222668647766 0.084312736988067627 0.237243816256523132 -0.155219599604606628 -0.165309876203536987 0.215507790446281433 -0.162848100066184998 -0.088713333010673523 0.010232853703200817 -0.071254760026931763 -0.203970432281494141 -0.062395572662353516 0.110651738941669464 -0.052113167941570282 -0.153644323348999023 0.092750445008277893 -0.135045781731605530 -0.064881943166255951 -0.145290762186050415 -0.144326761364936829 -0.182109102606773376 0.152321532368659973 0.086446702480316162 -0.009882818907499313 0.098338477313518524 0.177096009254455566 0.199337363243103027 -0.128298178315162659 -0.059786755591630936 -0.024067714810371399 0.024514187127351761 0.178481206297874451 0.180887117981910706 -0.042898066341876984 0.119702681899070740 -0.202207341790199280 0.085085175931453705 -0.004002135246992111 -0.091941848397254944 0.112307339906692505 0.089552119374275208 0.077649891376495361 -0.116288594901561737 0.150801688432693481 -0.244185060262680054 -0.031711421906948090 -0.096710056066513062 0.043743904680013657 0.069790370762348175 0.134930402040481567 0.011905884370207787 0.094512045383453369 -0.043392498046159744 0.018281398341059685 0.072697177529335022 -0.006158095318824053 0.020601978525519371
0.128297597169876099 0.081240750849246979 -0.035941146314144135 -0.181835263967514038 -0.076828874647617340 0.055692575871944427 -0.186881080269813538 -0.068095855414867401 0.119745932519435883 0.096415519714355469 0.177151739597320557 0.139902323484420776 -0.055192418396472931 -0.110503934323787689 -0.084220983088016510 0.006771605927497149 -0.067074872553348541 0.155348405241966248 0.060124397277832031 -0.097085826098918915 -0.016785321757197380 0.081084899604320526 0.129313647747039795 -0.183181986212730408 -0.113111823797225952 0.083263777196407318 0.122382365167140961 0.176175519824028015 -0.082526944577693939 0.170146062970161438 0.111420333385467529 0.141360729932785034 0.051889546215534210 -0.224798798561096191 0.138445109128952026 0.085836760699748993 -0.070685289800167084 -0.118560984730720520 0.166958183050155640 0.099341146647930145 0.116785660386085510 0.037647217512130737 0.020244015380740166 -0.243129342794418335 -0.141994193196296692 0.107052572071552277 -0.026306493207812309 0.095144107937812805 -0.065078005194664001 0.019741749390959740 -0.157152637839317322 0.042289987206459045 -0.071745194494724274 0.146019160747528076 -0.013682812452316284 0.017695480957627296 -0.105775400996208191 0.122306965291500092 -0.129372224211692810 -0.061524726450443268 0.163916766643524170 -0.038410272449254990 -0.092298969626426697 -0.182148188352584839 -0.053153108805418015 -0.161776483058929443 -0.174094960093498230 -0.139398917555809021 0.116919592022895813 0.188500955700874329 -0.123897917568683624 0.181623220443725586 0.002022493397817016 -0.017228808254003525 0.155246064066886902 0.154312923550605774 0.043394327163696289 0.151080653071403503 0.160454347729682922 -0.132387220859527588 0.077751338481903076 -0.045390222221612930 0.148328199982643127 -0.139220401644706726 -0.194807529449462891 -0.065328955650329590 0.005985035561025143 0.086292892694473267 -0.144261017441749573 0.180768132209777832 -0.074807532131671906 0.127808704972267151 -0.106846794486045837 0.047424167394638062 0.159144848585128784 -0.136396825313568115 0.073704250156879425 0.124906159937381744 -0.019813746213912964 -0.176020443439483643
0.055246684700250626 -0.043910268694162369 -0.175491213798522949 0.055711880326271057 -0.127806171774864197 -0.150529444217681885 0.139718949794769287 0.006422422360628843 0.241073206067085266 -0.211119607090950012 -0.071178600192070007 -0.058225475251674652 -0.012841300107538700 -0.163323447108268738 0.017325161024928093 0.185943916440010071 -0.027940457686781883 -0.181229636073112488 0.155974805355072021 -0.150165706872940063 0.112820304930210114 0.196993350982666016 -0.007493470795452595 -0.206668481230735779 -0.124231845140457153 0.061485521495342255 0.215048968791961670 0.049700826406478882 0.155747219920158386 0.160052657127380371 0.002388546243309975 -0.045787021517753601 0.061154551804065704 0.116454064846038818 -0.063908517360687256 -0.074409998953342438 -0.164976567029953003 -0.133166924118995667 0.105374425649642944 -0.032309256494045258 0.122366003692150116 0.045860260725021362 0.018733559176325798 -0.170579284429550171 -0.019256457686424255 0.049286849796772003 0.008112829178571701 0.114645428955554962 0.074169553816318512 -0.177145078778266907 0.106956094503402710 -0.100788846611976624 0.160748586058616638 -0.115332998335361481 -0.111670725047588348 0.085676409304141998 0.138600647449493408 -0.007228113245218992 0.061397418379783630 -0.001328540267422795 0.114950649440288544 -0.139671489596366882 0.037635102868080139 0.055413547903299332 0.149559050798416138 -0.054382316768169403 0.111310139298439026 0.086717501282691956 -0.087917581200599670 -0.063229590654373169 -0.156174704432487488 -0.026790615171194077 0.064226701855659485 -0.075051188468933105 0.231410041451454163 0.033132437616586685 0.076244615018367767 0.192654356360435486 -0.200068369507789612 0.120160557329654694 0.099484860897064209 -0.043365888297557831 0.080267116427421570 0.101661637425422668 -0.173321574926376343 0.165630832314491272 -0.046548731625080109 -0.334556192159652710 0.156690418720245361 -0.036725290119647980 0.135898381471633911 -0.073552362620830536 0.165504947304725647 -0.088502280414104462 0.012819034978747368 -0.039837263524532318 -0.089498206973075867 -0.075320415198802948 -0.175796478986740112 -0.069119051098823547
-0.215163752436637878 0.184978842735290527 0.116021037101745605 0.147797957062721252 -0.138641044497489929 -0.088075667619705200 0.126778900623321533 -0.056049797683954239 0.058069512248039246 -0.003009375883266330 -0.004103575833141804 -0.049765318632125854 0.150040358304977417 -0.102778322994709015 -0.047302834689617157 0.124822467565536499 0.073850601911544800 -0.125909760594367981 0.036773718893527985 0.055160485208034515 -0.167108356952667236 0.002040494000539184 0.023824052885174751 -0.117554411292076111 -0.196522712707519531 0.119234584271907806 -0.025401348248124123 -0.001594256842508912 0.078992262482643127 -0.059525411576032639 0.007071632891893387 0.110199153423309326 0.057594433426856995 0.074080780148506165 0.258639603853225708 0.063827745616436005 0.024523280560970306 0.109548710286617279 -0.065214782953262329 0.121106654405593872 -0.157060936093330383 -0.158444061875343323 0.084169737994670868 -0.099644653499126434 -0.039252243936061859 0.012251624837517738 -0.159193679690361023 -0.145331382751464844 -0.038180954754352570 0.046514589339494705 0.125559717416763306 0.022058017551898956 -0.156237900257110596 0.119120433926582336 -0.279935926198959351 -0.068616665899753571 -0.165790036320686340 -0.142761692404747009 -0.020634323358535767 0.145519718527793884 0.115004383027553558 0.016572766005992889 -0.057612527161836624 -0.143461078405380249 0.100561529397964478 0.093862645328044891 -0.092199034988880157 -0.106755964457988739 -0.022609857842326164 0.074524194002151489 0.082432493567466736 0.176233991980552673 0.117138423025608063 -0.221246987581253052 -0.137850627303123474 0.139498144388198853 0.053806524723768234 0.078935869038105011 0.107709698379039764 -0.007679222151637077 -0.099817059934139252 -0.145610705018043518 0.187456786632537842 -0.042881812900304794 0.219888970255851746 -0.007551320362836123 0.129914656281471252 -0.116325311362743378 -0.030133634805679321 -0.124561540782451630 0.007048451341688633 0.120760574936866760 -0.058652609586715698 -0.149440571665763855 0.150376111268997192 0.085560031235218048 0.048936594277620316 -0.143711745738983154 -0.077050678431987762 0.077240996062755585
0.040558349341154099 -0.072282716631889343 0.190087646245956421 0.063076704740524292 0.206470072269439697 0.039510853588581085 0.049868993461132050 -0.003885517129674554 -0.078330792486667633 0.008545930497348309 -0.046507816761732101 -0.096581794321537018 -0.218488171696662903 0.096675328910350800 -0.016492987051606178 -0.045705508440732956 -0.054313562810420990 -0.026917109265923500 0.030984748154878616 0.030596207827329636 0.053891733288764954 -0.023379798978567123 -0.066092208027839661 -0.059802606701850891 0.073607094585895538 -0.071868531405925751 -0.039483439177274704 -0.056369207799434662 0.070126675069332123 -0.074646644294261932 -0.146682158112525940 0.151139140129089355 -0.010012367740273476 0.034528821706771851 0.230881720781326294 0.011032783426344395 0.081365890800952911 -0.045220747590065002 0.053640559315681458 0.005262602586299181 -0.133963659405708313 -0.068627789616584778 -0.034101188182830811 0.086472749710083008 0.110068678855895996 -0.075302526354789734 0.105421692132949829 -0.074924461543560028 0.178141355514526367 -0.082896716892719269 -0.019478026777505875 0.107305914163589478 -0.184767097234725952 0.032048512250185013 -0.125707089900970459 0.168448656797409058 -0.100911349058151245 0.060902766883373260 -0.031987309455871582 -0.039546005427837372 0.065819054841995239 0.008481645956635475 -0.061924673616886139 0.017732484266161919 -0.091551847755908966 0.074427247047424316 -0.019036555662751198 -0.155350506305694580 -0.011859243735671043 0.038548629730939865 0.125187054276466370 -0.087954007089138031 -0.062559917569160461 0.106406167149543762 -0.141972228884696960 -0.115720085799694061 -0.130785554647445679 0.055951192975044250 -0.100256130099296570 -0.137293413281440735 0.053517594933509827 0.080576539039611816 -0.178640216588973999 -0.042383927851915359 -0.117530927062034607 0.074710555374622345 -0.017190206795930862 0.081459283828735352 0.140019699931144714 0.140800878405570984 -0.129957377910614014 0.114430174231529236 0.017896832898259163 0.036351963877677917 -0.004385422915220261 0.094771109521389008 0.090762637555599213 -0.027089640498161316 -0.074695490300655365 -0.008157561533153057
0.294895321130752563 0.119713596999645233 -0.012778123840689659 -0.167026460170745850 -0.045878533273935318 -0.031354382634162903 0.156341031193733215 -0.083212330937385559 0.082530692219734192 0.226005703210830688 0.086489960551261902 -0.038779791444540024 0.112927645444869995 -0.118927411735057831 -0.035269942134618759 -0.034380763769149780 -0.097192071378231049 0.053867258131504059 0.081415265798568726 -0.072639673948287964 0.163667172193527222 0.153558701276779175 0.054025221616029739 0.089591756463050842 0.109254725277423859 0.002925159176811576 0.206834837794303894 -0.295018464326858521 -0.085348777472972870 -0.118241980671882629 -0.166359379887580872 0.114536188542842865 -0.022178070619702339 0.061408851295709610 0.081780284643173218 -0.118559882044792175 -0.003561442252248526 -0.071648173034191132 0.072927400469779968 0.022661458700895309 0.073563203215599060 0.091791734099388123 0.107025012373924255 0.235494226217269897 0.286769062280654907 0.119606070220470428 0.093573644757270813 0.142244830727577209 -0.080712981522083282 0.012005731463432312 0.012642750516533852 0.043645322322845459 -0.026797793805599213 0.198473587632179260 -0.319022297859191895 0.097007617354393005 -0.160893917083740234 0.141494601964950562 -0.145397424697875977 -0.160779163241386414 0.158006325364112854 0.015615706332027912 -0.142337873578071594 -0.089413814246654510 -0.004861920140683651 -0.033232290297746658 0.053027421236038208 -0.125656217336654663 -0.094065390527248383 0.012877172790467739 -0.097054198384284973 0.000791812257375568 0.022053571417927742 0.150770202279090881 0.048041496425867081 0.085634030401706696 0.071173809468746185 0.129099965095520020 -0.127708554267883301 -0.043746881186962128 0.044999066740274429 0.062294036149978638 0.066372826695442200 -0.050787799060344696 -0.236756771802902222 0.015659937635064125 0.057447832077741623 0.103174105286598206 0.187512397766113281 0.034297294914722443 0.131314694881439209 0.009783930145204067 0.032098304480314255 0.106259919703006744 -0.041220750659704208 -0.132931023836135864 -0.003556579118594527 0.119310379028320312 -0.149084478616714478 0.037125714123249054
0.154949337244033813 -0.138838008046150208 -0.104093961417675018 0.127333134412765503 0.112470440566539764 -0.013858363963663578 0.099232159554958344 0.129843935370445251 -0.139517933130264282 0.123940259218215942 0.007446044590324163 0.131981283426284790 0.006131689529865980 -0.014364839531481266 0.037926502525806427 0.112295433878898621 0.188725084066390991 0.092064097523689270 0.195370584726333618 -0.003951993770897388 0.138876974582672119 -0.052052829414606094 0.075437419116497040 -0.003061257302761078 0.125642985105514526 -0.091079607605934143 -0.168337374925613403 -0.039206344634294510 0.026932585984468460 -0.014388406649231911 -0.019257660955190659 -0.104111768305301666 0.119340457022190094 0.122473970055580139 -0.136545121669769287 -0.224503070116043091 -0.085086248815059662 -0.026833619922399521 0.071545526385307312 0.039441574364900589 0.175870224833488464 0.149767071008682251 0.038269072771072388 0.045631125569343567 0.224022135138511658 0.201982274651527405 -0.054927174001932144 -0.176617577672004700 -0.038481168448925018 -0.093049377202987671 0.071377776563167572 0.101848103106021881 -0.065441302955150604 0.084376581013202667 -0.104807734489440918 -0.026498004794120789 -0.177030965685844421 0.195381686091423035 0.137171402573585510 0.081974215805530548 -0.066235832870006561 -0.067600399255752563 -0.053284905850887299 0.225253939628601074 -0.111940436065196991 -0.030035780742764473 -0.037181198596954346 0.151910230517387390 -0.064051575958728790 -0.052711427211761475 -0.074523158371448517 0.115469478070735931 0.067203499376773834 0.214769154787063599 0.028686268255114555 -0.125007569789886475 0.019738787785172462 -0.017968969419598579 -0.099535852670669556 -0.104663372039794922 0.212861940264701843 0.029280744493007660 -0.210774928331375122 -0.082535237073898315 -0.167152538895606995 -0.163716778159141541 -0.003462041728198528 0.173100680112838745 -0.155375689268112183 -0.124224513769149780 -0.066519476473331451 0.043718334287405014 0.029087265953421593 0.162990242242813110 0.050362404435873032 -0.166907995939254761 0.009363474324345589 -0.008548348210752010 -0.006229277700185776 -0.015621103346347809
-0.062327288091182709 0.006814473308622837 0.170823231339454651 -0.139173358678817749 -0.013355684466660023 0.133898615837097168 -0.083597443997859955 0.019635595381259918 0.148772448301315308 -0.224357962608337402 -0.000338829995598644 0.047495547682046890 -0.202205613255500793 -0.075834505259990692 -0.064682163298130035 -0.178548485040664673 -0.051587533205747604 0.047769527882337570 -0.007966841571033001 0.158390522003173828 0.023237640038132668 0.130188137292861938 -0.034554194658994675 -0.034183856099843979 0.016197204589843750 -0.074338540434837341 -0.314573466777801514 0.094917520880699158 -0.042333945631980896 -0.017683550715446472 -0.085145145654678345 -0.120924189686775208 0.029541036114096642 -0.018150320276618004 0.121352396905422211 -0.038280408829450607 0.153820231556892395 -0.098779119551181793 0.043856572359800339 0.051107306033372879 -0.162673056125640869 0.128989890217781067 0.091032624244689941 -0.141503676772117615 -0.034925509244203568 -0.127097994089126587 0.125710844993591309 0.026233589276671410 -0.060322955250740051 0.022315375506877899 -0.014349726960062981 0.023356705904006958 -0.177045658230781555 0.097472116351127625 0.023439483717083931 0.166284441947937012 -0.026302153244614601 0.147246435284614563 -0.148789837956428528 -0.031138360500335693 -0.025226974859833717 -0.072535187005996704 0.072729244828224182 -0.118019483983516693 0.094239734113216400 -0.054657038301229477 0.026142584159970284 -0.004090186208486557 -0.099260784685611725 -0.083707392215728760 -0.122268162667751312 0.012262495234608650 -0.189133733510971069 -0.120926521718502045 -0.003917053807526827 -0.109473854303359985 -0.168805047869682312 0.072808213531970978 -0.143552228808403015 -0.114177614450454712 0.041107133030891418 0.013957602903246880 0.079132534563541412 0.080569751560688019 0.120533205568790436 -0.086437553167343140 0.084071062505245209 0.145739242434501648 0.020087614655494690 0.125249624252319336 -0.103191323578357697 -0.178495645523071289 -0.098217502236366272 -0.046818681061267853 -0.178301587700843811 0.040599890053272247 0.076819002628326416 0.038472160696983337 -0.116447195410728455 0.089894436299800873
0.131549060344696045 -0.129148840904235840 0.162734404206275940 -0.025742713361978531 0.111719034612178802 0.055444981902837753 0.200523361563682556 -0.115556061267852783 0.083785310387611389 -0.023092508316040039 -0.007214069832116365 0.010262843221426010 0.076219819486141205 -0.004538490436971188 0.182443365454673767 -0.025175008922815323 0.059165991842746735 -0.154162287712097168 0.132789790630340576 -0.028766596689820290 -0.031450692564249039 -0.078161954879760742 0.047340068966150284 -0.075611174106597900 0.238651841878890991 -0.099502407014369965 0.030012799426913261 -0.026367712765932083 -0.141803801059722900 0.113562151789665222 -0.003685708390548825 -0.143461167812347412 0.116768673062324524 0.068944483995437622 0.102514140307903290 -0.117485947906970978 -0.012350413016974926 -0.009803500957787037 -0.060177255421876907 -0.066423535346984863 -0.120965659618377686 0.143148750066757202 -0.039084482938051224 -0.072151035070419312 -0.002277710475027561 0.062456171959638596 -0.018410542979836464 -0.163880422711372375 -0.034372396767139435 0.045892428606748581 -0.277363777160644531 -0.045362886041402817 -0.034015294164419174 -0.058139465749263763 -0.024889253079891205 0.046988740563392639 -0.025121871381998062 0.148567453026771545 0.193036526441574097 -0.178602412343025208 0.193346649408340454 0.143561735749244690 0.125686451792716980 0.136721432209014893 0.154855892062187195 0.014388813637197018 0.036867540329694748 -0.170646131038665771 -0.199998959898948669 -0.144853755831718445 0.145282343029975891 -0.040594097226858139 0.018323652446269989 0.226330950856208801 -0.021548951044678688 -0.149718314409255981 0.026907168328762054 0.092125654220581055 0.068826608359813690 -0.003597878385335207 0.037767875939607620 -0.085775442421436310 0.073794215917587280 -0.190576732158660889 -0.250419467687606812 0.095476537942886353 0.079740256071090698 0.092825494706630707 0.203687220811843872 -0.058436103165149689 -0.128235846757888794 0.049651488661766052 0.084153331816196442 -0.073856569826602936 -0.002687012543901801 -0.086619973182678223 -0.130115658044815063 -0.081001512706279755 -0.235352516174316406 0.094424270093441010
-0.148717075586318970 -0.145348966121673584 0.310264527797698975 0.193208023905754089 0.149291440844535828 0.045421607792377472 0.073666751384735107 0.051829565316438675 -0.003781684208661318 -0.107435241341590881 0.174302250146865845 -0.130038678646087646 -0.235806211829185486 0.168455705046653748 -0.052030351012945175 0.078165814280509949 -0.159817948937416077 -0.129507750272750854 -0.242628112435340881 0.274139225482940674 -0.139467895030975342 -0.199909210205078125 0.292431324720382690 0.170620799064636230 -0.031943291425704956 0.073209248483181000 -0.014584667980670929 0.098616465926170349 -0.065923310816287994 0.084702260792255402 -0.037718787789344788 -0.199790999293327332 -0.037021454423666000 -0.173653215169906616 0.140502765774726868 0.169880643486976624 0.227589011192321777 0.180611103773117065 -0.004932128824293613 -0.191871732473373413 -0.088851496577262878 0.227392494678497314 -0.074532106518745422 -0.211334511637687683 -0.061624348163604736 0.081282615661621094 0.176524370908737183 0.190084189176559448 0.078039884567260742 0.082484625279903412 0.029368381947278976 -0.030750544741749763 -0.194525495171546936 -0.234599903225898743 0.414621293544769287 0.275100946426391602 0.211818769574165344 -0.056060712784528732 0.174239933490753174 -0.085942424833774567 -0.163681551814079285 -0.089406445622444153 0.156198978424072266 0.164520695805549622 -0.115704543888568878 0.082174509763717651 -0.042693458497524261 0.105674393475055695 -0.185056045651435852 -0.103808492422103882 0.197073280811309814 -0.058742363005876541 0.151268735527992249 0.104464150965213776 -0.028644483536481857 -0.078202731907367706 -0.423921197652816772 -0.156380951404571533 0.114049255847930908 0.214651927351951599 -0.155826330184936523 -0.082852594554424286 0.176495105028152466 -0.003789834678173065 0.283909440040588379 0.096859842538833618 -0.023456636816263199 -0.070066213607788086 0.023111518472433090 -0.149056389927864075 -0.262499868869781494 -0.269083559513092041 0.164997771382331848 0.047153402119874954 -0.043797146528959274 -0.011975687928497791 0.131878048181533813 0.065433748066425323 -0.077919885516166687 -0.147251650691032410
