#Layer 8 Weights:
0.090388230979442596
0.117790743708610535
0.165641993284225464
-0.150018036365509033
-0.154700547456741333
0.082654781639575958
0.035837210714817047
0.117500707507133484
-0.004309959243983030
0.021446835249662399
-0.180214390158653259
0.070669360458850861
-0.173169776797294617
-0.071278385818004608
0.158334553241729736
0.008791820146143436
0.076228685677051544
0.206590726971626282
0.042824864387512207
-0.192177578806877136
0.127350270748138428
-0.195950984954833984
0.193348690867424011
-0.084417127072811127
0.054084874689579010
-0.100174903869628906
0.009015808813273907
-0.001123164547607303
0.133571460843086243
-0.030553743243217468
0.011012403294444084
0.020638879388570786
0.199131354689598083
-0.199373304843902588
-0.092438206076622009
0.012689553201198578
0.078517764806747437
0.006857134401798248
0.146920397877693176
0.209834456443786621
0.129470348358154297
-0.012232585810124874
0.015413829125463963
-0.126633405685424805
-0.036213997751474380
0.207163155078887939
0.039527323096990585
-0.021269066259264946
0.048871520906686783
-0.040616102516651154
0.223380625247955322
-0.153189241886138916
-0.023183191195130348
0.117263555526733398
-0.060156639665365219
-0.155208513140678406
0.242158606648445129
0.155355438590049744
-0.042176753282546997
0.062047746032476425
0.005393087398260832
0.233270391821861267
-0.144545331597328186
-0.059110380709171295
0.046054836362600327
-0.170991674065589905
-0.003554761642590165
-0.177169993519783020
-0.117439419031143188
-0.046025548130273819
-0.026795361191034317
-0.000395363458665088
0.134056717157363892
0.005911741871386766
-0.068610079586505890
0.127432450652122498
-0.158619776368141174
0.070131450891494751
0.183747872710227966
0.058765288442373276
-0.096498288214206696
0.187335401773452759
-0.081181868910789490
-0.008313194848597050
-0.014834705740213394
-0.210930541157722473
0.118336826562881470
0.183807104825973511
-0.178886368870735168
0.102516911923885345
-0.077702976763248444
-0.235360220074653625
-0.192762732505798340
0.112695984542369843
-0.167942255735397339
-0.016887500882148743
-0.168427437543869019
0.188448831439018250
-0.111293755471706390
0.004254038911312819
