#Layer 2 Weights:
-0.155778899788856506 0.014708999544382095 0.155478939414024353 -0.022559061646461487 0.168468117713928223 0.107084572315216064 0.045860577374696732 0.246145248413085938 0.051987975835800171 -0.178399771451950073 -0.059224795550107956 -0.134926840662956238 -0.086496211588382721 0.150527209043502808 0.037448205053806305 0.082513302564620972 -0.213001549243927002 -0.113107912242412567 -0.096255622804164886 0.014155472628772259 -0.127891942858695984 -0.151497587561607361 0.059939566999673843 0.006241451017558575 0.007166806142777205 0.156219214200973511 0.076895147562026978 -0.016526497900485992 0.152429118752479553 -0.111121125519275665 -0.055125806480646133 0.068905822932720184 -0.009941793978214264 0.040204856544733047 -0.184224039316177368 0.035122457891702652 0.137794792652130127 -0.255706876516342163 0.127917379140853882 0.033988550305366516 0.054542023688554764 -0.034527517855167389 -0.020771903917193413 -0.139725655317306519 -0.182628437876701355 -0.146190971136093140 -0.163513675332069397 0.016499260440468788 0.012635554186999798 0.092612840235233307 0.187930569052696228 -0.079753845930099487 -0.257883459329605103 0.121355094015598297 0.135028943419456482 0.136793002486228943 0.118416443467140198 -0.074960887432098389 0.122493289411067963 0.198504120111465454 0.115187458693981171 0.122869268059730530 0.039181798696517944 -0.157227322459220886 -0.013229187577962875 -0.032604485750198364 0.093951821327209473 -0.085644155740737915 -0.167665034532546997 0.295196145772933960 0.197184771299362183 -0.059579808264970779 0.029074626043438911 -0.164714202284812927 -0.013767715543508530 -0.131837248802185059 0.016631765291094780 0.058109477162361145 0.133969098329544067 0.171916767954826355 0.021959947422146797 0.116812936961650848 -0.170601785182952881 -0.096612654626369476 0.097041428089141846 0.095670789480209351 0.065805010497570038 0.186406403779983521 -0.027817979454994202 -0.038454070687294006 0.116768851876258850 -0.205790773034095764 -0.069418691098690033 0.022627200931310654 -0.249707177281379700 0.137931808829307556 0.246349483728408813 -0.149501115083694458 0.100524716079235077 -0.156049519777297974
0.089305363595485687 -0.045195989310741425 -0.200878977775573730 0.024104792624711990 -0.099815227091312408 -0.062637254595756531 -0.013180975802242756 -0.233180522918701172 -0.047696948051452637 0.074653677642345428 -0.026093309745192528 0.070138797163963318 -0.115932434797286987 0.080140434205532074 0.167789429426193237 0.055135998874902725 0.104501381516456604 -0.059087630361318588 0.139960631728172302 0.007737000938504934 -0.086101599037647247 0.108727224171161652 0.082402266561985016 0.103534758090972900 -0.059408746659755707 -0.187221258878707886 0.167537495493888855 -0.202320888638496399 -0.002354203490540385 0.172928512096405029 -0.006123920902609825 0.185303494334220886 -0.051460359245538712 -0.096856966614723206 0.147267580032348633 -0.042047858238220215 0.128776624798774719 0.380278527736663818 -0.070938341319561005 0.006136243697255850 0.163613796234130859 -0.023501995950937271 0.094894416630268097 -0.148645028471946716 0.041256491094827652 0.118853971362113953 0.086937256157398224 -0.189507365226745605 -0.173763990402221680 0.108194038271903992 0.058612551540136337 -0.084705382585525513 0.075377486646175385 -0.253942787647247314 -0.185028448700904846 0.051550090312957764 -0.294556528329849243 -0.097649477422237396 0.157659322023391724 -0.061864051967859268 -0.214129999279975891 -0.000430153275374323 0.136138692498207092 -0.079344719648361206 -0.084648542106151581 0.095133855938911438 -0.120207890868186951 0.249176442623138428 0.075479447841644287 -0.161194458603858948 0.102031089365482330 -0.093277171254158020 0.008138463832437992 0.170997634530067444 -0.092019416391849518 -0.053555004298686981 0.082960300147533417 -0.091497808694839478 -0.129932925105094910 -0.117955461144447327 -0.024119855836033821 0.035469081252813339 -0.079743102192878723 0.092183895409107208 0.125154808163642883 -0.182201012969017029 -0.046867411583662033 -0.038171291351318359 -0.133736878633499146 0.029464472085237503 -0.077666431665420532 0.320229589939117432 0.138231322169303894 0.013001311570405960 -0.101948834955692291 0.090240351855754852 -0.215483427047729492 0.162581428885459900 0.058933958411216736 -0.112346932291984558
0.105650417506694794 0.060727365314960480 -0.133805498480796814 0.099598668515682220 -0.118479683995246887 0.059724394232034683 0.011155512183904648 0.023095911368727684 -0.178551077842712402 0.204187333583831787 0.219635903835296631 0.111142426729202271 0.293128281831741333 -0.046854097396135330 -0.063687436282634735 -0.044157147407531738 0.107592999935150146 -0.199576780200004578 0.055741298943758011 -0.197829574346542358 0.101934038102626801 -0.043872229754924774 -0.068402148783206940 0.181292861700057983 0.106515206396579742 -0.231995359063148499 -0.033021416515111923 -0.042856741696596146 -0.048500087112188339 -0.061522897332906723 -0.139859974384307861 -0.004863385111093521 -0.271924734115600586 -0.032746601849794388 0.189469456672668457 -0.137778073549270630 -0.080971606075763702 0.423177063465118408 -0.141842603683471680 -0.366447269916534424 0.047215510159730911 -0.140555933117866516 0.081136040389537811 0.066665202379226685 0.409923881292343140 0.109977692365646362 0.091663703322410583 -0.189064964652061462 0.184574186801910400 -0.122492082417011261 -0.002806124044582248 0.004517482593655586 0.083601355552673340 -0.101585358381271362 -0.152659878134727478 -0.085074111819267273 -0.271016091108322144 0.270572602748870850 0.043035775423049927 0.119244202971458435 0.151888430118560791 -0.225848495960235596 0.072548761963844299 -0.046328116208314896 0.242001727223396301 -0.059149362146854401 -0.185977071523666382 0.439793616533279419 0.244176819920539856 -0.231519713997840881 -0.261903136968612671 -0.102974124252796173 -0.214844986796379089 0.102935865521430969 0.211262300610542297 0.088478177785873413 0.303479373455047607 0.048818681389093399 -0.140805765986442566 0.073356449604034424 0.141009524464607239 0.035763308405876160 0.023454271256923676 0.082482941448688507 -0.040849953889846802 -0.208838567137718201 0.176147967576980591 -0.044746458530426025 0.144627362489700317 0.184066712856292725 -0.080215409398078918 0.037810035049915314 0.037720996886491776 -0.407567501068115234 0.305695921182632446 0.009572457522153854 -0.046969328075647354 0.004834392108023167 0.056516006588935852 -0.058467093855142593
0.028291769325733185 -0.218758821487426758 -0.229093745350837708 -0.029390249401330948 -0.066431567072868347 0.170784264802932739 -0.086419031023979187 -0.200233712792396545 -0.243405565619468689 0.097131073474884033 0.119881585240364075 -0.091666921973228455 0.137016788125038147 -0.082418404519557953 0.140150606632232666 0.107675753533840179 0.027280986309051514 -0.296510726213455200 -0.054007671773433685 -0.075001478195190430 -0.176009878516197205 0.108293160796165466 -0.084579236805438995 -0.109766229987144470 0.072844743728637695 -0.039413880556821823 0.088766776025295258 -0.352857977151870728 -0.111897803843021393 0.263146817684173584 -0.119009032845497131 0.088331721723079681 -0.174698799848556519 0.178603053092956543 0.100891381502151489 0.025700915604829788 0.032570239156484604 0.310905098915100098 -0.055896081030368805 -0.257165580987930298 0.215917706489562988 -0.248186171054840088 0.205065265297889709 0.322600692510604858 0.228161498904228210 -0.047765634953975677 -0.130718201398849487 -0.130230113863945007 -0.211205989122390747 0.006631396710872650 -0.080712027847766876 0.198627397418022156 -0.080916769802570343 -0.087004795670509338 -0.267724901437759399 0.025867125019431114 -0.082943566143512726 0.180380016565322876 0.138602823019027710 0.068476498126983643 -0.067070692777633667 -0.117791041731834412 0.310625344514846802 0.206662908196449280 -0.209471210837364197 0.197716429829597473 -0.141330108046531677 0.421470552682876587 0.242867976427078247 -0.172951504588127136 -0.055853955447673798 -0.383512079715728760 -0.152164876461029053 0.161035031080245972 0.136897072196006775 0.044002596288919449 0.127681881189346313 0.093301929533481598 0.031781893223524094 0.190652802586555481 0.047719389200210571 -0.178576245903968811 0.050539664924144745 0.018461454659700394 0.203386098146438599 -0.357003182172775269 -0.150526806712150574 -0.244577378034591675 0.293144345283508301 0.178686872124671936 0.026312679052352905 0.436954945325851440 0.172251284122467041 -0.226677522063255310 0.037656769156455994 0.070237949490547180 -0.264739096164703369 0.382651776075363159 0.133400663733482361 -0.087349958717823029
-0.035425681620836258 -0.169255807995796204 -0.177309513092041016 0.254072725772857666 -0.204411834478378296 0.006557969842106104 -0.222862273454666138 -0.187203168869018555 -0.182477533817291260 0.024027161300182343 0.105256944894790649 -0.142210930585861206 0.117192044854164124 -0.053184110671281815 0.055078860372304916 0.137044727802276611 0.068915873765945435 -0.252414584159851074 0.074831843376159668 -0.128243699669837952 -0.104029409587383270 -0.029002536088228226 -0.160431504249572754 -0.175987899303436279 0.107019394636154175 -0.317125767469406128 -0.033180397003889084 -0.065594263374805450 0.080358259379863739 0.122075557708740234 -0.133094459772109985 -0.077228732407093048 0.129189014434814453 -0.052289754152297974 -0.068042337894439697 -0.120113983750343323 0.081404492259025574 0.293557256460189819 -0.015531001612544060 -0.294082850217819214 0.059872537851333618 -0.515030503273010254 0.117228083312511444 0.095455378293991089 0.215840801596641541 -0.156903341412544250 0.089704126119613647 -0.120937585830688477 0.037186861038208008 0.171386122703552246 -0.061687011271715164 -0.057306587696075439 0.141475856304168701 -0.067604474723339081 -0.085323140025138855 -0.071515709161758423 -0.232619687914848328 -0.157716020941734314 0.137787520885467529 -0.145946621894836426 -0.114364713430404663 -0.195160448551177979 0.300020217895507812 0.194810390472412109 -0.147635638713836670 0.187041684985160828 -0.014887814410030842 0.335176914930343628 0.229430258274078369 -0.047046836465597153 0.098712258040904999 -0.319578915834426880 -0.112040840089321136 -0.027567230165004730 0.041128296405076981 -0.083228282630443573 0.165250390768051147 -0.056251335889101028 -0.067124769091606140 -0.126354679465293884 0.116275198757648468 -0.118697367608547211 0.047508735209703445 -0.113514237105846405 0.215210720896720886 -0.280362904071807861 -0.215589210391044617 -0.206631138920783997 -0.142800807952880859 0.294906854629516602 -0.200891882181167603 0.372118413448333740 0.405048429965972900 -0.274220556020736694 0.012357727624475956 0.118236020207405090 -0.160932302474975586 0.056367482990026474 0.108309917151927948 -0.311133921146392822
-0.211196929216384888 0.194327831268310547 0.034474115818738937 0.000671477755531669 0.022724132984876633 -0.035811617970466614 0.067167043685913086 0.255353420972824097 0.131785154342651367 0.046309299767017365 -0.063289903104305267 -0.034617867320775986 -0.102721452713012695 0.035863086581230164 0.019587835296988487 -0.026039456948637962 0.060289602726697922 0.061530448496341705 -0.220527395606040955 0.170793890953063965 -0.059577763080596924 0.004869250115007162 -0.008013033308088779 -0.193906292319297791 0.076507151126861572 0.384769558906555176 0.058064322918653488 0.235802218317985535 0.199699416756629944 -0.175692722201347351 -0.037483081221580505 -0.097339123487472534 0.123205244541168213 0.020749753341078758 -0.069063507020473480 -0.114213995635509491 -0.012918208725750446 -0.212292015552520752 -0.028469957411289215 0.188574716448783875 -0.267588973045349121 0.497163116931915283 0.113650143146514893 -0.101154416799545288 -0.227955251932144165 -0.120669171214103699 -0.155263841152191162 0.154978692531585693 -0.040486328303813934 0.059236977249383926 0.027920890599489212 -0.163051858544349670 -0.274690359830856323 0.334196269512176514 0.177564561367034912 -0.019462749361991882 0.388908952474594116 -0.229969158768653870 0.005307528190314770 -0.022593228146433830 0.174390703439712524 0.315931946039199829 -0.164822012186050415 0.048948295414447784 -0.106547862291336060 -0.036615952849388123 0.122014343738555908 -0.413805752992630005 -0.354688644409179688 0.197557687759399414 0.034233067184686661 -0.041121978312730789 -0.079575091600418091 -0.098214529454708099 -0.117879308760166168 -0.056881912052631378 -0.170866221189498901 -0.092070579528808594 -0.012149461545050144 -0.044836256653070450 0.008877773769199848 0.046670589596033096 0.190264478325843811 0.005184340290725231 -0.176675587892532349 0.152723878622055054 0.039829384535551071 0.015160079114139080 -0.078224390745162964 -0.124266438186168671 0.037185661494731903 0.037634834647178650 -0.483122974634170532 0.340391963720321655 0.044623002409934998 -0.178050756454467773 0.289620697498321533 -0.130929544568061829 -0.019940171390771866 0.218968227505683899
0.032110702246427536 -0.044142771512269974 -0.045656472444534302 -0.085673801600933075 0.148449406027793884 -0.122356146574020386 0.114577375352382660 0.138130366802215576 0.057245843112468719 -0.054546646773815155 -0.071009024977684021 -0.133185535669326782 -0.059921521693468094 0.050032734870910645 0.103686757385730743 -0.009997034445405006 0.047901365906000137 -0.000367137370631099 -0.284642308950424194 0.029545364901423454 0.040109895169734955 0.028341732919216156 0.049900628626346588 0.110546000301837921 0.002109487541019917 0.241214618086814880 -0.196735426783561707 0.252332925796508789 0.132542818784713745 0.144762739539146423 0.168210610747337341 0.062128230929374695 0.243453651666641235 -0.040776155889034271 -0.064876705408096313 -0.009003370068967342 0.011801328510046005 -0.270324677228927612 0.122093565762042999 0.222205296158790588 -0.162268579006195068 0.346280187368392944 -0.075211115181446075 0.069145038723945618 0.048387113958597183 -0.070353515446186066 -0.226882413029670715 0.124973855912685394 0.124241985380649567 -0.097567066550254822 0.005299692507833242 -0.047209866344928741 -0.180322483181953430 0.063036061823368073 0.220058590173721313 -0.101712599396705627 0.207341954112052917 -0.056421764194965363 -0.199948489665985107 0.062341094017028809 0.244637221097946167 0.164660334587097168 -0.100272677838802338 -0.038036894053220749 -0.095127940177917480 0.065439872443675995 0.221519678831100464 -0.284270167350769043 -0.096420153975486755 -0.123260796070098877 -0.164515167474746704 0.113986000418663025 0.078671403229236603 -0.103174194693565369 -0.131889775395393372 0.143756747245788574 -0.195292428135871887 -0.106977291405200958 0.018605111166834831 0.168227702379226685 -0.035812463611364365 0.033946484327316284 -0.032798230648040771 0.126356646418571472 0.080878339707851410 0.220567807555198669 -0.049593418836593628 0.108274042606353760 -0.041251070797443390 -0.089913584291934967 0.176172509789466858 -0.207942545413970947 -0.077953182160854340 0.336784988641738892 0.126501426100730896 0.163287580013275146 0.127679154276847839 -0.081043183803558350 0.007014256436377764 0.015792902559041977
-0.031224368140101433 -0.159927517175674438 -0.081356175243854523 0.064298152923583984 -0.079696677625179291 0.106999546289443970 0.168648093938827515 -0.198608949780464172 -0.121196605265140533 -0.129889011383056641 -0.062643282115459442 -0.260863989591598511 0.124532662332057953 0.229561686515808105 0.245513603091239929 -0.095822781324386597 0.101499736309051514 -0.194407910108566284 0.101514481008052826 0.257134675979614258 -0.249832674860954285 -0.192957565188407898 -0.008683124557137489 0.010915591381490231 -0.101740099489688873 0.079401403665542603 -0.031908400356769562 -0.191530123353004456 -0.128880083560943604 0.157093867659568787 0.011966810561716557 0.118336692452430725 0.089661158621311188 0.114920340478420258 -0.031128469854593277 0.147558808326721191 -0.115790843963623047 -0.128953248262405396 0.187023997306823730 0.156270816922187805 -0.133819028735160828 0.067613184452056885 0.200321540236473083 0.124580472707748413 0.021543044596910477 0.017231352627277374 -0.048404332250356674 0.094900630414485931 -0.006469004321843386 0.165121585130691528 -0.121082462370395660 -0.028328891843557358 -0.151909247040748596 0.088886350393295288 0.098209261894226074 -0.084913231432437897 0.081057541072368622 0.143960118293762207 0.092007838189601898 -0.146819949150085449 0.160723760724067688 0.083354137837886810 -0.017703555524349213 -0.097234323620796204 0.021132003515958786 0.037597812712192535 -0.005171732045710087 -0.122607976198196411 0.035617686808109283 0.064994901418685913 -0.052082113921642303 -0.200346365571022034 -0.208635926246643066 -0.015035906806588173 0.230407893657684326 0.087157160043716431 -0.112100459635257721 0.099261410534381866 0.066513270139694214 0.221456110477447510 0.215489596128463745 -0.175526335835456848 0.045349888503551483 0.069535046815872192 0.063396021723747253 0.068105943500995636 0.079896077513694763 -0.027939215302467346 -0.065207406878471375 0.072309777140617371 -0.038679067045450211 0.213223144412040710 -0.027166346088051796 -0.092430062592029572 -0.124213300645351410 0.076270654797554016 -0.143803402781486511 0.175724476575851440 -0.045929946005344391 -0.077478274703025818
0.041072834283113480 0.062927693128585815 0.189711630344390869 -0.013763748109340668 0.253167241811752319 -0.098846428096294403 0.003564517013728619 -0.071108877658843994 0.075395785272121429 0.072429768741130829 0.114683680236339569 0.209117278456687927 -0.061564214527606964 0.114899396896362305 -0.118823528289794922 0.113794930279254913 -0.055674850940704346 0.021483743563294411 0.028377819806337357 -0.117234773933887482 0.001200353261083364 -0.102590173482894897 0.112318232655525208 -0.023867722600698471 0.082545161247253418 0.148327618837356567 0.167933538556098938 0.204516485333442688 0.242917641997337341 -0.141339108347892761 0.271539807319641113 0.009569514542818069 0.029568865895271301 -0.220220714807510376 -0.105510465800762177 0.012904008850455284 -0.181985065340995789 -0.257225215435028076 -0.128468111157417297 -0.055606596171855927 -0.236890614032745361 0.250866889953613281 0.017956875264644623 -0.212451010942459106 -0.216220259666442871 -0.017803881317377090 0.035967078059911728 -0.085845246911048889 0.017443906515836716 -0.107015088200569153 0.053073432296514511 0.001380393165163696 -0.123135343194007874 0.119066275656223297 0.042505659162998199 -0.136759981513023376 0.215964615345001221 -0.125390395522117615 0.092580124735832214 -0.069367662072181702 0.011384336277842522 -0.006219341885298491 -0.054092485457658768 0.014747899957001209 -0.065704390406608582 -0.204208850860595703 -0.033840488642454147 -0.194658249616622925 -0.162360742688179016 -0.036894112825393677 -0.082659348845481873 0.079925961792469025 -0.002748771104961634 -0.327561020851135254 -0.158947125077247620 -0.158402398228645325 -0.233603596687316895 -0.114379063248634338 0.011529995128512383 0.065757639706134796 -0.262894123792648315 -0.033747661858797073 0.037993568927049637 0.030112929642200470 0.054150268435478210 0.136419147253036499 0.161348700523376465 0.040656492114067078 0.024198744446039200 -0.116735376417636871 0.000120113174489234 -0.081262283027172089 -0.023172518238425255 0.072026066482067108 -0.055445306003093719 0.009738670662045479 0.239056453108787537 -0.141148582100868225 0.042902193963527679 0.206922888755798340
0.174686446785926819 0.095152355730533600 0.098628669977188110 -0.095219396054744720 0.016968229785561562 0.038001738488674164 -0.170579731464385986 -0.027371017262339592 0.152186140418052673 -0.001199189689941704 0.159606903791427612 0.046265866607427597 0.024856951087713242 -0.085863173007965088 -0.002902554115280509 0.104798108339309692 0.101662740111351013 -0.008456769399344921 -0.020151732489466667 -0.119382970035076141 0.141110599040985107 0.004471176769584417 0.105571210384368896 -0.025404436513781548 -0.071994543075561523 -0.123723044991493225 0.014949061907827854 -0.124953858554363251 0.201971650123596191 -0.161548197269439697 -0.073332384228706360 -0.086981356143951416 -0.083886712789535522 -0.052556831389665604 -0.107872061431407928 -0.098907880485057831 -0.018127655610442162 0.048607524484395981 -0.020614041015505791 0.063388489186763763 0.200308233499526978 -0.069817803800106049 0.010450220666825771 0.064158812165260315 0.186347231268882751 -0.036282006651163101 0.137616902589797974 -0.146512240171432495 -0.079171873629093170 -0.153678879141807556 0.033537443727254868 0.128552123904228210 -0.045169964432716370 -0.056596308946609497 0.038554031401872635 -0.046490408480167389 -0.077625371515750885 0.249750584363937378 0.152548417448997498 -0.034847632050514221 0.190776839852333069 -0.048950809985399246 -0.152149558067321777 -0.155205637216567993 -0.018286664038896561 0.075637750327587128 -0.158883720636367798 0.006009578704833984 -0.012995367869734764 -0.235065862536430359 -0.188556909561157227 0.150690123438835144 0.092609807848930359 0.027470501139760017 -0.237136185169219971 0.073459059000015259 -0.013888182118535042 0.056120947003364563 -0.235590994358062744 -0.095204129815101624 0.124839909374713898 -0.020630398765206337 0.154204130172729492 0.065909728407859802 0.057734839618206024 0.100855238735675812 -0.017949242144823074 -0.133302003145217896 0.061265438795089722 -0.186074361205101013 -0.100289873778820038 -0.161374971270561218 0.104042448103427887 -0.000011474671737233 -0.055634815245866776 -0.077006861567497253 -0.041233077645301819 -0.121258720755577087 -0.159367650747299194 -0.001751606585457921
0.062345128506422043 -0.029598681256175041 0.103323720395565033 0.102213330566883087 -0.250659584999084473 0.210386067628860474 0.119689539074897766 -0.017207177355885506 -0.002194716129451990 -0.211216211318969727 0.031435776501893997 -0.385197401046752930 0.172444194555282593 0.298082470893859863 0.376185715198516846 -0.270927190780639648 -0.072966560721397400 -0.130373343825340271 0.011566875502467155 0.313732057809829712 -0.036673769354820251 -0.214358896017074585 -0.108082644641399384 -0.093450926244258881 -0.295727550983428955 0.040091276168823242 -0.070367760956287384 0.028278371319174767 -0.143205448985099792 0.213733077049255371 0.141150385141372681 0.056723549962043762 -0.016058756038546562 0.215157791972160339 -0.187911674380302429 0.216243475675582886 -0.050446756184101105 -0.069358691573143005 0.115801580250263214 0.163552314043045044 -0.212348446249961853 0.090001992881298065 0.145423367619514465 0.018257556483149529 0.017719084396958351 0.136802226305007935 -0.299483507871627808 0.222900182008743286 0.136588975787162781 -0.053691629320383072 -0.192709133028984070 0.125594466924667358 0.088569082319736481 0.152470499277114868 -0.107450455427169800 -0.150264412164688110 -0.080828331410884857 0.143677383661270142 0.020096398890018463 -0.034107916057109833 0.325790345668792725 -0.071059778332710266 -0.097699597477912903 -0.177109465003013611 -0.155396729707717896 0.244611188769340515 0.227723389863967896 -0.126549974083900452 0.264588534832000732 0.067127801477909088 -0.084634006023406982 -0.056438777595758438 -0.017998466268181801 -0.004831297323107719 0.133191242814064026 0.222078070044517517 0.109200790524482727 -0.008122477680444717 0.005130664445459843 0.082617603242397308 0.196071520447731018 0.179806560277938843 0.080115921795368195 -0.087912775576114655 0.238972306251525879 -0.194165468215942383 -0.149032175540924072 -0.204475849866867065 0.130921900272369385 -0.038084268569946289 -0.070302262902259827 0.052669625729322433 -0.189394667744636536 0.099816471338272095 -0.048926912248134613 0.262353271245956421 -0.157483220100402832 -0.013363705947995186 0.202003449201583862 0.175655707716941833
-0.032260660082101822 -0.076699115335941315 -0.383519560098648071 0.037528075277805328 -0.150528594851493835 -0.034550715237855911 -0.063656300306320190 -0.240411296486854553 0.060534093528985977 -0.254810631275177002 0.158068969845771790 0.020416866987943649 0.091716527938842773 0.167809948325157166 0.161733910441398621 -0.166066229343414307 -0.036902513355016708 -0.094913735985755920 0.199995636940002441 -0.056571211665868759 -0.164965242147445679 -0.041376881301403046 -0.229187607765197754 0.071179591119289398 -0.108718261122703552 -0.031399879604578018 -0.269187271595001221 -0.336115211248397827 -0.309843987226486206 0.223310083150863647 -0.213225126266479492 0.269021838903427124 -0.136783644556999207 0.232570365071296692 0.044376324862241745 0.183207675814628601 0.046940341591835022 0.258776754140853882 0.067000910639762878 0.063652925193309784 -0.173599272966384888 -0.144132837653160095 0.213104218244552612 -0.009924577549099922 0.220913141965866089 -0.154941692948341370 -0.127401590347290039 -0.091118119657039642 -0.195800408720970154 -0.059647664427757263 -0.054965917021036148 -0.036980666220188141 0.184842661023139954 -0.038192149251699448 0.011703713797032833 -0.159538194537162781 -0.221472755074501038 0.166062220931053162 -0.111826770007610321 -0.012726835906505585 0.299107044935226440 -0.108497835695743561 0.340419650077819824 0.004646924789994955 0.051454167813062668 -0.016120230779051781 -0.066430918872356415 0.325998157262802124 0.147551059722900391 -0.079305164515972137 -0.003211078234016895 0.001139505184255540 -0.002484909957274795 0.078335449099540710 0.090323328971862793 0.207565709948539734 0.197812631726264954 -0.019062126055359840 0.080176904797554016 -0.139964804053306580 0.218032822012901306 -0.040412511676549911 0.006257313303649426 -0.214200064539909363 0.201721191406250000 -0.358102500438690186 -0.179608643054962158 -0.164647057652473450 0.168181210756301880 0.203107461333274841 -0.079568892717361450 0.393949031829833984 -0.106070913374423981 -0.052446290850639343 0.026810372248291969 -0.000817408028524369 -0.013361006975173950 0.201953217387199402 0.017554305493831635 0.015250321477651596
-0.129806935787200928 0.175779491662979126 -0.123497866094112396 -0.001869697473011911 -0.087336301803588867 -0.118547216057777405 0.270812422037124634 -0.181317016482353210 -0.143034189939498901 -0.095504857599735260 0.022247584536671638 0.011567179113626480 0.077815495431423187 0.146376430988311768 0.072097748517990112 -0.032918736338615417 0.131078183650970459 0.183631524443626404 -0.007792672142386436 0.090015292167663574 -0.112337425351142883 0.032219029963016510 0.114342115819454193 0.298520088195800781 0.051810022443532944 0.027388060465455055 -0.201517716050148010 -0.171492680907249451 -0.170562744140625000 0.075149223208427429 -0.081995964050292969 0.009295839816331863 -0.088885538280010223 -0.042057149112224579 -0.137181282043457031 0.076297499239444733 0.098388843238353729 -0.113949552178382874 -0.172667190432548523 0.003951343242079020 -0.303068846464157104 -0.036326948553323746 0.106703378260135651 -0.040112584829330444 -0.072513051331043243 0.126269996166229248 -0.006233442109078169 -0.110306888818740845 0.223970130085945129 -0.155680537223815918 0.082071639597415924 -0.148908078670501709 -0.061915975064039230 0.166225761175155640 -0.115946568548679352 0.099183328449726105 -0.016128083691000938 0.215480700135231018 -0.203738391399383545 0.187986105680465698 0.029431503266096115 0.104137226939201355 -0.001528817228972912 -0.241340830922126770 0.231493636965751648 -0.035581205040216446 -0.023544298484921455 -0.051103089004755020 -0.087113492190837860 -0.138007804751396179 -0.301431715488433838 -0.037038367241621017 -0.170052349567413330 -0.090843044221401215 0.103685297071933746 0.274687081575393677 0.123111695051193237 0.110109865665435791 0.073017939925193787 -0.097672097384929657 0.060349982231855392 -0.187590315937995911 0.275028020143508911 -0.035691127181053162 -0.045210823416709900 0.019851541146636009 0.125185251235961914 0.000287968112388626 0.053012367337942123 0.122721955180168152 -0.071823276579380035 -0.190648943185806274 0.026059519499540329 -0.049073703587055206 0.099829375743865967 -0.094541601836681366 0.086772918701171875 0.052253473550081253 -0.064268380403518677 0.319788813591003418
-0.212149217724800110 0.013716537505388260 -0.025017261505126953 0.025464439764618874 0.148545667529106140 0.165264874696731567 0.035444635897874832 0.152866408228874207 0.157019317150115967 -0.091465368866920471 0.067058004438877106 0.009735114872455597 -0.002235777676105499 0.136617884039878845 0.074687145650386810 0.046951185911893845 -0.083289906382560730 0.033381015062332153 -0.132416903972625732 -0.147862076759338379 -0.111437387764453888 -0.163899138569831848 0.178781598806381226 -0.165817648172378540 -0.029167138040065765 0.038490649312734604 -0.173094078898429871 -0.125620633363723755 0.065477095544338226 -0.050125438719987869 0.109587028622627258 0.065956212580204010 -0.109468221664428711 0.177148371934890747 0.083901703357696533 0.033431917428970337 0.055226009339094162 -0.098784722387790680 0.054326143115758896 -0.069321282207965851 -0.149498194456100464 0.034887924790382385 0.178783953189849854 0.126758426427841187 -0.012596118263900280 -0.163490846753120422 0.078738495707511902 0.147891223430633545 -0.203343287110328674 -0.144828990101814270 -0.038599010556936264 0.151200652122497559 -0.251287698745727539 -0.151298508048057556 0.119679816067218781 0.101756341755390167 0.076701812446117401 -0.031567532569169998 0.135170340538024902 -0.058814626187086105 -0.062875509262084961 0.072859816253185272 -0.085159510374069214 -0.128752395510673523 -0.128851681947708130 -0.107444904744625092 -0.059743564575910568 -0.039539828896522522 -0.171978592872619629 0.012274472974240780 0.116093821823596954 0.073895476758480072 -0.122265256941318512 0.028727544471621513 -0.044192183762788773 0.020438089966773987 0.038061574101448059 -0.121101357042789459 0.001008756109513342 -0.047691028565168381 -0.047760769724845886 -0.178187832236289978 -0.125289022922515869 -0.047963675111532211 -0.252493679523468018 0.088619761168956757 -0.149849385023117065 0.000389327353332192 0.125380724668502808 -0.046079210937023163 0.021187076345086098 0.021772958338260651 -0.206624835729598999 0.169033169746398926 0.015932101756334305 0.130018457770347595 0.064824633300304413 -0.109159275889396667 0.072944447398185730 0.037531245499849319
0.068035937845706940 -0.100740067660808563 -0.193757340312004089 0.092091493308544159 0.090540722012519836 -0.117254190146923065 -0.269361555576324463 -0.201763838529586792 -0.068275853991508484 -0.117020823061466217 -0.026092020794749260 -0.113924972712993622 0.047761533409357071 0.012365576811134815 -0.124163217842578888 -0.116214983165264130 -0.075641311705112457 -0.229741707444190979 0.076194122433662415 0.072243519127368927 -0.035841785371303558 0.178360641002655029 -0.056099284440279007 0.023589035496115685 -0.077156990766525269 -0.253978699445724487 0.224698230624198914 -0.024657985195517540 -0.230857133865356445 0.154641732573509216 0.053674235939979553 0.013384539633989334 0.124275326728820801 0.155343323945999146 -0.091534309089183807 0.149985209107398987 0.160457432270050049 0.007333568297326565 -0.118446171283721924 -0.116198040544986725 0.189651295542716980 -0.291361689567565918 -0.068332619965076447 0.107364535331726074 0.023659262806177139 -0.054334361106157303 -0.075103454291820526 -0.201923206448554993 -0.208460971713066101 -0.010606946423649788 -0.081234268844127655 -0.011550080031156540 0.042672045528888702 -0.223933249711990356 0.084114864468574524 0.126090586185455322 -0.095727987587451935 0.037345215678215027 0.009126004762947559 -0.047234266996383667 0.028479803353548050 -0.212956294417381287 0.020141627639532089 0.117371670901775360 -0.112930856645107269 0.074896067380905151 0.012849207036197186 0.062869243323802948 -0.063893638551235199 -0.139092385768890381 0.123998105525970459 -0.088499538600444794 -0.076730363070964813 0.118853554129600525 0.224546298384666443 0.004946950357407331 0.029141534119844437 -0.025431312620639801 -0.072148598730564117 -0.108234763145446777 0.012195926159620285 -0.191063255071640015 -0.091482162475585938 -0.027381859719753265 0.022683678194880486 -0.110429421067237854 -0.160280168056488037 0.017134647816419601 -0.101636417210102081 0.072914868593215942 -0.023011006414890289 0.096113070845603943 0.040326669812202454 0.058230571448802948 0.102996878325939178 0.144320666790008545 -0.232817173004150391 0.069319911301136017 -0.049869555979967117 0.077791631221771240
0.132092624902725220 -0.045553937554359436 0.090385377407073975 -0.169109225273132324 0.094004124402999878 0.046516168862581253 0.083322107791900635 -0.076864108443260193 0.122482955455780029 -0.008637063205242157 -0.053862728178501129 0.019522301852703094 0.012750885449349880 0.146105244755744934 -0.029096240177750587 0.024469794705510139 0.145935148000717163 -0.073815688490867615 -0.020669849589467049 -0.080599956214427948 0.139186426997184753 -0.147713661193847656 -0.166651710867881775 0.024304529651999474 -0.145678192377090454 0.035229075700044632 0.183359965682029724 0.043644793331623077 -0.132118523120880127 0.175126001238822937 0.085400357842445374 0.118226967751979828 -0.136256530880928040 0.192018643021583557 -0.047870066016912460 0.162181347608566284 0.142403721809387207 0.201696455478668213 0.141538605093955994 0.127930685877799988 0.006404815241694450 0.123299092054367065 -0.031260050833225250 -0.024066628888249397 0.011944707483053207 0.074285730719566345 -0.137170091271400452 -0.082330368459224701 -0.003542564576491714 -0.231364190578460693 -0.027358746156096458 -0.132934764027595520 0.071643978357315063 0.028726659715175629 0.138130486011505127 0.126683816313743591 0.106037028133869171 -0.090590476989746094 -0.115238107740879059 0.091953009366989136 -0.163441076874732971 0.057022631168365479 -0.011606772430241108 -0.016243539750576019 -0.032585080713033676 0.054884426295757294 0.098728641867637634 -0.023357488214969635 0.010668101720511913 -0.012634973041713238 -0.244266480207443237 0.149326533079147339 -0.178485766053199768 0.033117454499006271 0.179233014583587646 0.059465285390615463 0.175348609685897827 -0.149495214223861694 -0.101158417761325836 0.100957274436950684 -0.081075735390186310 0.053192362189292908 0.092396877706050873 0.104579292237758636 -0.024897320196032524 -0.008846223354339600 -0.016967909410595894 0.051233947277069092 0.074250727891921997 -0.050953861325979233 -0.098969124257564545 0.188258230686187744 -0.055575866252183914 -0.148563414812088013 0.166475161910057068 -0.037942830473184586 -0.197373852133750916 -0.012810396961867809 -0.020798247307538986 0.107455782592296600
0.200879231095314026 -0.006728458218276501 -0.150263041257858276 -0.029935572296380997 -0.092746861279010773 0.042145591229200363 0.030063409358263016 -0.195512384176254272 -0.007715172134339809 -0.052983574569225311 -0.136031985282897949 0.134460404515266418 0.106166169047355652 -0.158428400754928589 0.053329020738601685 0.076826684176921844 0.111407451331615448 -0.032062560319900513 -0.133947446942329407 -0.002643838524818420 -0.253264367580413818 0.021419253200292587 -0.118075907230377197 -0.282777011394500732 -0.110019028186798096 -0.113618373870849609 0.101755522191524506 0.070116102695465088 0.062706753611564636 0.093519009649753571 -0.143873438239097595 -0.038065146654844284 0.036344174295663834 0.066249974071979523 0.053486254066228867 0.046970911324024200 0.163364797830581665 -0.023595124483108521 0.034366462379693985 -0.178222060203552246 0.347373217344284058 -0.040875896811485291 0.022200891748070717 0.178341120481491089 -0.184055849909782410 0.039890073239803314 0.109112583100795746 -0.040193695574998856 -0.211999565362930298 0.020529268309473991 0.106027856469154358 0.135565623641014099 -0.176558852195739746 -0.230604171752929688 0.006845693569630384 0.197734311223030090 -0.122382253408432007 -0.169759899377822876 0.178232952952384949 0.059886291623115540 0.061638999730348587 -0.067554727196693420 0.181846991181373596 -0.123194187879562378 -0.336975812911987305 -0.074514724314212799 -0.151286303997039795 0.210448473691940308 0.214594572782516479 0.183625698089599609 0.050660844892263412 -0.104615539312362671 0.024420885369181633 0.122761636972427368 0.286740601062774658 -0.124160885810852051 -0.128814339637756348 0.006166448816657066 0.185735076665878296 -0.030527474358677864 0.112757273018360138 0.120290353894233704 -0.287111222743988037 -0.081213973462581635 0.101997815072536469 0.026792556047439575 -0.096411630511283875 -0.248786494135856628 0.151784181594848633 0.018857011571526527 -0.070902392268180847 0.148793458938598633 0.118729777634143829 -0.182591304183006287 -0.101458743214607239 -0.096615433692932129 -0.091694355010986328 0.507588982582092285 0.020565174520015717 -0.186943471431732178
0.078878410160541534 0.051163531839847565 -0.241918355226516724 0.053490005433559418 -0.054926920682191849 -0.061804529279470444 0.103653237223625183 -0.308967232704162598 0.052928902208805084 -0.144356071949005127 -0.114798724651336670 -0.108807712793350220 0.222340196371078491 0.124511875212192535 0.218106821179389954 0.139142513275146484 0.228639125823974609 0.112537615001201630 0.054931834340095520 0.100284866988658905 -0.076663479208946228 -0.023943316191434860 -0.016011128202080727 -0.094168052077293396 0.132281005382537842 -0.237980395555496216 -0.016694029793143272 -0.086381018161773682 -0.097503729164600372 0.026375789195299149 0.046390414237976074 -0.025041550397872925 -0.028965162113308907 0.244325026869773865 0.113785557448863983 0.021521423012018204 -0.092506453394889832 0.287087589502334595 0.094113171100616455 -0.268299520015716553 -0.152708917856216431 -0.137802392244338989 0.122451439499855042 0.035446204245090485 0.211291313171386719 0.134080752730369568 0.102760657668113708 -0.034839455038309097 0.085279770195484161 -0.014228454791009426 -0.076797492802143097 0.158563852310180664 0.193105980753898621 -0.184792891144752502 -0.079795286059379578 0.126000434160232544 0.047541175037622452 -0.079710960388183594 0.194733962416648865 -0.063648678362369537 0.016901746392250061 -0.312950521707534790 0.236551240086555481 0.138079166412353516 -0.018792834132909775 0.104325078427791595 0.079931385815143585 0.190401017665863037 0.243572011590003967 -0.210253119468688965 0.057074651122093201 -0.236304327845573425 -0.137717515230178833 0.179506272077560425 -0.080928958952426910 -0.020601261407136917 0.079164668917655945 0.153228819370269775 0.147878631949424744 -0.131744503974914551 0.236236393451690674 0.055486567318439484 0.141849979758262634 0.085045903921127319 0.192453444004058838 -0.278119713068008423 0.156866237521171570 -0.049374222755432129 0.168998509645462036 0.242805629968643188 -0.023305648937821388 0.330036908388137817 0.222581490874290466 -0.049745824187994003 -0.059493929147720337 -0.098230428993701935 -0.041075702756643295 0.050747431814670563 -0.014962323941290379 -0.051051970571279526
-0.042137920856475830 -0.169848352670669556 0.111663475632667542 0.062477234750986099 -0.148829817771911621 -0.065171025693416595 -0.060351651161909103 0.049699794501066208 0.037002865225076675 -0.103399358689785004 -0.131753891706466675 -0.152292460203170776 0.087918877601623535 -0.046428516507148743 0.106213524937629700 0.017315577715635300 -0.129148989915847778 0.057935178279876709 -0.112451463937759399 0.262403607368469238 -0.027309713885188103 0.016254605725407600 -0.124185264110565186 -0.020362703129649162 -0.213661223649978638 0.082410700619220734 -0.163423255085945129 0.207286775112152100 0.146259933710098267 0.057548575103282928 -0.010233287699520588 0.160112127661705017 -0.048012848943471909 0.110016904771327972 0.063544079661369324 0.182344317436218262 -0.192357808351516724 0.031795274466276169 -0.094794064760208130 -0.052380036562681198 -0.265632838010787964 -0.045224171131849289 0.121773704886436462 -0.085437722504138947 0.078967683017253876 0.038689170032739639 -0.263411402702331543 -0.031744766980409622 0.097627766430377960 -0.146106690168380737 -0.175077140331268311 -0.097685694694519043 0.038429208099842072 -0.121004842221736908 0.091335840523242950 -0.059885591268539429 0.134650856256484985 -0.098273135721683502 -0.177727714180946350 -0.168351694941520691 0.129282012581825256 0.054767251014709473 -0.066386587917804718 -0.165521457791328430 0.203540906310081482 0.072079010307788849 -0.005049080122262239 -0.085955649614334106 -0.183868631720542908 0.179421320557594299 -0.043145507574081421 0.213770359754562378 0.014719489030539989 -0.046913545578718185 0.137424334883689880 0.226897343993186951 -0.192574471235275269 -0.023994166404008865 -0.054196376353502274 0.239318326115608215 -0.039578419178724289 0.095881447196006775 0.070105448365211487 -0.080068685114383698 0.050678379833698273 0.167078688740730286 -0.150334537029266357 0.049322366714477539 0.082898013293743134 0.131640270352363586 0.129561439156532288 -0.136236146092414856 -0.227251306176185608 0.184148967266082764 0.033949248492717743 0.202905446290969849 -0.137943059206008911 -0.029040370136499405 0.047072108834981918 0.211011588573455811
0.108801208436489105 -0.013343253172934055 0.016379162669181824 0.132614836096763611 -0.097979031503200531 -0.037967666983604431 -0.113824717700481415 0.046108283102512360 0.021378349512815475 -0.109142892062664032 -0.128919869661331177 -0.130528658628463745 -0.016131378710269928 0.090107031166553497 0.040663238614797592 -0.149390876293182373 0.014322648756206036 0.021068466827273369 -0.096307359635829926 0.191965758800506592 -0.183566674590110779 -0.045237079262733459 -0.166437789797782898 -0.224264740943908691 0.039024204015731812 -0.143862619996070862 0.145556718111038208 -0.186327815055847168 0.004391479771584272 -0.074726097285747528 0.016195509582757950 0.098819524049758911 -0.056452386081218719 0.000528574688360095 -0.063620835542678833 0.121170952916145325 0.053307931870222092 0.025795698165893555 0.025425173342227936 -0.044082935899496078 0.225309327244758606 -0.013313683681190014 0.042608544230461121 0.006298778112977743 -0.087697118520736694 -0.022377301007509232 -0.030951747670769691 -0.011526502668857574 -0.240748032927513123 0.256944030523300171 0.054788943380117416 0.034185964614152908 0.011196645908057690 -0.020881451666355133 -0.052058946341276169 0.107014626264572144 -0.147220924496650696 0.072158813476562500 0.007582945749163628 -0.128837034106254578 0.075682274997234344 -0.062474794685840607 0.002303934423252940 0.184459805488586426 -0.257590323686599731 0.053524259477853775 0.038580741733312607 -0.044486120343208313 0.179446920752525330 0.195235490798950195 -0.045456189662218094 -0.149958834052085876 -0.051031839102506638 0.150348633527755737 0.258447557687759399 0.154323279857635498 -0.007954261265695095 -0.008979423902928829 -0.096929840743541718 0.154442563652992249 0.124742694199085236 -0.164443001151084900 -0.137682855129241943 0.092082358896732330 -0.097643397748470306 0.047683488577604294 -0.091431990265846252 -0.197442576289176941 0.140294983983039856 0.031026121228933334 0.077448152005672455 0.085014544427394867 0.183294042944908142 -0.185042038559913635 -0.183675169944763184 -0.011888409033417702 -0.155660048127174377 0.056110054254531860 0.049579352140426636 0.081673756241798401
-0.043990347534418106 0.023167967796325684 0.118810430169105530 0.167385905981063843 -0.010098358616232872 -0.084442570805549622 0.123278193175792694 -0.020297678187489510 0.040188573300838470 -0.109509252011775970 -0.034366004168987274 -0.012192433699965477 -0.022384401410818100 -0.150419309735298157 0.000699128373526037 0.109931230545043945 -0.156284362077713013 -0.164076909422874451 -0.067047327756881714 0.051119659096002579 -0.156040087342262268 0.131768330931663513 0.029280150309205055 -0.128534883260726929 -0.173479422926902771 -0.024995114654302597 -0.006726372987031937 0.131522759795188904 -0.004867756273597479 0.058582887053489685 0.073656693100929260 0.107417561113834381 0.099695980548858643 0.036310181021690369 0.042396705597639084 0.115359000861644745 0.121942467987537384 -0.084837198257446289 0.158983007073402405 -0.003197542624548078 0.198347464203834534 0.014085617847740650 0.223486304283142090 0.051673036068677902 -0.113397039473056793 -0.074077978730201721 0.040955074131488800 0.038017410784959793 -0.236619696021080017 0.194063857197761536 0.007999064400792122 -0.052481405436992645 -0.179733753204345703 -0.000122220924822614 0.051453087478876114 -0.091619685292243958 -0.120795778930187225 0.064671002328395844 -0.137665316462516785 -0.027932520955801010 -0.034187667071819305 0.058030650019645691 0.157480627298355103 0.124173000454902649 0.023571401834487915 0.101333051919937134 0.127436921000480652 0.111393414437770844 -0.111584305763244629 0.089106746017932892 0.086183622479438782 0.076627105474472046 -0.139410108327865601 0.024973422288894653 -0.030427530407905579 -0.035561468452215195 0.066171310842037201 -0.065341666340827942 0.033581901341676712 0.036017581820487976 0.071682855486869812 -0.056780539453029633 -0.029218535870313644 0.145082250237464905 -0.097845137119293213 0.160035759210586548 0.118895851075649261 0.113754466176033020 0.044450391083955765 0.076741717755794525 0.015092079527676105 0.113342605531215668 -0.111886516213417053 0.135651528835296631 -0.222167029976844788 0.025992142036557198 0.039842423051595688 -0.052943866699934006 0.033373609185218811 0.088691502809524536
0.187438949942588806 0.044067077338695526 -0.007266547065228224 0.024911306798458099 0.200711995363235474 0.032521937042474747 -0.193499758839607239 0.149934738874435425 0.048916153609752655 -0.013533349148929119 0.099064916372299194 -0.118556775152683258 0.078519627451896667 0.066177099943161011 -0.196190193295478821 -0.092996805906295776 -0.055961728096008301 0.071366071701049805 0.087396338582038879 -0.059230033308267593 -0.054912436753511429 -0.206472828984260559 0.077421583235263824 0.101569160819053650 -0.004172802902758121 0.144710913300514221 0.039580620825290680 0.023512328043580055 0.036308933049440384 -0.046898547559976578 0.027945229783654213 -0.001195298624224961 -0.086328335106372833 0.013430867344141006 -0.115607216954231262 -0.202004581689834595 0.167526260018348694 0.015026225708425045 0.149016544222831726 -0.006953870411962271 -0.130480021238327026 -0.190787985920906067 -0.119784399867057800 -0.120309829711914062 0.133933678269386292 0.114408895373344421 -0.068489879369735718 0.173295781016349792 0.003483484499156475 0.048818860203027725 -0.010277423076331615 0.103119388222694397 -0.023591637611389160 -0.068709418177604675 -0.042867053300142288 -0.044008538126945496 0.095883868634700775 -0.046720892190933228 -0.040963370352983475 0.123199231922626495 -0.049537263810634613 0.156498789787292480 -0.128710716962814331 0.105670236051082611 0.021592684090137482 0.065773837268352509 0.137107744812965393 -0.060342106968164444 0.159903347492218018 0.047536168247461319 -0.166090995073318481 -0.090544082224369049 -0.116897545754909515 0.053513593971729279 0.092550463974475861 -0.130500942468643188 0.107275716960430145 0.108585909008979797 -0.102272026240825653 -0.144630640745162964 0.091362655162811279 -0.050921365618705750 0.071313798427581787 -0.071336805820465088 0.007049232721328735 -0.027327859774231911 0.116567723453044891 0.037736278027296066 0.174003332853317261 0.094375841319561005 -0.110423356294631958 -0.104490056633949280 0.123166114091873169 0.024531302973628044 0.110402740538120270 -0.134626060724258423 0.089005641639232635 0.083026044070720673 0.011658050119876862 0.111524611711502075
-0.107016533613204956 -0.197446525096893311 -0.223760262131690979 0.121093027293682098 -0.113953679800033569 -0.096573434770107269 -0.019587477669119835 -0.011989871971309185 -0.209174737334251404 -0.115958116948604584 -0.118241816759109497 0.029227210208773613 0.148872330784797668 0.157585129141807556 0.094436779618263245 -0.131460964679718018 0.115343868732452393 0.022774372249841690 -0.131218701601028442 0.156951785087585449 -0.153432354331016541 0.076746530830860138 -0.073752880096435547 0.043150596320629120 -0.185915425419807434 -0.009696368128061295 -0.146372452378273010 -0.349871218204498291 -0.162281751632690430 0.017003482207655907 -0.152958989143371582 0.192465007305145264 -0.033111095428466797 0.201965451240539551 -0.036315038800239563 0.131586492061614990 0.183763518929481506 0.256089568138122559 -0.043919470161199570 -0.116029642522335052 0.004318243358284235 -0.247565209865570068 -0.012316144071519375 0.146570414304733276 0.173217371106147766 -0.057086437940597534 0.047388412058353424 -0.133452966809272766 -0.203252121806144714 -0.009464695118367672 -0.314162701368331909 0.077401340007781982 -0.029423115774989128 -0.058989752084016800 -0.214881554245948792 0.135230273008346558 -0.126003652811050415 0.031311333179473877 0.020205011591315269 -0.060445170849561691 0.086974345147609711 -0.174150779843330383 0.374901086091995239 -0.100432023406028748 -0.164988011121749878 -0.063416466116905212 0.030405450612306595 -0.056247320026159286 0.245970949530601501 -0.100610710680484772 0.130275085568428040 -0.279058665037155151 -0.096211768686771393 0.165084302425384521 0.391126662492752075 -0.083282575011253357 0.272502958774566650 -0.225096955895423889 -0.053623784333467484 0.180380105972290039 0.302552998065948486 0.038876842707395554 -0.278789937496185303 0.014310551807284355 0.163445875048637390 -0.115248680114746094 -0.176230683922767639 -0.106281176209449768 0.175712093710899353 -0.005251268856227398 -0.144586548209190369 0.225822731852531433 0.067614413797855377 -0.058439761400222778 0.095198489725589752 0.237576544284820557 -0.201796859502792358 0.161437392234802246 0.026288928464055061 -0.139885097742080688
-0.067727252840995789 0.088617309927940369 0.099622525274753571 -0.136562466621398926 0.237440064549446106 -0.052949257194995880 -0.009878986515104771 0.089150875806808472 0.112074755132198334 -0.044727981090545654 0.145917564630508423 0.071786686778068542 0.116293057799339294 -0.000545944727491587 -0.131615325808525085 0.054213549941778183 0.072035565972328186 0.127779766917228699 0.049585215747356415 -0.069031663239002228 0.012969567440450191 -0.090037144720554352 0.083088986575603485 0.158333271741867065 -0.012478508055210114 -0.147501602768898010 0.048906944692134857 -0.080266073346138000 0.088006421923637390 -0.032746989279985428 -0.192766189575195312 -0.107343278825283051 -0.264924257993698120 -0.099116273224353790 0.044193018227815628 -0.199304491281509399 -0.205906033515930176 0.055064812302589417 -0.169826373457908630 -0.096272923052310944 -0.113776333630084991 -0.101485840976238251 -0.067270845174789429 0.009525514207780361 0.409197330474853516 0.070333920419216156 0.106453932821750641 -0.078390553593635559 0.089231371879577637 -0.125610083341598511 -0.118187949061393738 -0.080839820206165314 0.410194188356399536 -0.112110026180744171 0.020115109160542488 -0.081835292279720306 -0.066670112311840057 0.334530591964721680 0.005033353343605995 0.018235232681035995 -0.184542104601860046 -0.182965412735939026 -0.004146038088947535 0.104810483753681183 0.326818764209747314 0.208131074905395508 -0.089177876710891724 0.329793363809585571 0.077115066349506378 -0.075454913079738617 -0.359920263290405273 0.034564096480607986 -0.028606871142983437 0.095242895185947418 -0.150112658739089966 0.033164065331220627 0.088281616568565369 0.017511598765850067 -0.079163022339344025 -0.124133795499801636 0.073361627757549286 -0.186570063233375549 0.281251639127731323 0.143502429127693176 -0.058727558702230453 -0.058648508042097092 0.252909123897552490 0.102376915514469147 -0.139143288135528564 0.107003897428512573 -0.271076470613479614 -0.136453613638877869 -0.005508449859917164 -0.023704186081886292 0.319394052028656006 -0.027003265917301178 0.022669557482004166 0.052336923778057098 -0.190048813819885254 0.015662554651498795
0.111120812594890594 0.006867666728794575 0.085734225809574127 0.002265132497996092 -0.006496729329228401 0.087396115064620972 -0.111788362264633179 0.189604923129081726 0.052801743149757385 0.007311024237424135 0.036749012768268585 -0.125644385814666748 -0.210088491439819336 -0.177494451403617859 0.069763734936714172 0.143317952752113342 0.077079445123672485 0.048906825482845306 0.091389276087284088 -0.128805488348007202 -0.037165366113185883 0.024059360846877098 0.112261727452278137 -0.080641828477382660 -0.028007879853248596 0.064028114080429077 -0.073405131697654724 0.090433657169342041 -0.189196527004241943 0.144844874739646912 0.041486904025077820 0.012450568377971649 0.171351060271263123 -0.008853318169713020 -0.059083454310894012 0.005159816239029169 0.039493430405855179 -0.024100996553897858 -0.073437787592411041 -0.139163956046104431 0.109629161655902863 0.101479925215244293 0.058261938393115997 -0.111344210803508759 -0.247164502739906311 -0.015963193029165268 -0.008857114240527153 0.008121304214000702 -0.020190460607409477 0.088780343532562256 -0.086664065718650818 0.058359917253255844 -0.130877390503883362 0.122143290936946869 0.223107516765594482 -0.115283466875553131 -0.036055020987987518 -0.157152116298675537 0.139448210597038269 0.106610529124736786 0.113027498126029968 0.121572017669677734 0.158165037631988525 -0.030366845428943634 -0.106133677065372467 -0.016336560249328613 0.005436280276626348 -0.015929806977510452 -0.175648838281631470 0.198265612125396729 0.158591926097869873 -0.023557588458061218 0.087355703115463257 0.033730473369359970 0.180034160614013672 0.093162178993225098 0.024655459448695183 0.127971470355987549 0.080665953457355499 0.017936373129487038 -0.015277402475476265 -0.105365693569183350 -0.076776161789894104 -0.065986044704914093 -0.068236336112022400 0.018571512773633003 -0.113494962453842163 0.080687731504440308 -0.008108337409794331 -0.103604353964328766 0.070377014577388763 -0.056496839970350266 -0.042509522289037704 0.012163203209638596 -0.024003120139241219 -0.159497559070587158 0.195720821619033813 0.104574769735336304 0.128546848893165588 -0.106079801917076111
0.093956343829631805 0.013618284836411476 -0.079841017723083496 0.048979546874761581 0.087109632790088654 0.148173570632934570 -0.104267947375774384 -0.087255552411079407 -0.094202250242233276 -0.010886316187679768 -0.105486601591110229 -0.198537409305572510 0.036322955042123795 -0.083976149559020996 -0.011129750870168209 -0.110829681158065796 -0.088435098528862000 -0.101681135594844818 0.096321620047092438 0.007682740688323975 -0.061814997345209122 0.024784097447991371 0.142520591616630554 -0.022367406636476517 -0.183325693011283875 -0.180975317955017090 -0.116981722414493561 -0.140324309468269348 -0.007814422249794006 -0.007763181813061237 0.053576596081256866 0.209989368915557861 0.022594224661588669 -0.012273153290152550 -0.036078333854675293 0.039746798574924469 -0.014090242795646191 -0.001956989523023367 0.066356308758258820 0.068193018436431885 -0.106737010180950165 0.073473118245601654 -0.068942598998546600 0.036983761936426163 -0.037285294383764267 0.068505384027957916 -0.141925856471061707 -0.008424400351941586 -0.056278105825185776 -0.171625569462776184 0.043456640094518661 0.026977561414241791 0.080389112234115601 0.119958229362964630 -0.223511755466461182 0.133660733699798584 -0.068049229681491852 -0.133609801530838013 -0.077945783734321594 0.022896733134984970 -0.045426890254020691 -0.026661356911063194 0.053366594016551971 -0.002317479578778148 0.058625310659408569 0.099498078227043152 0.063032045960426331 0.113663136959075928 -0.056109640747308731 -0.031003469601273537 -0.163454905152320862 0.068857118487358093 0.132604032754898071 0.036616478115320206 0.116270698606967926 0.192761629819869995 -0.095451436936855316 -0.163389667868614197 -0.044874764978885651 0.152774617075920105 0.189750373363494873 -0.118341848254203796 0.100311242043972015 0.104353442788124084 0.107161000370979309 -0.058130439370870590 -0.008943615481257439 -0.156114116311073303 -0.103074960410594940 -0.102965958416461945 -0.105688810348510742 -0.093542397022247314 0.151704728603363037 -0.056992691010236740 -0.080765992403030396 0.147561579942703247 -0.035255189985036850 -0.033866893500089645 -0.027703288942575455 0.156635358929634094
-0.003797655692324042 0.090212658047676086 0.175687685608863831 -0.167692080140113831 0.198339238762855530 -0.147203147411346436 -0.050046019256114960 -0.071914941072463989 -0.132380679249763489 -0.008111003786325455 0.180551946163177490 -0.028335439041256905 0.106679908931255341 -0.198100909590721130 -0.090329542756080627 0.173261970281600952 0.020709592849016190 0.012533271685242653 0.089609630405902863 -0.153189688920974731 0.151064634323120117 0.163188859820365906 -0.113391630351543427 0.110262602567672729 0.152700841426849365 0.021811006590723991 0.022404262796044350 0.194717749953269958 -0.027250606566667557 -0.213689744472503662 0.133374080061912537 -0.056155629456043243 0.026321487501263618 -0.201018407940864563 0.164230868220329285 0.023346235975623131 0.046289313584566116 0.037383321672677994 -0.094611898064613342 0.056301370263099670 -0.027363749220967293 -0.026233183220028877 -0.117159619927406311 -0.189171478152275085 -0.034472916275262833 0.164560243487358093 0.086761735379695892 0.085460953414440155 0.082031577825546265 -0.080901317298412323 0.098352774977684021 -0.008501349017024040 0.190246462821960449 -0.022722236812114716 -0.116825453937053680 -0.114007323980331421 -0.002739956136792898 0.045255109667778015 0.063840828835964203 -0.001775935059413314 -0.114717684686183929 0.052499312907457352 -0.129505395889282227 0.144393041729927063 0.078870177268981934 -0.070832073688507080 -0.192999929189682007 -0.020930865779519081 -0.109897330403327942 -0.151095628738403320 -0.037844024598598480 0.070863291621208191 0.119990117847919464 -0.119121722877025604 -0.226863726973533630 0.085330568253993988 -0.134673848748207092 0.146501243114471436 -0.070885039865970612 0.096110910177230835 -0.115265034139156342 -0.152691170573234558 0.177475452423095703 -0.001664778217673302 -0.107660546898841858 0.138062596321105957 -0.068382233381271362 0.136457249522209167 0.165255561470985413 -0.044994287192821503 -0.138225093483924866 -0.220649808645248413 -0.100719772279262543 0.014702158048748970 0.064356021583080292 -0.033130690455436707 -0.153185442090034485 -0.072020567953586578 -0.112692832946777344 -0.192688062787055969
-0.037726230919361115 0.038109298795461655 -0.069587521255016327 0.228556454181671143 -0.058434389531612396 0.062970660626888275 -0.098504520952701569 -0.175943776965141296 -0.053462013602256775 0.018442763015627861 -0.098964691162109375 -0.006553891114890575 0.001053452724590898 -0.039066623896360397 -0.116925604641437531 -0.100718885660171509 0.036171045154333115 -0.238274559378623962 -0.129421830177307129 0.148343190550804138 -0.230439290404319763 -0.017404172569513321 -0.193481937050819397 -0.128131002187728882 0.084167338907718658 -0.212805852293968201 0.148501709103584290 -0.131098538637161255 0.031467936933040619 0.183531150221824646 -0.149736195802688599 -0.122295022010803223 0.094164833426475525 0.177685499191284180 0.076375909149646759 -0.003721458138898015 0.291641771793365479 0.218238323926925659 -0.184934616088867188 -0.241034120321273804 0.008215197362005711 -0.105317518115043640 -0.097140312194824219 -0.024229219183325768 0.086802057921886444 -0.295993030071258545 0.010238036513328552 -0.110214091837406158 -0.141102164983749390 0.152019172906875610 0.012088268063962460 -0.007959462702274323 -0.052315276116132736 -0.084210000932216644 -0.185457780957221985 0.152270391583442688 -0.061124958097934723 0.058938402682542801 0.221745148301124573 -0.075913511216640472 0.003155013779178262 -0.285361140966415405 0.188738480210304260 -0.071219772100448608 -0.071365058422088623 0.180149868130683899 0.127587392926216125 0.233812451362609863 0.288618326187133789 -0.012461081147193909 0.028809707611799240 -0.012075024656951427 -0.237287163734436035 0.331544399261474609 0.271824985742568970 -0.185817420482635498 0.216355502605438232 -0.009858842007815838 -0.063637457787990570 0.145346641540527344 0.102860368788242340 -0.133455798029899597 -0.228853806853294373 -0.015984863042831421 0.126524567604064941 -0.074193835258483887 -0.194716304540634155 -0.247827485203742981 0.006109949667006731 -0.028395585715770721 0.040632821619510651 0.225138872861862183 0.037453770637512207 0.001165075460448861 0.027381455525755882 0.067310653626918793 -0.198100849986076355 0.327056109905242920 0.076046667993068695 -0.052944824099540710
0.054043069481849670 0.040384665131568909 -0.058892399072647095 -0.135545507073402405 0.162150934338569641 -0.210910931229591370 0.266373991966247559 -0.125940203666687012 0.078293234109878540 0.079609245061874390 0.055897410959005356 0.106670297682285309 0.221871823072433472 -0.026057656854391098 -0.066699482500553131 0.054817721247673035 0.219481334090232849 0.108231998980045319 0.168636694550514221 -0.032439269125461578 0.092999495565891266 0.115651763975620270 -0.039536114782094955 0.323726505041122437 0.205739334225654602 0.168461069464683533 0.029084559530019760 -0.026934927329421043 0.141998291015625000 0.123612672090530396 -0.100184395909309387 0.026278946548700333 -0.214873820543289185 0.050106979906558990 0.161718368530273438 -0.087506093084812164 -0.185020521283149719 -0.039050891995429993 -0.184714242815971375 -0.213237136602401733 -0.302802741527557373 0.032173678278923035 -0.073140114545822144 0.016600241884589195 0.060361396521329880 0.218537047505378723 0.129103943705558777 -0.091003857553005219 0.280305355787277222 -0.227897584438323975 -0.123621024191379547 -0.153014838695526123 0.353068321943283081 0.130006939172744751 0.126503810286521912 -0.033808857202529907 0.067500703036785126 0.267107576131820679 -0.063018098473548889 -0.031244585290551186 -0.096693523228168488 -0.003313124645501375 0.073883771896362305 -0.185292139649391174 0.306673675775527954 -0.034690361469984055 0.010483038611710072 -0.100062325596809387 0.010217575356364250 -0.225999489426612854 -0.303944587707519531 0.042120005935430527 0.036290440708398819 0.142609745264053345 -0.108375899493694305 0.216030672192573547 0.021969903260469437 0.069703832268714905 -0.269003152847290039 -0.051477599889039993 0.051045563071966171 0.064113326370716095 0.117440097033977509 0.093537315726280212 0.033778499811887741 -0.157491624355316162 0.192039042711257935 -0.088650740683078766 0.153587147593498230 -0.064887523651123047 -0.061780292540788651 -0.034578856080770493 -0.187310382723808289 -0.033842496573925018 0.118955850601196289 -0.193937450647354126 -0.100201532244682312 -0.028971659019589424 -0.055973805487155914 0.115855313837528229
0.109548725187778473 -0.201485678553581238 0.001591288368217647 0.121559016406536102 -0.128592401742935181 0.145846694707870483 -0.077748902142047882 -0.019141972064971924 0.217434391379356384 0.071233734488487244 -0.216384381055831909 -0.080146946012973785 -0.106256857514381409 -0.037619862705469131 0.079457111656665802 -0.096500925719738007 -0.215826764702796936 -0.061061337590217590 -0.034620452672243118 0.112268030643463135 0.000097287513199262 -0.031283285468816757 0.050705485045909882 -0.226482778787612915 -0.099929563701152802 0.009208438917994499 -0.012038998305797577 0.133408084511756897 0.022940328344702721 0.153094530105590820 0.162824302911758423 -0.143205031752586365 0.057987943291664124 0.193576544523239136 -0.010098534636199474 0.207117363810539246 0.126418948173522949 -0.364784389734268188 0.140356048941612244 0.321334242820739746 0.106791436672210693 0.063803911209106445 -0.065281108021736145 0.050718434154987335 -0.104492858052253723 -0.188353881239891052 -0.178025022149085999 0.148996382951736450 0.045391183346509933 0.095107585191726685 -0.069445617496967316 0.042361643165349960 -0.219429165124893188 -0.108772844076156616 -0.067422129213809967 0.166051432490348816 0.216455027461051941 -0.209728345274925232 0.044893994927406311 -0.099495388567447662 0.100798957049846649 0.296744823455810547 -0.119527876377105713 0.109754495322704315 -0.336261004209518433 -0.196375459432601929 0.086336046457290649 -0.316405534744262695 -0.267848253250122070 0.198297977447509766 0.080946944653987885 -0.155633300542831421 -0.063905775547027588 -0.233507260680198669 -0.011055345647037029 0.023925706744194031 -0.208717405796051025 -0.131117716431617737 0.109782092273235321 -0.019622553139925003 -0.229811653494834900 0.020145680755376816 -0.117600142955780029 -0.063788078725337982 -0.082340739667415619 0.196927517652511597 -0.112002022564411163 0.141459435224533081 0.098127312958240509 0.065322555601596832 -0.009016480296850204 -0.091881036758422852 0.023547770455479622 0.367959141731262207 -0.357238173484802246 0.045772828161716461 0.278469264507293701 -0.072073355317115784 -0.126878201961517334 -0.027931760996580124
-0.101048476994037628 -0.295651644468307495 -0.262219786643981934 0.184242829680442810 -0.343707054853439331 -0.047485422343015671 0.007029966451227665 -0.150441855192184448 -0.062198262661695480 0.050451777875423431 -0.073891095817089081 -0.213927388191223145 0.140005409717559814 -0.037748944014310837 0.223866164684295654 -0.031486880034208298 -0.035429626703262329 -0.236787572503089905 0.058140709996223450 0.114108428359031677 -0.121187210083007812 -0.140153363347053528 -0.146490603685379028 -0.248751550912857056 -0.016991004347801208 0.010114796459674835 0.033105455338954926 -0.330007702112197876 -0.048214815557003021 0.286468088626861572 -0.022417243570089340 0.163524329662322998 -0.050980929285287857 0.262130916118621826 -0.178877815604209900 0.237131327390670776 0.017504779621958733 0.292674243450164795 0.168298795819282532 -0.169884204864501953 -0.059371773153543472 -0.018660951405763626 0.120938964188098907 0.248893722891807556 0.058329381048679352 0.079081989824771881 -0.042508251965045929 0.044485390186309814 0.065681695938110352 0.118261575698852539 -0.274174571037292480 0.093760766088962555 0.083867676556110382 -0.223997175693511963 -0.090451650321483612 0.075070716440677643 -0.000518256623763591 -0.072051309049129486 0.153410717844963074 0.002835331019014120 0.169039130210876465 -0.235980540513992310 0.146957919001579285 0.015513476915657520 -0.076551362872123718 0.114442847669124603 0.074676983058452606 -0.030089996755123138 0.196972519159317017 0.014474628493189812 -0.049353267997503281 0.025772953405976295 -0.005267301108688116 0.158695131540298462 0.186077401041984558 0.115922830998897552 0.276873886585235596 -0.063107930123806000 0.160645112395286560 0.164298504590988159 0.284198105335235596 0.083377264440059662 -0.070986598730087280 0.080926530063152313 0.220856130123138428 -0.145579233765602112 -0.079062931239604950 -0.121967032551765442 0.014556596055626869 -0.068191751837730408 -0.100411899387836456 0.289202123880386353 0.180852502584457397 -0.126679882407188416 0.038765721023082733 0.173772171139717102 -0.254706948995590210 0.163868695497512817 0.123392477631568909 0.004883898422122002
-0.146441444754600525 0.118482589721679688 0.218419760465621948 0.041359275579452515 0.055988024920225143 -0.090820267796516418 0.023233046755194664 0.109500981867313385 -0.140083372592926025 0.193244203925132751 0.116989709436893463 0.094711869955062866 -0.035612743347883224 -0.142050325870513916 -0.189351812005043030 0.264770895242691040 0.027631280943751335 -0.027627754956483841 0.199691727757453918 -0.263983756303787231 0.071686863899230957 0.078697428107261658 0.141662716865539551 0.063763655722141266 0.122379072010517120 0.202385693788528442 0.054742775857448578 0.289391964673995972 -0.020057393237948418 -0.144567161798477173 -0.087949812412261963 -0.203101783990859985 -0.210404008626937866 -0.271235108375549316 0.160997435450553894 -0.206499516963958740 -0.011293943040072918 -0.002569539938122034 -0.135782122611999512 0.072069838643074036 -0.061644066125154495 0.141623228788375854 0.023936226963996887 -0.142774581909179688 -0.092267774045467377 -0.049354564398527145 0.111602753400802612 -0.204069837927818298 0.019371658563613892 -0.206690087914466858 0.103222534060478210 -0.207779571413993835 0.040356427431106567 -0.004117295145988464 0.142561912536621094 0.127827599644660950 0.231734812259674072 0.109368443489074707 -0.158313766121864319 0.184494912624359131 -0.140285223722457886 0.067900799214839935 -0.233883440494537354 0.076115116477012634 0.081290438771247864 -0.193066999316215515 -0.115651391446590424 -0.088262505829334259 -0.121389470994472504 -0.193776473402976990 -0.216928765177726746 0.177669644355773926 0.201258540153503418 -0.194697737693786621 -0.261293530464172363 0.064691208302974701 0.043778952211141586 0.254347145557403564 -0.175040110945701599 -0.175747096538543701 -0.092955358326435089 -0.021697174757719040 0.049172077327966690 0.085068814456462860 -0.083714880049228668 0.159243404865264893 0.287761598825454712 0.167592272162437439 -0.144805893301963806 0.080191753804683685 0.053658071905374527 -0.223119542002677917 0.055638913065195084 0.087779998779296875 -0.092899031937122345 -0.208019867539405823 0.129943609237670898 -0.288437485694885254 -0.159631341695785522 0.130107879638671875
-0.031598389148712158 -0.243324980139732361 0.182228818535804749 -0.115831419825553894 0.128811582922935486 0.129614800214767456 0.111075185239315033 -0.060540959239006042 0.093146368861198425 0.086895763874053955 -0.080946944653987885 0.034215226769447327 0.091334097087383270 0.177348822355270386 0.051169052720069885 -0.184740394353866577 -0.025451516732573509 0.012408887967467308 0.123330906033515930 0.014608360826969147 0.000341016449965537 0.084186263382434845 0.076821058988571167 0.095662809908390045 -0.016921401023864746 0.092807114124298096 -0.224142968654632568 -0.198514178395271301 -0.134247064590454102 0.089449889957904816 0.119568437337875366 0.142775371670722961 0.125425860285758972 0.027585132047533989 0.048666719347238541 0.080818310379981995 -0.103555068373680115 -0.097657911479473114 -0.068309769034385681 0.037707112729549408 -0.069193921983242035 0.106979407370090485 0.040763661265373230 -0.050385676324367523 0.064670003950595856 -0.029374223202466965 -0.029573569074273109 -0.081507787108421326 0.013492320664227009 0.221166223287582397 -0.132990986108779907 -0.095087118446826935 0.111843571066856384 -0.171779498457908630 -0.093171671032905579 -0.240945532917976379 0.112388849258422852 0.084409460425376892 -0.094149127602577209 0.026679268106818199 -0.005147984251379967 -0.187534913420677185 -0.020483041182160378 0.160496592521667480 0.060907740145921707 -0.014465102925896645 0.123168200254440308 -0.064194746315479279 -0.118332356214523315 -0.097334876656532288 0.056375533342361450 0.070477209985256195 0.063257969915866852 -0.048262391239404678 -0.076789222657680511 -0.036200512200593948 0.049942545592784882 -0.119409933686256409 0.060925509780645370 0.113287143409252167 0.068722300231456757 0.075489118695259094 -0.012604389339685440 0.005208882037550211 0.264417409896850586 -0.035634629428386688 -0.090942122042179108 0.110598683357238770 0.003104215720668435 -0.129690468311309814 -0.062406480312347412 0.073410049080848694 0.000913579773623496 -0.154458045959472656 0.022986365482211113 0.022083237767219543 0.005102388560771942 0.069320790469646454 0.152741074562072754 -0.081523537635803223
-0.024459375068545341 0.145654335618019104 0.066686443984508514 0.071239478886127472 0.189807415008544922 -0.011981927789747715 0.002444316167384386 0.086507886648178101 -0.020153375342488289 0.158826082944869995 0.217270448803901672 0.125089868903160095 0.032059397548437119 -0.012114923447370529 -0.098916068673133850 0.252151995897293091 0.236591339111328125 -0.019487118348479271 0.060751333832740784 -0.152430802583694458 0.126955911517143250 0.139873936772346497 -0.103208586573600769 0.140567243099212646 0.245734974741935730 -0.200231581926345825 0.023482164368033409 -0.215137273073196411 0.151206463575363159 -0.047907300293445587 -0.152503624558448792 -0.090561926364898682 -0.021182337775826454 0.024594645947217941 0.164405480027198792 0.025483440607786179 -0.062371820211410522 0.091468542814254761 -0.202764779329299927 -0.068454124033451080 0.201388135552406311 -0.178465545177459717 0.029056390747427940 -0.219337403774261475 -0.014075768180191517 0.105753324925899506 -0.039137430489063263 -0.104347512125968933 -0.140102013945579529 0.095790356397628784 -0.046765632927417755 0.175415396690368652 0.204099565744400024 -0.154833063483238220 -0.165424823760986328 0.136121347546577454 -0.216367155313491821 0.000301587308058515 0.204708576202392578 -0.000886119261849672 -0.168002709746360779 -0.005968207959085703 -0.013536544516682625 0.033301714807748795 0.148529946804046631 -0.062329005450010300 0.045893646776676178 0.282812476158142090 0.156573027372360229 -0.200155109167098999 0.006906280294060707 -0.215412497520446777 -0.129979804158210754 0.025044089183211327 0.051526829600334167 -0.218325525522232056 0.234222114086151123 -0.014614599756896496 -0.163486510515213013 -0.257057279348373413 0.049701981246471405 -0.226733133196830750 0.164988741278648376 -0.167579323053359985 -0.049913834780454636 -0.175091624259948730 0.133040979504585266 0.108226284384727478 -0.078993104398250580 0.082750096917152405 -0.157182842493057251 0.071690723299980164 0.145528897643089294 -0.356076031923294067 -0.016531856730580330 0.001705181435681880 0.161577299237251282 -0.086147561669349670 -0.109321787953376770 -0.152929693460464478
0.142533406615257263 -0.380125790834426880 -0.005657753441482782 0.256435185670852661 -0.084893636405467987 0.046161126345396042 0.050185944885015488 -0.212384492158889771 -0.166706874966621399 -0.051092017441987991 -0.055283050984144211 -0.176437214016914368 -0.030202541500329971 0.082861639559268951 -0.076840974390506744 -0.005894814152270555 -0.030310083180665970 -0.161393076181411743 -0.134807094931602478 0.126658335328102112 -0.142227634787559509 0.077949278056621552 -0.125506132841110229 -0.093041598796844482 -0.008300051093101501 0.016246277838945389 0.110106013715267181 -0.169408708810806274 -0.144314333796501160 0.259372979402542114 0.042941059917211533 -0.031766887754201889 -0.045240387320518494 0.095373339951038361 -0.221715345978736877 0.243995964527130127 -0.009577586315572262 -0.011149683035910130 0.018806044012308121 0.094678714871406555 0.173249423503875732 -0.042727593332529068 0.256440788507461548 0.327787309885025024 0.034172259271144867 -0.019352937117218971 -0.033994551748037338 0.006233349442481995 -0.220160737633705139 0.366337746381759644 -0.103952459990978241 0.137230679392814636 -0.191924303770065308 -0.027739742770791054 -0.175066292285919189 0.200556352734565735 0.067001327872276306 -0.127936914563179016 0.092105895280838013 -0.038137305527925491 0.033949147909879684 -0.198747947812080383 0.157166972756385803 -0.123434521257877350 -0.210564300417900085 0.050125025212764740 0.171294912695884705 0.012540948577225208 0.151838421821594238 -0.056668400764465332 0.312837481498718262 -0.179885029792785645 0.085580930113792419 0.322676479816436768 0.121880829334259033 0.089001633226871490 -0.019740650430321693 -0.245363116264343262 -0.123667359352111816 0.206158593297004700 0.109888486564159393 0.012324457988142967 -0.364067077636718750 -0.145153030753135681 0.269003897905349731 -0.059737492352724075 -0.092786766588687897 -0.041350714862346649 0.108213976025581360 0.130765736103057861 0.014479039236903191 0.374444067478179932 0.137003913521766663 0.094700649380683899 -0.015849621966481209 0.247526228427886963 -0.109031461179256439 0.248210668563842773 0.033564765006303787 -0.200429871678352356
-0.246808663010597229 -0.065402142703533173 0.240322738885879517 -0.135887697339057922 0.122947946190834045 0.007089599035680294 0.084087826311588287 0.024308964610099792 0.002977563533931971 0.055314306169748306 -0.241238743066787720 -0.199626296758651733 -0.225860193371772766 0.212961152195930481 -0.086964815855026245 -0.192168265581130981 -0.155359953641891479 0.078698500990867615 -0.156906470656394958 0.226528465747833252 -0.056854356080293655 -0.133236095309257507 0.118418097496032715 -0.085507109761238098 -0.264625489711761475 0.329765439033508301 0.057816434651613235 0.122529476881027222 0.019829684868454933 -0.046415574848651886 0.121764086186885834 0.151025325059890747 0.184570193290710449 -0.011496990919113159 -0.156608983874320984 0.026628876104950905 -0.138384759426116943 -0.366121351718902588 -0.019800864160060883 0.421126604080200195 -0.273701816797256470 0.629115343093872070 0.207909286022186279 0.003370965365320444 -0.320693641901016235 0.098940491676330566 -0.230239450931549072 0.004756662528961897 0.143048107624053955 0.164887756109237671 0.093079581856727600 0.049411363899707794 -0.024352930486202240 0.306278854608535767 0.021300025284290314 -0.230949684977531433 0.393813908100128174 -0.057314682751893997 -0.047545738518238068 -0.097313143312931061 0.188499838113784790 0.276848852634429932 -0.314526647329330444 -0.111526012420654297 -0.028865830972790718 0.056024286895990372 -0.114068292081356049 -0.520096004009246826 -0.279310017824172974 0.104521349072456360 -0.019730512052774429 0.303620278835296631 0.117835387587547302 -0.268572509288787842 -0.034090403467416763 -0.033161837607622147 -0.158823311328887939 -0.121987037360668182 0.143075034022331238 0.203916981816291809 0.046136640012264252 0.064472638070583344 0.084873691201210022 0.117301225662231445 0.106858991086483002 0.272565096616744995 0.041751295328140259 0.156202584505081177 -0.093517020344734192 -0.197424709796905518 0.284038215875625610 -0.205564618110656738 -0.453931272029876709 0.438617497682571411 -0.050695326179265976 0.082499794661998749 0.320912778377532959 -0.129145234823226929 -0.104238480329513550 0.154205277562141418
0.034006662666797638 0.040152546018362045 -0.046871103346347809 -0.012344776652753353 -0.085257358849048615 0.078178599476814270 -0.271752268075942993 -0.214630693197250366 -0.078636869788169861 0.021131040528416634 0.105208024382591248 0.119289986789226532 0.053193066269159317 -0.099167287349700928 -0.066462181508541107 -0.006453641224652529 0.037935979664325714 -0.168971866369247437 -0.143921703100204468 -0.053387563675642014 -0.089395359158515930 0.011885168030858040 -0.021561238914728165 0.131712019443511963 -0.197237387299537659 -0.259684413671493530 0.048396248370409012 -0.224170252680778503 -0.091028578579425812 0.046954527497291565 -0.069044783711433411 0.102338686585426331 0.143243327736854553 0.048616547137498856 0.056858606636524200 0.079854875802993774 0.131766170263290405 -0.060553599148988724 -0.119091302156448364 -0.189952597022056580 0.352381348609924316 -0.118814550340175629 0.038613285869359970 0.195384621620178223 0.249913796782493591 -0.111451953649520874 0.096393838524818420 -0.041918605566024780 0.030916564166545868 -0.036369312554597855 0.074203222990036011 0.144261479377746582 0.070214122533798218 0.019386105239391327 -0.011909977532923222 -0.016772044822573662 -0.336762875318527222 -0.096212260425090790 0.055939953774213791 -0.046708565205335617 0.184216007590293884 -0.118318200111389160 0.012637044303119183 0.064729556441307068 -0.269570767879486084 0.160198450088500977 0.191616520285606384 0.245501115918159485 0.222878724336624146 0.136267110705375671 0.032641198486089706 -0.036562968045473099 0.187423512339591980 0.114182882010936737 -0.085759930312633514 -0.000698467716574669 -0.018023949116468430 0.131450220942497253 0.053473562002182007 0.153885871171951294 0.038352906703948975 -0.020767219364643097 -0.121253058314323425 -0.131361350417137146 0.174658834934234619 -0.244510322809219360 0.000320256309350953 -0.032834589481353760 -0.072195842862129211 0.192194879055023193 0.027468184009194374 0.182256013154983521 0.355676501989364624 -0.207296937704086304 0.076356641948223114 -0.036897502839565277 0.034462753683328629 0.296593606472015381 0.167255878448486328 -0.041308697313070297
-0.128356218338012695 -0.057060576975345612 -0.003778472077101469 -0.072451703250408173 0.148854404687881470 0.010902820155024529 -0.005974783562123775 0.243130266666412354 -0.127921223640441895 -0.029619760811328888 0.151129975914955139 0.324453800916671753 0.081546068191528320 -0.016839342191815376 -0.203123971819877625 0.221970960497856140 -0.028669441118836403 0.008373194374144077 -0.026789469644427299 -0.369571089744567871 0.152347296476364136 0.199216127395629883 0.241601467132568359 0.100917257368564606 0.279168456792831421 -0.010772240348160267 0.019046556204557419 -0.039570607244968414 0.201057761907577515 -0.157921224832534790 -0.024884056299924850 -0.101439550518989563 -0.183976739645004272 -0.314231187105178833 0.138675376772880554 0.026115465909242630 -0.093390092253684998 -0.110158778727054596 0.013783372007310390 0.141088962554931641 0.134070813655853271 -0.027610022574663162 -0.044098149985074997 0.014480873011052608 -0.142328187823295593 -0.030524924397468567 0.024218484759330750 -0.127164646983146667 0.023202344775199890 -0.219446629285812378 0.180909767746925354 0.108831726014614105 -0.079012148082256317 0.041301980614662170 0.148308679461479187 0.155131801962852478 0.067816719412803650 -0.092824645340442657 0.093028865754604340 0.256346762180328369 -0.275625556707382202 0.223606869578361511 -0.103327848017215729 0.135186910629272461 0.039626695215702057 -0.091578766703605652 0.057346355170011520 -0.188594311475753784 -0.157108187675476074 0.042372707277536392 0.020772695541381836 -0.107904307544231415 0.057352796196937561 0.024893406778573990 -0.101967915892601013 0.058053959161043167 -0.156465485692024231 0.055860362946987152 0.103190369904041290 -0.185511201620101929 -0.117332696914672852 -0.127900913357734680 0.097682222723960876 0.015058571472764015 -0.263316661119461060 0.034154236316680908 0.041112001985311508 0.069795325398445129 -0.147422909736633301 -0.079417556524276733 0.127705037593841553 -0.277124762535095215 -0.219388753175735474 0.093084238469600677 -0.064394682645797729 -0.259331107139587402 0.160322681069374084 -0.332186460494995117 -0.096182450652122498 -0.260751515626907349
0.265294581651687622 0.127184033393859863 -0.179943263530731201 -0.047955490648746490 -0.031367000192403793 -0.008074454031884670 0.006761637981981039 -0.111131243407726288 0.077392488718032837 0.050395578145980835 0.148215860128402710 0.136886194348335266 0.331427872180938721 -0.095470421016216278 0.163168475031852722 0.063812516629695892 0.006154683884233236 -0.076043367385864258 0.170134961605072021 -0.116076372563838959 -0.239247947931289673 0.018084187060594559 0.042727965861558914 0.165380895137786865 -0.000486309378175065 -0.216336950659751892 -0.148133173584938049 -0.473375111818313599 -0.220888569951057434 0.018336303532123566 -0.043124880641698837 0.311702013015747070 -0.223801955580711365 0.228160023689270020 0.061472751200199127 -0.075453236699104309 -0.038071505725383759 0.488026231527328491 0.042192582041025162 -0.381798416376113892 0.019632117822766304 -0.209559202194213867 -0.050647977739572525 0.084141895174980164 0.212910041213035583 0.041684970259666443 -0.107173532247543335 -0.009971871040761471 0.075423352420330048 -0.077485576272010803 -0.114506512880325317 0.100773356854915619 0.290135502815246582 -0.022776134312152863 -0.222184941172599792 -0.080582335591316223 -0.112001612782478333 0.148167684674263000 -0.074643813073635101 0.142620965838432312 0.165113061666488647 -0.370927155017852783 0.406026721000671387 -0.159514501690864563 -0.072984427213668823 0.219994291663169861 -0.135188698768615723 0.295651853084564209 0.090814135968685150 0.032871834933757782 0.109236031770706177 -0.039602726697921753 -0.214549958705902100 0.222363829612731934 -0.036366924643516541 0.049074973911046982 0.449427694082260132 -0.152252733707427979 -0.197213187813758850 0.094731226563453674 0.305428981781005859 0.111419603228569031 0.218781486153602600 0.050577193498611450 0.172753944993019104 -0.289645403623580933 -0.000502953073009849 -0.248265460133552551 0.238732263445854187 -0.000670428678859025 -0.249409258365631104 0.287356317043304443 0.260448426008224487 -0.529012858867645264 0.134043172001838684 -0.067658863961696625 -0.035925339907407761 0.294876217842102051 0.210804685950279236 -0.128328904509544373
0.232724383473396301 -0.177336782217025757 0.173769459128379822 0.027836035937070847 -0.064005784690380096 -0.059925619512796402 -0.057803254574537277 -0.093703478574752808 -0.167515397071838379 -0.012796753086149693 0.160583347082138062 0.141912251710891724 0.088293068110942841 -0.155960187315940857 0.041488666087388992 -0.051148898899555206 0.151811435818672180 0.010148518718779087 -0.014669530093669891 -0.138665392994880676 0.059479370713233948 -0.105370864272117615 -0.122073233127593994 -0.132454484701156616 -0.061350576579570770 -0.174127787351608276 -0.014134328812360764 -0.135086759924888611 -0.084930591285228729 0.039310008287429810 0.106945209205150604 -0.056528441607952118 0.106089152395725250 -0.098319604992866516 0.028583304956555367 -0.028611419722437859 0.148497596383094788 0.156011462211608887 0.166804820299148560 0.084357909858226776 0.248247429728507996 -0.221895039081573486 -0.157858967781066895 0.023025102913379669 0.171630278229713440 -0.057740140706300735 0.005198133178055286 0.046732991933822632 -0.074588097631931305 -0.135190650820732117 -0.094129331409931183 -0.011164805851876736 0.092644967138767242 0.011748238466680050 0.072047822177410126 0.171654343605041504 -0.051362834870815277 0.138742849230766296 0.136103734374046326 0.148592263460159302 -0.032100472599267960 0.030265288427472115 -0.006076815538108349 -0.009814967401325703 -0.043973814696073532 -0.000952006375882775 0.173422709107398987 0.230617001652717590 0.166203960776329041 -0.138366565108299255 -0.030187547206878662 0.001263693324290216 0.109857164323329926 0.153362393379211426 0.142508238554000854 -0.207203641533851624 0.188334956765174866 0.049965001642704010 -0.110772982239723206 -0.048845626413822174 -0.055931687355041504 0.001655849977396429 0.045470435172319412 0.132744073867797852 0.172831952571868896 -0.047383520752191544 0.084734641015529633 -0.062022924423217773 0.072411730885505676 0.119908399879932404 0.065368413925170898 -0.044930621981620789 0.148127421736717224 -0.259871870279312134 -0.027495544403791428 -0.118301540613174438 0.019530946388840675 0.067221641540527344 0.083825044333934784 0.037605859339237213
0.152317523956298828 -0.109291858971118927 0.026813421398401260 -0.035389292985200882 -0.250128239393234253 0.053017806261777878 0.198663443326950073 -0.201944842934608459 -0.136190399527549744 -0.044219359755516052 -0.127554908394813538 0.002709589898586273 0.116294831037521362 0.201737344264984131 0.232891306281089783 -0.057500213384628296 0.006088410969823599 -0.077954910695552826 -0.057823158800601959 0.038102842867374420 -0.256572604179382324 -0.182602584362030029 -0.248186096549034119 0.117419853806495667 -0.145327195525169373 -0.170852228999137878 -0.238473102450370789 -0.012668799608945847 -0.181972935795783997 0.265204221010208130 -0.058787565678358078 0.258396208286285400 0.054069753736257553 0.349233061075210571 0.071801632642745972 0.183533549308776855 -0.130564510822296143 -0.030795710161328316 0.196097418665885925 -0.024718888103961945 -0.134125113487243652 -0.054689168930053711 -0.009198823012411594 0.262769252061843872 0.127409175038337708 0.151171296834945679 -0.104815520346164703 -0.020372824743390083 -0.045009996742010117 0.123609676957130432 -0.006511351093649864 0.014631099067628384 -0.023108908906579018 0.124125383794307709 -0.183637440204620361 -0.176796823740005493 0.083771549165248871 0.105818428099155426 0.188854828476905823 -0.122912690043449402 0.304166793823242188 -0.186316564679145813 -0.033038154244422913 -0.212364986538887024 0.039280936121940613 0.156397268176078796 0.047168869525194168 -0.173253715038299561 0.131664216518402100 0.062212429940700531 -0.079240553081035614 -0.028141135349869728 -0.014009783044457436 0.117458447813987732 0.046887844800949097 0.269467711448669434 0.034657191485166550 -0.027774650603532791 0.147900551557540894 -0.007444628980010748 0.199799418449401855 0.204479262232780457 -0.125101342797279358 -0.068897038698196411 0.066905699670314789 -0.108809225261211395 -0.037797000259160995 -0.063925206661224365 0.128948703408241272 0.015546099282801151 -0.170894294977188110 -0.043257534503936768 0.024989936500787735 -0.007510552182793617 -0.090578682720661163 0.226808458566665649 0.041896905750036240 0.150783374905586243 0.085861429572105408 0.190516158938407898
0.071140468120574951 0.093260936439037323 0.151725426316261292 -0.104524552822113037 0.196516156196594238 -0.027615156024694443 0.146626517176628113 0.088317990303039551 0.170757636427879333 -0.050604481250047684 -0.169404730200767517 0.008425521664321423 0.055859979242086411 -0.119658656418323517 -0.151793152093887329 -0.133674606680870056 -0.017979998141527176 0.180810451507568359 0.039094418287277222 -0.082395069301128387 -0.070104129612445831 0.037247769534587860 -0.080227471888065338 0.013405787758529186 -0.170715451240539551 0.208678960800170898 0.027044022455811501 0.053603481501340866 -0.084472790360450745 -0.041091252118349075 0.013471349142491817 -0.085304506123065948 0.121812373399734497 0.151423588395118713 -0.046919830143451691 0.142531678080558777 -0.146973893046379089 -0.170262068510055542 -0.153918743133544922 -0.062210407108068466 0.037641089409589767 0.265326321125030518 -0.155657485127449036 -0.256606101989746094 -0.219342708587646484 -0.018539767712354660 0.017708390951156616 0.222707137465476990 -0.073850423097610474 -0.167907804250717163 -0.059921968728303909 -0.154861435294151306 0.039587367326021194 0.149916589260101318 0.119511187076568604 0.063116841018199921 0.111989066004753113 -0.158225312829017639 0.126556202769279480 -0.000383751612389460 0.152211159467697144 0.108858652412891388 -0.298951119184494019 -0.015591681003570557 0.014205573126673698 -0.061856396496295929 0.217280894517898560 -0.339841157197952271 -0.349113613367080688 0.039111975580453873 0.055744692683219910 -0.035257440060377121 -0.018141187727451324 -0.196077346801757812 -0.095525853335857391 -0.126624897122383118 -0.195167109370231628 0.101535409688949585 0.113030984997749329 0.063837617635726929 -0.250164359807968140 0.189526036381721497 0.051639288663864136 0.002643689746037126 0.135944023728370667 0.089394524693489075 -0.021860621869564056 0.222171455621719360 -0.194183498620986938 -0.220420360565185547 -0.098779335618019104 -0.169199287891387939 -0.296811938285827637 0.184803634881973267 -0.049107160419225693 -0.177549898624420166 0.056512758135795593 -0.324453115463256836 -0.110121764242649078 0.000506367417983711
-0.078923836350440979 -0.095783442258834839 -0.114326596260070801 -0.110119387507438660 -0.007694688625633717 -0.164640501141548157 0.124029383063316345 0.137088894844055176 -0.157902672886848450 -0.148914635181427002 0.067185997962951660 0.038723632693290710 -0.088183067739009857 0.162928834557533264 -0.091482989490032196 0.088200032711029053 -0.083210192620754242 0.036532144993543625 -0.147146478295326233 0.121540367603302002 0.074984334409236908 0.162811979651451111 -0.039604742079973221 0.114215120673179626 -0.098995782434940338 0.228465691208839417 -0.146289139986038208 -0.083564616739749908 -0.009076198562979698 0.069161981344223022 0.065219722688198090 0.119179062545299530 0.152634993195533752 0.140189886093139648 0.120036341249942780 0.090317681431770325 -0.051139764487743378 -0.092017389833927155 -0.090294264256954193 0.245384380221366882 -0.041819766163825989 0.188044726848602295 0.024780508130788803 -0.198120281100273132 -0.136815443634986877 0.095728233456611633 0.067619889974594116 -0.135469734668731689 -0.097585700452327728 -0.132651954889297485 -0.012443355284631252 -0.114609435200691223 -0.120613813400268555 0.129233375191688538 0.220667421817779541 0.027187205851078033 -0.018083414062857628 -0.024225849658250809 -0.172412514686584473 0.116256706416606903 0.105715773999691010 0.117273926734924316 -0.176915243268013000 0.020062081515789032 0.036815885454416275 0.078884840011596680 0.055015560239553452 -0.162287414073944092 -0.140371128916740417 0.167622253298759460 0.011599493212997913 0.105419360101222992 0.005174833815544844 -0.083057969808578491 -0.100361153483390808 0.010851326398551464 -0.240926086902618408 0.088054694235324860 0.146055325865745544 0.054800428450107574 0.043005146086215973 -0.054545938968658447 0.149852544069290161 -0.040169160813093185 0.014735681004822254 0.244668036699295044 0.085345618426799774 -0.115784153342247009 0.005239994265139103 -0.059300195425748825 0.219167277216911316 -0.194236397743225098 -0.228285074234008789 0.147178828716278076 -0.033746600151062012 0.093688361346721649 0.183142513036727905 -0.051022373139858246 0.063171021640300751 0.120942696928977966
0.136056870222091675 -0.137953385710716248 0.120895005762577057 -0.131123259663581848 0.020890550687909126 -0.115885943174362183 0.259737402200698853 0.050726901739835739 0.124154783785343170 -0.254258900880813599 -0.260695308446884155 -0.322213381528854370 -0.147115692496299744 0.123654447495937347 0.229473888874053955 -0.045414302498102188 -0.020569160580635071 0.158860906958580017 -0.276570141315460205 0.270187735557556152 -0.250759750604629517 0.010402787476778030 0.073715239763259888 0.176666900515556335 0.020419577136635780 -0.074120976030826569 -0.274891912937164307 -0.109151132404804230 0.090093165636062622 0.248655021190643311 0.169259041547775269 0.165264323353767395 0.180945605039596558 0.107865072786808014 -0.187480345368385315 0.278863072395324707 -0.084099091589450836 -0.256894469261169434 0.229348346590995789 0.321331948041915894 -0.016809305176138878 0.071352437138557434 0.042173642665147781 0.059044003486633301 -0.051493179053068161 -0.082567602396011353 -0.240919888019561768 0.154592648148536682 -0.099866949021816254 0.119187697768211365 0.062270194292068481 0.010259035974740982 -0.117223814129829407 0.131876960396766663 0.040210321545600891 -0.178503066301345825 0.197141021490097046 0.096652671694755554 -0.114393614232540131 -0.062686093151569366 0.167279437184333801 0.060326468199491501 -0.017625963315367699 -0.179375514388084412 0.060785528272390366 0.038624390959739685 -0.001871176413260400 -0.170234367251396179 0.038823388516902924 -0.136445820331573486 0.152621462941169739 -0.030752295628190041 0.134424716234207153 -0.038279667496681213 0.108477741479873657 0.287376344203948975 -0.114571265876293182 -0.175637081265449524 0.116185106337070465 0.071847125887870789 -0.088336624205112457 0.184368193149566650 -0.052741270512342453 -0.111284390091896057 0.163470983505249023 0.179927155375480652 -0.044399563223123550 0.137696206569671631 -0.003327296115458012 -0.057168208062648773 0.042943481355905533 -0.130779534578323364 0.008394617587327957 0.251171976327896118 0.157189056277275085 0.181963145732879639 0.135692462325096130 0.016938352957367897 -0.073199480772018433 0.117113307118415833
-0.203500986099243164 0.043092038482427597 0.006395999342203140 -0.072937764227390289 0.074683427810668945 0.125987768173217773 0.161852344870567322 -0.024839054793119431 -0.092027999460697174 0.116179667413234711 -0.073429264128208160 -0.185827061533927917 0.051319997757673264 -0.031200798228383064 0.032004605978727341 -0.061255816370248795 -0.073558256030082703 -0.119369283318519592 -0.159093335270881653 0.230522930622100830 0.113692186772823334 0.117691867053508759 -0.008397531695663929 0.017142763361334801 -0.054039455950260162 0.212643295526504517 -0.236060395836830139 0.095926426351070404 0.067719303071498871 -0.035186998546123505 0.250293761491775513 -0.117678016424179077 0.200418889522552490 0.106039918959140778 0.034643325954675674 -0.008626308292150497 0.046699032187461853 -0.071164511144161224 -0.096985250711441040 0.249380052089691162 -0.086584188044071198 0.217398643493652344 0.116281218826770782 0.017580859363079071 -0.116649232804775238 0.033162362873554230 0.027075091376900673 0.023906759917736053 0.128930270671844482 0.112949766218662262 0.183735981583595276 -0.113270677626132965 -0.140343755483627319 0.174370616674423218 -0.044976130127906799 0.090039767324924469 0.085638366639614105 -0.047791961580514908 0.040176402777433395 0.082494631409645081 0.100060716271400452 0.223657026886940002 -0.237131506204605103 -0.061306390911340714 0.188062131404876709 -0.102840550243854523 -0.102805092930793762 -0.297632634639739990 -0.145979091525077820 -0.015467777848243713 0.113016605377197266 0.265398174524307251 0.125660717487335205 -0.239729762077331543 -0.094266928732395172 0.151035070419311523 -0.276098579168319702 -0.072238974273204803 0.161991357803344727 -0.142180591821670532 -0.067024677991867065 0.121599286794662476 -0.091821789741516113 -0.094719320535659790 0.034488797187805176 0.239471063017845154 0.071326680481433868 -0.008759046904742718 0.066342227160930634 -0.049749672412872314 0.232277408242225647 -0.286453813314437866 -0.074612416326999664 0.332085728645324707 -0.233477845788002014 0.191605314612388611 0.073520302772521973 -0.235402673482894897 -0.019575918093323708 0.224315270781517029
-0.152977883815765381 0.114878475666046143 0.055920630693435669 -0.145894005894660950 0.173257783055305481 -0.002820037771016359 0.030753990635275841 0.152977555990219116 0.153365030884742737 0.014353638514876366 -0.069166406989097595 0.128671973943710327 0.179600253701210022 -0.150705352425575256 0.048189241439104080 0.164261057972908020 -0.118182748556137085 -0.008211500942707062 -0.123195633292198181 -0.028634412214159966 0.268583685159683228 0.132513940334320068 0.116933383047580719 0.304354935884475708 0.017629444599151611 0.118051744997501373 -0.111463397741317749 0.229327067732810974 0.223038733005523682 -0.070615477859973907 -0.026613928377628326 -0.112966373562812805 -0.046771977096796036 -0.178476423025131226 -0.114635705947875977 -0.271024882793426514 -0.076912440359592438 -0.243714511394500732 0.090330086648464203 -0.028273750096559525 -0.072475738823413849 -0.036548968404531479 0.048148982226848602 -0.024277552962303162 -0.003636773210018873 0.231347605586051941 0.075235396623611450 0.045763395726680756 0.224481299519538879 -0.326343595981597900 0.088703922927379608 -0.021555699408054352 -0.007077287416905165 0.259478002786636353 -0.015078561380505562 -0.213249593973159790 0.183390855789184570 0.052336148917675018 -0.266880512237548828 0.082281231880187988 -0.108106583356857300 0.178485959768295288 -0.106315001845359802 -0.066913239657878876 0.212335452437400818 -0.117779903113842010 0.028203049674630165 -0.017796838656067848 -0.274007469415664673 0.105168297886848450 -0.279450267553329468 0.179313227534294128 0.252267807722091675 -0.255617916584014893 -0.370522379875183105 -0.097220338881015778 -0.254368185997009277 0.166092321276664734 -0.037010762840509415 -0.096460253000259399 -0.059708479791879654 -0.109874725341796875 0.169467717409133911 0.283340334892272949 -0.153167396783828735 0.109893329441547394 -0.037189282476902008 0.342192620038986206 -0.036229036748409271 -0.225603967905044556 0.196277186274528503 -0.125287100672721863 -0.061709873378276825 0.077559255063533783 0.028373489156365395 -0.098755277693271637 0.257338911294937134 -0.193348154425621033 -0.275380313396453857 0.068938925862312317
