#Layer 7 Weights:
-0.065974622964859009 -0.023274971172213554 0.129582539200782776 -0.153558179736137390 -0.017125045880675316 -0.061841886490583420 0.066797547042369843 -0.125049456954002380 -0.054627839475870132 0.051187098026275635 -0.199097603559494019 -0.039805836975574493 -0.061046358197927475 -0.023897510021924973 0.012845397926867008 0.046807758510112762 -0.000526392192114145 -0.049973916262388229 -0.011229243129491806 -0.205457583069801331 0.031957760453224182 -0.052312262356281281 0.017468953505158424 0.004299488849937916 0.164261505007743835 0.107214689254760742 -0.064721211791038513 -0.031580626964569092 0.180069610476493835 -0.155009180307388306 0.143172919750213623 0.008840708993375301 -0.003126078518107533 0.145965367555618286 0.129421785473823547 -0.076785236597061157 0.118968293070793152 0.066791005432605743 0.032373148947954178 -0.126422658562660217 -0.022730357944965363 -0.141578271985054016 0.090590871870517731 0.060277130454778671 -0.007889214903116226 0.148637190461158752 0.154152169823646545 0.034118458628654480 0.006499525159597397 0.124717064201831818 -0.125571697950363159 0.021548723801970482 -0.047250498086214066 -0.109710924327373505 0.060256194323301315 -0.203178927302360535 0.070780523121356964 -0.052297357469797134 0.050179135054349899 0.088943265378475189 0.190141931176185608 0.001809634850360453 0.168436735868453979 0.074784964323043823 0.115631677210330963 -0.113645493984222412 -0.016628297045826912 -0.183161646127700806 -0.057402048259973526 0.144093245267868042 0.098475307226181030 -0.063416913151741028 0.010153996758162975 0.027308993041515350 0.134472042322158813 -0.025126041844487190 -0.166023582220077515 -0.092223659157752991 -0.071896024048328400 -0.039817500859498978 0.081592023372650146 -0.157587707042694092 0.112312532961368561 0.029048515483736992 0.119896613061428070 -0.053758397698402405 -0.116181612014770508 0.133538886904716492 0.150336593389511108 0.095942713320255280 -0.044708475470542908 -0.258628755807876587 -0.084317505359649658 -0.132487669587135315 0.100511252880096436 0.045243553817272186 0.090446278452873230 -0.172322466969490051 0.053928148001432419 -0.118563398718833923
0.051016397774219513 0.090598247945308685 0.090999655425548553 0.036677524447441101 0.146169587969779968 0.102561779320240021 -0.082496859133243561 0.035474330186843872 -0.135829687118530273 -0.137125521898269653 -0.078624464571475983 -0.121160350739955902 -0.088477268815040588 0.182451516389846802 -0.032549176365137100 0.008682834915816784 -0.167830288410186768 -0.038808010518550873 0.088422447443008423 0.056918881833553314 0.072736345231533051 -0.058795265853404999 -0.171352073550224304 -0.114534258842468262 -0.107614189386367798 0.145546540617942810 0.076225996017456055 -0.146598547697067261 0.090989649295806885 0.076586551964282990 -0.084952987730503082 -0.109745852649211884 -0.028231101110577583 0.157768741250038147 0.006499721668660641 -0.039750531315803528 0.048697941005229950 0.023953065276145935 0.056653372943401337 -0.144659787416458130 0.022877175360918045 0.121868945658206940 -0.065114468336105347 -0.154544189572334290 -0.032988019287586212 0.083283372223377228 0.003788000671193004 0.004298354499042034 0.044114544987678528 -0.112165816128253937 -0.184955894947052002 -0.023423951119184494 0.093155890703201294 0.083655789494514465 -0.045971330255270004 -0.034171745181083679 0.129103377461433411 0.051539197564125061 0.003987906966358423 -0.141702830791473389 0.185050532221794128 0.170743361115455627 -0.200475215911865234 -0.018787590786814690 -0.013498683460056782 0.145824208855628967 -0.059886347502470016 -0.148990392684936523 0.168621256947517395 -0.023506645113229752 -0.087795600295066833 -0.089840680360794067 0.055963508784770966 0.109145641326904297 0.120896250009536743 -0.146472021937370300 -0.033801253885030746 -0.004943475592881441 0.187254846096038818 -0.035110644996166229 0.142678186297416687 0.059709869325160980 -0.011358748190104961 0.086545884609222412 0.127818152308464050 -0.145045369863510132 -0.083570249378681183 -0.047561075538396835 -0.196802005171775818 0.114539660513401031 0.085434690117835999 0.075677104294300079 0.172021433711051941 0.083736173808574677 -0.095663964748382568 0.042862910777330399 -0.050766445696353912 0.046637661755084991 0.030816247686743736 -0.033713363111019135
-0.038736492395401001 -0.167441457509994507 -0.142536237835884094 0.101234391331672668 0.082364954054355621 0.135786637663841248 -0.120679192245006561 0.159661069512367249 0.153818950057029724 0.026463873684406281 -0.185236990451812744 0.075334191322326660 0.038272175937891006 -0.049314036965370178 0.106021143496036530 -0.122383691370487213 -0.176347896456718445 0.031287368386983871 0.099556259810924530 0.129497364163398743 -0.011291152797639370 -0.212768778204917908 0.025702135637402534 -0.143193304538726807 0.148119732737541199 0.042998924851417542 0.094005055725574493 -0.122400410473346710 -0.123941920697689056 -0.084088154137134552 0.137631714344024658 0.097253225743770599 -0.062680624425411224 -0.105984449386596680 -0.191350206732749939 0.146579250693321228 -0.122338086366653442 0.148604229092597961 -0.114416368305683136 -0.090466469526290894 -0.105461157858371735 -0.165350705385208130 -0.001653905492275953 -0.141569644212722778 -0.097534447908401489 0.052627850323915482 -0.114899076521396637 0.091492891311645508 -0.191915526986122131 -0.040554936975240707 0.045724526047706604 0.035784620791673660 0.073241516947746277 0.143035963177680969 -0.105641894042491913 0.045338019728660583 0.054292857646942139 -0.012257046997547150 0.092590637505054474 0.062047392129898071 -0.105080641806125641 0.172103136777877808 -0.040605463087558746 -0.037798035889863968 0.188143938779830933 -0.123960100114345551 0.094837814569473267 0.045097853988409042 0.084189951419830322 0.043305303901433945 0.043004818260669708 0.003962358925491571 0.065468966960906982 0.142425045371055603 0.160086050629615784 0.008665570989251137 0.063948519527912140 0.178851127624511719 -0.078738972544670105 -0.092057235538959503 0.077162496745586395 0.082201480865478516 0.179518446326255798 0.046148564666509628 -0.082435630261898041 -0.151876941323280334 -0.137162402272224426 -0.044654302299022675 0.172682195901870728 -0.120767205953598022 -0.186651960015296936 -0.021345639601349831 -0.238430783152580261 -0.123122930526733398 -0.046513058245182037 0.006413882132619619 0.097773946821689606 -0.050889208912849426 -0.164409607648849487 -0.024964354932308197
0.063207522034645081 -0.094483502209186554 -0.112532764673233032 -0.018349295482039452 0.008131681941449642 0.152707487344741821 -0.079678684473037720 0.060743458569049835 -0.041443292051553726 0.169311180710792542 -0.034794446080923080 0.138030111789703369 0.114303536713123322 -0.122250564396381378 0.018228491768240929 -0.004784845281392336 -0.179046869277954102 0.136928543448448181 0.001052505103871226 -0.051784314215183258 -0.160840541124343872 0.052611827850341797 0.067723602056503296 -0.141366362571716309 0.066106520593166351 -0.079344615340232849 -0.028705414384603500 -0.042946584522724152 0.011109727434813976 -0.119494885206222534 0.071825429797172546 -0.093736670911312103 0.181143626570701599 0.126149863004684448 -0.042515136301517487 -0.059366926550865173 0.123223252594470978 -0.024412028491497040 0.124518036842346191 -0.131026610732078552 -0.029667997732758522 0.062680356204509735 0.155751749873161316 -0.124934747815132141 -0.042541310191154480 0.051494810730218887 -0.009285441599786282 -0.044894859194755554 -0.173775553703308105 -0.053044129163026810 -0.011008613742887974 0.160303995013237000 -0.008243836462497711 -0.049189612269401550 0.132137238979339600 -0.140237420797348022 -0.089529916644096375 -0.056264359503984451 0.102059938013553619 -0.158303901553153992 -0.021821016445755959 -0.138448834419250488 0.046970523893833160 0.077654153108596802 0.025465924292802811 -0.102285496890544891 0.114143364131450653 0.058188308030366898 0.097164705395698547 -0.128924459218978882 -0.060052175074815750 -0.069672897458076477 -0.086754955351352692 -0.069648586213588715 0.077918834984302521 -0.092642508447170258 -0.116287387907505035 0.050387885421514511 0.062306147068738937 0.132459089159965515 0.112918920814990997 0.117354080080986023 -0.142450511455535889 -0.016200730577111244 -0.111595585942268372 0.004854682367295027 0.101651243865489960 0.053462292999029160 0.105796411633491516 -0.042206719517707825 -0.156058683991432190 0.105443671345710754 -0.143510833382606506 -0.050906319171190262 0.073503620922565460 0.113634735345840454 0.197371393442153931 -0.016539763659238815 0.144656494259834290 0.053658585995435715
0.000145586163853295 -0.162102594971656799 -0.012633107602596283 0.038723770529031754 -0.166995212435722351 -0.157806009054183960 -0.047574646770954132 0.045805376023054123 0.050646267831325531 0.012455134652554989 -0.184617534279823303 -0.194530084729194641 -0.115463964641094208 0.026799086481332779 -0.130155995488166809 0.040845699608325958 0.082477435469627380 -0.126768410205841064 0.147467911243438721 -0.165933817625045776 0.105579994618892670 -0.154834523797035217 0.053499661386013031 -0.123866528272628784 -0.032238598912954330 0.174447581171989441 0.025116285309195518 0.000704415608197451 -0.051627337932586670 -0.097068801522254944 0.060984320938587189 -0.073788501322269440 0.053512107580900192 0.022712213918566704 0.133146151900291443 -0.131275683641433716 -0.032024018466472626 -0.087848752737045288 0.125266581773757935 -0.063796468079090118 -0.120511010289192200 -0.115248315036296844 -0.161214426159858704 0.074956275522708893 0.073179781436920166 -0.089202858507633209 0.011443413794040680 0.034371342509984970 0.141313299536705017 0.186627000570297241 0.104806929826736450 0.011803532019257545 0.129276379942893982 0.038561608642339706 -0.139390379190444946 -0.064974062144756317 0.072875790297985077 0.039978988468647003 0.087153635919094086 0.079625375568866730 -0.081680998206138611 0.014628314413130283 0.142564684152603149 0.025761520490050316 -0.028457844629883766 -0.140736505389213562 0.159680530428886414 0.044299747794866562 -0.129921630024909973 0.055948514491319656 0.012838940136134624 0.103946879506111145 -0.036563802510499954 0.131803095340728760 -0.067313931882381439 -0.023841468617320061 -0.038102094084024429 0.097479216754436493 0.132160514593124390 -0.006312580313533545 0.064107321202754974 -0.109827555716037750 0.062868572771549225 -0.095037080347537994 0.047004342079162598 -0.078401014208793640 0.047157723456621170 0.025084709748625755 0.064680054783821106 0.112455807626247406 -0.053708299994468689 -0.036283701658248901 -0.084640763700008392 -0.031369589269161224 0.181059837341308594 -0.085790678858757019 0.024293271824717522 0.090768560767173767 0.146131068468093872 0.038567323237657547
0.167405575513839722 0.192987710237503052 0.048591036349534988 0.099733054637908936 0.005272704642266035 -0.102887220680713654 -0.003708557691425085 0.164656892418861389 -0.148709356784820557 0.145274236798286438 -0.148198619484901428 -0.070850640535354614 0.091301642358303070 -0.010910314507782459 -0.028620721772313118 -0.010792201384902000 0.152506828308105469 0.149413496255874634 -0.143300041556358337 0.157607510685920715 -0.024948462843894958 0.052269820123910904 0.202433094382286072 0.088053897023200989 0.072117693722248077 0.179066136479377747 0.138247981667518616 -0.173486337065696716 -0.055950891226530075 -0.129937201738357544 0.209700599312782288 0.023490885272622108 0.001793911796994507 0.052764259278774261 -0.060124479234218597 0.186079069972038269 0.072181046009063721 0.122148975729942322 0.042897026985883713 0.155579477548599243 -0.061232712119817734 -0.149269998073577881 0.166149109601974487 -0.178522452712059021 -0.085242629051208496 -0.048928927630186081 0.028818132355809212 -0.160163462162017822 -0.047153465449810028 0.031811494380235672 -0.049412794411182404 -0.071472331881523132 0.118470244109630585 0.005454975180327892 0.066492691636085510 0.106772020459175110 -0.115513749420642853 -0.133957967162132263 -0.152982577681541443 -0.056465730071067810 0.051185451447963715 -0.055872373282909393 0.097795605659484863 0.037371553480625153 0.140980407595634460 0.064921587705612183 0.193290442228317261 -0.088446415960788727 0.044351145625114441 -0.051985926926136017 0.111678570508956909 -0.145637333393096924 0.153748542070388794 -0.142296835780143738 -0.060773041099309921 0.193020209670066833 -0.085367277264595032 0.118872113525867462 -0.095331728458404541 -0.006127068772912025 -0.175596043467521667 0.004774300847202539 -0.113433614373207092 -0.136586830019950867 0.131785199046134949 0.019627878442406654 -0.015542597509920597 -0.089243426918983459 0.036221019923686981 -0.078222982585430145 0.110118314623832703 0.186754435300827026 0.150381371378898621 -0.135133221745491028 0.025148605927824974 -0.020707838237285614 0.097513496875762939 -0.006027804687619209 0.121905058622360229 0.000429671024903655
-0.007182782981544733 0.126191943883895874 -0.178529441356658936 -0.060027096420526505 0.109153427183628082 0.056943103671073914 0.133120164275169373 0.039046540856361389 -0.185797095298767090 0.110198155045509338 0.095891676843166351 -0.015250132419168949 -0.021328106522560120 -0.155019894242286682 -0.084632784128189087 -0.033976376056671143 -0.132634550333023071 0.073617838323116302 0.130972877144813538 0.091959454119205475 -0.010964798741042614 0.192986786365509033 0.148903101682662964 0.075130768120288849 0.131731510162353516 -0.133918792009353638 -0.025337759405374527 0.125015765428543091 -0.077556386590003967 0.026565171778202057 0.108792841434478760 -0.161798268556594849 0.209381029009819031 -0.127534493803977966 -0.158859953284263611 -0.021956771612167358 -0.042450062930583954 -0.014546105638146400 0.154127687215805054 -0.091338299214839935 0.167141214013099670 -0.181336998939514160 -0.072751104831695557 -0.042302638292312622 -0.017022229731082916 0.072464272379875183 0.208301469683647156 0.107855595648288727 0.090773813426494598 -0.193603500723838806 0.058276124298572540 0.008815272711217403 0.120747059583663940 -0.065167143940925598 0.178506314754486084 -0.008137108758091927 -0.086909495294094086 0.044708326458930969 -0.021031944081187248 -0.146889358758926392 0.143731892108917236 -0.048049557954072952 0.112693421542644501 -0.008043247275054455 -0.081355035305023193 -0.133428901433944702 0.014209344051778316 -0.144286155700683594 0.007537013385444880 -0.161856219172477722 -0.084798708558082581 0.019893307238817215 0.108469210565090179 0.129943653941154480 -0.066741004586219788 0.121987648308277130 0.172156453132629395 0.038283087313175201 -0.136003583669662476 -0.066818408668041229 -0.035676404833793640 0.065019853413105011 -0.164335757493972778 -0.116080343723297119 0.012053346261382103 0.074011109769344330 0.109299197793006897 -0.029584115371108055 -0.079151719808578491 -0.172476008534431458 0.003176126861944795 -0.207744002342224121 0.087098300457000732 0.029046351090073586 0.028133228421211243 -0.062831446528434753 -0.090291105210781097 0.077070437371730804 0.102174915373325348 -0.160389363765716553
-0.135644376277923584 -0.016708528622984886 0.141879916191101074 -0.041065722703933716 -0.008847056888043880 0.013057032600045204 -0.170725688338279724 -0.178328424692153931 -0.155398249626159668 -0.119334638118743896 -0.056297801434993744 -0.144365727901458740 0.156341373920440674 0.146792292594909668 0.082352206110954285 0.041654314845800400 0.065463483333587646 0.090827845036983490 -0.065227493643760681 -0.144794821739196777 -0.176371097564697266 0.129778429865837097 -0.033723592758178711 0.035068154335021973 -0.066124543547630310 -0.018755879253149033 -0.070532858371734619 0.113473795354366302 0.114843837916851044 0.064866140484809875 0.044758945703506470 0.129382431507110596 -0.194634079933166504 -0.092319488525390625 0.036169011145830154 -0.099473573267459869 0.026573766022920609 0.114887669682502747 0.141789287328720093 0.094435349106788635 -0.063196912407875061 -0.041636765003204346 0.094610773026943207 0.203569844365119934 0.162552073597908020 0.032714098691940308 -0.140676587820053101 0.145984679460525513 -0.097963623702526093 -0.061840079724788666 -0.021589914336800575 -0.158449843525886536 -0.147517010569572449 -0.015148114413022995 -0.086642801761627197 -0.144852846860885620 0.059746224433183670 0.010111953131854534 -0.136673182249069214 -0.030433464795351028 0.145523786544799805 -0.052306968718767166 -0.154327645897865295 -0.045417632907629013 -0.119751207530498505 0.176810562610626221 -0.113672986626625061 0.045826785266399384 0.009777915664017200 0.148622736334800720 0.021261334419250488 -0.167996481060981750 0.113353908061981201 0.162958815693855286 -0.005068298894912004 0.124423228204250336 0.119657136499881744 0.056828740984201431 0.048771109431982040 0.053725536912679672 0.014189333654940128 -0.039488565176725388 0.184846848249435425 0.166097208857536316 -0.113776281476020813 -0.077933371067047119 0.072382509708404541 0.039706837385892868 0.108915634453296661 -0.091882362961769104 0.198860868811607361 0.060868166387081146 0.107611306011676788 0.101160712540149689 0.119700424373149872 -0.033666566014289856 -0.109811037778854370 -0.072331331670284271 0.108823910355567932 0.001545338658615947
0.032542560249567032 -0.098203815519809723 0.016074009239673615 -0.012852920219302177 -0.129349872469902039 0.063554130494594574 0.072459712624549866 0.090069875121116638 0.102302514016628265 -0.165316075086593628 -0.015366216190159321 0.128999352455139160 -0.083207473158836365 -0.016889885067939758 -0.052757259458303452 0.121125444769859314 0.117557168006896973 -0.049743209034204483 -0.044879101216793060 0.037326931953430176 -0.118870154023170471 0.113592125475406647 -0.153062880039215088 0.122279904782772064 -0.145742282271385193 -0.062900990247726440 -0.121785923838615417 -0.148213446140289307 0.119832940399646759 0.051604252308607101 0.109472662210464478 0.133244514465332031 -0.169313520193099976 -0.111093699932098389 -0.144546940922737122 -0.104507870972156525 -0.046421911567449570 0.099458277225494385 0.040243349969387054 -0.102460525929927826 -0.135725677013397217 0.045271314680576324 -0.151921674609184265 0.003111218800768256 0.026709288358688354 -0.064161032438278198 -0.118719652295112610 -0.125401020050048828 0.069816499948501587 -0.117633141577243805 -0.092071600258350372 0.043785564601421356 -0.016537828370928764 -0.013160477392375469 -0.164554104208946228 0.068020366132259369 0.035830009728670120 -0.074998646974563599 0.060249656438827515 0.078486479818820953 -0.079199850559234619 -0.103035680949687958 0.073847472667694092 0.000128826402942650 0.019873203709721565 -0.029071539640426636 -0.003951411228626966 -0.040759503841400146 0.152891233563423157 0.021731136366724968 -0.072058901190757751 0.100648403167724609 0.004743401426821947 0.053998313844203949 0.077952839434146881 -0.100081346929073334 -0.004397523123770952 -0.019625948742032051 -0.087612614035606384 -0.149894729256629944 -0.225651204586029053 0.058916766196489334 0.082110889256000519 -0.090718597173690796 -0.144723653793334961 -0.152599364519119263 0.120420992374420166 0.201394602656364441 0.079280920326709747 -0.112509883940219879 -0.155540063977241516 0.146103560924530029 0.062837429344654083 0.104145146906375885 -0.186473086476325989 -0.055810451507568359 0.018608700484037399 0.070617623627185822 -0.008660965599119663 -0.047536313533782959
0.003190890420228243 0.161641940474510193 -0.074765697121620178 -0.084965139627456665 -0.076904647052288055 -0.023471882566809654 -0.122549809515476227 0.009562361985445023 -0.107303716242313385 0.026875151321291924 -0.182680487632751465 0.072880297899246216 -0.121098808944225311 -0.096318572759628296 0.065759733319282532 -0.003175513120368123 0.129881024360656738 0.031185308471322060 0.075735576450824738 0.081845037639141083 -0.058667372912168503 0.008728703483939171 0.010143922641873360 0.035069685429334641 -0.037221834063529968 0.131839349865913391 0.151664152741432190 -0.147718593478202820 0.138524934649467468 -0.011676339432597160 -0.072870261967182159 -0.153894424438476562 0.224681198596954346 -0.024812726303935051 0.111070759594440460 0.171286359429359436 0.075858436524868011 -0.037077587097883224 -0.029391787946224213 -0.064210049808025360 -0.049211621284484863 0.152801692485809326 -0.079837329685688019 -0.118960551917552948 0.128720179200172424 0.003076266264542937 0.091544754803180695 0.116456627845764160 -0.075677141547203064 0.115194074809551239 0.112798906862735748 0.068060189485549927 0.026242697611451149 -0.118815377354621887 -0.049015723168849945 0.105468049645423889 -0.112809017300605774 0.131815448403358459 0.010900879278779030 0.154806792736053467 0.033615592867136002 0.150032177567481995 0.175171807408332825 0.001056585228070617 0.168846771121025085 -0.026100946590304375 -0.095867462456226349 0.046067949384450912 -0.096959590911865234 -0.132305353879928589 -0.052028018981218338 0.158914953470230103 0.004000041168183088 0.120862700045108795 -0.016392625868320465 0.042395085096359253 -0.142178326845169067 0.068312264978885651 -0.079259127378463745 -0.104372859001159668 0.082534983754158020 -0.102487526834011078 -0.212396472692489624 -0.124446675181388855 0.107847072184085846 0.060211714357137680 0.016420817002654076 -0.087208770215511322 0.135286688804626465 -0.166807726025581360 -0.015842119231820107 -0.211198225617408752 -0.013672961853444576 0.152882948517799377 0.188163116574287415 0.034280549734830856 -0.125363990664482117 0.172589033842086792 0.122372552752494812 0.092979311943054199
0.058347769081592560 -0.133171409368515015 -0.045630481094121933 -0.043556381016969681 0.043227985501289368 0.054701309651136398 0.008767471648752689 -0.009116373956203461 -0.038973275572061539 0.109516397118568420 0.012964394874870777 0.074164733290672302 0.098585195839405060 0.043325722217559814 -0.094299420714378357 0.141723945736885071 -0.075126774609088898 0.119448885321617126 0.035958603024482727 0.049356076866388321 0.048219535499811172 0.017776429653167725 0.046247687190771103 -0.110106319189071655 -0.038710724562406540 0.094338580965995789 -0.066184386610984802 0.011094493791460991 -0.131033748388290405 0.076903514564037323 -0.144416064023971558 0.053653385490179062 -0.069001242518424988 -0.005434681195765734 -0.143080726265907288 0.011878664605319500 0.166210815310478210 0.066257290542125702 -0.039181593805551529 -0.145434603095054626 0.050213430076837540 -0.143493801355361938 0.091906987130641937 -0.157772719860076904 0.051586028188467026 0.028184734284877777 -0.099786147475242615 -0.149521723389625549 -0.047254163771867752 -0.018175784498453140 -0.074434809386730194 0.096785925328731537 0.073719799518585205 -0.149835854768753052 -0.111307635903358459 0.063191853463649750 -0.088963441550731659 -0.127104222774505615 0.108304813504219055 0.127919435501098633 -0.120442770421504974 -0.139753982424736023 -0.143056228756904602 0.135633453726768494 -0.153803259134292603 -0.019747242331504822 0.140425130724906921 0.092441521584987640 -0.015259801410138607 -0.119454279541969299 -0.072910904884338379 0.060411505401134491 -0.047098722308874130 0.021360863000154495 -0.034882329404354095 -0.022109108045697212 -0.149624526500701904 -0.045297272503376007 -0.003503532847389579 0.100991159677505493 -0.211292445659637451 0.004018932580947876 0.069026269018650055 -0.161855354905128479 0.070612713694572449 -0.136681810021400452 0.130318418145179749 0.026034127920866013 0.030706588178873062 -0.141872063279151917 0.129619032144546509 0.065162867307662964 -0.035531923174858093 0.161458224058151245 -0.228933572769165039 0.101557888090610504 -0.071977049112319946 -0.016245663166046143 -0.178567796945571899 0.039898600429296494
0.012447521090507507 0.149904295802116394 -0.022023435682058334 -0.077282309532165527 0.205192521214485168 0.110875800251960754 -0.017729761078953743 -0.001714757177978754 0.019669253379106522 -0.049105532467365265 -0.129701897501945496 0.046546313911676407 -0.015979090705513954 -0.061587955802679062 0.140171259641647339 0.149010643362998962 0.007076361216604710 0.046974696218967438 -0.013916136696934700 -0.036248538643121719 -0.122701488435268402 -0.080094203352928162 -0.155334189534187317 -0.071869224309921265 0.093025922775268555 0.022163422778248787 0.149557560682296753 0.040836501866579056 0.029366511851549149 -0.187554448843002319 -0.025716502219438553 0.132631242275238037 -0.143499329686164856 -0.038545332849025726 -0.047258798032999039 -0.059105504304170609 -0.151798322796821594 -0.115583822131156921 -0.132292971014976501 -0.063888393342494965 -0.094573616981506348 0.119457699358463287 0.009533790871500969 -0.069124527275562286 -0.136777088046073914 -0.076128594577312469 -0.010355473496019840 0.020660594105720520 0.016393454745411873 -0.001278438139706850 0.139326795935630798 -0.080869868397712708 0.119145944714546204 -0.147385701537132263 0.062188979238271713 -0.090096630156040192 -0.049728889018297195 0.110815986990928650 -0.063299514353275299 -0.015168480575084686 -0.041973810642957687 0.005642242729663849 0.103615939617156982 0.147684633731842041 -0.029290203005075455 -0.003890035906806588 0.072171501815319061 -0.079701185226440430 -0.032440718263387680 0.105619557201862335 0.054679669439792633 0.083192169666290283 0.181294441223144531 0.134778961539268494 0.098151743412017822 0.078804843127727509 0.063431516289710999 -0.111678950488567352 0.123565636575222015 0.075698584318161011 0.192424550652503967 0.041259646415710449 -0.065514735877513885 -0.012176793068647385 0.147172257304191589 -0.145294547080993652 0.073421426117420197 -0.146959036588668823 0.007579262834042311 -0.001909654820337892 -0.019630070775747299 0.117397814989089966 -0.039264529943466187 0.126354947686195374 -0.009818059392273426 -0.173463568091392517 -0.067506000399589539 -0.041144926100969315 0.025693953037261963 0.096349306404590607
0.044689856469631195 -0.052901808172464371 0.059716816991567612 -0.142432287335395813 0.117891788482666016 -0.034459441900253296 -0.051758255809545517 0.082971811294555664 0.101239293813705444 -0.079563796520233154 0.152911305427551270 0.016087250784039497 -0.004083277191966772 0.174693837761878967 -0.073222525417804718 -0.061571829020977020 0.099732130765914917 -0.020911764353513718 0.063538253307342529 -0.162985950708389282 0.140555724501609802 0.062623463571071625 -0.071078442037105560 -0.064125917851924896 0.004686980508267879 -0.040473382920026779 0.102652952075004578 0.065429426729679108 0.143703415989875793 0.116869762539863586 -0.012471919879317284 0.110937893390655518 0.169677853584289551 0.103977665305137634 -0.148466378450393677 -0.162363961338996887 -0.064670071005821228 -0.148717299103736877 0.086638621985912323 0.043070793151855469 -0.075366146862506866 -0.070831477642059326 -0.155015900731086731 -0.013447789475321770 0.180058956146240234 0.005369846709072590 0.188090831041336060 -0.071191459894180298 -0.014905233867466450 -0.123546913266181946 -0.129400342702865601 0.012844391167163849 -0.043904349207878113 -0.034168750047683716 -0.083618611097335815 -0.088151618838310242 0.005345960613340139 -0.000653645605780184 -0.063405014574527740 -0.161648124456405640 0.105069123208522797 0.113242700695991516 -0.016702771186828613 0.074191793799400330 -0.116707913577556610 0.071790434420108795 0.136873260140419006 -0.055752817541360855 0.028300266712903976 0.167010083794593811 -0.126787796616554260 -0.123686403036117554 0.116020500659942627 -0.171759590506553650 0.096498146653175354 0.016652019694447517 0.053360633552074432 -0.152608424425125122 -0.022573530673980713 -0.095000892877578735 -0.096454821527004242 -0.072766400873661041 -0.028345039114356041 0.033322669565677643 -0.139626249670982361 0.099554695188999176 0.067822545766830444 -0.177958175539970398 0.007365624420344830 -0.171519204974174500 -0.079682484269142151 0.167324468493461609 0.045591458678245544 0.009760872460901737 -0.119737818837165833 -0.049790259450674057 -0.044737279415130615 -0.086887091398239136 -0.046145498752593994 0.152156561613082886
0.032667644321918488 -0.003380443667992949 -0.018666571006178856 0.029498847201466560 -0.048128418624401093 0.075552888214588165 -0.138466313481330872 0.151691302657127380 0.104347810149192810 -0.106899775564670563 -0.050736341625452042 -0.039890687912702560 -0.018188519403338432 -0.007902010343968868 0.124610625207424164 0.139904990792274475 -0.071984551846981049 -0.080679051578044891 -0.118182912468910217 -0.091928482055664062 0.072928205132484436 -0.070512138307094574 0.209027841687202454 -0.009695968590676785 0.012266170233488083 -0.048001032322645187 -0.124193191528320312 0.047618478536605835 0.005659444723278284 -0.070669405162334442 0.064748577773571014 -0.071382798254489899 -0.061036057770252228 -0.174690201878547668 0.091319516301155090 -0.118339106440544128 -0.007563608232885599 0.169859886169433594 0.165968403220176697 0.123336158692836761 0.019120747223496437 0.095360346138477325 0.040033262223005295 0.077420532703399658 -0.093698173761367798 0.145106092095375061 -0.119432255625724792 -0.139652699232101440 0.030941281467676163 0.005799064412713051 -0.028987560421228409 0.127675667405128479 0.120094433426856995 0.062286682426929474 0.035382494330406189 0.038883503526449203 -0.058770317584276199 -0.013345944695174694 0.122519887983798981 0.171624824404716492 -0.030650366097688675 -0.094584345817565918 -0.095225803554058075 -0.029737880453467369 0.014545775018632412 -0.036411523818969727 -0.108090542256832123 -0.011901913210749626 0.121224179863929749 -0.117587320506572723 -0.077407918870449066 -0.108884178102016449 0.013606093823909760 0.029817432165145874 -0.157409369945526123 -0.126413196325302124 -0.155381396412849426 -0.098946847021579742 0.134749263525009155 -0.051095694303512573 0.083267748355865479 -0.160965293645858765 -0.074819348752498627 0.050871565937995911 -0.143445968627929688 0.074339687824249268 0.128842905163764954 -0.104864984750747681 0.144022092223167419 -0.134686827659606934 0.014874948188662529 -0.026619749143719673 -0.004475334659218788 -0.016870889812707901 -0.036997515708208084 -0.071058705449104309 0.161109745502471924 -0.101252198219299316 0.112798132002353668 0.096265561878681183
0.080055132508277893 -0.037761688232421875 0.143408298492431641 -0.059527996927499771 0.052403979003429413 -0.009520761668682098 -0.145221099257469177 0.063626244664192200 -0.163413137197494507 -0.136457234621047974 -0.001811840804293752 -0.080717049539089203 -0.090317010879516602 0.007568348664790392 0.081178769469261169 -0.054009042680263519 -0.012074678204953671 -0.158547341823577881 -0.006363966967910528 -0.076101772487163544 -0.141482412815093994 -0.016385585069656372 0.148882150650024414 -0.170098468661308289 -0.057246301323175430 0.125946924090385437 0.048879612237215042 0.134851709008216858 -0.107160292565822601 0.129290729761123657 0.130343481898307800 0.166133701801300049 -0.011829489842057228 -0.193110555410385132 0.084028996527194977 0.164369016885757446 0.107393950223922729 0.036421000957489014 0.081501811742782593 -0.108837053179740906 -0.022905737161636353 -0.002633363474160433 0.176683813333511353 0.086120136082172394 -0.087393872439861298 0.039988391101360321 -0.109269551932811737 0.181179925799369812 -0.126510828733444214 0.126095235347747803 -0.122899889945983887 0.028772624209523201 0.011576065793633461 -0.069021709263324738 -0.118244566023349762 -0.044127389788627625 0.048111725598573685 0.104945465922355652 0.114902429282665253 -0.077240020036697388 -0.155841290950775146 0.029675060883164406 0.157226160168647766 -0.038897953927516937 -0.142261028289794922 -0.008832878433167934 -0.062879115343093872 -0.158666908740997314 -0.006622256245464087 -0.051188662648200989 0.090051308274269104 0.124490760266780853 0.056141000241041183 0.062308158725500107 0.032276306301355362 0.029340451583266258 0.002277549356222153 -0.141851082444190979 -0.201303452253341675 -0.053757186979055405 -0.019585739821195602 -0.165872976183891296 -0.176718264818191528 -0.095651879906654358 -0.019193187355995178 -0.138821050524711609 0.060139335691928864 -0.052415337413549423 -0.093698613345623016 -0.108430705964565277 -0.121038354933261871 0.018060101196169853 -0.070390187203884125 -0.137951090931892395 0.116954118013381958 0.026550376787781715 -0.104837551712989807 -0.105100005865097046 0.066708549857139587 -0.138540163636207581
0.047880459576845169 0.100549131631851196 -0.105924956500530243 -0.006495507434010506 0.026860551908612251 -0.042823974043130875 -0.034809991717338562 0.007444154471158981 -0.068486988544464111 0.114784553647041321 0.160043060779571533 0.090453147888183594 -0.095926858484745026 0.103481799364089966 -0.116738922894001007 -0.050366677343845367 -0.065155625343322754 0.099463157355785370 -0.104748681187629700 0.110594980418682098 0.130744040012359619 -0.193990871310234070 0.159210294485092163 -0.010840739123523235 0.016579858958721161 -0.143477439880371094 -0.096632018685340881 -0.074670210480690002 -0.060260459780693054 0.170948609709739685 0.194503471255302429 -0.043702784925699234 0.126552134752273560 -0.104518055915832520 -0.089742451906204224 -0.126144006848335266 -0.018913786858320236 0.040949765592813492 0.040490914136171341 0.140109926462173462 -0.083991460502147675 -0.089271739125251770 0.099130995571613312 0.095745287835597992 -0.014008563011884689 0.126803532242774963 0.058873053640127182 -0.136878594756126404 -0.000417399802245200 0.130767211318016052 -0.097866505384445190 0.133569031953811646 -0.150113493204116821 -0.091271601617336273 -0.023197785019874573 -0.028974706307053566 -0.157328158617019653 -0.034529790282249451 -0.115646652877330780 -0.069067068397998810 0.055426485836505890 -0.138917133212089539 0.129148811101913452 0.052154876291751862 -0.058381982147693634 -0.022962348535656929 -0.195059791207313538 0.130209162831306458 0.019518122076988220 -0.043749026954174042 -0.023034214973449707 -0.080511100590229034 0.156896397471427917 0.117656968533992767 -0.136797457933425903 -0.120758481323719025 -0.160639524459838867 0.071236036717891693 -0.102389261126518250 -0.155101433396339417 0.018533390015363693 -0.180740877985954285 0.047632459551095963 0.114784374833106995 -0.031696375459432602 -0.048239905387163162 0.153509274125099182 0.064401902258396149 -0.023609191179275513 -0.171386957168579102 -0.165682867169380188 0.197123974561691284 0.069355800747871399 0.023501498624682426 -0.184461921453475952 -0.172619774937629700 0.102982401847839355 0.077238745987415314 0.056019458919763565 -0.075532086193561554
0.139623746275901794 -0.070812903344631195 -0.120748825371265411 -0.098255358636379242 0.166828736662864685 0.015939487144351006 -0.191498354077339172 -0.012339702807366848 -0.165871858596801758 -0.168583437800407410 0.159898892045021057 -0.017788005992770195 -0.086108140647411346 -0.037572663277387619 0.040498003363609314 -0.156847283244132996 -0.032147582620382309 0.132632210850715637 0.165910124778747559 0.163548797369003296 0.177074849605560303 -0.132575482130050659 0.102817878127098083 -0.100084587931632996 -0.132418036460876465 0.030132660642266273 -0.047473631799221039 0.015177318826317787 0.107195220887660980 0.036496926099061966 -0.037735268473625183 0.065701074898242950 -0.120868720114231110 -0.055015936493873596 0.196061745285987854 -0.043905030936002731 0.065717384219169617 0.142167434096336365 -0.160655379295349121 0.168816938996315002 -0.137342154979705811 0.022090187296271324 0.011117156594991684 0.168395921587944031 0.091768585145473480 0.101449280977249146 -0.169519752264022827 -0.141800135374069214 0.014913660474121571 -0.142848953604698181 -0.171706408262252808 -0.060044426470994949 -0.014159492217004299 0.076665900647640228 -0.093871034681797028 -0.098691090941429138 0.147495388984680176 -0.011023467406630516 0.171507686376571655 -0.088343054056167603 0.043543815612792969 -0.141299784183502197 0.025112336501479149 0.060604460537433624 -0.047282088547945023 0.122464150190353394 -0.051881499588489532 -0.065822087228298187 0.146985113620758057 0.092431627213954926 -0.000007514784556406 0.115282900631427765 0.115239605307579041 0.120125301182270050 -0.139067977666854858 0.098207332193851471 -0.144874244928359985 -0.203149437904357910 -0.038881909102201462 -0.006448858417570591 -0.010943045839667320 -0.044795133173465729 0.017100133001804352 -0.114576645195484161 -0.139571309089660645 0.084848247468471527 0.081771887838840485 0.044324405491352081 -0.118295058608055115 -0.143245965242385864 -0.090894028544425964 0.160932451486587524 -0.056307729333639145 0.086006611585617065 -0.146572008728981018 -0.080750972032546997 -0.152245551347732544 0.203148514032363892 0.035250931978225708 0.023109912872314453
-0.031792536377906799 -0.138724252581596375 0.052563410252332687 -0.014931682497262955 0.058375447988510132 0.034365151077508926 -0.043191686272621155 0.019681168720126152 -0.100446388125419617 0.117630228400230408 -0.058168958872556686 -0.112602263689041138 0.068207673728466034 -0.116863287985324860 -0.044246327131986618 0.036243904381990433 -0.109476082026958466 -0.038383223116397858 -0.074274428188800812 -0.191294252872467041 0.065221555531024933 -0.015317875891923904 0.058789495378732681 -0.098748199641704559 -0.067283563315868378 0.027227034792304039 0.100804686546325684 0.149443328380584717 0.130327209830284119 0.161330446600914001 0.164947777986526489 -0.128532707691192627 0.023014793172478676 -0.037118531763553619 0.116296797990798950 0.087451800704002380 0.025804415345191956 0.163496538996696472 -0.104032732546329498 -0.061161704361438751 -0.035182937979698181 0.045661043375730515 0.138883829116821289 -0.162262603640556335 -0.175377294421195984 0.024130061268806458 0.139057531952857971 0.094857230782508850 -0.153129741549491882 0.047038037329912186 -0.162995740771293640 0.145745471119880676 0.054245252162218094 0.114697322249412537 -0.117990858852863312 -0.069353125989437103 0.009809912182390690 -0.043538600206375122 0.137093171477317810 0.042991369962692261 0.043668758124113083 0.057027187198400497 0.056098494678735733 0.176133722066879272 -0.104425683617591858 0.012974757701158524 0.091070652008056641 -0.141102761030197144 0.134703770279884338 -0.077328480780124664 0.042316544800996780 0.114482022821903229 -0.154937908053398132 0.127366557717323303 -0.065649330615997314 -0.017046773806214333 0.152337923645973206 0.107181429862976074 0.087322130799293518 -0.045419774949550629 -0.050718341022729874 -0.149276599287986755 0.115679427981376648 0.108589448034763336 -0.181990131735801697 -0.066644817590713501 0.163910210132598877 -0.161915674805641174 0.041591901332139969 0.002091278089210391 -0.066535748541355133 -0.176408186554908752 -0.084517523646354675 0.050217483192682266 0.119815118610858917 -0.017320187762379646 0.094235062599182129 0.094163306057453156 0.138792231678962708 -0.116904571652412415
-0.135213866829872131 0.053844336420297623 -0.058756105601787567 -0.083011731505393982 -0.085265107452869415 0.010458542034029961 0.127116873860359192 -0.113379642367362976 0.084741510450839996 -0.020359953865408897 0.129933029413223267 0.044681224972009659 -0.101883158087730408 -0.132260009646415710 -0.107112988829612732 0.113650016486644745 0.080900199711322784 -0.051990617066621780 0.162986293435096741 -0.009197828359901905 0.150765612721443176 -0.033283390104770660 0.038434255868196487 -0.113959461450576782 0.055788308382034302 0.060705073177814484 -0.008291143923997879 -0.141894653439521790 -0.143931865692138672 -0.140502586960792542 -0.040370818227529526 -0.137007698416709900 -0.026252968236804008 -0.100264400243759155 0.140186935663223267 -0.160754159092903137 0.079785332083702087 0.008927003480494022 -0.083680287003517151 0.031267415732145309 -0.171183064579963684 -0.126062572002410889 0.073715366423130035 -0.137807875871658325 -0.048362072557210922 0.007190898060798645 -0.022169675678014755 0.019547337666153908 -0.028859911486506462 -0.167267605662345886 -0.046794526278972626 -0.131051644682884216 -0.037446878850460052 -0.137223154306411743 -0.146395981311798096 0.021424649283289909 0.017635716125369072 0.007014827802777290 0.053830187767744064 -0.032877743244171143 0.172667413949966431 -0.089171946048736572 -0.131504416465759277 0.072141170501708984 -0.161377266049385071 0.160747006535530090 -0.134474828839302063 -0.115155830979347229 -0.136486589908599854 -0.060053795576095581 0.064991518855094910 0.057485878467559814 0.000266017683316022 -0.116801254451274872 -0.111239440739154816 0.117975391447544098 -0.153133973479270935 -0.052923575043678284 -0.059917632490396500 -0.164297670125961304 0.176241829991340637 0.164109751582145691 -0.075854212045669556 0.003359732916578650 0.138797953724861145 0.127593964338302612 0.187244445085525513 -0.080976232886314392 0.134203940629959106 -0.144912853837013245 -0.053263500332832336 -0.035154040902853012 0.034450072795152664 -0.125151112675666809 0.047743439674377441 0.062190897762775421 -0.175271376967430115 0.165578141808509827 -0.050397235900163651 0.161441922187805176
0.153196871280670166 -0.158549666404724121 0.014074493199586868 0.203113913536071777 0.109882570803165436 -0.112956494092941284 0.152349531650543213 0.067926973104476929 0.020343098789453506 -0.096388325095176697 0.035557817667722702 -0.030142284929752350 -0.120496414601802826 0.090903192758560181 0.124387405812740326 -0.061168946325778961 0.085083127021789551 0.090087607502937317 -0.052193876355886459 -0.048040710389614105 -0.094543918967247009 0.124184444546699524 0.141893967986106873 0.065169364213943481 0.113464064896106720 0.108404204249382019 -0.059644192457199097 -0.092772357165813446 -0.011256507597863674 0.023204132914543152 0.137423798441886902 0.049611154943704605 0.139752164483070374 0.034810196608304977 -0.158318638801574707 0.056608188897371292 0.066372446715831757 0.175286352634429932 0.098074980080127716 0.047240812331438065 0.134230092167854309 -0.034665971994400024 -0.087158724665641785 0.044528685510158539 0.075309075415134430 0.172567412257194519 0.091227725148200989 -0.080626629292964935 -0.154659211635589600 0.092537149786949158 0.082074180245399475 -0.079592473804950714 -0.009331335313618183 0.169128730893135071 0.183175876736640930 -0.101942718029022217 0.044302966445684433 0.084639482200145721 -0.056134615093469620 0.108801729977130890 -0.160679772496223450 -0.139547899365425110 -0.115693509578704834 -0.150193363428115845 0.123745977878570557 0.127044647932052612 0.109472334384918213 0.168654456734657288 0.025486776605248451 -0.005984373390674591 -0.173488125205039978 -0.145768061280250549 0.036022532731294632 0.160870283842086792 -0.138301745057106018 -0.147250443696975708 -0.132360413670539856 -0.018890785053372383 -0.024114858359098434 0.003876688191667199 -0.148320302367210388 -0.039927568286657333 -0.074677012860774994 -0.140361055731773376 0.042209513485431671 -0.035843826830387115 0.080573245882987976 0.171215444803237915 0.120498254895210266 -0.085847228765487671 0.159023076295852661 0.168063789606094360 -0.056425306946039200 0.082405149936676025 -0.208781465888023376 -0.036782409995794296 0.175221219658851624 0.028128746896982193 -0.108329765498638153 0.019341211766004562
0.136681661009788513 0.081397347152233124 0.144287228584289551 0.043410100042819977 -0.138546139001846313 0.026885172352194786 -0.034207072108983994 -0.005692979786545038 0.011250174604356289 0.000638654571957886 -0.036563210189342499 -0.065772518515586853 -0.159224182367324829 0.001225045649334788 0.111613690853118896 0.188057675957679749 0.143675744533538818 -0.098238788545131683 0.099104598164558411 -0.104734241962432861 -0.016868565231561661 0.157956644892692566 0.136185213923454285 -0.197800084948539734 -0.141517132520675659 -0.043420121073722839 -0.019464666023850441 -0.157313659787178040 0.059628397226333618 -0.094119742512702942 -0.024420520290732384 -0.033145796507596970 -0.054886780679225922 0.058040738105773926 -0.126105904579162598 0.138185158371925354 -0.018046617507934570 -0.096595570445060730 -0.018515268340706825 -0.037334036082029343 -0.163025051355361938 -0.117975763976573944 0.033525831997394562 0.073795482516288757 -0.172687485814094543 -0.052125025540590286 0.061731819063425064 -0.102318786084651947 0.102570794522762299 0.064228020608425140 -0.089275129139423370 -0.034354604780673981 0.004439902026206255 -0.011959929950535297 -0.180878877639770508 0.079241447150707245 0.038000829517841339 -0.088684372603893280 0.033504888415336609 -0.133466809988021851 0.114344246685504913 -0.089629016816616058 0.000677490606904030 0.059683136641979218 -0.126340299844741821 -0.135026127099990845 -0.007253701798617840 -0.023135876283049583 -0.061749357730150223 0.093897134065628052 0.029858566820621490 0.055803917348384857 0.031047845259308815 0.103938356041908264 -0.074889674782752991 -0.079054638743400574 -0.107529573142528534 -0.105478689074516296 -0.051977545022964478 0.043728005141019821 0.047449659556150436 0.136386483907699585 -0.028234964236617088 0.043815825134515762 -0.185879617929458618 0.093361765146255493 0.069991998374462128 -0.072429373860359192 0.146968111395835876 -0.115418083965778351 0.046132586896419525 -0.032319582998752594 -0.010925527662038803 0.005234453827142715 -0.071159645915031433 -0.102789632976055145 -0.034776881337165833 -0.116738922894001007 0.062221996486186981 -0.070058204233646393
0.146774977445602417 -0.051797691732645035 -0.027915656566619873 -0.103992640972137451 0.030868433415889740 -0.177624419331550598 0.129143774509429932 -0.160038545727729797 0.108490198850631714 -0.165904387831687927 -0.151227667927742004 0.139884740114212036 -0.035674270242452621 0.047349218279123306 -0.162785738706588745 0.188558891415596008 0.075746789574623108 -0.036634691059589386 0.100464940071105957 -0.035428866744041443 -0.091437280178070068 -0.085760205984115601 -0.148857191205024719 -0.086309112608432770 -0.024743324145674706 -0.169244706630706787 0.138511791825294495 0.090688593685626984 0.010533550754189491 0.063758082687854767 -0.160604700446128845 0.075535170733928680 0.094765149056911469 0.100896872580051422 0.058800220489501953 0.138340637087821960 0.080937139689922333 0.068662792444229126 0.027793083339929581 0.187047168612480164 -0.009817818179726601 0.094546072185039520 0.097200103104114532 -0.089179240167140961 0.056682817637920380 -0.112364970147609711 0.023329176008701324 0.199810534715652466 0.054592043161392212 0.030143322423100471 0.066677168011665344 -0.114625558257102966 0.172883182764053345 -0.062840938568115234 0.091152310371398926 0.089269891381263733 0.038933485746383667 -0.095049954950809479 0.004758782684803009 0.083208136260509491 -0.079425938427448273 0.109836123883724213 0.123251691460609436 0.187286183238029480 -0.184381306171417236 -0.050334487110376358 -0.148147836327552795 0.092556871473789215 0.005067888181656599 0.020174957811832428 0.167188957333564758 0.128469660878181458 0.183866128325462341 -0.086163669824600220 0.088454641401767731 0.064214818179607391 0.087149627506732941 -0.083426974713802338 0.090838223695755005 -0.102673083543777466 0.173759222030639648 0.080692701041698456 0.030717786401510239 -0.137880936264991760 0.140094086527824402 0.047956269234418869 0.078611306846141815 0.072569005191326141 -0.034898057579994202 -0.197339937090873718 0.152911484241485596 -0.086529523134231567 -0.052872747182846069 -0.127772316336631775 0.036560662090778351 -0.152760609984397888 0.081206835806369781 -0.076233021914958954 0.141126304864883423 -0.095067821443080902
0.094928741455078125 -0.081876195967197418 -0.024217812344431877 0.006830662488937378 0.134026795625686646 0.149207919836044312 -0.135005399584770203 -0.077055290341377258 -0.151911944150924683 0.171354100108146667 0.091054119169712067 0.139474287629127502 0.095885716378688812 -0.112303853034973145 0.108069539070129395 0.092461772263050079 0.027608571574091911 -0.047572631388902664 0.046196669340133667 -0.064592190086841583 -0.018968330696225166 0.199678331613540649 -0.182738229632377625 0.147550508379936218 0.107625350356101990 0.093213699758052826 -0.060723423957824707 -0.185141041874885559 -0.155291840434074402 0.083588778972625732 0.001155394129455090 0.130713656544685364 -0.111313514411449432 0.029178813099861145 -0.038159485906362534 0.017855174839496613 0.019696215167641640 -0.052706502377986908 -0.048244457691907883 0.121855191886425018 -0.034610267728567123 -0.123344451189041138 -0.118369996547698975 0.064063303172588348 0.054689303040504456 -0.120508454740047455 0.053902681916952133 -0.085925921797752380 0.063241809606552124 0.053286612033843994 0.134331494569778442 -0.060981832444667816 -0.069793283939361572 0.128671765327453613 0.092754088342189789 0.010875653475522995 -0.127272740006446838 0.101226985454559326 -0.033659908920526505 -0.181611016392707825 0.132623538374900818 -0.125382259488105774 -0.100178778171539307 -0.144717603921890259 0.032495543360710144 -0.152839496731758118 -0.109805211424827576 -0.036529883742332458 -0.041577763855457306 0.093541532754898071 -0.117481239140033722 0.088239192962646484 -0.099672883749008179 -0.074171043932437897 0.130009442567825317 -0.065953753888607025 -0.183065712451934814 0.029026998206973076 -0.102826982736587524 -0.020720729604363441 -0.121286489069461823 0.012663997709751129 -0.026241382583975792 -0.116625599563121796 -0.060028403997421265 -0.097713328897953033 0.021030135452747345 0.167056635022163391 0.065506942570209503 0.176802262663841248 0.131749272346496582 0.101388297975063324 0.021714052185416222 -0.028898147866129875 -0.130274340510368347 -0.163834959268569946 0.010380288586020470 -0.129038572311401367 -0.169225201010704041 -0.141258671879768372
0.160782843828201294 -0.071537546813488007 -0.063060946762561798 0.041228663176298141 0.073032818734645844 0.098711922764778137 0.038687612861394882 0.195675879716873169 0.021616663783788681 0.142134726047515869 -0.163662374019622803 -0.150179475545883179 0.001747740665450692 -0.175997123122215271 0.002373289549723268 0.136823460459709167 0.008030398748815060 -0.135475724935531616 0.113215528428554535 0.025007938966155052 -0.010718875564634800 -0.203804403543472290 0.092244923114776611 0.059794649481773376 0.044395409524440765 -0.090487860143184662 0.161714926362037659 -0.096576899290084839 -0.138258934020996094 -0.050913505256175995 0.033438973128795624 0.133949771523475647 -0.087841570377349854 -0.009665909223258495 -0.083817183971405029 -0.111158788204193115 0.032446291297674179 -0.133310630917549133 0.157105579972267151 -0.098845869302749634 -0.014329436235129833 0.013797502033412457 -0.078769251704216003 -0.031188001856207848 -0.017362408339977264 -0.015356636606156826 -0.033699400722980499 -0.015699284151196480 -0.081114411354064941 -0.027977325022220612 0.172687858343124390 0.092444650828838348 0.076149471104145050 -0.033623237162828445 0.024676684290170670 0.114749535918235779 0.059282504022121429 0.047993108630180359 -0.049997303634881973 -0.138813883066177368 0.160218268632888794 -0.011188040487468243 0.036006279289722443 -0.076451517641544342 0.195869162678718567 -0.153419449925422668 -0.065686143934726715 -0.013183290138840675 -0.046494502574205399 -0.031108101829886436 -0.134884551167488098 -0.031488545238971710 -0.052705135196447372 0.101027175784111023 0.083023279905319214 0.036511048674583435 0.076872602105140686 0.026732433587312698 -0.002512831706553698 0.085066400468349457 0.117265202105045319 -0.133107677102088928 -0.178831890225410461 0.128591999411582947 -0.142880782485008240 0.072653084993362427 -0.146426633000373840 -0.031583353877067566 0.078727141022682190 0.080281518399715424 0.133364483714103699 -0.050886578857898712 -0.054698262363672256 0.029600383713841438 0.130131185054779053 0.130625352263450623 -0.138655319809913635 -0.144569829106330872 -0.055327750742435455 0.131306484341621399
0.174775943160057068 0.044423524290323257 -0.093961730599403381 -0.092709831893444061 -0.139922574162483215 -0.041936110705137253 0.157829746603965759 0.085157960653305054 -0.018897179514169693 0.166281893849372864 -0.043592032045125961 -0.025345440953969955 0.072228200733661652 -0.059901058673858643 -0.087728634476661682 -0.129765823483467102 -0.158644333481788635 -0.131679788231849670 0.088675782084465027 0.127406448125839233 -0.058527760207653046 0.037769738584756851 -0.052665486931800842 0.116430796682834625 -0.033540312200784683 -0.087241888046264648 0.102016299962997437 0.010840484872460365 -0.032071929425001144 0.086082883179187775 -0.016019167378544807 0.152734875679016113 0.157991543412208557 -0.082845449447631836 -0.145825222134590149 -0.037853840738534927 -0.048639219254255295 -0.034487035125494003 -0.104642525315284729 -0.129849746823310852 0.160123318433761597 -0.144851580262184143 0.077396452426910400 -0.155006662011146545 -0.044992648065090179 0.007677372079342604 0.051427837461233139 0.116713598370552063 0.142570152878761292 -0.001133965095505118 0.115696690976619720 0.070763416588306427 -0.069166548550128937 0.036035854369401932 -0.167862579226493835 -0.210024535655975342 -0.157056689262390137 0.004416140262037516 0.083464652299880981 0.003274574410170317 0.073367767035961151 -0.122537627816200256 0.168698176741600037 -0.083921171724796295 -0.143890470266342163 0.028576940298080444 -0.091401949524879456 0.108477368950843811 0.212930709123611450 -0.093358218669891357 -0.100331589579582214 0.053633686155080795 0.046633392572402954 -0.124499849975109100 -0.100388698279857635 0.139006450772285461 -0.018672749400138855 0.026267763227224350 -0.174888193607330322 -0.111640915274620056 -0.073496922850608826 -0.011354795657098293 0.121099486947059631 -0.045553445816040039 0.071397997438907623 -0.041354209184646606 -0.120732054114341736 -0.002971335081383586 0.077215567231178284 0.146147966384887695 -0.015772940590977669 0.003973086364567280 -0.167809084057807922 0.109006814658641815 0.056576501578092575 -0.023594556376338005 0.085496813058853149 -0.286070108413696289 0.096831783652305603 -0.116162367165088654
-0.071186535060405731 -0.115508727729320526 0.130977198481559753 0.032204110175371170 -0.138931348919868469 0.150828003883361816 -0.143332764506340027 -0.057322852313518524 0.016821691766381264 0.041157048195600510 -0.098648801445960999 0.032137338072061539 -0.132458090782165527 -0.046180736273527145 0.015500246547162533 0.108644098043441772 0.101730838418006897 -0.125775247812271118 -0.028460593894124031 0.177188351750373840 -0.160756126046180725 -0.133368432521820068 -0.208428919315338135 0.167858913540840149 0.000943352119065821 0.064916253089904785 0.100757434964179993 0.147473230957984924 -0.019729295745491982 -0.064769342541694641 0.014527261257171631 -0.108338169753551483 0.066183760762214661 -0.034995950758457184 -0.156473532319068909 -0.054016262292861938 0.115391150116920471 0.009135269559919834 0.030072987079620361 -0.161965489387512207 0.001644165022298694 -0.090724475681781769 0.075532920658588409 -0.154684230685234070 -0.039659105241298676 0.007153451908379793 0.087937794625759125 -0.172295346856117249 0.175797879695892334 0.119822092354297638 0.045650001615285873 -0.146350845694541931 -0.018590668216347694 0.005980283021926880 -0.044025793671607971 0.046529203653335571 -0.011909164488315582 0.170110702514648438 0.136136412620544434 -0.172059804201126099 -0.085658997297286987 -0.055364530533552170 0.066298834979534149 -0.047418400645256042 -0.076331622898578644 -0.183664083480834961 0.118998698890209198 0.176435813307762146 0.017796974629163742 -0.064809255301952362 -0.119495093822479248 0.001511637005023658 -0.088725619018077850 -0.157542645931243896 0.056164119392633438 -0.118987806141376495 0.134459272027015686 -0.040303010493516922 -0.031551472842693329 -0.117009229958057404 -0.124479696154594421 -0.154069140553474426 0.128668248653411865 0.098450288176536560 0.028363240882754326 -0.185793682932853699 0.063590556383132935 0.171888828277587891 -0.033487040549516678 -0.051959209144115448 -0.058938406407833099 0.109466664493083954 0.091955401003360748 -0.077505856752395630 -0.152796432375907898 0.180583909153938293 -0.004810363985598087 -0.146886184811592102 -0.199149027466773987 -0.103237047791481018
0.094470560550689697 0.092638731002807617 0.127214357256889343 -0.003225354710593820 -0.049573916941881180 -0.058460831642150879 0.055351838469505310 0.049184884876012802 -0.162185668945312500 -0.167367801070213318 0.175396636128425598 0.064911387860774994 0.031130278483033180 -0.051538869738578796 0.122257038950920105 0.150972038507461548 0.103785842657089233 0.117997542023658752 0.163678154349327087 0.030965805053710938 0.005728612653911114 0.131672844290733337 -0.055815652012825012 0.135345384478569031 -0.062300033867359161 0.121384285390377045 0.147369459271430969 0.084266237914562225 0.139271721243858337 0.131333678960800171 -0.164026185870170593 -0.148216605186462402 -0.061214290559291840 -0.000355595926521346 -0.157136470079421997 0.001600352581590414 0.045767873525619507 -0.008328861556947231 -0.124699436128139496 -0.053309418261051178 -0.050074681639671326 -0.085673049092292786 -0.177283003926277161 -0.040555942803621292 -0.125620499253273010 -0.012487833388149738 0.042319893836975098 -0.127531602978706360 0.149640604853630066 0.131115019321441650 -0.062899447977542877 -0.019661569967865944 -0.030301855877041817 0.173282742500305176 0.125879824161529541 -0.189626619219779968 -0.177241489291191101 0.142748981714248657 -0.006506276316940784 -0.115569837391376495 -0.107744447886943817 0.096831247210502625 -0.177449524402618408 0.148698464035987854 -0.055524259805679321 -0.043253496289253235 0.116116344928741455 0.128046572208404541 0.126418933272361755 0.056161046028137207 0.092457160353660583 -0.008780032396316528 -0.180695757269859314 0.114829555153846741 -0.056009240448474884 -0.165975257754325867 -0.061088770627975464 -0.096863552927970886 0.047006927430629730 -0.009364367462694645 0.137139707803726196 -0.077747061848640442 -0.113534636795520782 -0.104100279510021210 -0.152516290545463562 -0.194136694073677063 0.155812576413154602 -0.173594608902931213 0.055243995040655136 -0.105497933924198151 -0.073270268738269806 -0.041766919195652008 -0.085422769188880920 -0.144618898630142212 0.139388307929039001 0.000724037468899041 -0.068679802119731903 0.037541415542364120 -0.138532146811485291 0.133482813835144043
0.107826858758926392 -0.163896784186363220 -0.174752011895179749 0.107757605612277985 -0.134393423795700073 -0.087222121655941010 -0.090139888226985931 0.131599426269531250 0.055461138486862183 0.077419430017471313 -0.065712735056877136 -0.098810821771621704 -0.104901932179927826 -0.147054389119148254 -0.113500304520130157 0.148327976465225220 -0.136012613773345947 0.115257665514945984 -0.054774314165115356 -0.055030915886163712 0.046844493597745895 -0.018946679309010506 -0.134011089801788330 0.079332306981086731 0.038012132048606873 0.165111154317855835 -0.094523474574089050 -0.199858188629150391 -0.070722885429859161 -0.116407722234725952 -0.150976315140724182 -0.025796646252274513 -0.019527386873960495 -0.066641978919506073 -0.155034661293029785 0.147451594471931458 -0.019767733290791512 -0.049701686948537827 -0.078247040510177612 0.051885794848203659 0.002262469613924623 0.119035854935646057 0.164945960044860840 0.097307950258255005 -0.075463518500328064 0.018333841115236282 0.048219949007034302 0.087409719824790955 0.096713013947010040 0.053949922323226929 0.183092936873435974 0.138877645134925842 -0.069068327546119690 0.014126062393188477 -0.001105155097320676 -0.044860050082206726 -0.016271293163299561 -0.085852973163127899 -0.155369207262992859 0.101519279181957245 0.061578359454870224 -0.180775731801986694 0.187889829277992249 0.027445206418633461 0.103833049535751343 -0.034908846020698547 -0.025274772197008133 -0.167802974581718445 -0.041281510144472122 0.041203677654266357 0.049200754612684250 0.133458882570266724 -0.024475589394569397 -0.020459054037928581 0.165703132748603821 -0.062994748353958130 0.096748583018779755 0.061579845845699310 -0.026601206511259079 0.057251743972301483 -0.056066505610942841 0.024959843605756760 -0.008249425329267979 0.087258584797382355 -0.047253876924514771 -0.074770279228687286 -0.033634476363658905 0.160741522908210754 0.166976809501647949 0.121664687991142273 -0.033769156783819199 0.141069680452346802 -0.044205721467733383 -0.177422419190406799 0.141092732548713684 0.029753595590591431 -0.009113060310482979 -0.133649513125419617 0.143742233514785767 0.008530862629413605
-0.018607666715979576 -0.117661207914352417 0.174044251441955566 0.076891392469406128 0.012596398591995239 0.060048930346965790 0.159937828779220581 0.084275297820568085 -0.117125138640403748 0.000806066382210702 -0.014900707639753819 -0.072136104106903076 -0.136863619089126587 0.070797309279441833 -0.110430315136909485 0.035622086375951767 0.181977704167366028 0.012998299673199654 -0.127548441290855408 -0.059740994125604630 -0.018451798707246780 -0.023873537778854370 -0.100565418601036072 -0.017580395564436913 0.068512968719005585 -0.061398599296808243 -0.009759639389812946 0.048348013311624527 0.098054505884647369 0.127891868352890015 -0.079240195453166962 0.177795365452766418 0.218778774142265320 -0.069918610155582428 0.025099517777562141 -0.065080083906650543 -0.097352735698223114 0.008820501156151295 -0.128491222858428955 -0.052189934998750687 0.050271872431039810 0.115149237215518951 0.020798215642571449 0.111652687191963196 -0.035551063716411591 -0.009140787646174431 0.143619865179061890 -0.105531483888626099 0.151733681559562683 -0.065614193677902222 0.051203373819589615 0.084193363785743713 0.131952896714210510 0.101454466581344604 -0.160938963294029236 -0.130114689469337463 0.112423822283744812 -0.038351904600858688 0.144050493836402893 0.062010671943426132 0.163503274321556091 0.015709528699517250 -0.078724756836891174 0.065390355885028839 -0.070240780711174011 0.117751255631446838 -0.036806482821702957 -0.131379723548889160 0.086837030947208405 0.053478907793760300 -0.155432328581809998 -0.103707097470760345 -0.024531738832592964 0.133566603064537048 0.115848295390605927 0.144367933273315430 -0.082271330058574677 0.094927020370960236 -0.112671345472335815 -0.134413406252861023 0.024104762822389603 -0.100074425339698792 0.064318947494029999 -0.146442443132400513 0.124593771994113922 0.134830906987190247 -0.149640679359436035 -0.040532767772674561 0.145632773637771606 -0.038256179541349411 0.088295944035053253 -0.110457703471183777 0.003037952585145831 -0.000947629217989743 -0.085481457412242889 0.050437454134225845 0.178610503673553467 -0.214043155312538147 0.141913056373596191 -0.018594825640320778
-0.134458661079406738 -0.057410161942243576 0.052780084311962128 0.060419242829084396 -0.099784865975379944 0.106799773871898651 -0.052411075681447983 0.091142170131206512 0.100747153162956238 0.056710626929998398 0.119254000484943390 -0.033910967409610748 -0.021576732397079468 0.103999435901641846 -0.121425718069076538 0.152797654271125793 -0.026008179411292076 0.137767732143402100 -0.044279593974351883 -0.124798528850078583 0.080342635512351990 -0.011400758288800716 -0.011794723570346832 0.029996523633599281 -0.130003094673156738 0.036093503236770630 -0.054925620555877686 -0.071814626455307007 -0.041495732963085175 -0.064332872629165649 0.155684426426887512 0.123626567423343658 -0.128443479537963867 -0.146184176206588745 0.135748848319053650 -0.175215408205986023 -0.095620565116405487 0.097663879394531250 -0.051284216344356537 -0.087794184684753418 0.004385298583656549 -0.129549905657768250 0.150298431515693665 0.128031760454177856 -0.012585843913257122 -0.072490170598030090 -0.080468222498893738 -0.028176346793770790 -0.006184662226587534 0.115348763763904572 0.049658481031656265 -0.140376225113868713 -0.125009343028068542 0.036640230566263199 -0.153761819005012512 0.097652614116668701 -0.080605208873748779 0.078429192304611206 -0.144421562552452087 0.062922000885009766 -0.033562362194061279 -0.005268968641757965 -0.007720042020082474 0.060836534947156906 -0.092271111905574799 0.003068836173042655 0.131103023886680603 0.148946449160575867 0.036010928452014923 -0.117952927947044373 0.137825965881347656 0.020182490348815918 -0.077427245676517487 -0.152638062834739685 -0.072800785303115845 -0.048357989639043808 -0.133773118257522583 0.146112471818923950 -0.084873162209987640 -0.071108847856521606 0.059467166662216187 0.000233265716815367 -0.120493821799755096 0.149684816598892212 -0.159575223922729492 -0.151361688971519470 -0.005446532275527716 0.191256627440452576 0.108070522546768188 0.114691719412803650 -0.202817246317863464 0.210825964808464050 0.053579952567815781 -0.117266654968261719 -0.021732546389102936 0.013366688974201679 0.060426149517297745 0.072945021092891693 -0.133723646402359009 -0.104697592556476593
-0.021614763885736465 -0.140822187066078186 -0.076946154236793518 0.015967771410942078 -0.120378792285919189 -0.024189982563257217 -0.125878661870956421 -0.110724307596683502 0.060938663780689240 0.113095231354236603 0.097955875098705292 -0.096156068146228790 0.053548574447631836 0.089391872286796570 -0.146448329091072083 0.017899097874760628 0.052343558520078659 -0.006415513344109058 -0.053749211132526398 -0.035049658268690109 0.132407143712043762 -0.026585815474390984 0.164026394486427307 -0.006340054329484701 0.094124339520931244 -0.184508129954338074 0.028234181925654411 -0.034389734268188477 -0.015782870352268219 -0.094530053436756134 -0.103253938257694244 -0.071350835263729095 0.015812385827302933 -0.163781538605690002 -0.089514985680580139 -0.040486942976713181 0.111166127026081085 -0.048018306493759155 -0.036342028528451920 0.021328561007976532 -0.015232671983540058 -0.078318744897842407 0.066456630825996399 0.156123429536819458 0.009494166821241379 -0.162099957466125488 -0.162343472242355347 -0.079391479492187500 0.088308013975620270 -0.119441084563732147 0.019948938861489296 -0.112493850290775299 -0.163689360022544861 -0.092677094042301178 0.152450352907180786 -0.006087620742619038 0.009134480729699135 0.118350662291049957 0.037521451711654663 0.158952713012695312 -0.128108367323875427 -0.048357695341110229 -0.127876669168472290 -0.142404317855834961 -0.093516506254673004 0.088541507720947266 0.148256465792655945 0.064808294177055359 -0.007236724719405174 0.018251417204737663 -0.112548604607582092 -0.110401354730129242 -0.102191343903541565 -0.047461684793233871 0.116754025220870972 0.096177339553833008 -0.099946133792400360 -0.126927837729454041 -0.025292614474892616 -0.086589142680168152 0.088429912924766541 0.056641981005668640 0.165514305233955383 0.075894162058830261 -0.163315325975418091 0.150671571493148804 0.100701726973056793 0.102793417870998383 -0.180235937237739563 0.164962291717529297 -0.171837255358695984 0.258580476045608521 0.069818295538425446 -0.081240788102149963 -0.144920453429222107 -0.099486567080020905 -0.150179654359817505 0.131290644407272339 0.100559942424297333 0.010986133478581905
0.011070800013840199 0.001317753223702312 0.145060434937477112 0.126355573534965515 0.165780842304229736 0.019158041104674339 -0.145172357559204102 0.047367822378873825 0.140044569969177246 -0.026627656072378159 -0.107167206704616547 0.030799681320786476 0.029444782063364983 -0.137479692697525024 -0.020088572055101395 0.113410271704196930 0.122846104204654694 -0.055548779666423798 -0.115780994296073914 -0.054095808416604996 0.160772144794464111 0.130839064717292786 -0.047866571694612503 0.049560323357582092 0.120399594306945801 0.007388764061033726 0.169164001941680908 0.095835275948047638 0.038526363670825958 -0.122080005705356598 -0.186060726642608643 -0.022593066096305847 0.118652217090129852 -0.050140380859375000 0.006795312277972698 -0.129256740212440491 0.072950668632984161 0.049995310604572296 -0.112353526055812836 -0.080937504768371582 -0.172470465302467346 0.100723333656787872 -0.213554024696350098 -0.143785342574119568 0.050576541572809219 0.053347088396549225 0.092312000691890717 0.087978109717369080 0.109075814485549927 0.034105937927961349 0.012313998304307461 -0.010846808552742004 0.163423076272010803 -0.091947272419929504 0.103041745722293854 -0.047520164400339127 0.149134889245033264 -0.091532118618488312 -0.141812160611152649 0.082779936492443085 -0.157203748822212219 -0.018985021859407425 0.124263994395732880 0.049290008842945099 -0.146124586462974548 0.172475218772888184 -0.033278379589319229 -0.087896071374416351 0.129085585474967957 0.094645813107490540 0.039485871791839600 0.061178337782621384 0.165057674050331116 -0.123269729316234589 0.141532585024833679 -0.042283501476049423 -0.031830910593271255 0.073233604431152344 0.049063738435506821 0.108203291893005371 0.189881682395935059 0.024676684290170670 0.075526125729084015 0.133676350116729736 -0.093928635120391846 -0.135204076766967773 0.177976921200752258 -0.203938931226730347 -0.031789228320121765 -0.024935461580753326 -0.086373403668403625 0.095502875745296478 0.024684756994247437 -0.105933673679828644 0.179314702749252319 0.146628960967063904 -0.138007089495658875 0.012454228475689888 -0.052953962236642838 -0.111627973616123199
-0.073553189635276794 -0.001630810787901282 0.068481035530567169 -0.178266823291778564 -0.029446344822645187 -0.192377865314483643 -0.020710879936814308 0.072638884186744690 0.006346879526972771 0.023195073008537292 0.116230659186840057 -0.075351685285568237 -0.156771853566169739 0.081520020961761475 0.009121445938944817 -0.123196884989738464 0.071377739310264587 -0.113246813416481018 -0.033487185835838318 -0.054087318480014801 0.107723340392112732 -0.026630861684679985 -0.130904033780097961 -0.142755374312400818 0.121372036635875702 -0.045650996267795563 0.117385543882846832 0.120094753801822662 -0.000241132467635907 -0.034160424023866653 -0.110255703330039978 0.036240089684724808 -0.009619854390621185 0.152123019099235535 -0.153699144721031189 -0.007941598072648048 0.063874669373035431 -0.097942657768726349 -0.172144636511802673 0.140091866254806519 -0.108956508338451385 -0.123347491025924683 0.126111611723899841 -0.047221336513757706 0.130779311060905457 -0.127212330698966980 -0.053083915263414383 0.003141259308904409 0.186741843819618225 -0.118990004062652588 0.058008741587400436 0.003780130762606859 0.140239521861076355 0.093620270490646362 0.078142613172531128 0.118132062256336212 -0.032848794013261795 -0.134544819593429565 -0.147383451461791992 0.179005771875381470 0.076181210577487946 0.186580181121826172 -0.115366943180561066 0.092268116772174835 -0.031207706779241562 0.141351491212844849 0.171049073338508606 0.099474392831325531 -0.000276877952273935 -0.164064735174179077 -0.143290325999259949 0.052404064685106277 0.192207157611846924 -0.106412664055824280 -0.103717692196369171 -0.004550549201667309 0.061958469450473785 -0.074217639863491058 0.018068032339215279 -0.108204074203968048 -0.102302566170692444 -0.032472554594278336 -0.165477260947227478 -0.015666047111153603 0.069857828319072723 0.026626594364643097 -0.077632389962673187 -0.159025698900222778 -0.105837836861610413 -0.157980114221572876 0.107192389667034149 -0.002131534507498145 -0.003821780672296882 0.073833368718624115 0.034102510660886765 -0.011134021915495396 -0.026813190430402756 0.133148059248924255 0.017353173345327377 -0.166560471057891846
0.020687384530901909 0.078039497137069702 0.019971216097474098 0.008982862345874310 0.183197662234306335 0.160459324717521667 0.031183125451207161 -0.171186313033103943 0.094388104975223541 0.011092507280409336 -0.175145849585533142 0.107757464051246643 -0.021901674568653107 -0.163176819682121277 -0.008132650516927242 0.029914524406194687 0.191826105117797852 -0.105754069983959198 -0.004400615580379963 0.120541080832481384 0.200497299432754517 -0.115683533251285553 -0.043992903083562851 0.059038277715444565 0.010619356296956539 -0.046613961458206177 -0.129647746682167053 0.046826168894767761 -0.042828280478715897 -0.196502685546875000 0.116293244063854218 -0.133454948663711548 0.115028597414493561 0.110759913921356201 0.096208348870277405 -0.007497249636799097 -0.158390730619430542 -0.024847786873579025 -0.019184840843081474 0.066955700516700745 -0.163128003478050232 0.156668707728385925 0.123250365257263184 -0.047442466020584106 0.149081826210021973 0.148460894823074341 -0.038668107241392136 0.210912868380546570 -0.103027887642383575 0.049417328089475632 0.024439742788672447 -0.003801007522270083 0.070327788591384888 -0.108111470937728882 0.013302314095199108 0.148612335324287415 0.142206355929374695 -0.116998314857482910 0.157717302441596985 0.112966984510421753 -0.099264785647392273 0.080749213695526123 0.119048394262790680 0.150882750749588013 -0.037682399153709412 0.022167261689901352 0.048653662204742432 -0.091850891709327698 -0.063080646097660065 -0.068554982542991638 -0.178130939602851868 0.100619450211524963 0.186031416058540344 -0.023723410442471504 0.104973115026950836 0.059216644614934921 0.085898399353027344 0.074796020984649658 -0.069309316575527191 -0.079679340124130249 0.074057564139366150 -0.052053976804018021 -0.096586853265762329 -0.152840405702590942 -0.127075403928756714 -0.028423108160495758 0.096238210797309875 -0.040470626205205917 -0.036508940160274506 0.003271835157647729 0.041307814419269562 0.152247518301010132 -0.167302146553993225 -0.118653900921344757 0.186098530888557434 0.109217502176761627 0.039995867758989334 -0.037613037973642349 -0.032720535993576050 0.083611227571964264
0.132303252816200256 0.096980452537536621 -0.191094756126403809 0.028760211542248726 -0.162208288908004761 0.158773049712181091 0.147680044174194336 -0.023687895387411118 -0.095045156776905060 0.177756175398826599 -0.135451525449752808 0.148885741829872131 -0.156659781932830811 -0.050622433423995972 -0.115585334599018097 -0.188689500093460083 -0.182093128561973572 -0.113484933972358704 -0.103457801043987274 -0.012042777612805367 0.041409194469451904 0.084139473736286163 0.003546278458088636 -0.149312868714332581 0.031972795724868774 0.077919624745845795 0.167293682694435120 -0.056397229433059692 -0.082048110663890839 0.010919835418462753 -0.109887547791004181 0.001903891679830849 -0.014674930833280087 -0.114603362977504730 -0.109439156949520111 0.021490754559636116 -0.061403561383485794 0.103755347430706024 0.157003521919250488 -0.039618805050849915 0.042416375130414963 0.103889204561710358 0.165905490517616272 0.077172629535198212 0.153745189309120178 -0.118829369544982910 0.099255114793777466 -0.155308619141578674 0.046292509883642197 -0.008388333022594452 0.104290552437305450 0.108767166733741760 -0.095436051487922668 -0.073523961007595062 -0.027294801548123360 -0.082408875226974487 -0.163155496120452881 -0.143892601132392883 -0.111466601490974426 -0.037160456180572510 0.045011401176452637 -0.087611101567745209 -0.016703337430953979 -0.098614856600761414 0.145446628332138062 0.066190347075462341 -0.210544854402542114 -0.067367851734161377 0.143141940236091614 -0.159216359257698059 0.112027354538440704 -0.100357912480831146 -0.061556354165077209 -0.011055502109229565 0.030964182689785957 0.071501806378364563 -0.083419039845466614 -0.042190156877040863 0.081774763762950897 -0.021078279241919518 0.039512835443019867 -0.129784986376762390 -0.026511527597904205 -0.150106012821197510 0.128344073891639709 -0.022686170414090157 -0.029866065829992294 0.039170701056718826 0.111641600728034973 0.138491645455360413 -0.141131177544593811 -0.149651303887367249 0.037650261074304581 0.126338303089141846 0.121888458728790283 -0.110272705554962158 0.018686087802052498 -0.096690028905868530 0.170475825667381287 0.001650153077207506
-0.123223200440406799 0.005139834713190794 -0.053590301424264908 -0.091196171939373016 0.051851246505975723 0.043991331011056900 -0.084285296499729156 -0.152509570121765137 0.052056722342967987 -0.007542347535490990 -0.046458113938570023 -0.130050614476203918 0.098534151911735535 0.026177370920777321 0.078415371477603912 0.121079213917255402 -0.026944097131490707 -0.099306024610996246 -0.053191002458333969 -0.120004355907440186 -0.078386396169662476 -0.062638938426971436 -0.039087928831577301 0.080281279981136322 -0.000647656561341137 -0.106514215469360352 0.006585861556231976 0.200002461671829224 -0.000978329102508724 -0.043348457664251328 -0.107409730553627014 -0.009507240727543831 -0.214552879333496094 0.126760646700859070 0.142380282282829285 -0.098999246954917908 0.019263986498117447 -0.029469460248947144 0.123337894678115845 -0.056798048317432404 0.161672353744506836 0.177824154496192932 0.029167518019676208 0.023597897961735725 0.011523936875164509 -0.121190898120403290 -0.186492875218391418 -0.072127357125282288 0.126537203788757324 0.055870674550533295 -0.095310315489768982 -0.091930299997329712 -0.006919739302247763 -0.048078555613756180 0.130597233772277832 0.068876408040523529 -0.166286915540695190 0.163009881973266602 -0.043438635766506195 -0.076357938349246979 -0.155818551778793335 -0.138725355267524719 -0.057576548308134079 0.066521853208541870 0.118302144110202789 -0.003293180139735341 -0.092714324593544006 0.160698503255844116 -0.070118695497512817 -0.122679814696311951 0.030848650261759758 -0.047881599515676498 -0.004500692244619131 -0.185150474309921265 -0.016925854608416557 -0.000889829359948635 -0.154868856072425842 0.191409543156623840 0.150657773017883301 0.167269021272659302 -0.258766263723373413 0.022843601182103157 0.098364003002643585 0.149026453495025635 -0.137114912271499634 0.104019924998283386 -0.095829866826534271 0.081673130393028259 -0.002071161754429340 0.126148715615272522 -0.015678191557526588 0.320367962121963501 -0.087947145104408264 0.067959025502204895 -0.077767126262187958 -0.140129521489143372 0.007424054667353630 0.133928671479225159 -0.076669991016387939 -0.117559775710105896
-0.028000935912132263 0.066784694790840149 -0.135692521929740906 0.044918246567249298 0.153011083602905273 0.093122251331806183 0.119428023695945740 0.011263033375144005 -0.077695563435554504 -0.121622174978256226 0.098092757165431976 0.165446892380714417 0.106988415122032166 0.127409502863883972 -0.111559517681598663 0.120950214564800262 0.152606174349784851 0.047971833497285843 -0.148292914032936096 0.124447822570800781 0.093153782188892365 -0.109043762087821960 0.085819713771343231 0.068747848272323608 0.090534187853336334 -0.090192213654518127 0.112009078264236450 -0.037774641066789627 -0.101667746901512146 -0.044962719082832336 -0.105978384613990784 -0.082255505025386810 -0.065629608929157257 0.080778457224369049 0.158603101968765259 -0.071304179728031158 0.058943364769220352 -0.085341818630695343 0.023666305467486382 -0.032964799553155899 0.013314829207956791 -0.021562548354268074 0.047502566128969193 0.245886787772178650 -0.146868363022804260 0.095573388040065765 -0.174208819866180420 0.002525631338357925 -0.027910640463232994 -0.112720988690853119 0.145793154835700989 -0.180361703038215637 -0.176000446081161499 0.158584058284759521 -0.010831943713128567 0.106592029333114624 -0.069970823824405670 -0.102559439837932587 0.066547892987728119 -0.173962682485580444 0.133196398615837097 0.126824975013732910 -0.118973851203918457 0.114923246204853058 0.171802341938018799 0.027533853426575661 -0.071826979517936707 -0.099919177591800690 0.154902368783950806 0.113299697637557983 -0.068081669509410858 0.032558571547269821 -0.034032147377729416 -0.036227885633707047 -0.170619949698448181 0.102586112916469574 -0.172130867838859558 0.013257648795843124 -0.166560590267181396 0.042818494141101837 0.072445377707481384 0.106504909694194794 0.084002025425434113 -0.041082661598920822 -0.006218663882464170 0.012195426970720291 -0.050269808620214462 -0.048407483845949173 -0.159001410007476807 -0.161873459815979004 -0.088579386472702026 0.194873660802841187 0.105427317321300507 -0.086308822035789490 -0.212715372443199158 0.048088055104017258 0.123614616692066193 -0.112004131078720093 -0.020576203241944313 0.009696487337350845
-0.025199960917234421 0.065937645733356476 0.013076740317046642 -0.080762051045894623 0.164450600743293762 0.189370855689048767 -0.113694168627262115 -0.066617213189601898 -0.055507667362689972 -0.007366046775132418 0.093528762459754944 0.193539440631866455 0.127051904797554016 0.082829825580120087 0.146407738327980042 -0.085534900426864624 -0.097192719578742981 0.085872530937194824 0.121449425816535950 0.158456742763519287 -0.174091860651969910 0.132297813892364502 -0.097327820956707001 -0.147543966770172119 -0.118426240980625153 -0.026627257466316223 -0.149579033255577087 -0.119023457169532776 0.139634177088737488 -0.046555303037166595 -0.006370081566274166 -0.050251893699169159 0.026952233165502548 -0.067168027162551880 -0.023840095847845078 -0.074603237211704254 0.117612168192863464 0.085486002266407013 -0.100564055144786835 -0.167570188641548157 -0.077975556254386902 -0.020062170922756195 0.130501925945281982 -0.074599266052246094 0.159642234444618225 0.079578496515750885 0.025176312774419785 0.109981425106525421 -0.098830476403236389 -0.114464789628982544 0.126377955079078674 -0.083511777222156525 -0.042711164802312851 0.111325077712535858 0.131418466567993164 0.072938717901706696 0.092389486730098724 -0.008795281872153282 -0.098679140210151672 0.001430256525054574 0.107941776514053345 -0.155046090483665466 -0.166584745049476624 -0.116246588528156281 -0.070278048515319824 0.026209665462374687 0.094159923493862152 0.123544953763484955 -0.027867395430803299 -0.044529002159833908 0.046791963279247284 0.087913841009140015 -0.142455562949180603 -0.129295289516448975 -0.107202753424644470 0.023426057770848274 -0.114380046725273132 -0.019200997427105904 -0.112875223159790039 -0.028234584257006645 -0.021982472389936447 -0.097574599087238312 0.151878729462623596 0.141449004411697388 -0.033971134573221207 -0.160577341914176941 0.084780700504779816 0.020522559061646461 0.088794134557247162 0.188289090991020203 0.068952567875385284 -0.059422358870506287 -0.082373954355716705 0.008025681599974632 0.006686554290354252 -0.165428370237350464 -0.027939906343817711 -0.197138711810112000 -0.010795109905302525 -0.112911179661750793
-0.136082649230957031 -0.148231059312820435 -0.117641814053058624 -0.025260522961616516 0.095259919762611389 0.117973320186138153 -0.135081842541694641 -0.111709311604499817 -0.061412297189235687 0.069013863801956177 -0.093687146902084351 -0.042924702167510986 0.018576070666313171 0.017345516011118889 -0.156676933169364929 0.001948689809069037 0.158379435539245605 0.137739390134811401 -0.049016166478395462 0.086178496479988098 0.108449034392833710 0.070145308971405029 -0.179034203290939331 -0.124642170965671539 -0.125976443290710449 -0.008486107923090458 -0.157359227538108826 -0.054086394608020782 0.008635978214442730 0.053116306662559509 0.133964195847511292 -0.095439329743385315 0.065815418958663940 -0.100768908858299255 -0.086070626974105835 0.121718823909759521 -0.094484083354473114 -0.086973406374454498 0.040193412452936172 -0.017357310280203819 0.112334489822387695 -0.089952684938907623 -0.069584712386131287 -0.073505625128746033 -0.056709624826908112 -0.023893117904663086 0.118043184280395508 -0.160481899976730347 0.157333403825759888 -0.098766520619392395 0.060703728348016739 -0.115968331694602966 -0.119197033345699310 -0.069257803261280060 0.093966580927371979 -0.045221842825412750 -0.116489261388778687 -0.125005513429641724 0.012853704392910004 -0.163294687867164612 0.096040353178977966 -0.109477952122688293 -0.086309179663658142 0.103228911757469177 0.104856945574283600 0.100956223905086517 -0.035956889390945435 -0.140080586075782776 -0.108414672315120697 0.138125747442245483 -0.004953097552061081 0.065576329827308655 -0.100879475474357605 0.152372628450393677 -0.050132974982261658 0.088199011981487274 -0.110782980918884277 0.134596616029739380 0.019019111990928650 -0.038439281284809113 0.053974281996488571 0.030848398804664612 -0.071925736963748932 0.153102368116378784 0.064574941992759705 0.028310697525739670 -0.082134783267974854 0.101264998316764832 0.018455184996128082 -0.009302022866904736 0.125758051872253418 -0.142240524291992188 0.001114821410737932 -0.138204261660575867 -0.028935944661498070 -0.030237512663006783 -0.114245325326919556 0.012090611271560192 0.041049633175134659 0.109530664980411530
0.150475978851318359 0.074730053544044495 -0.131206989288330078 -0.054604586213827133 0.218494862318038940 0.026604156941175461 0.118044480681419373 -0.090698227286338806 -0.082099348306655884 -0.032421957701444626 0.081316873431205750 0.123123966157436371 -0.089564166963100433 0.140471145510673523 -0.060688327997922897 0.046175446361303329 -0.035142015665769577 -0.073401406407356262 0.067755468189716339 -0.098112277686595917 0.131105765700340271 0.143686965107917786 0.151492208242416382 0.082476608455181122 0.155821219086647034 -0.131874918937683105 0.160036951303482056 0.070419676601886749 0.061496924608945847 0.072069413959980011 0.100070983171463013 0.138005912303924561 0.043244689702987671 0.135866224765777588 0.093474090099334717 0.105334334075450897 -0.033132996410131454 0.161894127726554871 0.069817006587982178 0.095527634024620056 -0.013602077960968018 0.111281208693981171 0.019352670758962631 0.156673267483711243 0.038231354206800461 -0.092864938080310822 -0.065135970711708069 -0.176204994320869446 0.107596322894096375 0.095270559191703796 -0.056534428149461746 -0.162960737943649292 -0.129554256796836853 -0.183229818940162659 0.002018062397837639 0.132872596383094788 0.081770226359367371 0.107617698609828949 -0.145224124193191528 0.182478904724121094 0.110865950584411621 0.021126633509993553 -0.100595481693744659 0.121721617877483368 0.009011420421302319 0.078640587627887726 -0.107673391699790955 0.000296892772894353 -0.038262050598859787 0.127229094505310059 0.036942183971405029 0.038181021809577942 -0.110941320657730103 0.043248809874057770 0.087335377931594849 0.027407292276620865 -0.074711494147777557 0.093985542654991150 0.077038295567035675 0.060200478881597519 -0.054359875619411469 0.175584360957145691 0.099735848605632782 -0.149525657296180725 0.177286028861999512 -0.135469704866409302 0.060302171856164932 -0.049617379903793335 -0.010321368463337421 -0.003757808357477188 0.020825807005167007 0.085214130580425262 -0.160704359412193298 -0.132921144366264343 -0.028128925710916519 -0.117169186472892761 -0.090258084237575531 -0.122013948857784271 0.074665546417236328 0.141687795519828796
-0.164172545075416565 0.074291497468948364 -0.022259486839175224 -0.183337584137916565 -0.109193742275238037 -0.073610149323940277 0.039863016456365585 0.145844653248786926 0.124182365834712982 0.003966993186622858 0.009517129510641098 0.112521946430206299 -0.101216033101081848 -0.046498376876115799 0.144372746348381042 -0.018736451864242554 -0.088541887700557709 0.088864609599113464 -0.096361294388771057 -0.096475437283515930 0.067324392497539520 0.172256603837013245 -0.098062612116336823 0.092430390417575836 -0.153797924518585205 -0.020837493240833282 -0.044780164957046509 0.050418157130479813 0.047064855694770813 0.101137891411781311 0.130388334393501282 0.133324608206748962 0.164414644241333008 -0.012535463087260723 0.179319843649864197 -0.028045581653714180 -0.182960852980613708 -0.093966655433177948 0.046451661735773087 0.114752262830734253 -0.112106122076511383 -0.126559674739837646 0.109643734991550446 0.136827230453491211 -0.013265547342598438 0.005923553835600615 -0.096995346248149872 -0.032250333577394485 -0.092530161142349243 -0.043454971164464951 -0.067869722843170166 -0.057860080152750015 -0.146707609295845032 0.045337673276662827 -0.130456715822219849 -0.045007515698671341 0.036248814314603806 -0.174231171607971191 0.096489019691944122 -0.016044531017541885 0.015047253109514713 0.120975129306316376 0.170839101076126099 0.078996650874614716 0.136767849326133728 -0.039056729525327682 0.006889979355037212 -0.098970502614974976 0.093765318393707275 0.037364102900028229 0.024669885635375977 -0.007719290442764759 -0.003960875328630209 0.041727297008037567 -0.061236225068569183 0.015858383849263191 0.098430380225181580 -0.164465799927711487 0.112471081316471100 -0.111406341195106506 0.211173146963119507 -0.067657306790351868 0.083540320396423340 0.169888466596603394 0.084304064512252808 -0.132169634103775024 0.023554610088467598 -0.185900270938873291 0.087464891374111176 -0.100857473909854889 -0.050660796463489532 -0.174114644527435303 0.178426489233970642 0.015291639603674412 0.099172845482826233 -0.049603696912527084 -0.124322161078453064 -0.003093680366873741 0.072702430188655853 0.137257084250450134
0.050959609448909760 -0.171915113925933838 -0.073598459362983704 -0.029302474111318588 0.135577782988548279 0.021371103823184967 0.140991121530532837 0.090200752019882202 0.160072445869445801 0.160499796271324158 -0.128311932086944580 0.171888291835784912 -0.045188538730144501 0.143936231732368469 -0.072382330894470215 0.094334438443183899 -0.069464810192584991 0.109425112605094910 -0.127837166190147400 -0.152738720178604126 0.070171810686588287 -0.128245338797569275 0.038489978760480881 -0.130104795098304749 0.136590942740440369 -0.059547778218984604 0.027592357248067856 0.122189730405807495 -0.029906308278441429 0.009638835676014423 -0.089529752731323242 -0.114079818129539490 -0.067217729985713959 -0.136668622493743896 -0.081623911857604980 -0.031100142747163773 0.134808585047721863 0.091420747339725494 0.041776821017265320 -0.118718400597572327 0.055403959006071091 -0.049484696239233017 0.171946898102760315 0.006606227252632380 0.125112578272819519 0.123662762343883514 -0.154269456863403320 -0.163351818919181824 -0.067836016416549683 0.032491791993379593 0.015314453281462193 0.091185107827186584 -0.081153780221939087 0.082280017435550690 0.173499584197998047 0.172987416386604309 0.029942251741886139 -0.007049898616969585 -0.098459795117378235 0.138836160302162170 -0.125015169382095337 0.038202174007892609 -0.021201146766543388 0.134042218327522278 -0.076518669724464417 0.083194866776466370 0.161040827631950378 -0.152042523026466370 0.029119772836565971 0.160427600145339966 0.110357291996479034 -0.127719730138778687 -0.123077206313610077 -0.050061117857694626 0.106578662991523743 -0.150593146681785583 -0.088301911950111389 0.131553739309310913 -0.017451575025916100 0.045202266424894333 -0.071190185844898224 -0.002285518916323781 0.060707546770572662 0.100275382399559021 0.037493824958801270 -0.141332298517227173 0.118228778243064880 0.168597459793090820 -0.060774933546781540 0.034372583031654358 0.004540690686553717 -0.043329503387212753 -0.139517933130264282 0.040741238743066788 0.009766099043190479 0.014154700562357903 0.065581642091274261 0.031156675890088081 0.033715564757585526 -0.160879239439964294
0.159981250762939453 -0.058288522064685822 0.119221657514572144 -0.083468846976757050 0.097375318408012390 0.011652622371912003 -0.071437157690525055 -0.038451291620731354 -0.116029076278209686 -0.055318668484687805 0.025167174637317657 0.036083955317735672 -0.173359960317611694 0.042021155357360840 -0.035419370979070663 -0.033539425581693649 0.148039668798446655 -0.106540955603122711 0.087676681578159332 -0.124994270503520966 -0.159349352121353149 -0.059035390615463257 -0.045782797038555145 -0.165034681558609009 -0.161246523261070251 -0.077958747744560242 -0.011876244097948074 0.002656090306118131 -0.044661596417427063 0.221707433462142944 -0.089840486645698547 -0.123561076819896698 -0.153765842318534851 0.001525050611235201 -0.059337317943572998 0.107007659971714020 0.085744671523571014 0.085505500435829163 -0.062982365489006042 0.124453961849212646 0.117497198283672333 -0.063899368047714233 0.149458080530166626 -0.069822199642658234 -0.101040311157703400 0.110633976757526398 -0.182382404804229736 -0.016727795824408531 0.054695792496204376 0.184398725628852844 -0.088607996702194214 -0.060064077377319336 -0.167423576116561890 0.011228746734559536 -0.084260143339633942 0.102828770875930786 -0.004383871331810951 0.049918819218873978 0.052401568740606308 -0.048781070858240128 -0.038335070013999939 0.020204281434416771 -0.080027207732200623 -0.094205968081951141 0.072877302765846252 -0.110164448618888855 0.043074198067188263 0.151074379682540894 -0.154888421297073364 0.089181140065193176 -0.100263170897960663 -0.094069391489028931 -0.068642720580101013 -0.062593609094619751 -0.137563571333885193 -0.100206717848777771 0.044725745916366577 0.043281838297843933 -0.057185925543308258 -0.156248837709426880 -0.156208425760269165 0.144610017538070679 0.089536026120185852 0.035283561795949936 0.006118933670222759 -0.112067796289920807 -0.139603286981582642 0.088789030909538269 -0.180994197726249695 0.070877186954021454 0.116571612656116486 0.150313392281532288 0.137170255184173584 -0.088689610362052917 -0.004448964260518551 0.075163431465625763 -0.107850939035415649 0.070984311401844025 -0.061539847403764725 0.067193970084190369
-0.058454446494579315 0.155740186572074890 -0.144686400890350342 -0.165508657693862915 -0.055066142231225967 -0.056555174291133881 -0.010271509177982807 0.112540572881698608 0.018741803243756294 0.032007914036512375 0.081633001565933228 -0.155514433979988098 0.057165160775184631 0.133910298347473145 -0.133819937705993652 -0.115661241114139557 -0.059463299810886383 -0.093852140009403229 -0.139520302414894104 -0.150157734751701355 0.174871981143951416 0.008087882772088051 0.145244389772415161 0.135976538062095642 0.123686417937278748 -0.082650795578956604 0.125276803970336914 -0.118178889155387878 -0.148354306817054749 0.195744454860687256 0.059301987290382385 0.031563077121973038 0.300544768571853638 -0.030109718441963196 -0.175097450613975525 -0.043804135173559189 -0.032088082283735275 -0.029603106901049614 -0.007815993390977383 -0.021827274933457375 -0.120771564543247223 0.156157314777374268 0.026757311075925827 0.066213041543960571 0.026710689067840576 0.073777511715888977 0.133891344070434570 -0.125672489404678345 0.125265389680862427 0.153986990451812744 -0.146985143423080444 0.140545591711997986 -0.160190314054489136 -0.110081098973751068 -0.100258275866508484 -0.174942165613174438 -0.135421440005302429 -0.030529180541634560 -0.009280205704271793 0.113209202885627747 0.137379869818687439 -0.011359228752553463 0.096265859901905060 0.051249649375677109 -0.182678908109664917 0.015264017507433891 -0.086382277309894562 -0.181550055742263794 0.048144847154617310 0.045218952000141144 0.018156977370381355 0.123301833868026733 0.093607805669307709 -0.132149860262870789 0.053205054253339767 -0.013818182051181793 0.049236774444580078 -0.093532577157020569 -0.157621860504150391 0.013054008595645428 0.068720921874046326 0.108967371284961700 0.071451738476753235 -0.072491213679313660 -0.002685705665498972 -0.030016204342246056 0.113384872674942017 0.036654096096754074 0.159415036439895630 0.139475449919700623 -0.092838369309902191 -0.076519355177879333 0.177898079156875610 0.135491147637367249 -0.087889291346073151 -0.032156433910131454 -0.106301017105579376 -0.022749405354261398 -0.129236742854118347 0.075739055871963501
0.037698585540056229 -0.164908185601234436 0.004157478455454111 -0.162307724356651306 0.114865809679031372 0.005893701221793890 0.110722795128822327 0.040568668395280838 -0.090325422585010529 -0.017930127680301666 -0.086185388267040253 -0.049751158803701401 -0.154134720563888550 0.110835008323192596 -0.116865910589694977 -0.037951763719320297 0.150093391537666321 -0.173362761735916138 -0.031589943915605545 0.052457280457019806 -0.071475833654403687 -0.087984368205070496 -0.067637644708156586 0.103279307484626770 -0.076895192265510559 0.146905168890953064 0.044918473809957504 -0.085000358521938324 0.022443180903792381 -0.045983683317899704 0.131074726581573486 -0.019270924851298332 0.145491361618041992 0.033680148422718048 -0.037408001720905304 -0.017745500430464745 0.068300135433673859 0.055110439658164978 -0.158207893371582031 -0.082583658397197723 -0.164992749691009521 -0.149131193757057190 0.088343434035778046 -0.148966133594512939 0.098841510713100433 0.136785477399826050 -0.061913881450891495 -0.137717157602310181 0.058733843266963959 -0.068620823323726654 0.069235168397426605 0.047147002071142197 -0.083619162440299988 0.069861188530921936 -0.174767568707466125 -0.034459114074707031 0.058001596480607986 -0.051361102610826492 0.083473458886146545 0.044519253075122833 0.141521885991096497 0.072984099388122559 0.116700798273086548 -0.106204308569431305 -0.053152546286582947 -0.157016977667808533 0.169668823480606079 0.097579449415206909 -0.009690458886325359 0.158900812268257141 0.060866780579090118 -0.077334426343441010 -0.147454082965850830 0.144106328487396240 -0.025298347696661949 0.078687660396099091 -0.130999952554702759 -0.120431713759899139 -0.177516236901283264 -0.153488337993621826 -0.097216084599494934 -0.104655534029006958 -0.125377714633941650 -0.104099556803703308 -0.091877661645412445 -0.118589185178279877 0.090819194912910461 0.008263512514531612 -0.054683808237314224 0.093114368617534637 0.056399587541818619 -0.010402213782072067 0.149601370096206665 0.057832334190607071 -0.087972216308116913 -0.153328642249107361 0.048553168773651123 0.000475452194223180 0.045368667691946030 0.144425094127655029
-0.056690510362386703 -0.106310501694679260 0.099081724882125854 -0.059059914201498032 -0.126345738768577576 -0.135090708732604980 0.124877467751502991 0.026597546413540840 -0.028266817331314087 0.026644518598914146 0.087999872863292694 0.087339267134666443 -0.165943503379821777 -0.016645669937133789 0.038722041994333267 0.108496978878974915 -0.084873966872692108 0.116021856665611267 -0.013848988339304924 -0.067960634827613831 -0.004801693838089705 0.157934650778770447 -0.159786581993103027 -0.076654240489006042 0.071942299604415894 0.051816571503877640 0.099305361509323120 -0.089240029454231262 0.177537962794303894 0.131282463669776917 0.092184081673622131 -0.015504349954426289 0.109178438782691956 0.046466514468193054 -0.066900573670864105 -0.050275459885597229 0.146585986018180847 0.114618249237537384 -0.147497147321701050 0.188901171088218689 0.000343360443366691 -0.025862289592623711 -0.017855472862720490 -0.087294466793537140 -0.132866993546485901 -0.116478249430656433 0.065380819141864777 -0.128008216619491577 0.136205375194549561 -0.151648312807083130 -0.010332142002880573 0.019443718716502190 0.004709267988801003 -0.130325376987457275 0.123306557536125183 0.096525691449642181 0.032619699835777283 0.040706317871809006 0.167893484234809875 -0.112287834286689758 0.126567617058753967 -0.075084537267684937 0.002558620646595955 0.043602582067251205 0.115250721573829651 -0.071556240320205688 0.100467644631862640 -0.076709806919097900 -0.000755815475713462 0.118727751076221466 0.076737612485885620 0.075761511921882629 0.012438677251338959 -0.165574342012405396 -0.115236565470695496 -0.078603565692901611 -0.076796703040599823 -0.113595403730869293 0.119296945631504059 -0.128951072692871094 0.153663948178291321 -0.010429047979414463 -0.031737610697746277 -0.040192794054746628 0.157631531357765198 -0.142467036843299866 0.196668416261672974 -0.109201535582542419 -0.058226000517606735 -0.065950304269790649 0.128711000084877014 -0.085254214704036713 0.250030428171157837 0.166899949312210083 0.104776017367839813 -0.050051096826791763 -0.035771857947111130 0.272925227880477905 -0.061047315597534180 0.087268538773059845
