#Layer 4 Weights:
0.125895485281944275 0.045777779072523117 -0.083224073052406311 0.017773045226931572 0.033699709922075272 -0.006671420298516750 0.076635323464870453 -0.098746553063392639 0.122952654957771301 0.151611551642417908 0.266673743724822998 -0.138998255133628845 -0.322997748851776123 0.083213791251182556 -0.047278266400098801 -0.038196727633476257 -0.147372186183929443 0.078143060207366943 -0.034932579845190048 0.043499406427145004 0.153823018074035645 0.127203255891799927 -0.023496508598327637 0.060675930231809616 0.031648371368646622 0.135404273867607117 0.127324953675270081 0.015937898308038712 0.345954746007919312 -0.079190485179424286 0.131828352808952332 0.089316837489604950 0.136978194117546082 0.069706372916698456 0.292808502912521362 0.033713892102241516 0.208064526319503784 0.104981705546379089 0.086937271058559418 0.071470141410827637 0.352786779403686523 -0.060821663588285446 -0.026821864768862724 0.102679662406444550 0.167748004198074341 -0.086807765066623688 0.147464200854301453 -0.062119189649820328 0.132052883505821228 0.147038668394088745 -0.339043915271759033 0.186236247420310974 0.125838547945022583 0.018349258229136467 0.192866995930671692 -0.176964253187179565 -0.038710065186023712 0.031348317861557007 0.154854461550712585 0.108438767492771149 0.102636210620403290 -0.111507676541805267 -0.040186975151300430 -0.194017320871353149 0.089910976588726044 -0.149929419159889221 0.044537961483001709 0.010006702505052090 -0.209413468837738037 -0.040039297193288803 -0.044996440410614014 -0.032363954931497574 -0.283245503902435303 0.253816187381744385 -0.081828065216541290 0.131385520100593567 0.032897703349590302 -0.292306482791900635 0.057640504091978073 0.069067418575286865 -0.010483397170901299 -0.183817312121391296 0.060498964041471481 -0.094059206545352936 0.357508689165115356 -0.210766434669494629 0.095797494053840637 -0.084563918411731720 -0.156993880867958069 0.081702373921871185 -0.124943569302558899 -0.161279261112213135 -0.092033356428146362 -0.093886360526084900 -0.079953998327255249 -0.157330527901649475 0.081904478371143341 0.121100336313247681 0.468034446239471436 -0.008560637943446636
0.187179654836654663 -0.083034798502922058 -0.080938622355461121 0.140866398811340332 0.368921637535095215 0.323156386613845825 -0.121661685407161713 -0.274016380310058594 -0.006605054717510939 0.195586770772933960 -0.125015854835510254 -0.280791372060775757 -0.011155777610838413 -0.115274362266063690 -0.227960467338562012 -0.075746178627014160 0.040173657238483429 -0.010761684738099575 0.034068539738655090 0.366226315498352051 0.146842405200004578 0.102308504283428192 -0.070265792310237885 0.024233052507042885 0.149358645081520081 0.012974031269550323 -0.274644792079925537 0.123120561242103577 -0.088296458125114441 0.129412293434143066 0.072894476354122162 -0.062888868153095245 0.235607534646987915 -0.031887914985418320 -0.029572973027825356 -0.104955688118934631 0.335000514984130859 -0.022791916504502296 -0.025958202779293060 -0.085878759622573853 0.089307047426700592 -0.072484262287616730 0.168665736913681030 0.017984874546527863 0.078994147479534149 -0.003983160015195608 0.061545517295598984 0.083995632827281952 -0.071987748146057129 -0.070065669715404510 0.106342948973178864 0.118790715932846069 0.086404629051685333 0.055556438863277435 -0.113979659974575043 -0.095487937331199646 -0.025238627567887306 0.033689219504594803 0.072749979794025421 -0.070346802473068237 -0.051620393991470337 -0.253102689981460571 -0.073525123298168182 -0.121371313929557800 -0.002116082003340125 0.011682320386171341 0.081464782357215881 -0.091454662382602692 0.163767501711845398 -0.152929648756980896 0.082720160484313965 -0.143294185400009155 0.114266656339168549 0.155738517642021179 0.144776970148086548 0.209382593631744385 -0.039832260459661484 0.102371662855148315 -0.032552797347307205 0.121147833764553070 -0.175017997622489929 -0.054406978189945221 -0.185869112610816956 -0.093703471124172211 0.198333412408828735 -0.103283852338790894 0.191254034638404846 -0.077822230756282806 0.212674245238304138 0.025989044457674026 -0.019996739923954010 -0.191592380404472351 -0.055706303566694260 -0.195808753371238708 0.086860388517379761 -0.100932888686656952 -0.147886246442794800 0.213633194565773010 0.058149978518486023 -0.013355129398405552
-0.175115704536437988 0.102932952344417572 0.100322790443897247 -0.024374416097998619 -0.260821074247360229 -0.281696915626525879 -0.097839146852493286 -0.089941732585430145 -0.066821396350860596 -0.030244855210185051 0.113023087382316589 0.186596557497978210 -0.054772160947322845 0.152740329504013062 -0.017523022368550301 -0.183421015739440918 0.201534986495971680 -0.045444518327713013 0.172458201646804810 0.069290667772293091 0.158622637391090393 0.128127932548522949 0.105801939964294434 0.079368896782398224 0.060757335275411606 0.086141943931579590 0.265046030282974243 0.226131469011306763 0.196718215942382812 0.172928646206855774 -0.005172469187527895 -0.117421448230743408 -0.119717024266719818 0.086695246398448944 -0.004099927376955748 -0.160716801881790161 -0.499891608953475952 -0.142295733094215393 0.004437560215592384 -0.071232944726943970 -0.105425767600536346 0.134258583188056946 -0.027813317254185677 0.068440131843090057 0.004866503179073334 0.077154166996479034 0.152361467480659485 -0.036887403577566147 -0.021766122430562973 0.048982389271259308 -0.165218606591224670 -0.116036564111709595 0.005828827153891325 0.005848399829119444 0.091366507112979889 0.324984431266784668 0.223737835884094238 -0.047408413141965866 -0.148651942610740662 0.104481950402259827 -0.192653641104698181 0.472456604242324829 -0.057406064122915268 0.151206433773040771 -0.077945739030838013 0.081462062895298004 -0.077958993613719940 -0.098691575229167938 0.044532403349876404 0.073718793690204620 0.190666481852531433 0.159498110413551331 0.061800632625818253 -0.027637882158160210 -0.130163192749023438 -0.023030390962958336 -0.212862864136695862 0.125193148851394653 0.094611339271068573 -0.021296091377735138 0.020978480577468872 0.060727734118700027 0.008618195541203022 -0.149315401911735535 -0.088116817176342010 0.306495517492294312 0.105696126818656921 0.096318267285823822 0.111424669623374939 -0.037992075085639954 -0.132417708635330200 0.117831334471702576 -0.062869027256965637 0.186141431331634521 0.037492942065000534 0.014770016074180603 0.172738239169120789 -0.192453980445861816 -0.178926780819892883 -0.006075457204133272
0.005045695230364799 0.112345322966575623 -0.116670243442058563 -0.075066313147544861 -0.029655272141098976 -0.014334611594676971 -0.126471102237701416 0.248623505234718323 0.161987483501434326 -0.176298454403877258 0.108521215617656708 -0.107154838740825653 0.277749955654144287 0.048621699213981628 0.171025797724723816 -0.036640025675296783 -0.098680064082145691 -0.012730602174997330 0.244874507188796997 -0.018013708293437958 0.104171261191368103 0.168012365698814392 -0.212932184338569641 -0.031119430437684059 -0.117325648665428162 0.219678297638893127 -0.028055069968104362 0.038572203367948532 0.262670874595642090 0.061345688998699188 -0.080191597342491150 -0.123247921466827393 -0.116632059216499329 0.051987897604703903 -0.092339649796485901 -0.009829658083617687 -0.280947238206863403 -0.171339005231857300 0.151579737663269043 -0.049506172537803650 -0.008495938964188099 0.075406894087791443 -0.409914642572402954 0.116184204816818237 -0.182739257812500000 -0.161100074648857117 0.116318158805370331 -0.031871221959590912 -0.099858552217483521 -0.040738452225923538 0.075442187488079071 -0.212182655930519104 -0.122827716171741486 -0.012080506421625614 0.049364581704139709 -0.138988912105560303 0.111573293805122375 -0.204840093851089478 0.103424698114395142 -0.045218497514724731 0.107215590775012970 0.267951428890228271 0.048393294215202332 -0.224869236350059509 -0.092422999441623688 0.119274303317070007 0.158232033252716064 -0.134244248270988464 -0.040984369814395905 0.142853096127510071 -0.150314554572105408 0.207535922527313232 0.164414271712303162 -0.074152581393718719 0.096036195755004883 0.088163614273071289 -0.185524880886077881 0.141297519207000732 -0.174216985702514648 0.098400563001632690 0.176422193646430969 -0.176101014018058777 0.282987505197525024 -0.030657373368740082 -0.145662486553192139 -0.120366737246513367 -0.294280737638473511 -0.143962949514389038 0.171363890171051025 -0.109520114958286285 -0.170306950807571411 0.101574003696441650 -0.264427870512008667 -0.008183438330888748 -0.029566444456577301 0.191398978233337402 0.021200686693191528 -0.159276589751243591 0.101304166018962860 -0.063003927469253540
0.172544330358505249 0.073615334928035736 -0.193307951092720032 0.077753029763698578 0.170103013515472412 0.088337682187557220 -0.066368579864501953 0.054040137678384781 0.118970759212970734 -0.205602794885635376 0.822946250438690186 -0.136016011238098145 0.042816147208213806 -0.078212454915046692 0.106843873858451843 0.065912880003452301 0.142938926815986633 0.354296833276748657 -0.197157248854637146 0.347606450319290161 0.160430431365966797 -0.000958554272074252 -0.166703298687934875 -0.062513045966625214 -0.084781810641288757 -0.100689761340618134 0.077774137258529663 -0.125571981072425842 0.221301347017288208 0.033480059355497360 0.305592745542526245 0.099932119250297546 0.016703005880117416 0.049969341605901718 0.162173628807067871 0.242595091462135315 0.009401666000485420 -0.107632346451282501 0.045083809643983841 0.125650748610496521 0.143572524189949036 -0.061533764004707336 -0.037505161017179489 0.148023843765258789 -0.044776409864425659 -0.165243059396743774 0.152298614382743835 0.204050809144973755 0.036265436559915543 0.077295601367950439 -0.051644023507833481 0.035508975386619568 0.079306833446025848 -0.097252383828163147 -0.091443948447704315 0.093342728912830353 -0.117396838963031769 -0.588898003101348877 0.100249141454696655 0.171240493655204773 -0.093070566654205322 0.201278045773506165 0.042065341025590897 0.009679241105914116 -0.031435787677764893 -0.125505492091178894 -0.158112123608589172 -0.085337720811367035 -0.100194543600082397 -0.080137677490711212 0.053094763308763504 0.171986222267150879 -1.076597809791564941 0.319496065378189087 -0.293378025293350220 -0.010373460128903389 -0.012966534122824669 0.046894002705812454 0.045615527778863907 -0.077855728566646576 0.112207844853401184 -0.179078534245491028 0.036716692149639130 -0.155016526579856873 -0.003972528502345085 -0.031132332980632782 -0.034510537981987000 0.086950413882732391 -0.015885200351476669 0.264436841011047363 0.109648190438747406 0.045949045568704605 -0.055113371461629868 -0.165954098105430603 0.158321052789688110 0.160885721445083618 0.151708498597145081 0.078810714185237885 -0.006773814093321562 0.014218505471944809
-0.009955271147191525 0.013043751940131187 -0.033498372882604599 -0.017739139497280121 -0.137556448578834534 -0.086389102041721344 -0.270018309354782104 0.104980491101741791 0.101092040538787842 0.036497674882411957 0.025600727647542953 -0.012061520479619503 0.030877649784088135 0.031650990247726440 -0.117729105055332184 -0.008672664873301983 -0.113094143569469452 0.200983077287673950 -0.236431255936622620 0.215798363089561462 -0.112369202077388763 -0.013468584977090359 0.017025990411639214 -0.040281366556882858 -0.198758810758590698 -0.260067731142044067 0.028538506478071213 -0.184650793671607971 0.037116724997758865 0.059901993721723557 0.260162353515625000 -0.079620979726314545 -0.022721478715538979 -0.207616433501243591 0.048177033662796021 -0.076928578317165375 0.162789568305015564 0.036030784249305725 -0.023024486377835274 -0.071708247065544128 0.102740928530693054 0.156905218958854675 -0.027392596006393433 0.140885978937149048 0.159808397293090820 -0.124140784144401550 0.189966931939125061 0.126827225089073181 -0.115458264946937561 -0.120079398155212402 -0.068583413958549500 -0.009114973247051239 -0.023988384753465652 0.205062970519065857 -0.122779138386249542 0.128781780600547791 0.034008335322141647 -0.652458727359771729 -0.132644146680831909 0.027449872344732285 0.039181336760520935 0.116142153739929199 0.039771392941474915 -0.041339196264743805 -0.201400473713874817 0.147017687559127808 -0.051407460123300552 -0.116384036839008331 -0.197450205683708191 0.142308190464973450 -0.118603594601154327 -0.035250633955001831 -0.337037801742553711 0.186012759804725647 -0.523649632930755615 -0.040444456040859222 0.014014355838298798 -0.143871784210205078 -0.106614187359809875 -0.077759407460689545 0.134028732776641846 -0.085480071604251862 0.110048912465572357 0.083406768739223480 -0.215262755751609802 0.112192846834659576 0.140692532062530518 -0.006976996082812548 -0.257762670516967773 0.202242583036422729 -0.157258465886116028 0.047794606536626816 0.072056591510772705 0.001766148372553289 -0.032178297638893127 -0.087994657456874847 0.005222849547863007 0.001983131980523467 -0.324818670749664307 0.095737040042877197
0.168407425284385681 0.018678683787584305 -0.127606719732284546 0.055497370660305023 0.037031751126050949 -0.111900366842746735 -0.045738499611616135 -0.063355788588523865 -0.288543850183486938 -0.159183517098426819 -0.246258065104484558 -0.015087149105966091 -0.113990984857082367 -0.018056416884064674 0.037376206368207932 0.023496946319937706 0.063231818377971649 -0.075949028134346008 0.051889080554246902 -0.044955670833587646 -0.114915020763874054 -0.029669517651200294 0.104891411960124969 -0.028018172830343246 -0.138671070337295532 -0.032064866274595261 -0.148215740919113159 -0.223532274365425110 -0.382224798202514648 0.118912726640701294 -0.036037087440490723 0.150553718209266663 0.059859234839677811 -0.055551279336214066 0.009290158748626709 0.030762966722249985 0.010736105032265186 0.120704770088195801 0.037339638918638229 -0.152721285820007324 0.096792288124561310 0.146785795688629150 -0.101251393556594849 -0.150442302227020264 -0.023169068619608879 0.113433614373207092 -0.089499585330486298 -0.052742950618267059 0.108614392578601837 0.301640152931213379 0.160376057028770447 0.099391609430313110 0.063286945223808289 0.055976938456296921 -0.010954396799206734 -0.087925098836421967 -0.138062208890914917 0.020079623907804489 0.165344372391700745 -0.113452166318893433 0.160243943333625793 -0.189937651157379150 -0.071481160819530487 -0.001719706575386226 0.006953877396881580 -0.073087222874164581 -0.111114166676998138 0.112033918499946594 -0.132410988211631775 -0.286913186311721802 -0.073506124317646027 0.094178304076194763 -0.015745406970381737 0.205269619822502136 -0.168268203735351562 -0.168765455484390259 0.094304487109184265 0.064618155360221863 -0.030329583212733269 -0.132830142974853516 -0.227942019701004028 -0.086311317980289459 -0.108645297586917877 -0.134121805429458618 0.118190161883831024 0.004849834833294153 0.053441200405359268 0.134076014161109924 0.192891463637351990 0.112949512898921967 -0.192126318812370300 0.121228098869323730 0.419431328773498535 -0.059968534857034683 -0.080360136926174164 0.075361087918281555 -0.105956241488456726 -0.019593106582760811 0.081107273697853088 -0.242661029100418091
0.140994384884834290 -0.067341424524784088 0.139635041356086731 0.155364185571670532 -0.086816556751728058 0.171273365616798401 -0.109228573739528656 0.036107197403907776 0.151441350579261780 0.005420673638582230 -0.011043277569115162 -0.010055257938802242 0.004036165773868561 -0.233441799879074097 0.064037092030048370 -0.007024715654551983 -0.190335094928741455 0.141179367899894714 -0.103921651840209961 -0.059591703116893768 -0.205659419298171997 0.171117946505546570 0.079860173165798187 -0.158485829830169678 -0.103005930781364441 -0.079339154064655304 -0.095182172954082489 0.100573800504207611 -0.022271797060966492 0.034564800560474396 -0.007904039695858955 0.106443963944911957 0.142235785722732544 0.077295199036598206 -0.116075299680233002 -0.076522693037986755 0.011248024180531502 -0.056388013064861298 -0.074266910552978516 -0.135911151766777039 -0.050591621547937393 0.088601671159267426 0.070147350430488586 -0.093457497656345367 0.154900610446929932 -0.083415023982524872 -0.122478388249874115 -0.118708468973636627 0.129836827516555786 0.224747925996780396 0.000058345900470158 0.002685325220227242 -0.097916916012763977 0.092605546116828918 0.019723515957593918 -0.107221551239490509 -0.127039492130279541 0.118852838873863220 -0.079816557466983795 0.078845359385013580 -0.094474896788597107 -0.074706047773361206 0.190537810325622559 0.072642840445041656 0.238155186176300049 -0.057110328227281570 0.022852692753076553 -0.103859491646289825 0.126107499003410339 -0.303169637918472290 0.228819429874420166 -0.133189171552658081 0.038963232189416885 0.033396188169717789 -0.104971878230571747 0.217950046062469482 -0.083021737635135651 0.123022526502609253 0.052153218537569046 0.160798400640487671 0.120342187583446503 0.077717803418636322 -0.100276410579681396 -0.039054729044437408 -0.090328700840473175 -0.013819335028529167 0.021200850605964661 -0.090410627424716949 -0.098215579986572266 0.080222867429256439 0.086651980876922607 0.109970577061176300 0.197966635227203369 0.071538411080837250 0.022409299388527870 -0.024956701323390007 0.056958634406328201 -0.079778306186199188 0.000701617856975645 -0.246754765510559082
0.052116923034191132 0.153197631239891052 0.240720376372337341 0.158855244517326355 0.061793111264705658 -0.307523131370544434 0.075062371790409088 0.034591332077980042 0.007806922774761915 -0.163509070873260498 -0.075679823756217957 -0.028632577508687973 0.347258120775222778 0.078657239675521851 0.060160666704177856 0.203140959143638611 -0.023504178971052170 -0.212135493755340576 -0.030256468802690506 -0.179231047630310059 0.005350743420422077 -0.176871627569198608 -0.064154498279094696 0.063823834061622620 0.092530764639377594 0.204764708876609802 0.077290683984756470 -0.186188310384750366 -0.282376438379287720 0.042254310101270676 0.045346044003963470 -0.239012062549591064 -0.091343507170677185 -0.074063904583454132 -0.266416549682617188 0.024384252727031708 0.133691072463989258 0.156894251704216003 0.158505037426948547 0.000367776956409216 -0.322567254304885864 -0.019030841067433357 -0.119270950555801392 0.229953095316886902 -0.005021675955504179 -0.072872288525104523 0.032040677964687347 -0.028995936736464500 -0.004927947185933590 -0.162456527352333069 0.415436953306198120 -0.139991924166679382 -0.202521115541458130 -0.130862265825271606 -0.120339885354042053 0.305788010358810425 0.250801503658294678 -0.189375489950180054 0.003245665226131678 0.111288182437419891 -0.097345486283302307 0.104755997657775879 -0.172937542200088501 0.116865180432796478 -0.136902317404747009 0.043564282357692719 0.139530494809150696 0.162426471710205078 -0.025119896978139877 0.076473563909530640 0.125389844179153442 -0.299787998199462891 0.083603911101818085 -0.047801010310649872 -0.121094629168510437 0.067279219627380371 -0.073014579713344574 0.534607231616973877 0.088628560304641724 -0.262083053588867188 0.043891791254281998 0.083846665918827057 -0.040501575917005539 -0.027890861034393311 -0.559428811073303223 0.152200728654861450 -0.036365147680044174 0.073042102158069611 -0.047795448452234268 0.089089475572109222 -0.066373936831951141 0.141833946108818054 0.043972421437501907 0.131860151886940002 0.149019092321395874 -0.030914148315787315 0.200930356979370117 -0.232942968606948853 -0.845606803894042969 0.056289199739694595
-0.048362039029598236 0.070520795881748199 -0.031074918806552887 0.082304619252681732 -0.236416697502136230 0.014903781935572624 -0.012023027054965496 0.125333651900291443 -0.082753553986549377 0.057194571942090988 0.026851568371057510 0.106127582490444183 0.027325456961989403 0.066349484026432037 0.014644715934991837 0.031610675156116486 0.086638472974300385 0.051734432578086853 -0.180494219064712524 -0.325142681598663330 0.212210401892662048 0.042129062116146088 -0.185293093323707581 -0.140373140573501587 -0.174079626798629761 0.072496652603149414 -0.108057588338851929 -0.080017037689685822 0.285090982913970947 0.125548467040061951 0.036846026778221130 -0.007091434672474861 -0.061729662120342255 -0.260585963726043701 0.112717539072036743 0.006274885032325983 -0.178462177515029907 -0.077158682048320770 0.033571954816579819 -0.154867962002754211 -0.130862474441528320 0.084672458469867706 -0.014784193597733974 0.063122801482677460 -0.163265824317932129 0.046289909631013870 -0.036372464150190353 0.117834739387035370 -0.155442178249359131 -0.248519778251647949 0.041910205036401749 -0.102565191686153412 -0.040674474090337753 -0.045653600245714188 0.159729123115539551 -0.020378399640321732 0.145454674959182739 -0.164109483361244202 0.080466106534004211 0.187896370887756348 -0.096832215785980225 0.372122615575790405 0.151145800948143005 -0.108179517090320587 -0.177797362208366394 -0.030679931864142418 0.082548707723617554 0.099631011486053467 -0.082445912063121796 0.205482646822929382 0.021110905334353447 0.359029233455657959 -0.135766386985778809 0.082943305373191833 0.112064421176910400 -0.137101516127586365 -0.150113254785537720 -0.029845116659998894 -0.010799847543239594 -0.154110580682754517 0.248577013611793518 0.158699020743370056 0.120291553437709808 -0.125734016299247742 -0.037707827985286713 0.249811246991157532 0.059395629912614822 -0.207889571785926819 -0.079930514097213745 -0.131423279643058777 -0.132896289229393005 -0.105636350810527802 -0.216048508882522583 -0.101390071213245392 -0.068678505718708038 0.079329594969749451 0.055433761328458786 -0.136541306972503662 0.111161179840564728 0.200679674744606018
0.082551978528499603 -0.039252553135156631 -0.126367226243019104 0.092743001878261566 0.039599515497684479 -0.047097802162170410 -0.153138920664787292 0.132786095142364502 -0.150029286742210388 0.054034899920225143 0.100058510899543762 0.030593760311603546 0.259245991706848145 0.194976687431335449 0.078922778367996216 -0.115244343876838684 -0.031731855124235153 -0.046825885772705078 -0.030048314481973648 -0.279764115810394287 0.064854428172111511 0.226847365498542786 -0.218336910009384155 0.109317459166049957 0.051251459866762161 0.140258878469467163 -0.031450726091861725 0.108559705317020416 0.510287046432495117 0.264005810022354126 0.203433856368064880 -0.167723074555397034 0.076544389128684998 -0.211696520447731018 0.023902919143438339 0.134926319122314453 -0.016818506643176079 -0.007278302218765020 -0.084549531340599060 -0.214026838541030884 -0.086853742599487305 0.157127350568771362 -0.183406621217727661 0.061839234083890915 -0.163867205381393433 0.170343399047851562 -0.024842560291290283 0.369120150804519653 -0.156029164791107178 -0.134823322296142578 0.044710244983434677 -0.091510854661464691 0.072929471731185913 -0.068896539509296417 0.167031422257423401 -0.002997326897457242 0.022713487967848778 -0.046489421278238297 0.088714465498924255 0.021723030135035515 0.026932183653116226 0.150193199515342712 0.096240870654582977 -0.195770695805549622 -0.196709305047988892 0.072835810482501984 0.128729015588760376 -0.150166749954223633 -0.338776141405105591 0.394411414861679077 -0.205772951245307922 0.355460792779922485 -0.178336128592491150 0.075785413384437561 0.103767730295658112 -0.109778530895709991 -0.163245022296905518 -0.039970841258764267 0.028024088591337204 0.073031596839427948 0.194948583841323853 -0.091498143970966339 -0.052560683339834213 -0.024804500862956047 0.188995108008384705 0.025211246684193611 -0.167685791850090027 -0.102177418768405914 -0.234043061733245850 -0.053733430802822113 -0.019043939188122749 -0.019474269822239876 -0.025065658614039421 -0.126724317669868469 0.018979029729962349 0.129682183265686035 0.044166609644889832 -0.088547796010971069 0.107086718082427979 0.219023182988166809
-0.031776037067174911 0.063817292451858521 0.268693983554840088 -0.197486072778701782 -0.041865579783916473 -0.179862305521965027 -0.034011792391538620 0.087006427347660065 -0.084588453173637390 0.241380915045738220 -0.518224477767944336 -0.168976619839668274 0.287943720817565918 -0.018729150295257568 0.173776134848594666 0.277785360813140869 -0.000419282150687650 -0.286944210529327393 0.273965775966644287 -0.263892352581024170 -0.165355548262596130 0.013955144211649895 -0.067504048347473145 -0.054084822535514832 0.124444812536239624 0.005677061155438423 -0.152977123856544495 0.277499884366989136 -0.145584732294082642 -0.134556919336318970 -0.298106819391250610 -0.055659487843513489 0.009350389242172241 0.215465605258941650 -0.077996827661991119 -0.236114293336868286 0.199959024786949158 0.050756204873323441 0.071052521467208862 0.083112195134162903 -0.272474616765975952 0.142119705677032471 -0.144109919667243958 -0.086655043065547943 0.037326063960790634 -0.022534213960170746 -0.112516969442367554 -0.202719539403915405 0.175391927361488342 -0.198016896843910217 0.050174273550510406 -0.149399012327194214 -0.264201819896697998 0.021842401474714279 -0.202195033431053162 -0.050406232476234436 -0.075777716934680939 0.298902153968811035 -0.059415616095066071 0.095973044633865356 0.153226256370544434 -0.133216321468353271 0.048181120306253433 0.207781583070755005 -0.040065627545118332 -0.185293346643447876 0.207487270236015320 0.077199198305606842 -0.020038509741425514 0.074349798262119293 -0.004430523142218590 -0.192211255431175232 1.040136575698852539 -0.330778837203979492 0.230897262692451477 -0.043693229556083679 -0.064783178269863129 0.148300975561141968 0.121418952941894531 -0.008364664390683174 -0.211086899042129517 -0.005412267521023750 0.072712883353233337 0.175856918096542358 -0.117131508886814117 0.188180342316627502 0.124673962593078613 -0.133585974574089050 0.143814817070960999 -0.016748100519180298 0.050045896321535110 0.015588134527206421 -0.326617866754531860 -0.095386631786823273 0.099662497639656067 0.081007063388824463 0.234529569745063782 0.017384603619575500 -0.208335921168327332 -0.113167025148868561
0.054330237209796906 -0.084068797528743744 -0.042997632175683975 -0.066413789987564087 0.146329298615455627 0.145269334316253662 -0.029286336153745651 -0.058847878128290176 0.082384452223777771 0.023785246536135674 0.106318041682243347 -0.137571230530738831 -0.304704755544662476 0.051307491958141327 -0.203491732478141785 -0.211008593440055847 0.090039983391761780 0.167917445302009583 -0.164956122636795044 0.009548058733344078 0.154413014650344849 0.015498940832912922 0.045991200953722000 -0.182484984397888184 -0.051911819726228714 0.037002895027399063 0.050353158265352249 0.003308096434921026 0.421175152063369751 -0.153625577688217163 -0.145838752388954163 0.118002884089946747 0.085194893181324005 0.036462713032960892 0.355197608470916748 0.218002721667289734 0.137184128165245056 0.050102677196264267 0.061081156134605408 -0.146973982453346252 0.374301642179489136 -0.017346940934658051 -0.015103369951248169 0.087240874767303467 0.127174526453018188 -0.221164494752883911 -0.024510905146598816 -0.101059012115001678 0.189201429486274719 0.154587373137474060 -0.434442937374114990 -0.069886155426502228 0.059747513383626938 -0.065299391746520996 0.088683731853961945 -0.127694129943847656 0.048845432698726654 0.123102053999900818 0.128279447555541992 -0.066937386989593506 0.015071426518261433 -0.065555490553379059 0.035912636667490005 -0.013268216513097286 -0.157857254147529602 -0.181399196386337280 -0.075680546462535858 -0.082773022353649139 -0.056423891335725784 -0.117941521108150482 0.079829968512058258 0.189271032810211182 -0.109769321978092194 -0.024854766204953194 0.205558508634567261 -0.022121733054518700 0.028513999655842781 -0.498820483684539795 -0.100973300635814667 0.104773230850696564 0.221025228500366211 -0.080037541687488556 -0.042977802455425262 0.012108822353184223 0.591768741607666016 -0.251139819622039795 -0.131016522645950317 0.216273739933967590 0.028448134660720825 -0.130564957857131958 -0.066962853074073792 -0.029826713725924492 -0.039102382957935333 -0.010524635203182697 0.090360701084136963 0.150668054819107056 -0.195319429039955139 -0.056029938161373138 0.397322535514831543 0.094997793436050415
-0.144621655344963074 0.084226720035076141 0.033601466566324234 0.079064793884754181 0.215755462646484375 0.248293966054916382 -0.006643128115683794 -0.108902789652347565 0.079548716545104980 -0.440750360488891602 -0.033671740442514420 -0.223423987627029419 0.163074240088462830 -0.007655604276806116 0.141657188534736633 -0.122019231319427490 -0.092446982860565186 -0.100329883396625519 0.214811891317367554 0.127095147967338562 -0.134068891406059265 0.033805843442678452 -0.243791908025741577 -0.171017110347747803 0.248372137546539307 0.119432263076305389 -0.019250642508268356 0.037472993135452271 0.166453167796134949 0.066936865448951721 0.185080617666244507 -0.169779449701309204 -0.068284437060356140 0.054473698139190674 -0.039579547941684723 0.020155005156993866 0.284566283226013184 0.045432537794113159 0.161183834075927734 -0.034069839864969254 0.126427695155143738 0.186079353094100952 -0.172844052314758301 -0.378652960062026978 0.005587821826338768 -0.136709824204444885 -0.155666410923004150 -0.041578434407711029 -0.091097787022590637 -0.147274285554885864 -0.105688214302062988 0.149777159094810486 -0.006975603755563498 0.049632363021373749 -0.006303553469479084 -0.067526079714298248 -0.149683147668838501 -0.175540030002593994 -0.014790665358304977 0.101924471557140350 0.088410310447216034 -0.362422525882720947 0.092975474894046783 -0.212080910801887512 -0.035082209855318069 -0.016002649441361427 0.097937971353530884 -0.252501547336578369 -0.098514519631862640 0.072096854448318481 0.129928052425384521 -0.062084283679723740 0.010248580016195774 -0.025523357093334198 -0.156012207269668579 -0.019738344475626945 -0.027085939422249794 0.089640341699123383 0.045563101768493652 -0.026367392390966415 -0.085899613797664642 -0.113559626042842865 0.119307234883308411 -0.196499094367027283 -0.022543903440237045 -0.004417638294398785 -0.113102175295352936 0.144409924745559692 0.049309756606817245 -0.251222252845764160 0.013956776820123196 -0.204509451985359192 -0.374334663152694702 -0.018671771511435509 -0.172165647149085999 0.200582236051559448 -0.212418198585510254 -0.153529837727546692 -0.074949145317077637 0.282639503479003906
-0.029594480991363525 -0.028445955365896225 0.228858292102813721 0.049928408116102219 -0.331721663475036621 -0.345593988895416260 -0.001268052728846669 0.038953885436058044 -0.105122238397598267 -0.162796869874000549 0.095692828297615051 0.049469165503978729 0.134680315852165222 0.040771096944808960 -0.082895576953887939 -0.117302954196929932 0.149823486804962158 -0.110659874975681305 -0.058077659457921982 -0.042223066091537476 0.149134770035743713 0.013480877503752708 -0.094290755689144135 0.044745098799467087 0.153884932398796082 -0.109884880483150482 0.221201881766319275 -0.049502428621053696 -0.123620323836803436 -0.009479432366788387 0.001998882740736008 -0.026109803467988968 -0.271872192621231079 0.104054011404514313 0.054916389286518097 -0.107591368257999420 -0.157632097601890564 -0.201850280165672302 -0.122605450451374054 0.208222806453704834 -0.132191494107246399 -0.140782758593559265 0.114372812211513519 -0.032571312040090561 0.006320613902062178 -0.115007713437080383 0.147313535213470459 0.066901974380016327 -0.065757714211940765 -0.102240093052387238 -0.093290470540523529 0.039015725255012512 -0.203688696026802063 -0.067390955984592438 -0.145979031920433044 0.365720987319946289 0.233042567968368530 -0.153483271598815918 -0.091263361275196075 0.131549745798110962 -0.037504855543375015 0.417316704988479614 -0.130183428525924683 0.110307216644287109 0.043449629098176956 0.154480785131454468 -0.043420966714620590 -0.023417972028255463 -0.156128883361816406 0.140036776661872864 0.038559652864933014 -0.224740937352180481 -0.053528893738985062 -0.041866749525070190 0.152081191539764404 -0.022584633901715279 0.084340080618858337 -0.109535887837409973 0.014354878105223179 0.106249734759330750 0.165810421109199524 0.210883691906929016 0.148790076375007629 0.208990976214408875 -0.282278656959533691 0.318411380052566528 -0.026567010208964348 -0.021899513900279999 0.049719233065843582 -0.203211247920989990 -0.186281725764274597 0.226826235651969910 0.006708946544677019 0.256659984588623047 0.069641441106796265 0.044610012322664261 -0.028644382953643799 0.070571124553680420 -0.059916168451309204 0.023371666669845581
0.034854218363761902 -0.030796270817518234 0.141288504004478455 0.081773124635219574 -0.092389002442359924 0.096980966627597809 -0.059257984161376953 0.134236782789230347 0.077121742069721222 -0.097494930028915405 -0.018780281767249107 0.012022030539810658 -0.044594749808311462 -0.185413926839828491 -0.125151082873344421 -0.071363627910614014 -0.140759289264678955 0.347411483526229858 0.024811422452330589 0.169975623488426208 0.061804812401533127 -0.160075291991233826 -0.067128747701644897 -0.096671596169471741 -0.193556174635887146 0.139989629387855530 0.014772872440516949 -0.000926686741877347 0.176711469888687134 -0.045806217938661575 0.252435177564620972 0.161260575056076050 -0.030828299000859261 -0.041555155068635941 0.101568527519702911 0.153423666954040527 0.292318612337112427 0.154816180467605591 -0.081782124936580658 -0.171818956732749939 0.395490944385528564 0.133153006434440613 -0.142089173197746277 0.031032612547278404 0.049880363047122955 0.091882824897766113 -0.114236831665039062 0.110028862953186035 -0.076894953846931458 0.240716382861137390 -0.253588020801544189 0.171878874301910400 -0.081503160297870636 -0.031481970101594925 -0.090683206915855408 -0.156796991825103760 0.020044228062033653 0.334346830844879150 0.093673579394817352 0.062224674969911575 0.101248554885387421 -0.083321712911128998 -0.124882794916629791 0.002466025296598673 0.137970179319381714 0.041777558624744415 -0.037062920629978180 -0.209729090332984924 -0.034652031958103180 0.083005160093307495 0.130455881357192993 -0.028464071452617645 0.103609800338745117 0.261457145214080811 0.193355664610862732 0.001497118850238621 -0.017715247347950935 -0.335708349943161011 -0.046392567455768585 -0.113071374595165253 0.061288338154554367 0.072894148528575897 -0.021480780094861984 -0.053698115050792694 0.182326540350914001 -0.051088485866785049 0.087331064045429230 -0.147542655467987061 -0.200913384556770325 0.179787248373031616 -0.102334193885326385 0.071826145052909851 -0.029745575040578842 -0.025002012029290199 0.056202106177806854 -0.132186919450759888 0.095026187598705292 0.262359559535980225 0.430770665407180786 0.158596530556678772
-0.081745721399784088 -0.106114223599433899 0.195022970438003540 0.035467285662889481 -0.216664180159568787 0.031835820525884628 0.087995611131191254 0.058583918958902359 -0.380497992038726807 0.092154994606971741 -0.178336948156356812 0.112056203186511993 -0.096575342118740082 -0.106760971248149872 0.171915575861930847 0.095528841018676758 0.127501904964447021 -0.159416720271110535 -0.131021991372108459 -0.448529571294784546 -0.051796402782201767 -0.238052695989608765 -0.044529620558023453 -0.039158519357442856 -0.051031064242124557 0.181453511118888855 0.013091564178466797 -0.021672528237104416 -0.399656802415847778 -0.097078666090965271 0.066254399716854095 0.068685904145240784 -0.198253348469734192 -0.152194753289222717 -0.043342869728803635 -0.089588709175586700 -0.129420220851898193 -0.023611450567841530 -0.156457826495170593 -0.004483766853809357 -0.083290703594684601 0.088325604796409607 -0.009552177973091602 0.251972973346710205 0.092090718448162079 -0.055069368332624435 0.100908160209655762 -0.142709180712699890 -0.032508540898561478 0.153405472636222839 -0.178492993116378784 -0.032423246651887894 -0.095094084739685059 0.117005124688148499 -0.201395690441131592 0.080025471746921539 0.088337264955043793 -0.052251856774091721 -0.228939354419708252 0.063616536557674408 -0.120305843651294708 0.162670776247978210 -0.015934826806187630 -0.051949642598628998 -0.021544346585869789 0.266419082880020142 -0.161572948098182678 -0.017039448022842407 0.115794248878955841 -0.090988077223300934 0.106352694332599640 -0.035183396190404892 0.044118281453847885 0.154866248369216919 -0.073079712688922882 0.036362096667289734 0.084103010594844818 -0.151167109608650208 -0.288939893245697021 -0.178586527705192566 -0.254987657070159912 0.235285341739654541 -0.054756984114646912 -0.151062741875648499 -0.159872680902481079 0.008143775165081024 -0.152645289897918701 -0.056105632334947586 -0.032448533922433853 0.198284432291984558 -0.275899142026901245 0.268896102905273438 0.223627284169197083 0.022474847733974457 0.143780305981636047 -0.139124855399131775 -0.073815844953060150 0.202306061983108521 0.131131634116172791 -0.178221553564071655
0.044867321848869324 -0.127320364117622375 -0.021516878157854080 -0.044950019568204880 0.317695945501327515 0.345491558313369751 0.104797206819057465 -0.092185348272323608 0.298776805400848389 -0.005621671210974455 0.047752287238836288 -0.188872456550598145 -0.071314014494419098 -0.106767751276493073 0.037276867777109146 -0.103059343993663788 -0.034654874354600906 -0.141015961766242981 -0.179947942495346069 0.130357697606086731 -0.206934824585914612 -0.013865032233297825 0.091570280492305756 -0.070063054561614990 0.104329787194728851 -0.157951280474662781 -0.058257345110177994 -0.075611539185047150 0.148362010717391968 -0.112814575433731079 0.086019940674304962 -0.141525253653526306 -0.044002812355756760 -0.093655407428741455 -0.160860836505889893 -0.007180570624768734 0.144347786903381348 0.015968559309840202 -0.001887291553430259 0.082810759544372559 -0.072180606424808502 -0.074014611542224884 0.144240722060203552 -0.173829674720764160 0.054249919950962067 0.050588175654411316 -0.047080915421247482 0.144078209996223450 0.095853991806507111 0.138478621840476990 0.036627162247896194 0.020775962620973587 0.183525949716567993 0.063449367880821228 -0.050724681466817856 0.050579220056533813 -0.120764896273612976 -0.063301101326942444 0.098231829702854156 0.169239491224288940 0.108180560171604156 -0.366802573204040527 0.153094485402107239 -0.088338084518909454 0.005914631299674511 -0.224852561950683594 0.099327005445957184 0.134444460272789001 0.123152762651443481 0.077606037259101868 -0.046494305133819580 -0.106311500072479248 0.199471458792686462 0.189441338181495667 -0.078432455658912659 0.033041752874851227 -0.012719568796455860 -0.010160213336348534 0.232491806149482727 0.081572219729423523 -0.189782381057739258 -0.098113887012004852 0.090229772031307220 -0.126085728406906128 -0.038809861987829208 0.032510899007320404 0.170869156718254089 0.100532285869121552 0.180175945162773132 -0.101333878934383392 0.315973579883575439 -0.101183935999870300 -0.167812794446945190 -0.072170928120613098 -0.102503448724746704 -0.015256023034453392 -0.133907526731491089 0.026271758601069450 0.066800452768802643 0.042041994631290436
-0.118572041392326355 -0.028449324890971184 0.136248618364334106 0.102656736969947815 -0.036025069653987885 0.142618164420127869 0.054707419127225876 0.158088475465774536 -0.205239772796630859 0.224001690745353699 -0.144533142447471619 0.172234579920768738 0.379476070404052734 0.173877611756324768 0.272209256887435913 0.150431632995605469 0.059172950685024261 -0.046983435750007629 0.230190485715866089 0.024202495813369751 -0.068645559251308441 -0.043737560510635376 -0.023745747283101082 -0.108351483941078186 0.084506288170814514 0.225310310721397400 -0.107985578477382660 0.192903488874435425 0.034538064152002335 0.143950134515762329 -0.190155595541000366 -0.009159233421087265 0.009158377535641193 -0.079480223357677460 -0.119107306003570557 -0.102204963564872742 0.032727226614952087 -0.059237070381641388 0.003323692129924893 0.158472493290901184 -0.103681802749633789 0.127224698662757874 -0.152609527111053467 0.066484607756137848 0.047113116830587387 -0.018724108114838600 0.003461044514551759 -0.125889807939529419 0.103876605629920959 0.117366507649421692 0.145043581724166870 0.012574769556522369 -0.030378028750419617 -0.100103124976158142 -0.013548452407121658 0.196077346801757812 0.016460955142974854 -0.395365357398986816 -0.277887135744094849 0.116591379046440125 0.048511415719985962 0.042730469256639481 -0.027474639937281609 -0.046605281531810760 -0.186231404542922974 0.058681007474660873 0.083205528557300568 0.057037092745304108 0.034836668521165848 -0.096220739185810089 -0.201941668987274170 -0.114706240594387054 -0.148471996188163757 0.057851266115903854 0.076278299093246460 -0.052293185144662857 -0.013462772592902184 0.236571654677391052 -0.046505801379680634 0.166731029748916626 -0.139235198497772217 0.122757866978645325 0.137175619602203369 0.089842088520526886 0.026048500090837479 0.049177713692188263 -0.014350704848766327 0.076029494404792786 0.024784795939922333 0.049021352082490921 0.163772478699684143 0.167043834924697876 -0.212418720126152039 0.186110600829124451 0.015654373914003372 0.196000754833221436 0.004004618152976036 -0.148969292640686035 -0.282581478357315063 0.056182909756898880
-0.095634363591670990 0.127786010503768921 0.249039664864540100 -0.074272789061069489 -0.005778248421847820 0.080282978713512421 0.031371954828500748 -0.056681122630834579 0.150306627154350281 0.063689269125461578 -0.294552475214004517 0.067157357931137085 0.145402193069458008 -0.187338069081306458 0.070439472794532776 0.239831402897834778 -0.178853645920753479 -0.174838736653327942 -0.078560672700405121 -0.386591345071792603 -0.024834927171468735 0.041736945509910583 -0.031574182212352753 0.211459919810295105 -0.019097991287708282 -0.100813962519168854 -0.055897474288940430 -0.120245248079299927 -0.603499174118041992 -0.065157853066921234 -0.136270120739936829 -0.254847466945648193 0.010011805221438408 -0.000532280479092151 0.074877604842185974 -0.158371642231941223 -0.140680477023124695 -0.151949062943458557 -0.085331775248050690 0.242770403623580933 -0.374357819557189941 0.071222521364688873 -0.062508471310138702 -0.051597941666841507 -0.052399829030036926 0.121561571955680847 0.023866867646574974 -0.150509282946586609 0.169810295104980469 -0.014639949426054955 0.120122291147708893 -0.087894096970558167 -0.093124739825725555 0.028246408328413963 -0.070725962519645691 -0.064109176397323608 -0.027757123112678528 -0.203119426965713501 -0.154280155897140503 -0.050681263208389282 0.015029694885015488 -0.119105674326419830 -0.188132494688034058 0.244410783052444458 0.134982198476791382 -0.023476893082261086 -0.052512470632791519 0.177411288022994995 -0.029145067557692528 -0.306884944438934326 -0.267450332641601562 -0.109129287302494049 0.214083373546600342 -0.238148242235183716 0.045895103365182877 -0.110978774726390839 0.182613193988800049 0.230734556913375854 0.089378878474235535 0.041376389563083649 0.118569113314151764 0.051700845360755920 0.207611575722694397 -0.097024843096733093 -0.339652180671691895 -0.102418586611747742 0.094224698841571808 -0.103159099817276001 0.125576809048652649 0.250121563673019409 -0.110694155097007751 0.024787416681647301 -0.069974780082702637 -0.001797119737602770 0.160378754138946533 0.095273934304714203 0.226255267858505249 -0.058673352003097534 -0.214648693799972534 -0.065650276839733124
-0.113680779933929443 -0.059876736253499985 0.236995205283164978 -0.082122571766376495 0.165402516722679138 0.018125666305422783 0.194269880652427673 0.117005430161952972 -0.034475404769182205 0.174650385975837708 -0.645517647266387939 0.082911670207977295 0.228906780481338501 -0.177559480071067810 0.260212719440460205 0.049447461962699890 0.027472214773297310 -0.486454457044601440 0.083663672208786011 -0.117556013166904449 0.123731411993503571 0.134880959987640381 -0.068072371184825897 -0.137560397386550903 0.315178513526916504 0.150954797863960266 -0.102483041584491730 0.233295172452926636 -0.196845993399620056 0.066068075597286224 -0.329241722822189331 -0.268549323081970215 0.067679308354854584 0.019188895821571350 -0.051557295024394989 -0.204268127679824829 0.143407940864562988 0.009930748492479324 0.170574083924293518 0.093017145991325378 -0.289584636688232422 0.157477289438247681 -0.015100113116204739 0.076337523758411407 -0.016428520902991295 0.195482388138771057 -0.160186156630516052 -0.138991534709930420 -0.064111515879631042 -0.049879290163516998 -0.033377513289451599 -0.038880623877048492 -0.056178689002990723 -0.037154275923967361 -0.076181910932064056 -0.248823940753936768 0.160925522446632385 -0.067575171589851379 -0.121515318751335144 -0.121888525784015656 -0.156040564179420471 -0.221005111932754517 0.101227618753910065 -0.036578807979822159 0.091553457081317902 -0.090870872139930725 0.335432350635528564 -0.032074455171823502 0.209171339869499207 -0.226799249649047852 -0.038156744092702866 -0.146613568067550659 1.002940297126770020 -0.195635452866554260 0.005801321007311344 0.144064202904701233 -0.033473171293735504 0.056530989706516266 -0.027253828942775726 0.122417882084846497 0.057195205241441727 -0.111990414559841156 0.075571238994598389 0.255606740713119507 0.109943829476833344 -0.143118664622306824 0.116130881011486053 -0.113386742770671844 0.148322209715843201 0.178330391645431519 0.051801811903715134 -0.072589963674545288 -0.215063527226448059 -0.081087954342365265 -0.068746700882911682 0.019003892317414284 0.154150620102882385 -0.258575737476348877 -0.047557335346937180 -0.010459516197443008
-0.001144342240877450 -0.085259512066841125 0.069430693984031677 -0.004623940680176020 -0.025099111720919609 0.253764957189559937 -0.159145981073379517 -0.132352337241172791 0.174840584397315979 -0.196783348917961121 0.592772662639617920 -0.053891129791736603 -0.095271520316600800 -0.014598683454096317 -0.009113126434385777 -0.026342291384935379 0.064202979207038879 0.132760778069496155 -0.122643239796161652 0.054437134414911270 -0.029368210583925247 -0.105296686291694641 -0.060226071625947952 -0.214161023497581482 -0.084545716643333435 -0.100831106305122375 -0.304647147655487061 0.113501057028770447 0.151073932647705078 -0.142012923955917358 0.154748603701591492 0.011740159243345261 -0.024718996137380600 -0.062791734933853149 0.079086393117904663 -0.043735813349485397 0.408034890890121460 -0.060922540724277496 -0.161604493856430054 0.183026775717735291 0.267791390419006348 -0.064345695078372955 0.190441787242889404 -0.066067591309547424 0.179298475384712219 -0.276460528373718262 0.211394712328910828 0.148409038782119751 0.145856499671936035 -0.001180759631097317 -0.005196203943341970 0.008404564112424850 0.249166518449783325 -0.002415716182440519 0.102394573390483856 -0.105798818171024323 0.126084476709365845 -0.305962830781936646 0.001853460562415421 0.073634937405586243 0.122859917581081390 -0.243569165468215942 -0.054776776582002640 0.042484074831008911 0.068264082074165344 -0.253344029188156128 0.046655580401420593 -0.280959844589233398 -0.270042777061462402 0.000642297498416156 0.033733379095792770 -0.008954620920121670 -0.578195214271545410 0.016387982293963432 -0.350578427314758301 0.379463851451873779 -0.097814925014972687 -0.031562171876430511 0.135386109352111816 -0.201433926820755005 -0.185116976499557495 0.021566435694694519 0.083375424146652222 0.027347233146429062 -0.006024754606187344 0.027914572507143021 0.109569184482097626 0.028354797512292862 0.131762176752090454 -0.009272681549191475 0.097412392497062683 -0.061278071254491806 0.063923850655555725 -0.125038310885429382 -0.395765841007232666 -0.124200262129306793 -0.100244373083114624 0.102671496570110321 0.035103850066661835 -0.128490045666694641
0.169380635023117065 -0.168839514255523682 -0.112206786870956421 -0.028097046539187431 -0.151511430740356445 0.028005458414554596 -0.121926717460155487 -0.025185169652104378 0.131221085786819458 -0.057714704424142838 0.729508280754089355 0.213797122240066528 -0.021144304424524307 0.188346996903419495 0.042947355657815933 0.028070850297808647 0.019451502710580826 0.166370034217834473 -0.198967516422271729 0.270378321409225464 -0.055447015911340714 0.024149246513843536 0.115587756037712097 0.017498102039098740 -0.002649056492373347 -0.223349660634994507 -0.043952163308858871 -0.202183827757835388 0.515946745872497559 0.174758240580558777 0.210649937391281128 0.039846796542406082 0.070325702428817749 -0.061297193169593811 0.114749625325202942 -0.046054489910602570 0.083641827106475830 0.063927382230758667 0.004073985852301121 -0.229568243026733398 0.265522092580795288 -0.044964015483856201 -0.070125982165336609 0.139451891183853149 0.108834572136402130 -0.047613978385925293 -0.137917742133140564 0.344391793012619019 -0.160829827189445496 -0.185607194900512695 -0.008765072561800480 0.048105083405971527 -0.085846073925495148 0.097930267453193665 -0.015328472480177879 -0.037876814603805542 -0.119362398982048035 -0.096625752747058868 -0.175531283020973206 -0.040837403386831284 0.088563844561576843 0.228924304246902466 0.200704514980316162 -0.027278818190097809 0.159350007772445679 0.004776577930897474 -0.196961581707000732 -0.216590598225593567 -0.297879546880722046 0.229715675115585327 0.174253717064857483 0.180603578686714172 -0.704282104969024658 0.072279095649719238 -0.165489912033081055 0.058769334107637405 -0.090601176023483276 -0.031845729798078537 0.197151705622673035 -0.042307402938604355 -0.020985612645745277 0.098397381603717804 0.018102828413248062 -0.276649177074432373 0.143421202898025513 -0.044994074851274490 -0.051485504955053329 0.020283238962292671 -0.261465519666671753 -0.082519777119159698 0.194682300090789795 0.076007314026355743 0.178612634539604187 -0.091592721641063690 -0.193082347512245178 0.056662727147340775 0.115524612367153168 0.019810490310192108 0.168966144323348999 -0.013995634391903877
0.173484981060028076 -0.181597173213958740 -0.150960594415664673 0.036502752453088760 -0.004956343211233616 0.121300026774406433 0.055567193776369095 -0.088126316666603088 0.035206682980060577 -0.198270440101623535 0.129399389028549194 0.021780317649245262 0.139551028609275818 0.115680031478404999 0.062180750072002411 -0.237202480435371399 0.160623326897621155 0.211786061525344849 0.148882284760475159 -0.061163466423749924 0.131960347294807434 -0.125270485877990723 -0.365522503852844238 0.063278570771217346 0.003330741310492158 -0.016022205352783203 0.025100130587816238 0.198475375771522522 0.533480405807495117 0.249316856265068054 -0.010948021896183491 -0.111753992736339569 0.011957297101616859 -0.180314406752586365 -0.164465874433517456 0.056580431759357452 -0.177939176559448242 -0.219514369964599609 0.029380604624748230 -0.022931085899472237 0.016444932669401169 0.161490887403488159 -0.428937911987304688 -0.050458401441574097 -0.037276443094015121 0.074862897396087646 0.118121564388275146 0.251822948455810547 -0.265667051076889038 -0.018827700987458229 0.192875549197196960 0.145885467529296875 0.040951475501060486 -0.190589725971221924 0.048802591860294342 0.191591948270797729 -0.148957893252372742 -0.120723098516464233 -0.062310431152582169 0.096844807267189026 -0.100140750408172607 0.259304463863372803 -0.004451087675988674 -0.019598959013819695 0.026689732447266579 0.133778780698776245 0.143766224384307861 -0.082290053367614746 -0.172490492463111877 0.187007188796997070 0.065101698040962219 0.227360114455223083 -0.003147731302306056 0.243834748864173889 -0.063302949070930481 -0.040795102715492249 -0.357156544923782349 -0.022926921024918556 -0.075220517814159393 -0.007589425425976515 0.132168024778366089 0.164186686277389526 -0.024216815829277039 -0.159202337265014648 0.029001543298363686 0.162800773978233337 -0.033837895840406418 0.128394827246665955 0.087825782597064972 -0.238722190260887146 -0.146271347999572754 0.048161797225475311 -0.318558484315872192 0.010420962236821651 0.135974034667015076 -0.036239061504602432 0.174386486411094666 -0.089542858302593231 -0.133944392204284668 0.299004077911376953
-0.056806065142154694 -0.120673581957817078 -0.397283941507339478 0.034812577068805695 -0.036531619727611542 -0.069551087915897369 0.090135060250759125 -0.055946908891201019 -0.176578402519226074 0.287560343742370605 0.346277862787246704 -0.123021923005580902 -0.178552702069282532 -0.113067887723445892 0.014102063141763210 -0.153495937585830688 0.127714991569519043 0.159109801054000854 -0.079845547676086426 0.430423170328140259 0.120670825242996216 0.191002532839775085 0.023545864969491959 -0.068865247070789337 -0.173388913273811340 -0.141561061143875122 -0.087121836841106415 0.026189282536506653 0.407724171876907349 0.191573217511177063 -0.032914876937866211 0.086756333708763123 -0.059937927871942520 -0.094920948147773743 0.189434498548507690 0.251690298318862915 -0.260362178087234497 0.029304046183824539 0.109225526452064514 -0.188210964202880859 0.034478299319744110 0.060312043875455856 0.031295288354158401 -0.046230543404817581 -0.152814522385597229 0.119673721492290497 0.239088147878646851 0.019269105046987534 -0.175357908010482788 0.047711316496133804 -0.150358915328979492 0.167165383696556091 0.021972974762320518 0.167487069964408875 -0.139736786484718323 -0.139322310686111450 0.004499667324125767 0.020678918808698654 -0.092343762516975403 0.077299192547798157 0.072910323739051819 0.157689705491065979 0.177334576845169067 -0.249665483832359314 0.031908582895994186 0.096952155232429504 -0.275355368852615356 -0.258351534605026245 -0.015781605616211891 0.210725471377372742 0.073655985295772552 0.384519815444946289 -0.361392527818679810 0.137849628925323486 -0.217317178845405579 -0.125048473477363586 0.098593845963478088 -0.193583086133003235 0.099091537296772003 0.165627285838127136 0.051305782049894333 -0.045144662261009216 -0.030019018799066544 -0.280497729778289795 0.090254604816436768 -0.156410515308380127 0.135036334395408630 -0.025240307673811913 -0.128055483102798462 -0.157455056905746460 0.208483159542083740 0.174497216939926147 0.041946880519390106 0.105346664786338806 0.001166606671176851 -0.022490177303552628 -0.249512910842895508 -0.096601381897926331 0.221568703651428223 0.185850560665130615
-0.069140821695327759 0.164907440543174744 -0.045400734990835190 -0.072467327117919922 -0.179445698857307434 0.033048290759325027 -0.026051370427012444 0.138642102479934692 -0.128593206405639648 -0.061696212738752365 0.136452957987785339 0.162855789065361023 -0.159015849232673645 0.060109935700893402 0.205191150307655334 0.162945896387100220 -0.051878545433282852 -0.055700272321701050 0.076031178236007690 -0.156356155872344971 0.002828026888892055 -0.203511804342269897 -0.028920713812112808 0.037655480206012726 -0.031425531953573227 0.053102303296327591 0.240825250744819641 0.024711214005947113 -0.416029959917068481 0.113776542246341705 -0.040376104414463043 0.198527753353118896 -0.228954330086708069 -0.199818313121795654 -0.017193255946040154 -0.116065219044685364 -0.219621539115905762 -0.045681707561016083 -0.074103638529777527 -0.048068292438983917 -0.127898335456848145 -0.112649455666542053 -0.023657064884901047 0.076314009726047516 -0.035941425710916519 0.110676057636737823 0.033908668905496597 0.033474739640951157 -0.201648280024528503 -0.094800293445587158 0.140389576554298401 -0.066516607999801636 0.062018111348152161 -0.116985365748405457 -0.168293759226799011 0.239105269312858582 0.013254494406282902 0.072258800268173218 -0.186620742082595825 0.102127104997634888 -0.015449760481715202 0.137798845767974854 -0.151039630174636841 -0.051059398800134659 0.129202395677566528 0.115211933851242065 -0.152516812086105347 -0.000810618279501796 0.150584548711776733 -0.136938750743865967 -0.038182567805051804 -0.130034983158111572 0.137829154729843140 -0.026493666693568230 0.083984047174453735 -0.078653737902641296 -0.099762119352817535 0.138548418879508972 -0.119471073150634766 -0.033205602318048477 -0.153388947248458862 0.152930706739425659 0.122733511030673981 0.037930864840745926 -0.018276223912835121 0.311753630638122559 0.132446676492691040 -0.239054605364799500 -0.189628213644027710 0.056314654648303986 -0.071563377976417542 0.302678346633911133 0.010588018223643303 0.111745096743106842 0.101068384945392609 -0.115328915417194366 -0.022045131772756577 0.033400122076272964 0.123493500053882599 -0.085733190178871155
0.149126932024955750 0.005695265252143145 -0.292363464832305908 0.126498267054557800 -0.108697831630706787 0.035877093672752380 0.022444520145654678 -0.075114347040653229 -0.116689458489418030 -0.224633842706680298 0.501904964447021484 0.208463743329048157 0.034252129495143890 -0.002972800750285387 -0.201776534318923950 -0.216590464115142822 -0.008190159685909748 0.162602022290229797 -0.256839752197265625 0.127747267484664917 -0.055951677262783051 0.061776630580425262 0.051623411476612091 0.056220877915620804 -0.154384717345237732 -0.017036389559507370 -0.145342737436294556 -0.309322744607925415 0.269486367702484131 0.131059616804122925 0.068521268665790558 0.061730518937110901 -0.033224135637283325 -0.079426571726799011 0.175576582551002502 0.103483341634273529 -0.167758315801620483 0.096494257450103760 0.125519692897796631 -0.072664044797420502 0.020125972107052803 -0.143586486577987671 -0.175724238157272339 0.048245262354612350 0.061343260109424591 -0.076846785843372345 0.131627112627029419 0.286214470863342285 0.030091192573308945 0.057806819677352905 0.001816686824895442 0.123798280954360962 0.090272061526775360 -0.106570668518543243 0.071484103798866272 0.133560985326766968 -0.155512377619743347 0.135442122817039490 -0.046737007796764374 0.191957995295524597 -0.062419958412647247 0.211899891495704651 -0.024807937443256378 -0.042597297579050064 -0.035328540951013565 -0.090405143797397614 -0.382126510143280029 0.069507017731666565 -0.280945211648941040 0.174042284488677979 0.054878275841474533 0.001762163825333118 -0.388881236314773560 0.280296266078948975 -0.139946550130844116 0.172490432858467102 -0.081469617784023285 -0.004078093450516462 -0.059571284800767899 0.137159407138824463 -0.018443496897816658 0.134074613451957703 -0.164443865418434143 -0.039341107010841370 -0.056024193763732910 0.112588368356227875 0.094929508864879608 0.099199146032333374 -0.266858130693435669 0.054177433252334595 0.025959977880120277 -0.149913594126701355 0.354186266660690308 -0.055705413222312927 0.080028928816318512 -0.156440928578376770 -0.162432268261909485 0.123202256858348846 0.171476155519485474 0.229486301541328430
0.037600047886371613 -0.046619378030300140 -0.048083011060953140 -0.013226913288235664 -0.108840122818946838 -0.217249840497970581 0.111257664859294891 0.273404657840728760 0.023908250033855438 -0.066678896546363831 0.229723855853080750 0.273526459932327271 0.056012533605098724 0.273833811283111572 -0.002985138911753893 -0.021168816834688187 0.078147888183593750 -0.063325472176074982 -0.023240819573402405 -0.339469730854034424 -0.055332880467176437 -0.174124926328659058 0.037477090954780579 0.070695832371711731 -0.156885370612144470 -0.030169697478413582 0.277208089828491211 -0.121148817241191864 0.005265631712973118 -0.071436144411563873 -0.034401744604110718 -0.161853760480880737 -0.033043242990970612 -0.049386404454708099 -0.121034853160381317 -0.197546482086181641 -0.361473560333251953 -0.212600320577621460 0.020511575043201447 -0.024198370054364204 -0.095167219638824463 -0.100941672921180725 -0.077635258436203003 0.005404552444815636 -0.139682531356811523 0.123601481318473816 -0.077802412211894989 0.100976355373859406 -0.060278229415416718 -0.215920969843864441 -0.030378837138414383 -0.057415556162595749 0.019105821847915649 0.000445221870904788 -0.156695514917373657 0.125778034329414368 -0.042885437607765198 -0.048445247113704681 -0.195421591401100159 -0.101054482161998749 -0.189665108919143677 0.433307200670242310 -0.045499779284000397 0.061889450997114182 -0.025531629100441933 0.049838148057460785 -0.039601292461156845 -0.036825455725193024 -0.145852893590927124 0.255387514829635620 0.095116227865219116 -0.103343464434146881 -0.019953025504946709 0.101993761956691742 0.128666386008262634 -0.167927891016006470 -0.058005493134260178 -0.060967341065406799 0.008671803399920464 -0.050729550421237946 0.071838639676570892 -0.043045472353696823 0.174770280718803406 -0.116143286228179932 0.117004737257957458 0.014223082922399044 -0.138930797576904297 -0.016435638070106506 0.118499837815761566 -0.014323446899652481 -0.204027771949768066 0.092893272638320923 -0.089989766478538513 0.011842145584523678 -0.034176245331764221 0.035120975226163864 0.075571566820144653 -0.013145999982953072 -0.050005469471216202 0.194639503955841064
-0.131758600473403931 0.020125251263380051 0.111171603202819824 -0.099008157849311829 -0.218285903334617615 -0.142077624797821045 0.046870812773704529 0.176219597458839417 -0.155243620276451111 -0.170812398195266724 0.192895904183387756 0.344820857048034668 0.030301468446850777 0.181813850998878479 -0.063247717916965485 0.059415787458419800 -0.016908645629882812 -0.179759368300437927 0.141673415899276733 -0.157851248979568481 -0.121173612773418427 -0.061591763049364090 0.073154985904693604 0.107354111969470978 -0.027300253510475159 -0.145294457674026489 -0.033624276518821716 -0.129729717969894409 0.262606799602508545 0.163737654685974121 0.074934847652912140 -0.055870309472084045 0.001839457312598825 -0.210002273321151733 -0.115939117968082428 -0.132504954934120178 -0.452251285314559937 -0.022830687463283539 0.169857174158096313 -0.068094193935394287 -0.192472189664840698 0.141914874315261841 -0.108414277434349060 -0.138973563909530640 0.133389621973037720 -0.138274312019348145 -0.038836650550365448 -0.092953242361545563 -0.134399130940437317 -0.214532360434532166 0.104678459465503693 -0.164125353097915649 0.073427423834800720 0.064167201519012451 -0.049809541553258896 0.341997265815734863 0.052085075527429581 0.038970720022916794 -0.021721174940466881 0.020633926615118980 0.024737490341067314 0.568162441253662109 -0.080852292478084564 -0.024629786610603333 -0.082902520895004272 0.116647399961948395 0.020600510761141777 -0.065838165581226349 -0.127533629536628723 0.277129113674163818 0.185317173600196838 -0.033527981489896774 0.043899782001972198 -0.163553848862648010 -0.011270356364548206 -0.112397372722625732 -0.228766813874244690 0.024010904133319855 -0.030983366072177887 -0.015419039875268936 0.042354702949523926 0.174946188926696777 0.141595602035522461 -0.055573031306266785 -0.201225191354751587 0.310388028621673584 -0.143900245428085327 -0.233721688389778137 0.071788378059864044 -0.112650714814662933 -0.089498206973075867 0.030128028243780136 -0.319482147693634033 0.287015199661254883 0.159854203462600708 0.123807460069656372 0.204577863216400146 -0.001020329538732767 -0.020451856777071953 0.106666095554828644
-0.071673043072223663 0.157950133085250854 0.101845853030681610 -0.188230112195014954 -0.023091092705726624 -0.040883548557758331 -0.146184787154197693 -0.152451992034912109 -0.453784584999084473 -0.024001900106668472 -0.095411360263824463 0.219199314713478088 0.002457860158756375 0.184075117111206055 -0.036378700286149979 0.199090287089347839 0.271273791790008545 -0.156300261616706848 -0.156167924404144287 -0.620460569858551025 0.051667254418134689 -0.214524731040000916 -0.061943233013153076 0.218745514750480652 0.147948831319808960 0.143653675913810730 0.137182816863059998 -0.124457247555255890 -0.291777133941650391 0.014314782805740833 -0.120080240070819855 0.028417447581887245 -0.296842277050018311 -0.099217899143695831 0.030820060521364212 -0.099924840033054352 -0.268836438655853271 -0.103673927485942841 0.015010301023721695 -0.036321979016065598 0.063433788716793060 0.147801801562309265 0.161442399024963379 0.040508721023797989 -0.077196888625621796 -0.097525224089622498 0.120916165411472321 -0.137576237320899963 0.081791564822196960 -0.146205455064773560 0.114776179194450378 0.038207419216632843 -0.093714676797389984 -0.066405370831489563 -0.202431499958038330 0.189120531082153320 -0.021544538438320160 0.120891079306602478 -0.217863857746124268 0.089260064065456390 -0.007737460546195507 0.496489077806472778 -0.257474511861801147 -0.003477449994534254 0.039654385298490524 0.020545762032270432 -0.117667615413665771 -0.120991796255111694 0.130837991833686829 0.236812070012092590 0.021845052018761635 -0.258935660123825073 -0.018812444061040878 0.037746474146842957 0.115587823092937469 -0.125052183866500854 -0.133973628282546997 0.057685505598783493 -0.197724863886833191 -0.022787155583500862 -0.248057082295417786 0.095149688422679901 -0.118632376194000244 0.035455524921417236 0.051690276712179184 0.114947229623794556 -0.128840997815132141 -0.037365451455116272 -0.046657912433147430 -0.079486519098281860 -0.185826569795608521 0.173284202814102173 0.175931006669998169 0.357376962900161743 0.024466713890433311 0.001679514418356121 0.206982359290122986 -0.171250954270362854 0.116838142275810242 -0.102433666586875916
-0.150408640503883362 -0.102797076106071472 -0.050840776413679123 -0.027661707252264023 -0.025391312316060066 0.155700400471687317 -0.064048521220684052 0.189289078116416931 -0.000940130266826600 0.031778622418642044 -0.079058520495891571 0.097105987370014191 0.217309072613716125 0.056803837418556213 0.106253191828727722 0.014194261282682419 -0.192341938614845276 -0.193066343665122986 0.103273041546344757 0.091356575489044189 0.036603216081857681 0.252239823341369629 -0.025607813149690628 0.081928424537181854 -0.120922222733497620 0.176210314035415649 -0.123006358742713928 -0.034055080264806747 0.346126735210418701 0.066427439451217651 0.149112522602081299 -0.098688930273056030 0.168630734086036682 -0.218438029289245605 -0.148003384470939636 -0.159268260002136230 0.028730073943734169 0.039055455476045609 0.058871071785688400 -0.085517279803752899 -0.157650321722030640 -0.092644967138767242 -0.060627244412899017 -0.151573553681373596 -0.015126433223485947 -0.153011202812194824 -0.133656576275825500 0.136180773377418518 0.104209445416927338 -0.117581911385059357 -0.198934927582740784 0.034405536949634552 -0.149087116122245789 -0.054933041334152222 -0.063147410750389099 0.149631142616271973 0.166393116116523743 0.033674608916044235 0.160792246460914612 0.171903133392333984 -0.140404015779495239 -0.034237533807754517 -0.080403082072734833 -0.004169934429228306 0.238737240433692932 -0.339735716581344604 0.111192777752876282 0.003025791142135859 -0.063063077628612518 -0.140699028968811035 0.156485259532928467 -0.037945467978715897 -0.009757766500115395 -0.128363028168678284 0.001805457402952015 -0.035646952688694000 0.017149390652775764 0.008506729267537594 0.033666029572486877 -0.207926705479621887 0.237360000610351562 0.084282808005809784 -0.061153974384069443 -0.223643913865089417 -0.110912568867206573 0.022282041609287262 0.027313174679875374 0.102579735219478607 0.157647177577018738 -0.053529940545558929 0.044504299759864807 -0.092717491090297699 -0.220594733953475952 0.082435868680477142 0.020705293864011765 0.104286111891269684 -0.057824857532978058 -0.041400074958801270 -0.140708982944488525 0.148211896419525146
0.196373164653778076 0.125145331025123596 -0.075205065310001373 -0.017609957605600357 0.002688494743779302 -0.082535967230796814 0.057359583675861359 -0.142565980553627014 -0.088351368904113770 0.494790703058242798 -0.332091450691223145 -0.016383515670895576 0.257978439331054688 -0.041614621877670288 0.405886620283126831 0.097406029701232910 0.029563397169113159 -0.248074486851692200 0.419339537620544434 0.088704384863376617 0.122776925563812256 0.166879430413246155 -0.202753573656082153 -0.085299380123615265 0.178935110569000244 0.461282342672348022 0.183503240346908569 0.355190783739089966 0.431010305881500244 -0.023080879822373390 -0.000814397819340229 -0.274096846580505371 0.060463096946477890 -0.212299987673759460 0.149034142494201660 -0.276872575283050537 -0.098017871379852295 0.093307010829448700 0.060715995728969574 0.160691350698471069 0.117478355765342712 0.167049705982208252 -0.181555896997451782 -0.034799683839082718 -0.117376811802387238 0.171282917261123657 0.103258423507213593 0.009983709082007408 0.019015090540051460 -0.009916546754539013 0.144473254680633545 -0.187963858246803284 0.279232829809188843 0.034888606518507004 0.000801745860371739 0.025163106620311737 0.022510433569550514 -0.218871191143989563 -0.076376371085643768 -0.026049369946122169 -0.032792896032333374 -0.144700229167938232 -0.119269832968711853 -0.012069650925695896 -0.335699409246444702 -0.016930188983678818 0.393356353044509888 -0.185664519667625427 0.167774990200996399 0.151353448629379272 -0.031165553256869316 -0.022179489955306053 0.408555477857589722 0.037830188870429993 0.032091148197650909 -0.070749238133430481 0.019248260185122490 -0.063070632517337799 0.083437010645866394 0.052368152886629105 0.083309762179851532 -0.142186596989631653 0.163961559534072876 0.108687654137611389 -0.012605832889676094 -0.097866289317607880 -0.112017355859279633 0.015902316197752953 0.433928370475769043 -0.157005935907363892 0.100215107202529907 -0.199893072247505188 -0.466643214225769043 -0.249739021062850952 0.078238561749458313 0.079985380172729492 0.068357847630977631 -0.194127351045608521 -0.107810266315937042 -0.079479187726974487
0.036562252789735794 -0.132571056485176086 -0.068691916763782501 0.008187295868992805 0.095751829445362091 0.198436692357063293 -0.235245794057846069 -0.062935695052146912 -0.031070722267031670 -0.136059671640396118 0.229532673954963684 0.016201891005039215 -0.068318195641040802 -0.103656053543090820 -0.245514616370201111 0.012691617012023926 0.132156401872634888 -0.051861394196748734 -0.346240282058715820 0.302991926670074463 0.061760384589433670 0.016047893092036247 0.059609144926071167 -0.094921521842479706 -0.070118986070156097 -0.073497645556926727 -0.134791687130928040 -0.253312706947326660 0.169472858309745789 -0.158916532993316650 0.209900513291358948 0.059813015162944794 -0.031683702021837234 0.083998560905456543 0.191473796963691711 0.128517299890518188 -0.158262610435485840 0.019710473716259003 -0.198568254709243774 -0.184707403182983398 0.105482488870620728 -0.055055581033229828 0.132071539759635925 -0.010220908559858799 0.126169070601463318 -0.264470934867858887 0.327336311340332031 0.214871048927307129 0.071444615721702576 -0.093120418488979340 -0.078395701944828033 0.128575727343559265 0.228786736726760864 -0.079571217298507690 0.075438655912876129 0.173871546983718872 0.052654717117547989 -0.517972707748413086 -0.128927752375602722 -0.088284090161323547 0.182283312082290649 0.070598453283309937 0.017584914341568947 -0.239534497261047363 0.138296172022819519 -0.129129812121391296 -0.345006078481674194 -0.163432598114013672 0.030197557061910629 -0.011999759823083878 0.264977633953094482 0.069197341799736023 -0.340285927057266235 0.147572949528694153 -0.435677319765090942 0.099928714334964752 -0.095851786434650421 -0.203259184956550598 -0.111995421350002289 0.104954615235328674 -0.021183408796787262 0.153139054775238037 -0.172513753175735474 -0.099659122526645660 -0.041671600192785263 -0.171298429369926453 0.098774619400501251 -0.039783574640750885 -0.040258459746837616 -0.110780425369739532 0.209219217300415039 0.182366922497749329 0.210193872451782227 -0.089036434888839722 -0.097144164144992828 0.006564720533788204 -0.059573724865913391 0.227818563580513000 -0.291589885950088501 0.138131260871887207
0.202331796288490295 -0.227404266595840454 -0.217092022299766541 0.080607630312442780 0.016360731795430183 0.089599773287773132 -0.337847650051116943 -0.005670346785336733 0.076577626168727875 -0.098407007753849030 0.277407556772232056 0.108169160783290863 -0.268330454826354980 0.059965141117572784 -0.224832907319068909 -0.230369523167610168 0.173798918724060059 0.280237764120101929 -0.001967334421351552 0.226622670888900757 -0.035981222987174988 -0.121205337345600128 0.010165734216570854 -0.029283171519637108 -0.306460767984390259 -0.031271856278181076 0.020836286246776581 0.168335705995559692 0.137385725975036621 -0.072645574808120728 0.285184800624847412 0.350381046533584595 -0.002908284077420831 -0.074712857604026794 0.226283118128776550 0.020242130383849144 -0.310962527990341187 -0.070419102907180786 -0.133363306522369385 -0.152119338512420654 0.193706646561622620 -0.134884402155876160 -0.066443145275115967 -0.088082559406757355 -0.033561829477548599 -0.274669140577316284 0.581257462501525879 0.089961692690849304 0.015320593491196632 0.005428831093013287 -0.182011350989341736 0.014249208383262157 0.297444969415664673 -0.072108685970306396 -0.089146785438060760 0.034708067774772644 0.153664588928222656 -0.093146085739135742 -0.104729272425174713 -0.061950519680976868 -0.084734089672565460 0.022953057661652565 -0.113214477896690369 -0.172708541154861450 0.004249072633683681 0.028164815157651901 -0.272335767745971680 -0.311217039823532104 -0.110017620027065277 0.101327851414680481 0.052437745034694672 0.227221399545669556 -0.263096123933792114 0.157628744840621948 -0.515272200107574463 0.162063568830490112 -0.081760480999946594 -0.157158017158508301 0.103103816509246826 0.139761522412300110 -0.038323048502206802 0.203878819942474365 0.052984803915023804 -0.025000024586915970 0.072624996304512024 0.055339902639389038 -0.091593116521835327 -0.036451607942581177 0.045155160129070282 -0.087442062795162201 0.103748358786106110 0.017130527645349503 0.015239700675010681 -0.136377498507499695 -0.153946205973625183 -0.195194497704505920 -0.192560523748397827 0.253094673156738281 -0.038804713636636734 0.058412794023752213
0.001751277479343116 -0.088205128908157349 0.077764414250850677 -0.098764307796955109 0.203362956643104553 -0.019571593031287193 -0.088355205953121185 0.067772045731544495 0.057462070137262344 0.045729439705610275 -0.033584501594305038 -0.258374720811843872 -0.036888256669044495 -0.105171367526054382 -0.050503645092248917 0.091822221875190735 -0.139634221792221069 -0.046550840139389038 -0.083145596086978912 -0.154835179448127747 -0.065169431269168854 0.001300094183534384 0.082948207855224609 -0.029667776077985764 -0.032680828124284744 -0.107203453779220581 -0.053405333310365677 -0.035442590713500977 -0.300366938114166260 -0.021658267825841904 0.036192744970321655 -0.038935042917728424 0.038276258856058121 0.043738976120948792 0.246062725782394409 -0.086861558258533478 0.194874599575996399 0.104883261024951935 0.139885216951370239 0.047719534486532211 -0.127125620841979980 -0.141447737812995911 -0.086115106940269470 0.090370565652847290 0.235685303807258606 -0.101286649703979492 -0.005539350211620331 -0.017022356390953064 -0.107892215251922607 0.261436730623245239 0.085574820637702942 0.036915600299835205 -0.166801705956459045 0.041415918618440628 0.196477860212326050 -0.033712018281221390 -0.106921978294849396 -0.136811986565589905 0.195947602391242981 0.047752786427736282 0.030316654592752457 0.054202880710363388 0.019543142989277840 0.224357202649116516 -0.041400898247957230 0.136962205171585083 0.159545928239822388 0.131458237767219543 0.178522929549217224 -0.334018319845199585 0.143287405371665955 -0.076619505882263184 -0.086261861026287079 -0.040044639259576797 0.170729175209999084 0.061463907361030579 0.133254423737525940 -0.126887187361717224 0.031848553568124771 0.115006953477859497 -0.091120332479476929 0.162836313247680664 -0.135917574167251587 0.032449029386043549 -0.195428684353828430 -0.196228593587875366 -0.055969204753637314 -0.005654966458678246 -0.006718536373227835 0.163505613803863525 0.084294676780700684 0.046733383089303970 0.009769849479198456 -0.097215063869953156 -0.037175390869379044 -0.142913326621055603 0.040742892771959305 0.083298519253730774 -0.126864925026893616 -0.082415208220481873
-0.102035604417324066 0.071069434285163879 -0.145989224314689636 -0.054706145077943802 -0.056763090193271637 -0.082938663661479950 0.068114049732685089 -0.012771740555763245 -0.248172253370285034 -0.174077793955802917 -0.010371309705078602 0.249219417572021484 0.135274901986122131 0.182421132922172546 -0.053038991987705231 0.099568203091621399 -0.030300974845886230 0.103459209203720093 -0.103577792644500732 -0.235563591122627258 0.146200984716415405 0.009267440997064114 0.161376267671585083 0.082206070423126221 0.175743147730827332 -0.040731403976678848 0.016493078321218491 -0.109069049358367920 0.071822151541709900 0.092156358063220978 -0.043538499623537064 -0.006442867219448090 -0.079058520495891571 0.191632539033889771 -0.057628955692052841 -0.077045068144798279 -0.527869462966918945 0.141942426562309265 0.054023370146751404 0.112904295325279236 0.115704484283924103 -0.043106868863105774 -0.063148580491542816 0.217775553464889526 0.047354191541671753 -0.130025669932365417 -0.198790162801742554 -0.116267666220664978 -0.039217911660671234 -0.029717490077018738 0.022319471463561058 0.091014787554740906 0.096197508275508881 -0.011992603540420532 0.078619994223117828 -0.025134988129138947 0.046299241483211517 -0.077851712703704834 -0.169982299208641052 -0.025647182017564774 -0.105129696428775787 0.236995801329612732 -0.200564980506896973 -0.048852320760488510 -0.126453921198844910 0.097223505377769470 0.050942283123731613 0.267448395490646362 0.009600879624485970 0.141519382596015930 0.043326746672391891 0.054984621703624725 -0.160870462656021118 0.243092790246009827 0.068101800978183746 -0.000143320401548408 0.194384709000587463 -0.126469954848289490 0.077521942555904388 -0.157647311687469482 0.008656414225697517 -0.089547865092754364 0.112054832279682159 -0.097390457987785339 -0.052846550941467285 0.008391450159251690 0.069733038544654846 -0.240547358989715576 -0.168330013751983643 0.135669767856597900 -0.045253615826368332 0.187966644763946533 0.274009108543395996 0.133508220314979553 -0.026951732113957405 -0.179007738828659058 0.017219297587871552 0.204770505428314209 0.034155663102865219 -0.038117557764053345
-0.054457981139421463 0.027705857530236244 0.016250206157565117 -0.199172556400299072 -0.116559334099292755 -0.106276661157608032 -0.132522955536842346 0.160484835505485535 -0.087992399930953979 0.235100314021110535 0.073556832969188690 0.194811269640922546 -0.359728574752807617 0.294934362173080444 -0.126360133290290833 -0.010095859877765179 0.018412042409181595 -0.018680976703763008 -0.182432204484939575 0.023255264386534691 -0.013565050438046455 0.053087376058101654 -0.039718542248010635 0.478148937225341797 -0.362038403749465942 -0.066059000790119171 0.023393295705318451 0.085263088345527649 -0.335568845272064209 -0.029202023521065712 -0.013430969789624214 0.035805176943540573 -0.075862444937229156 0.140642955899238586 -0.037472005933523178 0.145234689116477966 -0.198063716292381287 -0.389656543731689453 -0.226606562733650208 0.013602513819932938 0.059088669717311859 -0.201142475008964539 0.054848354309797287 0.813379466533660889 -0.232253864407539368 -0.128433167934417725 -0.156650051474571228 -0.119253940880298615 0.090775445103645325 -0.005410333629697561 -0.204939246177673340 0.110006131231784821 0.058257106691598892 -0.096090830862522125 -0.075352467596530914 -0.081160709261894226 0.212109372019767761 0.237219095230102539 -0.162582486867904663 0.043759364634752274 -0.248580470681190491 0.156014829874038696 -0.049016837030649185 -0.120977111160755157 -0.034759234637022018 0.228014707565307617 -0.401806831359863281 0.071392454206943512 0.017195697873830795 -0.233194991946220398 -0.119350671768188477 -0.192079007625579834 0.169590175151824951 0.097351744771003723 -0.110824204981327057 -0.313063532114028931 0.118604317307472229 -0.211756438016891479 -0.221230387687683105 -0.079128727316856384 -0.122057050466537476 0.002490101149305701 0.121838591992855072 0.173352822661399841 0.010729049332439899 0.135095283389091492 -0.158608332276344299 -0.122609548270702362 -0.324880272150039673 0.067046888172626495 -0.113846294581890106 0.517087757587432861 0.359776794910430908 -0.084844045341014862 0.418544709682464600 -0.163116991519927979 0.167743310332298279 0.741994440555572510 -0.000459079805295914 -0.148955732583999634
0.033479139208793640 0.037811808288097382 -0.085161775350570679 0.035538837313652039 -0.169245868921279907 -0.031202862039208412 -0.019502285867929459 0.012378571555018425 -0.125843927264213562 0.128885895013809204 -0.021378055214881897 -0.004849095363169909 -0.565911650657653809 -0.050739858299493790 0.065324954688549042 0.126099422574043274 -0.124396026134490967 -0.128328308463096619 -0.281545937061309814 0.112668484449386597 -0.175525560975074768 -0.043083183467388153 0.554491043090820312 -0.129764690995216370 -0.048884723335504532 -0.060683749616146088 0.122568510472774506 -0.026197073981165886 0.008951787836849689 -0.437064141035079956 -0.124136932194232941 0.044023185968399048 -0.062183763831853867 0.269418925046920776 0.086008720099925995 0.153528690338134766 0.078214727342128754 -0.137608453631401062 -0.154264345765113831 0.221717849373817444 0.038826856762170792 -0.118131600320339203 0.321789085865020752 0.182837337255477905 -0.062877558171749115 0.133057460188865662 -0.064338497817516327 -0.013116618618369102 0.302193552255630493 -0.051220245659351349 -0.321821749210357666 0.031792420893907547 -0.046923838555812836 -0.196511372923851013 0.067435927689075470 0.181741192936897278 -0.146364688873291016 0.044428024441003799 -0.216168254613876343 0.130168557167053223 -0.056935776025056839 -0.290790468454360962 0.042295817285776138 0.015091652981936932 0.046854253858327866 -0.216767325997352600 -0.265906274318695068 0.244424805045127869 -0.078242301940917969 -0.020429551601409912 0.027194885537028313 0.062412340193986893 -0.154750168323516846 -0.156607002019882202 -0.084978058934211731 0.213699951767921448 0.237613230943679810 -0.086192212998867035 0.027748418971896172 0.111736901104450226 -0.091130495071411133 -0.090605631470680237 -0.094038687646389008 0.023420386016368866 -0.054130762815475464 0.004556746687740088 0.293829619884490967 0.082718670368194580 -0.179998561739921570 -0.009525756351649761 0.059124618768692017 0.090783312916755676 0.370853126049041748 -0.101491555571556091 0.074434325098991394 -0.074544355273246765 0.052388582378625870 -0.018187863752245903 0.213093787431716919 -0.187346994876861572
-0.205999493598937988 -0.123065948486328125 -0.070646263659000397 -0.126044794917106628 -0.029204882681369781 0.147131577134132385 0.015464376658201218 -0.156821563839912415 0.216086372733116150 0.167085900902748108 0.194303378462791443 0.012985832057893276 0.009597877040505409 -0.114701837301254272 0.115208454430103302 -0.110568977892398834 0.068192586302757263 0.081118814647197723 0.035533290356397629 0.046951521188020706 0.047541134059429169 -0.022583482787013054 0.174708768725395203 -0.172374382615089417 -0.036484636366367340 -0.129187017679214478 0.112676829099655151 0.210443809628486633 0.247462719678878784 -0.135835573077201843 -0.029398296028375626 -0.101637266576290131 -0.150339081883430481 0.006725659128278494 0.129802539944648743 0.052358679473400116 0.021365515887737274 0.024566156789660454 0.026586132124066353 0.117467217147350311 -0.000739262497518212 -0.036156654357910156 0.217475757002830505 0.068874746561050415 -0.028217660263180733 -0.003598231356590986 0.074698187410831451 -0.119925245642662048 -0.139864549040794373 -0.071315430104732513 -0.149550363421440125 -0.020827013999223709 -0.136963963508605957 0.153362780809402466 0.096416465938091278 -0.139400765299797058 0.054679345339536667 0.051382746547460556 -0.139797106385231018 -0.194205000996589661 0.132846146821975708 0.064228281378746033 0.183787822723388672 -0.090224564075469971 -0.029230300337076187 0.015529815107584000 0.054592631757259369 0.053999692201614380 -0.158303171396255493 -0.108132936060428619 0.044089868664741516 0.009320679120719433 -0.140867918729782104 0.187922731041908264 0.149578228592872620 0.342956274747848511 -0.084829710423946381 -0.034516010433435440 0.149277701973915100 -0.022253466770052910 0.079867236316204071 -0.143765732645988464 -0.128577485680580139 0.117091901600360870 0.123620547354221344 -0.157622456550598145 -0.099432490766048431 0.069028072059154510 0.102033592760562897 -0.116463035345077515 0.219423443078994751 -0.151163041591644287 -0.271115571260452271 -0.154202073812484741 -0.256239652633666992 0.159008368849754333 -0.038944095373153687 -0.195019200444221497 0.014341196045279503 0.032231412827968597
0.001305547542870045 -0.139527067542076111 -0.070427529513835907 0.183643668889999390 -0.155132815241813660 -0.185352325439453125 0.056359317153692245 -0.101907923817634583 -0.210376068949699402 -0.117245078086853027 0.214201867580413818 0.160563126206398010 -0.108128704130649567 0.166077435016632080 -0.018031105399131775 0.138114497065544128 0.160607188940048218 0.052180625498294830 -0.142304062843322754 -0.056724578142166138 -0.108093626797199249 0.040590919554233551 0.007608570624142885 -0.088667474687099457 -0.214467078447341919 -0.128097489476203918 -0.168532460927963257 -0.199901446700096130 -0.010860913433134556 -0.066307954490184784 -0.151658445596694946 0.272415012121200562 -0.000804199138656259 0.246992677450180054 0.068887539207935333 0.007224733475595713 0.041613038629293442 -0.179978907108306885 0.012709508650004864 -0.052215769886970520 0.133246198296546936 -0.244890525937080383 -0.067240066826343536 0.153160944581031799 0.082120858132839203 -0.206115052103996277 -0.011512595228850842 0.049074489623308182 -0.148906409740447998 -0.143973693251609802 -0.213286593556404114 0.033066932111978531 -0.154727339744567871 0.141831368207931519 0.046305391937494278 -0.037603143602609634 -0.142254695296287537 0.429816305637359619 0.046757858246564865 -0.070706412196159363 -0.110743977129459381 0.047494847327470779 -0.121646553277969360 0.215855717658996582 0.170064345002174377 -0.033486068248748779 0.056862991303205490 0.136498883366584778 0.029430974274873734 0.028238782659173012 0.140986576676368713 -0.177750602364540100 -0.180641368031501770 -0.030524281784892082 0.213117823004722595 -0.124714501202106476 0.235619366168975830 0.029374036937952042 -0.121519893407821655 -0.050185445696115494 0.015069509856402874 0.117466948926448822 0.126324817538261414 -0.020300041884183884 0.074892118573188782 -0.084542341530323029 -0.093889400362968445 0.027199186384677887 -0.111064977943897247 0.032828796654939651 -0.042526669800281525 0.075519606471061707 0.194065302610397339 0.180916950106620789 0.165911301970481873 -0.162619128823280334 0.046813681721687317 0.227031171321868896 0.176342248916625977 -0.127763926982879639
0.144064038991928101 -0.123820140957832336 0.129592493176460266 -0.225528702139854431 -0.238580942153930664 0.166308745741844177 -0.046074114739894867 0.246052384376525879 0.006925816647708416 -0.187782257795333862 0.072180584073066711 0.354850620031356812 -0.179977446794509888 0.112164884805679321 -0.109509803354740143 -0.193751692771911621 -0.023416178300976753 -0.053502567112445831 0.077663406729698181 -0.984939098358154297 0.175713226199150085 -0.076418735086917877 0.014539605006575584 0.174063637852668762 -0.085306592285633087 0.016036024317145348 0.302999049425125122 -0.030783209949731827 0.227987185120582581 0.040096819400787354 0.119404390454292297 0.119053423404693604 0.018437389284372330 0.134934857487678528 -0.036488551646471024 0.024897189810872078 -0.172040536999702454 -0.157061964273452759 0.036987643688917160 0.191117569804191589 -0.051069691777229309 0.096773669123649597 -0.020548462867736816 -0.135584697127342224 0.072851002216339111 -0.022520529106259346 -0.135172531008720398 0.148336797952651978 0.092999562621116638 -0.082414098083972931 -0.049353595823049545 0.022367132827639580 0.141553848981857300 0.012833613902330399 -0.009761811234056950 0.196672677993774414 0.056315854191780090 -0.136535286903381348 -0.062548197805881500 -0.227617844939231873 -0.059459842741489410 0.234352812170982361 0.015600926242768764 0.107189178466796875 -0.194392859935760498 0.102405942976474762 -0.193205311894416809 0.087754733860492706 -0.123650699853897095 0.306254476308822632 -0.124320022761821747 -0.112977162003517151 -0.157807141542434692 0.050879955291748047 -0.145117431879043579 0.199995756149291992 -0.354881942272186279 0.049349687993526459 -0.377400755882263184 0.025805443525314331 0.050248619168996811 0.170450434088706970 0.058948189020156860 0.023761289194226265 0.159875974059104919 0.155698090791702271 -0.295664876699447632 -0.178326621651649475 -0.010548260994255543 -0.069998249411582947 0.078872747719287872 0.031990457326173782 -0.223357304930686951 0.203466251492500305 0.006072365213185549 0.024561073631048203 0.000182013623998500 0.159547269344329834 0.051096163690090179 -0.106936879456043243
0.210946008563041687 0.021390076726675034 0.123041912913322449 -0.042810454964637756 0.047115199267864227 -0.196627095341682434 -0.045359738171100616 -0.068581052124500275 -0.371804773807525635 0.227877855300903320 -0.224182128906250000 0.187801316380500793 -0.155977055430412292 0.158778116106987000 -0.156828582286834717 -0.007784892804920673 0.204787194728851318 -0.009897687472403049 0.062280531972646713 -0.249911293387413025 -0.066368103027343750 -0.036818288266658783 0.026862837374210358 0.055810686200857162 0.078895628452301025 -0.013547517359256744 -0.066999018192291260 0.102195188403129578 -0.416495472192764282 -0.033888179808855057 -0.001827816944569349 -0.068731285631656647 0.048829786479473114 0.096382774412631989 0.146321281790733337 0.171466380357742310 0.007496008183807135 -0.135626450181007385 0.219952017068862915 0.093515716493129730 -0.045384332537651062 -0.018923034891486168 -0.188927695155143738 0.085760600864887238 0.155471384525299072 0.204108715057373047 0.004895805846899748 -0.174145698547363281 0.008410082198679447 -0.013733575120568275 0.128078490495681763 -0.145470067858695984 0.017783280462026596 -0.155591577291488647 0.002276505343616009 0.158186152577400208 0.015171215869486332 0.038380861282348633 0.060232184827327728 0.041071087121963501 -0.166557550430297852 0.187200248241424561 -0.082654692232608795 -0.021216450259089470 -0.184891685843467712 0.214569330215454102 0.136752679944038391 -0.081499196588993073 0.195925712585449219 -0.143220394849777222 -0.161000996828079224 -0.274897843599319458 0.133031606674194336 0.152585983276367188 -0.077210441231727600 -0.134501367807388306 -0.071029707789421082 -0.025482404977083206 0.153626874089241028 0.114781916141510010 -0.304819077253341675 0.295396000146865845 -0.107509754598140717 -0.114007979631423950 0.138964518904685974 -0.094036094844341278 0.008542725816369057 -0.228750705718994141 0.221380233764648438 0.170229673385620117 -0.177536994218826294 0.010354372672736645 0.301722198724746704 -0.031968820840120316 0.167585790157318115 0.174607381224632263 0.013994347304105759 -0.015028979629278183 0.015921836718916893 -0.388542205095291138
0.015724990516901016 -0.184757143259048462 -0.003007554449141026 0.174926996231079102 0.147726058959960938 0.314555197954177856 -0.090752929449081421 -0.075785517692565918 0.393745392560958862 0.053647018969058990 0.103566318750381470 -0.171370863914489746 -0.027279399335384369 0.074683181941509247 0.051196560263633728 -0.097127765417098999 -0.081509627401828766 0.086947523057460785 0.217906773090362549 0.477285265922546387 -0.169442787766456604 0.216271370649337769 0.091585054993629456 0.058431707322597504 -0.130201950669288635 0.097939692437648773 0.056419279426336288 0.064227707684040070 0.124889820814132690 0.141719505190849304 0.076195098459720612 0.139448046684265137 0.302975267171859741 0.139139562845230103 0.087794542312622070 -0.069799758493900299 -0.006556903943419456 0.034372225403785706 -0.022953612729907036 -0.069931633770465851 0.029263498261570930 0.163579851388931274 0.193485379219055176 -0.057570964097976685 -0.083216249942779541 0.101357161998748779 0.158447533845901489 -0.109203398227691650 0.123271778225898743 -0.067292131483554840 -0.040510799735784531 0.116532251238822937 -0.090495809912681580 0.173369184136390686 -0.070705138146877289 -0.139398664236068726 -0.185692712664604187 0.111477836966514587 0.145978629589080811 -0.049088604748249054 0.099888049066066742 -0.322193473577499390 0.139103248715400696 -0.172941863536834717 0.046090148389339447 -0.284245222806930542 0.046579867601394653 0.163522616028785706 -0.112730108201503754 -0.158593535423278809 0.102815367281436920 0.240302801132202148 0.016955032944679260 -0.148685917258262634 -0.101737797260284424 0.013758528046309948 0.152680352330207825 0.028693992644548416 0.123673930764198303 -0.192366302013397217 0.219485461711883545 -0.105724282562732697 0.077594950795173645 -0.056015633046627045 -0.033320181071758270 -0.151359796524047852 0.063570722937583923 0.016204187646508217 0.005084245000034571 0.033107202500104904 0.336933046579360962 -0.188993036746978760 -0.290923386812210083 -0.077236674726009369 0.017163366079330444 0.113850712776184082 0.021040912717580795 -0.157769605517387390 -0.108608312904834747 0.284415274858474731
0.124666385352611542 -0.133523315191268921 0.037569966167211533 -0.095981277525424957 0.031784988939762115 -0.115468040108680725 0.106110960245132446 0.106510698795318604 -0.011171602644026279 0.038349691778421402 -0.057022560387849808 0.286428838968276978 -0.048815656453371048 0.360896021127700806 0.019688649103045464 -0.065862916409969330 0.107470557093620300 0.124024219810962677 -0.155977174639701843 0.041054002940654755 -0.050575848668813705 0.099027715623378754 0.055747412145137787 -0.046463757753372192 -0.002674763556569815 -0.179313525557518005 0.043827027082443237 -0.118106827139854431 0.080352559685707092 0.148037776350975037 -0.110761888325214386 0.219048827886581421 0.063066087663173676 -0.212513774633407593 0.107178911566734314 0.109055876731872559 -0.776685833930969238 0.109411619603633881 0.110613867640495300 -0.054087836295366287 0.053290549665689468 0.168432295322418213 0.054913274943828583 0.188744395971298218 -0.096342064440250397 -0.139715895056724548 0.002378661651164293 0.010784400627017021 0.039485998451709747 0.036357142031192780 0.007231248077005148 0.108982510864734650 0.074038073420524597 -0.217422768473625183 -0.190010517835617065 0.210518568754196167 -0.082922495901584625 0.192848637700080872 -0.172421857714653015 0.214529395103454590 -0.090236358344554901 0.848976314067840576 -0.215676397085189819 -0.151292487978935242 -0.035317257046699524 0.168767660856246948 0.059185087680816650 -0.144351586699485779 -0.046896707266569138 0.195340394973754883 -0.068413980305194855 0.480225384235382080 -0.046344067901372910 -0.192983254790306091 0.055042915046215057 0.023645732551813126 -0.050008755177259445 -0.172999709844589233 0.100793488323688507 0.099862731993198395 0.053456127643585205 0.263253331184387207 -0.050524197518825531 0.087291345000267029 -0.046297594904899597 0.064985074102878571 0.084330484271049500 0.047614719718694687 -0.120576933026313782 0.056985914707183838 0.115977503359317780 0.109283886849880219 -0.214181095361709595 -0.008580110035836697 -0.071782723069190979 0.122663542628288269 -0.043934643268585205 0.079780831933021545 0.016713511198759079 -0.075892649590969086
-0.061389297246932983 0.169747471809387207 0.066102065145969391 -0.104791820049285889 0.009132042527198792 0.037029404193162918 0.039022441953420639 0.225098416209220886 0.078601777553558350 0.105068460106849670 -0.173435375094413757 0.132880017161369324 0.462070196866989136 0.204473733901977539 0.182663023471832275 -0.040005270391702652 0.191236928105354309 -0.083376385271549225 0.037024054676294327 0.225746378302574158 0.099998265504837036 0.062812499701976776 -0.225330308079719543 0.005208692513406277 -0.022125910967588425 -0.087262079119682312 0.038500897586345673 0.002291991142556071 0.108434043824672699 0.101121917366981506 -0.026871379464864731 -0.207328677177429199 0.087280817329883575 0.174363762140274048 -0.179578319191932678 -0.141433909535408020 0.082185849547386169 0.016723720356822014 -0.024880183860659599 -0.019084960222244263 -0.035420380532741547 0.161854952573776245 -0.347582876682281494 0.171395465731620789 -0.161569163203239441 0.130725115537643433 0.134239673614501953 0.031159866601228714 0.003648928366601467 -0.104112930595874786 0.046158887445926666 0.070026531815528870 -0.052566818892955780 0.056985307484865189 -0.156217604875564575 0.035620376467704773 -0.045413080602884293 -0.179631859064102173 -0.061560969799757004 -0.046410452574491501 0.135051101446151733 0.026187790557742119 -0.198992326855659485 0.024113668128848076 -0.204915791749954224 0.151021763682365417 -0.035202786326408386 -0.131822109222412109 0.026321612298488617 -0.129184827208518982 0.029874334111809731 0.059421904385089874 0.011222774162888527 0.173767581582069397 -0.155131652951240540 0.026925163343548775 -0.186032921075820923 0.191691145300865173 -0.112222358584403992 0.038675867021083832 0.001877421513199806 0.043999705463647842 0.110077187418937683 0.120710238814353943 -0.113457851111888885 0.114891149103641510 -0.085824020206928253 -0.043741509318351746 0.115928679704666138 -0.076366372406482697 -0.077278777956962585 -0.111754104495048523 -0.171098679304122925 0.146100401878356934 0.040102746337652206 0.122030243277549744 0.086567468941211700 -0.250426590442657471 0.071897707879543304 -0.025003591552376747
0.131034553050994873 -0.045558966696262360 -0.055372964590787888 0.146023005247116089 -0.151950493454933167 0.006814065854996443 -0.056138474494218826 0.089014820754528046 -0.013949469663202763 -0.102169349789619446 -0.144029855728149414 0.015896948054432869 0.209558129310607910 -0.152735203504562378 0.009831055998802185 0.030492994934320450 -0.071812011301517487 -0.064643651247024536 0.160663649439811707 -0.247712954878807068 -0.154336288571357727 -0.141737714409828186 -0.177085191011428833 -0.035156186670064926 0.076633736491203308 0.117521978914737701 0.144230842590332031 -0.028383653610944748 -0.221128702163696289 0.065835557878017426 0.150340408086776733 -0.099133819341659546 0.027662355452775955 -0.154098227620124817 -0.144329190254211426 0.063487425446510315 0.007902039214968681 0.029125034809112549 0.180276900529861450 0.128870666027069092 -0.264825075864791870 0.110990472137928009 -0.093787722289562225 0.013004747219383717 -0.037145178765058517 0.162132918834686279 -0.116516984999179840 -0.215373247861862183 -0.046235915273427963 -0.019765038043260574 0.107473008334636688 -0.182652071118354797 -0.154749870300292969 -0.194756984710693359 -0.068635068833827972 0.117180019617080688 0.186532601714134216 -0.003514975309371948 -0.034158501774072647 0.183422476053237915 -0.155439123511314392 0.105354070663452148 -0.202167019248008728 0.063571341335773468 -0.175571769475936890 0.121224418282508850 -0.012964830733835697 -0.002097163815051317 0.125847876071929932 -0.020280787721276283 -0.060711771249771118 0.103533640503883362 -0.147715061902999878 -0.109591744840145111 -0.216635376214981079 0.033284243196249008 0.075110524892807007 0.062092646956443787 -0.182071790099143982 -0.070710852742195129 -0.093365296721458435 0.073401913046836853 0.098291151225566864 0.073661312460899353 -0.213224500417709351 0.181815668940544128 0.000558375497348607 -0.079885706305503845 0.201392605900764465 0.122702367603778839 0.123190872371196747 0.115554012358188629 -0.119239374995231628 0.092126756906509399 -0.042001567780971527 -0.138946890830993652 -0.036331798881292343 -0.022662736475467682 -0.130863621830940247 0.082055374979972839
