#Layer 4 Biases:
-0.052273064851760864 0.104332819581031799 -0.030445272102952003 0.003591383574530482 -0.042364038527011871 -0.029569810256361961 0.015933012589812279 -0.028178663924336433 0.022393316030502319 -0.034244041889905930 -0.037055298686027527 -0.046695757657289505 0.148490130901336670 -0.016515752300620079 0.008736102841794491 -0.010483343154191971 -0.010652164928615093 0.018148038536310196 -0.010821658186614513 0.026681790128350258 -0.007493059616535902 -0.007609110325574875 0.032804697751998901 0.013051190413534641 -0.007320695556700230 -0.088107042014598846 -0.007674849126487970 0.004195186309516430 -0.015746403485536575 0.053159601986408234 -0.007759985513985157 0.000332012190483510 -0.024215539917349815 0.029037544503808022 -0.008657795377075672 -0.093269966542720795 -0.015603458508849144 0.072286143898963928 -0.018640957772731781 -0.017160760238766670 0.050680238753557205 -0.021911825984716415 -0.021999215707182884 0.011586782522499561 -0.035061966627836227 0.004095087759196758 -0.010562619194388390 0.024804312735795975 -0.034034304320812225 -0.012259013950824738 -0.022635692730545998 0.028560569509863853 0.034389141947031021 0.009200842119753361 -0.006652049254626036 -0.026750465855002403 0.000271204451564699 0.033015664666891098 0.003474117955192924 0.027739036828279495 0.032754436135292053 -0.006854706443846226 -0.027163548395037651 0.028332827612757683 -0.019487116485834122 -0.052201822400093079 -0.004961908794939518 0.005204697139561176 -0.022601755335927010 0.032021969556808472 -0.038695648312568665 0.075528077781200409 0.009224037639796734 -0.012651436030864716 -0.003958433400839567 0.018686205148696899 0.073733381927013397 -0.019019870087504387 0.006983397528529167 -0.064295694231987000 -0.012575157918035984 -0.019392648711800575 -0.022174958139657974 -0.035981144756078720 0.020332299172878265 -0.026304498314857483 0.036862619221210480 -0.014873522333800793 0.014406913891434669 0.056596495211124420 0.000694876769557595 0.010723182000219822 0.002517532790079713 0.013654507696628571 0.028043402358889580 -0.000452496926300228 -0.025744777172803879 0.004238276742398739 0.037950843572616577 0.035417143255472183
