#Layer 0 Biases:
-0.065559625625610352 -0.022184671834111214 -0.011206799186766148 -0.076967626810073853 0.027042513713240623 -0.024479502812027931 -0.067860923707485199 -0.017781645059585571 -0.012059420347213745 0.065259970724582672 0.069700703024864197 -0.069571793079376221 -0.046125665307044983 0.054863382130861282 0.079610317945480347 0.073543176054954529 0.068684466183185577 -0.039891123771667480 -0.008704056963324547 0.079994715750217438 -0.079158902168273926 -0.004368137102574110 -0.056035485118627548 0.102702744305133820 0.062573820352554321 0.031661368906497955 -0.065203428268432617 0.010439653880894184 -0.035524815320968628 -0.079210735857486725 -0.091755658388137817 -0.079409323632717133 -0.008492100983858109 -0.096620395779609680 0.065959520637989044 0.035469293594360352 -0.001969060627743602 -0.055466208606958389 0.088414326310157776 0.084001220762729645 0.043795701116323471 -0.089896798133850098 -0.061363708227872849 -0.066608667373657227 -0.068983055651187897 -0.081441596150398254 0.073434323072433472 -0.082534544169902802 0.073161214590072632 -0.076384432613849640 -0.034645270556211472 0.047586843371391296 -0.053261108696460724 -0.082062520086765289 0.097718417644500732 -0.028332490473985672 -0.046768013387918472 -0.015526384115219116 -0.074106059968471527 0.092070557177066803 0.010698460042476654 -0.056520972400903702 0.061421465128660202 0.024797573685646057 0.064659327268600464 0.078873455524444580 0.084232926368713379 0.010996555909514427 -0.026354679837822914 0.074926331639289856 -0.063975811004638672 -0.071796886622905731 -0.055650882422924042 0.093867577612400055 -0.045827206224203110 0.032598048448562622 0.072876498103141785 -0.030113322660326958 0.070191130042076111 -0.057036221027374268 0.103207074105739594 -0.068025626242160797 -0.024693265557289124 0.037453804165124893 -0.056979570537805557 0.003162960521876812 -0.065270259976387024 -0.075094297528266907 -0.031428549438714981 -0.091488286852836609 -0.004921981133520603 -0.083936490118503571 -0.064542613923549652 0.079016096889972687 -0.080793224275112152 -0.008986464701592922 0.055166579782962799 -0.060408849269151688 0.037038482725620270 -0.054211933165788651
