#Layer 7 Biases:
-0.018085697665810585 0.000967815227340907 -0.001425637630745769 0.030679751187562943 0.018964268267154694 0.003306516446173191 0.008875741623342037 0.010119453072547913 -0.012154029682278633 -0.000999659067019820 -0.021564129739999771 -0.012937656603753567 0.011869397014379501 0.006073510739952326 0.004245621617883444 0.005668296013027430 0.004338632803410292 0.015440586023032665 0.014153480529785156 0.014802134595811367 -0.030054559931159019 -0.003912927117198706 -0.000711466767825186 0.001448376919142902 -0.008163434453308582 -0.005267109721899033 -0.022068370133638382 -0.001975595718249679 0.010335952043533325 0.018555797636508942 -0.013419265858829021 0.017208153381943703 0.002215629909187555 0.024393400177359581 0.019738439470529556 -0.002454389585182071 -0.000669180823024362 -0.013252740725874901 0.000652493268717080 0.012476610019803047 -0.012724354863166809 -0.009541955776512623 -0.006951807998120785 -0.016161015257239342 -0.013508060947060585 0.027538133785128593 -0.016124954447150230 0.018723629415035248 -0.008901735767722130 0.024980906397104263 0.007289551198482513 -0.008877244777977467 0.010033414699137211 -0.017503064125776291 0.009275767020881176 -0.002210836159065366 -0.014995262958109379 0.002524736570194364 -0.019941125065088272 -0.002391948131844401 0.013885992579162121 0.003313786815851927 -0.002162029501050711 0.007404481992125511 -0.004390232264995575 -0.006038448307663202 0.013570440933108330 0.007572484202682972 0.011679295450448990 0.007141724228858948 0.002413452137261629 0.007050267420709133 -0.023773560300469398 -0.021834438666701317 -0.027389477938413620 -0.015687087550759315 0.011585798114538193 0.012146625667810440 -0.005069397855550051 -0.017857227474451065 -0.007488677278161049 0.012481199577450752 0.016326609998941422 0.012813651002943516 0.008723158389329910 -0.012238165363669395 -0.010918446816504002 -0.007280622143298388 0.033015128225088120 -0.022642357274889946 -0.000735803681891412 -0.025917630642652512 -0.006941865663975477 0.000180635062861256 0.018011247739195824 0.027017714455723763 -0.015276466496288776 0.011907801963388920 -0.001576862880028784 -0.009565879590809345
