#Layer 5 Biases:
-0.012740068137645721 -0.003280597738921642 0.005757921840995550 0.005046096630394459 -0.002942678518593311 0.000380303827114403 -0.019482074305415154 0.000467859848868102 -0.011319919489324093 -0.008092410862445831 0.013682616874575615 0.006431068293750286 0.013610277324914932 0.015430783852934837 0.003060057060793042 0.058998890221118927 0.017427114769816399 -0.019228484481573105 0.003378031775355339 0.025660527870059013 0.005557277239859104 0.052051279693841934 -0.011796443723142147 0.005410392303019762 0.127148255705833435 0.029902780428528786 -0.098654896020889282 -0.011586126871407032 -0.099755674600601196 0.006666999310255051 0.001723560155369341 0.034037254750728607 0.018902309238910675 -0.051768034696578979 0.002217278350144625 0.029879566282033920 -0.018356392160058022 0.008197316899895668 -0.002914600539952517 0.029404319822788239 0.050830729305744171 0.004454102367162704 -0.020624026656150818 0.013473886065185070 0.026530699804425240 0.011436545290052891 -0.010932813398540020 -0.033299230039119720 0.049491979181766510 -0.031300511211156845 -0.008704631589353085 -0.022874867543578148 -0.001297649228945374 0.001388911739923060 -0.128697410225868225 0.073547288775444031 -0.004532551858574152 0.016341233626008034 0.004996676463633776 0.022853044793009758 0.000317244936013594 0.004262702539563179 0.009643667377531528 0.017900122329592705 0.038793008774518967 0.008765390142798424 -0.022516546770930290 -0.068095780909061432 0.006837270688265562 -0.004498402588069439 0.027463974431157112 0.014414440840482712 0.037802591919898987 0.008297244086861610 -0.028050150722265244 -0.004653368145227432 0.045206878334283829 -0.023062797263264656 0.015043909661471844 0.008766870945692062 -0.030130017548799515 -0.005446771625429392 -0.015459677204489708 -0.034814670681953430 0.002454963745549321 -0.018089041113853455 0.024557827040553093 0.011846781708300114 0.017074899747967720 -0.006799512077122927 0.011845516040921211 -0.031397275626659393 -0.027093214914202690 0.002608318580314517 -0.014578463509678841 0.054296094924211502 0.008934548124670982 -0.008008550852537155 0.076408341526985168 -0.002004579873755574
