#Layer 1 Biases:
0.046853471547365189 0.025935092940926552 0.035906862467527390 -0.035777457058429718 0.061556406319141388 -0.036991454660892487 -0.001966318115592003 0.082383297383785248 0.045468688011169434 0.021312532946467400 -0.074190631508827209 0.063430793583393097 0.072141557931900024 0.019383510574698448 0.061162840574979782 -0.024459455162286758 0.067840933799743652 0.033767417073249817 -0.074672482907772064 0.066090472042560577 0.026002820581197739 0.088758632540702820 -0.015039883553981781 -0.033562887459993362 0.001005087164230645 0.035583741962909698 -0.059907507151365280 -0.021158633753657341 -0.020030615851283073 -0.018495896831154823 -0.003307501552626491 0.074445076286792755 0.055104266852140427 0.040663547813892365 0.051104035228490829 0.083164721727371216 -0.030443536117672920 0.055454425513744354 0.033481232821941376 -0.059288959950208664 -0.054058033972978592 0.015870502218604088 -0.040757913142442703 0.043203912675380707 0.053159143775701523 -0.069751754403114319 0.017643503844738007 -0.076246753334999084 0.053066100925207138 0.052470058202743530 -0.000288166949758306 0.021358003839850426 -0.078276321291923523 0.060046143829822540 -0.010562934912741184 0.008305254392325878 0.072781942784786224 -0.017366100102663040 0.040039844810962677 -0.071048662066459656 -0.055164877325296402 -0.057508714497089386 -0.055913187563419342 0.010637745261192322 0.016664505004882812 0.009585904888808727 0.030945291742682457 -0.017572123557329178 0.004812791477888823 -0.016736235469579697 -0.024701628834009171 -0.083344981074333191 -0.026986820623278618 -0.000708748470060527 -0.027494799345731735 0.023371728137135506 0.060377258807420731 0.055653236806392670 0.062265045940876007 0.013869347050786018 0.041220180690288544 -0.067179635167121887 0.081051632761955261 -0.039993025362491608 0.058503083884716034 0.043616574257612228 -0.004737421404570341 -0.048404160887002945 0.056867934763431549 -0.046888906508684158 -0.060705427080392838 -0.011815418489277363 0.040187381207942963 0.023926069959998131 -0.074632003903388977 0.112113043665885925 -0.045926690101623535 -0.031502876430749893 0.064288288354873657 -0.023197434842586517
