#Layer 2 Biases:
-0.095048204064369202 0.007505210116505623 0.040540374815464020 -0.025747967883944511 0.047722954303026199 -0.047759767621755600 0.054693102836608887 -0.053643684834241867 -0.022152708843350410 0.036181263625621796 0.046547595411539078 0.090563654899597168 -0.006857842206954956 0.051708240061998367 -0.095836363732814789 0.030922411009669304 0.000760004913900048 0.079625114798545837 0.085379749536514282 0.035644959658384323 -0.033401597291231155 0.075379177927970886 -0.028112692758440971 0.070893213152885437 0.057492788881063461 0.059097673743963242 0.047917798161506653 0.015872808173298836 0.041803788393735886 0.067377850413322449 -0.025253338739275932 -0.022745661437511444 -0.023752840235829353 -0.038111794739961624 -0.017695365473628044 -0.059037514030933380 -0.061264771968126297 0.059843238443136215 0.063719123601913452 -0.034414771944284439 0.030071116983890533 -0.031277175992727280 -0.029784763231873512 -0.042948026210069656 0.029452880844473839 -0.013813689351081848 0.044348075985908508 0.026379790157079697 -0.053763899952173233 -0.057466652244329453 -0.040005568414926529 -0.004547386895865202 0.000516256666742265 -0.066766262054443359 -0.023925717920064926 0.069389417767524719 0.056329268962144852 -0.057633075863122940 -0.078618414700031281 -0.079542271792888641 0.022215958684682846 -0.008717803284525871 0.046300321817398071 -0.011646769940853119 0.014454664662480354 0.081914357841014862 -0.067572362720966339 0.023601049557328224 -0.043610349297523499 -0.058001551777124405 0.101213082671165466 0.009928924031555653 -0.035300172865390778 -0.078721307218074799 -0.023250933736562729 0.056998495012521744 -0.051727853715419769 -0.058092761784791946 0.071763217449188232 0.043596677482128143 0.044792573899030685 -0.016366822645068169 0.078699417412281036 0.018246645107865334 -0.032235428690910339 -0.026205601170659065 0.074640929698944092 0.108767665922641754 -0.031571317464113235 0.067573428153991699 0.036661848425865173 -0.061287686228752136 0.066106066107749939 0.054134402424097061 -0.001198484795168042 -0.042335577309131622 0.024030700325965881 0.030092790722846985 0.045092545449733734 0.030712584033608437
