#Layer 6 Biases:
0.013502109795808792 -0.025898957625031471 -0.009426157921552658 0.019711688160896301 -0.025566989555954933 -0.001093468163162470 -0.003701510839164257 0.022047098726034164 -0.018419129773974419 0.019020272418856621 -0.015380806289613247 0.006581300403922796 0.023831972852349281 -0.004958095960319042 -0.006111172027885914 -0.026363592594861984 0.007146084681153297 0.021028149873018265 -0.003897727699950337 0.008030496537685394 -0.036910742521286011 0.017716161906719208 -0.021854626014828682 -0.017987385392189026 -0.010391037911176682 -0.024989163503050804 0.052864003926515579 0.029396371915936470 0.005127308890223503 -0.001590369734913111 -0.062866598367691040 -0.003315445501357317 0.007732739672064781 0.021445635706186295 0.017699440941214561 -0.054792117327451706 0.072911918163299561 0.000293658988084644 0.003119187895208597 -0.009225405752658844 0.034105945378541946 -0.008305843919515610 0.007179814856499434 0.001054281718097627 -0.013169254176318645 0.012356283143162727 -0.026047084480524063 -0.000428531959187239 -0.003447652794420719 0.015881063416600227 -0.000552772660739720 0.000729616382159293 0.038875985890626907 -0.007131893187761307 0.028611391782760620 0.013216618448495865 0.050270184874534607 0.038843877613544464 0.003997622523456812 -0.022516088560223579 0.015286025591194630 0.000099821496405639 0.012194533832371235 0.003481161547824740 -0.019484695047140121 0.003015375463292003 -0.000796946464106441 -0.042679946869611740 0.032978009432554245 -0.021424164995551109 0.017517045140266418 0.014375662431120872 -0.013995070010423660 -0.032466083765029907 0.005466827657073736 0.025444276630878448 -0.008029715158045292 0.105402350425720215 0.010190151631832123 -0.061287559568881989 0.004820299800485373 0.004710961598902941 -0.036424782127141953 -0.017772270366549492 0.018881263211369514 0.048709206283092499 0.000978061114437878 0.031778164207935333 0.016091033816337585 -0.008336115628480911 0.008791611529886723 0.001386321382597089 0.010769132524728775 0.002527712844312191 -0.023219693452119827 0.023606518283486366 0.062666937708854675 0.000825612980406731 0.005234309937804937 -0.015073314309120178
