#Layer 4 Weights:
-0.183523893356323242 0.170290619134902954 0.085355654358863831 0.058327283710241318 -0.007853754796087742 -0.098712652921676636 0.016079058870673180 0.055781587958335876 0.152765452861785889 -0.033245049417018890 -0.070665575563907623 0.143189609050750732 -0.044055305421352386 -0.044880323112010956 -0.151587769389152527 0.111480794847011566 0.124178521335124969 -0.203606471419334412 0.041876897215843201 -0.133465558290481567 -0.311268866062164307 -0.039014276117086411 -0.103486545383930206 0.106033846735954285 -0.022199252620339394 -0.100286036729812622 -0.059403445571660995 -0.090502500534057617 -0.178501442074775696 0.117391385138034821 0.012490572407841682 0.059069376438856125 -0.147128909826278687 -0.041322756558656693 -0.194431573152542114 0.184544503688812256 -0.112674973905086517 0.072437666356563568 -0.153319090604782104 -0.060034185647964478 -0.108792901039123535 -0.035875737667083740 -0.107562959194183350 -0.115426354110240936 -0.037326410412788391 -0.213455721735954285 0.091460235416889191 -0.031196888536214828 0.155070349574089050 0.104480899870395660 -0.087184555828571320 0.127091825008392334 -0.036889612674713135 0.204442247748374939 -0.082355082035064697 0.172842100262641907 0.100329123437404633 0.038672920316457748 0.158244371414184570 -0.121259957551956177 0.070269994437694550 -0.011274601332843304 0.050714720040559769 0.071881569921970367 -0.060984801501035690 -0.182223871350288391 -0.147490605711936951 0.161612898111343384 0.083330459892749786 0.076878234744071960 -0.059264738112688065 0.199943080544471741 -0.052020724862813950 0.059718638658523560 -0.121469870209693909 -0.186092510819435120 0.003748541232198477 0.015636751428246498 -0.068958520889282227 -0.030102482065558434 -0.021758096292614937 -0.076562233269214630 0.159336760640144348 0.114763863384723663 0.000826582836452872 -0.202137067914009094 -0.134549751877784729 -0.077239394187927246 -0.046954657882452011 -0.033723596483469009 -0.044438939541578293 0.032732829451560974 -0.181199952960014343 0.117866978049278259 -0.077984742820262909 -0.128507882356643677 0.030662322416901588 -0.004168190527707338 0.077240765094757080 -0.058739949017763138
-0.009911030530929565 -0.162522196769714355 -0.027798464521765709 -0.130692303180694580 0.153569236397743225 0.010328335687518120 -0.042505908757448196 0.006630492862313986 -0.040752276778221130 0.218942850828170776 0.023709716275334358 0.232328832149505615 -0.318778336048126221 -0.077357962727546692 -0.178463503718376160 0.129574447870254517 0.059103704988956451 -0.008702423423528671 0.154184907674789429 -0.019958144053816795 -0.145032748579978943 -0.017428567633032799 0.040628857910633087 0.094069533050060272 0.108874201774597168 0.217844098806381226 -0.133449479937553406 -0.017856087535619736 0.119902528822422028 -0.044858943670988083 0.111057609319686890 0.026319472119212151 -0.041095498949289322 -0.163718849420547485 -0.017731426283717155 0.109968714416027069 0.158377766609191895 -0.285782337188720703 0.071788564324378967 0.160861730575561523 0.046161685138940811 0.101132221519947052 0.025145323947072029 0.056174986064434052 0.096115551888942719 -0.159664526581764221 -0.101076096296310425 0.143549561500549316 -0.044104497879743576 0.111174203455448151 0.076894275844097137 -0.187810912728309631 -0.036452624946832657 0.024374028667807579 -0.140256136655807495 0.020919676870107651 0.098158456385135651 -0.017536532133817673 0.090489096939563751 0.100703701376914978 -0.209369510412216187 0.083508931100368500 0.007332048844546080 -0.191306591033935547 0.234070464968681335 0.013101433403789997 0.005393535830080509 0.151688784360885620 -0.142491906881332397 0.036584481596946716 0.293336957693099976 -0.398041129112243652 0.135097563266754150 -0.039106395095586777 0.064030833542346954 0.092361234128475189 -0.188934355974197388 -0.073665514588356018 0.059345390647649765 0.138777837157249451 0.047553692013025284 0.168251514434814453 0.123263947665691376 0.271749228239059448 -0.118223562836647034 0.201248124241828918 -0.010050728917121887 -0.032040558755397797 -0.008238937705755234 0.148760974407196045 -0.064338512718677521 -0.171535387635231018 -0.077757798135280609 0.049389366060495377 0.029670812189579010 -0.005407866556197405 0.104324758052825928 0.138273090124130249 -0.300595968961715698 -0.017988601699471474
0.162286981940269470 -0.053537599742412567 -0.053340438753366470 -0.014095588587224483 -0.083246812224388123 -0.151625931262969971 0.101326324045658112 -0.013992888852953911 -0.019412865862250328 -0.017777062952518463 -0.014057166874408722 0.097028188407421112 -0.225984141230583191 -0.039446741342544556 0.147785499691963196 -0.112432807683944702 -0.145258486270904541 0.179124042391777039 0.045918103307485580 -0.172361657023429871 0.400870770215988159 -0.026863098144531250 -0.204819723963737488 0.170800119638442993 0.152928337454795837 0.291521221399307251 -0.146674081683158875 -0.144636556506156921 0.098390683531761169 -0.164668753743171692 -0.204401448369026184 -0.042968399822711945 0.097351811826229095 0.158867359161376953 -0.006415287032723427 0.094637744128704071 0.127886429429054260 -0.143389493227005005 -0.160695478320121765 0.000750894541852176 -0.049885332584381104 -0.012848471291363239 -0.132107704877853394 -0.156722158193588257 0.218887761235237122 0.270952016115188599 0.034717984497547150 -0.065922766923904419 0.077703431248664856 -0.009548907168209553 0.086516335606575012 -0.180325597524642944 -0.046061959117650986 0.020834334194660187 0.030671402812004089 -0.172784358263015747 -0.179788395762443542 0.007176403421908617 0.193768173456192017 -0.038915224373340607 -0.091987982392311096 0.121446236968040466 -0.046449054032564163 -0.157636359333992004 0.056771840900182724 0.023270627483725548 -0.011023468337953091 0.129243522882461548 -0.021783666685223579 -0.136177062988281250 -0.039093531668186188 -0.028086706995964050 0.109299264848232269 -0.081365570425987244 -0.156835794448852539 -0.147785112261772156 0.147329702973365784 0.101425133645534515 -0.090998023748397827 0.006327004637569189 -0.038889732211828232 -0.025549322366714478 0.197935238480567932 0.154238283634185791 0.087119288742542267 0.090961709618568420 -0.038046929985284805 0.053887221962213516 0.114863477647304535 -0.191937178373336792 -0.132224977016448975 -0.136488676071166992 0.073402144014835358 0.224089026451110840 0.120032079517841339 -0.144341215491294861 -0.147550001740455627 0.169842317700386047 -0.067082852125167847 -0.094343334436416626
0.035766776651144028 -0.078629016876220703 0.095511317253112793 0.154500797390937805 -0.025885039940476418 0.079408660531044006 -0.089005887508392334 -0.012746771797537804 0.226016566157341003 0.128985300660133362 -0.176958978176116943 0.120266214013099670 0.098667465150356293 0.040742103010416031 0.049499038606882095 -0.112462915480136871 0.138699397444725037 0.017259629443287849 0.086831472814083099 -0.041385605931282043 -0.371579676866531372 0.071464896202087402 -0.034030970185995102 -0.136234238743782043 -0.146731778979301453 0.231371194124221802 -0.124808065593242645 0.107010960578918457 0.044734485447406769 0.172030061483383179 -0.059033330529928207 -0.002385965315625072 -0.000465229677502066 -0.170022517442703247 -0.089354999363422394 0.049766648560762405 -0.043346099555492401 0.067689500749111176 0.129739448428153992 -0.186895444989204407 0.017645370215177536 -0.081510044634342194 0.123923972249031067 -0.081961348652839661 0.146084547042846680 -0.128348454833030701 0.161100447177886963 -0.059810806065797806 -0.042627468705177307 -0.094102986156940460 -0.173359647393226624 0.124989971518516541 -0.059568062424659729 0.114809103310108185 -0.033988308161497116 -0.066671103239059448 0.174889057874679565 -0.102806441485881805 -0.285450756549835205 -0.176652967929840088 -0.095745451748371124 0.003385985968634486 -0.144681543111801147 0.116775766015052795 0.156400680541992188 -0.191579237580299377 0.095609545707702637 -0.070602059364318848 -0.006573483347892761 0.114629410207271576 -0.222670316696166992 0.126433849334716797 -0.023487130180001259 0.008338386192917824 -0.090771406888961792 -0.082281179726123810 -0.134450957179069519 0.049007695168256760 -0.019715230911970139 -0.150804802775382996 -0.049349173903465271 0.121206834912300110 -0.012538733892142773 0.089553192257881165 0.121237091720104218 -0.087380900979042053 -0.261059314012527466 0.132019817829132080 0.141354992985725403 0.025902839377522469 -0.019155913963913918 0.198982059955596924 -0.218685537576675415 -0.057700995355844498 -0.113098651170730591 -0.111475042998790741 -0.075446821749210358 -0.023975051939487457 0.084604702889919281 -0.165519639849662781
-0.263856828212738037 0.329946249723434448 -0.112073414027690887 -0.070499844849109650 -0.036320332437753677 0.079669252038002014 0.127379208803176880 -0.034639697521924973 -0.119586274027824402 0.025011327117681503 0.125303626060485840 -0.111114546656608582 0.276563793420791626 0.004995458293706179 0.173388808965682983 -0.106323242187500000 -0.131302163004875183 0.012773419730365276 0.060931157320737839 0.173873215913772583 0.105953238904476166 -0.156770974397659302 0.199654534459114075 0.062434710562229156 -0.013594476506114006 -0.096989229321479797 0.154985368251800537 0.017635816708207130 -0.113053351640701294 0.183640226721763611 -0.049684111028909683 -0.034084059298038483 0.122475683689117432 0.222428515553474426 0.001465096720494330 -0.211424052715301514 0.103148400783538818 0.248328134417533875 -0.081927306950092316 -0.176794826984405518 0.049461971968412399 0.141485333442687988 -0.032742407172918320 0.003732154844328761 -0.050150074064731598 0.071972839534282684 0.161833882331848145 -0.100995309650897980 0.028018923476338387 -0.089288942515850067 -0.118251182138919830 0.105435915291309357 -0.095870114862918854 0.144832611083984375 0.088143944740295410 -0.135058954358100891 -0.034211676567792892 -0.078508377075195312 -0.162585124373435974 -0.118299633264541626 0.090220138430595398 0.018455976620316505 0.116764947772026062 0.052742403000593185 -0.201329112052917480 -0.039773013442754745 -0.073523849248886108 0.138965427875518799 -0.170726373791694641 0.187784582376480103 -0.022110207006335258 0.146267533302307129 -0.050569653511047363 -0.001089608529582620 -0.154634207487106323 0.213066205382347107 -0.005351733416318893 -0.006716690957546234 0.093587830662727356 0.042886465787887573 -0.104194276034832001 -0.110839813947677612 -0.206110909581184387 -0.123968467116355896 0.126964032649993896 -0.025612443685531616 -0.017492778599262238 -0.059514947235584259 -0.025252917781472206 0.084747329354286194 -0.090715512633323669 -0.070920161902904510 0.097683846950531006 0.093233399093151093 0.220452919602394104 -0.097161978483200073 -0.139523342251777649 -0.004982121288776398 0.261330991983413696 -0.091487213969230652
-0.103454984724521637 -0.196043297648429871 -0.167886689305305481 0.099744111299514771 -0.139938488602638245 0.161492735147476196 0.046043153852224350 -0.140546604990959167 0.199402406811714172 -0.091587543487548828 -0.104290671646595001 -0.084840908646583557 -0.027763810008764267 0.134763836860656738 -0.096974991261959076 0.200087010860443115 0.172178655862808228 -0.155330896377563477 -0.165009275078773499 -0.027763480320572853 -0.122757554054260254 -0.032066885381937027 0.018825801089406013 -0.051408614963293076 -0.200444281101226807 -0.090817213058471680 0.163197010755538940 0.012953557074069977 0.100951626896858215 0.074691839516162872 0.026276653632521629 0.133865788578987122 0.095972776412963867 0.131232395768165588 -0.083855733275413513 -0.108789339661598206 -0.015008484013378620 -0.026574440300464630 -0.051473177969455719 0.007869672030210495 -0.183784633874893188 -0.119938768446445465 0.057210870087146759 -0.014077109284698963 0.062524184584617615 -0.100504502654075623 -0.167902022600173950 -0.034349646419286728 -0.051761452108621597 -0.047570697963237762 -0.143532499670982361 0.069004207849502563 -0.026193272322416306 -0.043416373431682587 -0.114351436495780945 0.092098824679851532 -0.063856296241283417 0.102275103330612183 0.017726087942719460 -0.161562085151672363 -0.167081728577613831 -0.095704771578311920 -0.157808348536491394 0.017092337831854820 -0.036207731813192368 0.037027943879365921 -0.068568430840969086 0.115686625242233276 0.065732777118682861 0.173007324337959290 0.012856521643698215 0.278229415416717529 -0.170953020453453064 -0.165316402912139893 0.140147700905799866 -0.156527400016784668 -0.021534161642193794 -0.167686358094215393 -0.053752321749925613 0.108080200850963593 0.124755591154098511 0.114419452846050262 0.093315839767456055 -0.106668852269649506 -0.034579284489154816 0.152127549052238464 0.054914630949497223 -0.014865078032016754 -0.067319773137569427 0.073701880872249603 -0.105574958026409149 0.006396692246198654 -0.259476333856582642 -0.234479188919067383 0.177397638559341431 0.110643029212951660 0.002586311893537641 0.096832953393459320 0.042712759226560593 0.011808746494352818
-0.059978034347295761 0.160904064774513245 -0.103050500154495239 -0.107346117496490479 -0.161542743444442749 -0.068160489201545715 0.115836568176746368 -0.061021991074085236 0.197208717465400696 -0.087456889450550079 -0.197191730141639709 0.002080652397125959 0.014925768598914146 -0.139101654291152954 -0.067599684000015259 0.126721337437629700 -0.164112344384193420 0.189365819096565247 -0.014031213708221912 0.099760457873344421 -0.221823051571846008 -0.177904099225997925 0.103385977447032928 0.034787293523550034 0.114527866244316101 -0.153971090912818909 -0.069814726710319519 -0.073153123259544373 -0.105680681765079498 0.129910573363304138 0.002083845669403672 -0.051953129470348358 0.038154419511556625 0.213820740580558777 -0.085170373320579529 -0.114686548709869385 -0.129586085677146912 0.097998537123203278 -0.078361645340919495 -0.059382747858762741 0.150584042072296143 -0.025327906012535095 -0.173570230603218079 0.192510560154914856 0.103837020695209503 0.130824476480484009 -0.127189844846725464 0.115112483501434326 0.076695345342159271 -0.036975406110286713 0.123604029417037964 0.185029238462448120 0.174158215522766113 -0.110330633819103241 0.053464647382497787 -0.109002627432346344 -0.087913602590560913 0.138497769832611084 -0.032375428825616837 -0.154464900493621826 0.049859713762998581 0.181413829326629639 0.036483649164438248 0.242094114422798157 -0.140841245651245117 -0.152728289365768433 0.035158306360244751 -0.074596270918846130 0.076890893280506134 -0.058615438640117645 0.057776760309934616 0.348024994134902954 -0.033647343516349792 -0.087696470320224762 -0.084121450781822205 0.088405244052410126 -0.008664454333484173 0.060514681041240692 -0.136755481362342834 -0.187468424439430237 -0.126184001564979553 0.036153540015220642 -0.028188141062855721 0.067997477948665619 0.094854593276977539 -0.010749721899628639 0.156324058771133423 0.013496458530426025 0.097816675901412964 0.176894530653953552 0.013872351497411728 0.164172440767288208 -0.185470208525657654 0.043900009244680405 0.032222103327512741 0.038475487381219864 0.053427133709192276 -0.129304870963096619 0.282500237226486206 -0.137845814228057861
-0.196411490440368652 0.076606132090091705 0.043794099241495132 0.160588681697845459 -0.125265747308731079 0.170383110642433167 -0.157256782054901123 -0.075848996639251709 0.149891063570976257 -0.078391835093498230 0.066576525568962097 0.024647053331136703 0.029429020360112190 -0.112795770168304443 -0.118153132498264313 -0.009103411808609962 -0.072717241942882538 -0.048668183386325836 0.058417800813913345 -0.005146166309714317 0.025212876498699188 -0.108075678348541260 -0.036562278866767883 -0.055212378501892090 0.071330592036247253 -0.052064403891563416 -0.082791402935981750 0.050850450992584229 -0.006059631705284119 -0.042895600199699402 -0.161188825964927673 -0.033750850707292557 0.078126102685928345 0.191768139600753784 -0.170154467225074768 -0.018196029588580132 0.073525264859199524 -0.086537666618824005 0.176720783114433289 0.054068468511104584 0.197029918432235718 -0.012921289540827274 -0.095186360180377960 -0.048661280423402786 -0.044213809072971344 -0.129143238067626953 0.016421712934970856 0.126959070563316345 -0.121595390141010284 -0.069373898208141327 0.051347415894269943 -0.033818714320659637 -0.118525348603725433 0.122570164501667023 -0.095196291804313660 0.031176658347249031 -0.031206872314214706 -0.129458859562873840 0.025638880208134651 -0.138985142111778259 0.146695673465728760 -0.131918251514434814 0.134123772382736206 0.101296648383140564 -0.130028262734413147 -0.117008008062839508 -0.093737788498401642 0.093031451106071472 -0.166658818721771240 0.012319979257881641 -0.104609042406082153 0.232218280434608459 0.024193000048398972 0.171570912003517151 -0.092164993286132812 -0.005370362661778927 0.009306072257459164 -0.018451977521181107 -0.148665726184844971 -0.134313046932220459 -0.043693613260984421 -0.001728227362036705 -0.079321309924125671 0.060402464121580124 -0.043786641210317612 0.085641287267208099 0.082316204905509949 -0.171297103166580200 0.138536334037780762 -0.088511317968368530 -0.020295556634664536 0.046631835401058197 -0.040655516088008881 0.085741907358169556 0.074372470378875732 0.162812858819961548 0.005623217672109604 -0.004807579331099987 0.038845449686050415 0.096307575702667236
0.120594777166843414 0.115441225469112396 0.122652389109134674 -0.064708456397056580 0.228247448801994324 -0.000456931884400547 -0.120294742286205292 -0.058499000966548920 0.127790421247482300 -0.012913016602396965 -0.093267925083637238 0.217359840869903564 0.079286836087703705 0.001963158138096333 -0.100481733679771423 -0.093561604619026184 0.111061878502368927 0.125761047005653381 0.101462192833423615 0.042079389095306396 0.143606156110763550 -0.023294020444154739 -0.025298396125435829 -0.172243252396583557 0.088149666786193848 -0.173675596714019775 0.113570623099803925 0.139707729220390320 0.022769343107938766 -0.167943447828292847 -0.110554568469524384 0.053548157215118408 0.253400444984436035 0.058912519365549088 0.180831804871559143 -0.136359483003616333 0.190337613224983215 0.132631137967109680 0.034060221165418625 0.029882991686463356 0.048092570155858994 -0.077444165945053101 -0.018722295761108398 -0.135527044534683228 -0.066348657011985779 -0.046245332807302475 -0.083834327757358551 -0.128103584051132202 -0.116420425474643707 -0.081458024680614471 -0.159188747406005859 -0.080890320241451263 0.023463726043701172 -0.001286354148760438 -0.022561948746442795 -0.136877149343490601 0.048576340079307556 -0.003421518253162503 -0.054489862173795700 0.008148217573761940 0.019411999732255936 -0.134765461087226868 -0.020521072670817375 -0.174445584416389465 0.134020850062370300 0.159549802541732788 0.038308069109916687 0.090835042297840118 0.058983765542507172 0.069215543568134308 0.261823296546936035 -0.366547435522079468 0.053854983299970627 -0.129769802093505859 -0.034436780959367752 -0.104530565440654755 0.071203492581844330 0.083760380744934082 -0.101460978388786316 0.028030868619680405 0.005059060640633106 0.093604616820812225 -0.120361842215061188 0.084226623177528381 0.136356741189956665 -0.068898342549800873 -0.138019964098930359 -0.047725830227136612 -0.123911224305629730 0.011544335633516312 -0.170829713344573975 -0.074930444359779358 0.022208020091056824 0.160825103521347046 -0.166709899902343750 0.022581350058317184 -0.051068942993879318 -0.054571114480495453 -0.337203800678253174 0.132760107517242432
-0.054874368011951447 0.007937594316899776 -0.112796373665332794 -0.080131374299526215 0.112096555531024933 -0.030900347977876663 -0.094726443290710449 -0.139599576592445374 -0.065075591206550598 0.026311131194233894 0.027777835726737976 0.101115636527538300 -0.133112132549285889 0.038170784711837769 -0.121504917740821838 -0.157005518674850464 -0.122908063232898712 0.109300114214420319 0.188733488321304321 -0.040320135653018951 -0.032542429864406586 -0.130993276834487915 -0.164091676473617554 0.120861992239952087 0.172249466180801392 -0.025795420631766319 0.091299094259738922 -0.189038470387458801 -0.098720729351043701 -0.132168263196945190 -0.000002798017476380 -0.104500412940979004 -0.009154826402664185 0.015747325494885445 0.173626512289047241 -0.089726842939853668 0.096473067998886108 0.001356245484203100 0.085333257913589478 0.048392865806818008 -0.045452114194631577 -0.005115697160363197 0.108273617923259735 -0.002613614080473781 0.112366728484630585 -0.010689116083085537 -0.173916235566139221 0.057196583598852158 0.115989714860916138 -0.088143572211265564 -0.131118312478065491 0.166870400309562683 0.037040535360574722 0.134695768356323242 0.084869444370269775 -0.106201462447643280 -0.198521897196769714 0.010261486284434795 -0.011837797239422798 0.193048700690269470 0.088580287992954254 0.131365686655044556 -0.111273132264614105 -0.078540802001953125 0.028728162869811058 0.168141007423400879 -0.181237816810607910 0.047299101948738098 0.176111578941345215 -0.102744713425636292 0.034244440495967865 -0.173191249370574951 0.075354568660259247 0.193960517644882202 -0.100998967885971069 0.183425173163414001 0.220896214246749878 -0.026793139055371284 -0.026983739808201790 -0.141578942537307739 -0.010763659141957760 0.070888794958591461 0.060211516916751862 0.007633063942193985 0.119714230298995972 0.150306880474090576 -0.035377442836761475 0.074723765254020691 -0.173934772610664368 -0.152254015207290649 0.188992813229560852 0.139473915100097656 0.253757774829864502 0.099172435700893402 0.045658349990844727 -0.121334470808506012 -0.086906597018241882 0.114186190068721771 0.102381750941276550 0.099260069429874420
-0.053002946078777313 -0.017191095277667046 -0.021228106692433357 -0.068957850337028503 -0.014100671745836735 0.142773747444152832 -0.058111347258090973 -0.060620799660682678 0.121138475835323334 0.057206444442272186 -0.029852120205760002 0.082713469862937927 0.065231651067733765 -0.023832958191633224 0.143256172537803650 -0.077011130750179291 0.068627327680587769 -0.212829932570457458 -0.154948011040687561 -0.232305377721786499 0.316616356372833252 -0.007108018733561039 0.136103644967079163 0.081419974565505981 -0.141640082001686096 -0.071032889187335968 0.307508081197738647 -0.203001305460929871 0.102333381772041321 -0.103253878653049469 0.105989173054695129 0.102730318903923035 0.010351036675274372 0.168874725699424744 -0.069768212735652924 -0.152578875422477722 0.037651449441909790 -0.088807553052902222 -0.012045430019497871 -0.267769098281860352 -0.099536366760730743 -0.176410183310508728 0.017431709915399551 0.253156572580337524 -0.154961854219436646 0.185906082391738892 -0.283496648073196411 -0.084706030786037445 -0.061164371669292450 -0.051247872412204742 -0.069378420710563660 -0.049602299928665161 0.072361484169960022 -0.051408614963293076 0.088941305875778198 -0.140180304646492004 0.151138052344322205 -0.091632343828678131 -0.181558936834335327 0.035645760595798492 -0.084170684218406677 -0.017313681542873383 -0.180090099573135376 -0.171570956707000732 0.073323518037796021 -0.060896381735801697 -0.079727508127689362 -0.037848528474569321 -0.062864392995834351 -0.016716791316866875 -0.099147945642471313 0.142109379172325134 -0.013429734855890274 0.166477322578430176 -0.097430050373077393 -0.018911631777882576 0.043314930051565170 0.158121988177299500 0.080153383314609528 0.059665538370609283 0.127058625221252441 -0.000842679990455508 0.150725811719894409 -0.019635388627648354 0.170036941766738892 0.333688318729400635 0.269925266504287720 0.078830778598785400 -0.097671233117580414 0.033894389867782593 -0.018215203657746315 -0.128390729427337646 -0.315563440322875977 -0.031200733035802841 0.030672097578644753 -0.135596841573715210 -0.063574858009815216 0.198253244161605835 0.122417397797107697 0.192706316709518433
0.149283543229103088 0.312312960624694824 -0.162227332592010498 0.118767909705638885 -0.138452753424644470 0.048701107501983643 -0.095427177846431732 -0.252577334642410278 0.057069581001996994 0.000361910584615543 -0.135991632938385010 -0.155959784984588623 0.017161976546049118 -0.052877407521009445 -0.139153927564620972 -0.109333515167236328 -0.078608177602291107 -0.015835028141736984 0.124655932188034058 0.058015517890453339 -0.037755977362394333 0.039221175014972687 0.014636888168752193 0.162241742014884949 0.053177494555711746 -0.059301711618900299 0.204821005463600159 -0.067593246698379517 0.016323314979672432 0.106658622622489929 0.170051351189613342 0.060523875057697296 0.040978498756885529 0.022382056340575218 0.078236527740955353 0.051041547209024429 -0.150128662586212158 0.115747824311256409 0.107610978186130524 -0.000162321375682950 0.075558058917522430 0.006982333026826382 -0.127879053354263306 0.049565579742193222 -0.007298754993826151 0.027645869180560112 0.171853080391883850 0.240604788064956665 0.070440709590911865 0.149189069867134094 0.014713986776769161 0.208549767732620239 0.081551551818847656 0.024964626878499985 0.189353674650192261 0.118821173906326294 0.133179157972335815 0.032891061156988144 0.021719837561249733 -0.084275633096694946 -0.071915559470653534 -0.171904742717742920 0.005011298228055239 0.061262864619493484 -0.190699279308319092 0.069916330277919769 0.054585956037044525 0.213513642549514771 -0.067224510014057159 0.024167228490114212 -0.159645631909370422 0.319637924432754517 0.150405108928680420 0.101498618721961975 -0.010743304155766964 0.234800204634666443 0.466212391853332520 -0.072150684893131256 0.146224528551101685 0.000987006467767060 0.095242954790592194 -0.039593350142240524 -0.283321917057037354 -0.148750618100166321 0.072209633886814117 0.160447746515274048 0.098350867629051208 -0.177152842283248901 -0.043503250926733017 -0.040122780948877335 0.114333219826221466 -0.139458909630775452 -0.194510310888290405 0.023652911186218262 0.141880676150321960 -0.031704545021057129 -0.206888765096664429 -0.177965730428695679 -0.002932283328846097 0.228992223739624023
0.078709319233894348 -0.000723967503290623 0.055696256458759308 0.115079112350940704 0.034477673470973969 -0.011954352259635925 -0.068667970597743988 -0.017298433929681778 0.179787412285804749 0.012255359441041946 -0.093782939016819000 0.048283003270626068 0.213605597615242004 -0.016579741612076759 -0.080882757902145386 -0.121864102780818939 -0.079854637384414673 -0.109818413853645325 0.061838578432798386 0.020811915397644043 -0.205161586403846741 -0.176218166947364807 -0.131912514567375183 0.137312158942222595 0.022704992443323135 -0.064631447196006775 -0.136224925518035889 0.120101071894168854 0.110535904765129089 -0.174334868788719177 -0.074574023485183716 -0.070274800062179565 -0.092724367976188660 0.094370305538177490 -0.076398804783821106 -0.152888223528862000 0.101342514157295227 -0.011462231166660786 -0.145206555724143982 -0.180854082107543945 0.128155276179313660 -0.159075498580932617 -0.004817913752049208 0.012297997251152992 -0.212905555963516235 0.045755699276924133 0.117972977459430695 0.029767710715532303 0.119510732591152191 -0.168163537979125977 -0.135120660066604614 -0.122005388140678406 -0.055756755173206329 -0.020907254889607430 -0.143916696310043335 -0.050367262214422226 0.025602186098694801 0.152390584349632263 -0.014749607071280479 0.021564904600381851 0.109449677169322968 0.076454155147075653 0.217581391334533691 0.065072782337665558 0.020545011386275291 0.027003470808267593 -0.050363887101411819 0.116695791482925415 -0.184514760971069336 -0.181329146027565002 -0.046239111572504044 -0.117997579276561737 0.049741934984922409 -0.147414922714233398 -0.091112866997718811 -0.075514830648899078 0.003748113056644797 -0.138664141297340393 -0.069284766912460327 0.067361421883106232 0.049408726394176483 0.174580529332160950 -0.065975658595561981 0.028660599142313004 0.075219206511974335 -0.081153824925422668 0.043422497808933258 -0.039819121360778809 0.017710024490952492 0.092142470180988312 -0.090461991727352142 -0.044855564832687378 -0.137017235159873962 -0.134616255760192871 -0.127023115754127502 0.001748774084262550 0.065873965620994568 -0.110476844012737274 0.037162851542234421 -0.203271701931953430
-0.075544312596321106 0.069387257099151611 -0.113893724977970123 0.118439510464668274 -0.117416948080062866 -0.175166457891464233 0.094611831009387970 -0.124484874308109283 -0.000675437331665307 0.018891708925366402 -0.075628094375133514 0.019520493224263191 0.110629223287105560 0.097543194890022278 0.082049697637557983 0.108573697507381439 -0.114554300904273987 -0.108230084180831909 0.095034882426261902 -0.065177343785762787 0.087570473551750183 -0.058704592287540436 0.114969745278358459 0.145043998956680298 -0.029243994504213333 0.173138096928596497 -0.130161404609680176 -0.009738272987306118 -0.144940271973609924 0.005223983433097601 -0.181636437773704529 -0.016063688322901726 -0.138070523738861084 0.128866225481033325 -0.058956313878297806 0.326523959636688232 0.024509306997060776 -0.033468198031187057 -0.171593874692916870 0.214323818683624268 0.184942185878753662 0.023313496261835098 -0.097372673451900482 0.150003075599670410 -0.044224590063095093 -0.091104976832866669 0.093056499958038330 -0.113472864031791687 0.022112090140581131 0.044578582048416138 0.140351101756095886 0.067476108670234680 -0.073363505303859711 -0.072331205010414124 0.121921047568321228 0.130901262164115906 0.045697797089815140 0.023080715909600258 0.184094026684761047 0.048785608261823654 -0.091593042016029358 0.155176520347595215 -0.033039003610610962 -0.144481450319290161 -0.034516431391239166 0.134364217519760132 -0.164737910032272339 -0.129969060420989990 0.052117228507995605 -0.145614802837371826 0.032324243336915970 -0.236377373337745667 0.170499220490455627 0.110340774059295654 -0.159039214253425598 0.172514781355857849 0.157355815172195435 0.025045396760106087 0.080424211919307709 -0.033235739916563034 -0.134891599416732788 -0.108356967568397522 -0.068564549088478088 -0.018196165561676025 0.086773917078971863 -0.076252013444900513 -0.031174963340163231 -0.036152530461549759 -0.130181446671485901 -0.067929200828075409 0.051194768399000168 -0.063852697610855103 0.025058455765247345 0.210833430290222168 0.171818181872367859 -0.046284209936857224 -0.083702169358730316 0.150537475943565369 -0.157579094171524048 0.038769815117120743
0.140946149826049805 0.238645195960998535 0.074639253318309784 0.107599727809429169 0.023975098505616188 -0.182873874902725220 0.083262734115123749 0.099050328135490417 0.055250354111194611 0.125218614935874939 0.032352883368730545 -0.166490703821182251 0.200042620301246643 -0.058908559381961823 -0.118945129215717316 0.052337754517793655 -0.125734552741050720 -0.039641689509153366 0.026233915239572525 -0.042165070772171021 -0.257275760173797607 -0.026412568986415863 0.037823215126991272 0.062998682260513306 0.126622676849365234 -0.187951996922492981 -0.040625527501106262 0.163781002163887024 0.038308933377265930 0.074612043797969818 0.108273737132549286 0.027195068076252937 0.175932854413986206 0.005770768038928509 -0.132147118449211121 -0.191670626401901245 0.013207968324422836 -0.016075346618890762 -0.090778477489948273 -0.057432621717453003 0.043090719729661942 -0.041467219591140747 0.183634966611862183 0.092300616204738617 0.037775833159685135 -0.109100796282291412 -0.029621407389640808 -0.049416154623031616 -0.203809216618537903 -0.069448232650756836 -0.162891685962677002 0.202801376581192017 0.036065004765987396 -0.062435679137706757 0.017950877547264099 -0.138876974582672119 0.021974595263600349 -0.125337406992912292 -0.168963596224784851 -0.044852863997220993 0.093918830156326294 -0.054388828575611115 0.156828969717025757 0.117553614079952240 -0.149421691894531250 -0.167686194181442261 0.172154769301414490 0.104077763855457306 -0.033890206366777420 -0.115418069064617157 -0.188899382948875427 0.142760097980499268 -0.136761605739593506 -0.097063705325126648 0.134763896465301514 0.085027314722537994 0.078996948897838593 -0.062137689441442490 -0.118898816406726837 0.082145527005195618 -0.073173046112060547 0.056414861232042313 -0.023955607786774635 -0.069837361574172974 -0.090902484953403473 0.143371954560279846 0.182757928967475891 0.079217799007892609 -0.085490360856056213 0.045028895139694214 -0.169791623950004578 0.019313896074891090 -0.102188579738140106 0.048708319664001465 0.175780117511749268 0.076616667211055756 -0.147457748651504517 -0.230514287948608398 0.098282426595687866 -0.126504510641098022
-0.180560678243637085 -0.177962779998779297 0.094134420156478882 0.067787326872348785 -0.008200506679713726 -0.172989666461944580 -0.130461454391479492 -0.079213596880435944 -0.100858949124813080 -0.004481633193790913 -0.042611807584762573 0.021417239680886269 -0.154114946722984314 -0.049523312598466873 -0.025883896276354790 -0.152973011136054993 -0.045502860099077225 0.005476387217640877 0.065147511661052704 0.148677140474319458 -0.043959863483905792 0.029057122766971588 -0.114285498857498169 -0.040396124124526978 0.130059689283370972 0.162933930754661560 0.042652428150177002 -0.025068627670407295 -0.122825212776660919 -0.025767786428332329 -0.146155744791030884 -0.088410057127475739 -0.172278150916099548 -0.105743117630481720 -0.003164480207487941 0.187490358948707581 -0.039550282061100006 -0.154083177447319031 0.062736719846725464 0.013063044287264347 0.078587301075458527 0.166738763451576233 -0.089656293392181396 0.022967310622334480 -0.059096962213516235 -0.144955992698669434 -0.074845477938652039 -0.119280874729156494 -0.142774939537048340 -0.080315843224525452 0.119122184813022614 0.045503012835979462 0.202686384320259094 0.117143847048282623 -0.053163077682256699 0.116139769554138184 0.101831652224063873 0.071038417518138885 -0.019181055948138237 0.089048519730567932 0.018565956503152847 0.081188775599002838 -0.035526521503925323 0.177817776799201965 0.019514281302690506 -0.232797205448150635 0.165992647409439087 -0.131712570786476135 0.094986245036125183 -0.160407036542892456 -0.114725299179553986 0.226716101169586182 -0.024637535214424133 0.102580949664115906 0.022385919466614723 -0.096696510910987854 -0.070075832307338715 -0.055866722017526627 -0.059828992933034897 0.016922783106565475 -0.153136759996414185 -0.005259432364255190 0.146694079041481018 -0.078808903694152832 -0.052840474992990494 -0.072082430124282837 -0.098725408315658569 -0.128117591142654419 0.057039573788642883 -0.060290381312370300 -0.036730334162712097 0.062605127692222595 0.068781390786170959 -0.060627225786447525 0.096424072980880737 0.005483872722834349 0.018905652686953545 0.103401668369770050 -0.069687277078628540 -0.019435124471783638
-0.176800042390823364 -0.030116830021142960 -0.094532482326030731 0.043796751648187637 0.031949095427989960 -0.152917578816413879 -0.055450301617383957 0.040538631379604340 -0.100141413509845734 -0.068389333784580231 0.098344594240188599 -0.174641981720924377 -0.021477738395333290 0.088633902370929718 0.071285948157310486 -0.224931403994560242 0.166203930974006653 0.105254232883453369 -0.089772827923297882 0.116237133741378784 -0.237844735383987427 -0.106486439704895020 0.099494226276874542 -0.070505797863006592 0.153977423906326294 0.009097462520003319 -0.146045878529548645 -0.030687529593706131 0.037384916096925735 -0.081061854958534241 -0.015771690756082535 -0.031923793256282806 -0.242582082748413086 -0.067818552255630493 -0.220390781760215759 0.139334082603454590 -0.063355654478073120 0.158246755599975586 0.014299519360065460 0.006467540748417377 0.017078259959816933 -0.024088520556688309 0.066513650119304657 -0.025497537106275558 -0.158256188035011292 -0.075582370162010193 -0.090997219085693359 0.192457526922225952 -0.092059627175331116 0.050778165459632874 -0.115744836628437042 0.187745705246925354 0.143431499600410461 0.136054143309593201 -0.168158054351806641 0.006015165708959103 0.053311515599489212 -0.065595649182796478 -0.066008381545543671 -0.114361204206943512 -0.112143434584140778 0.145939797163009644 0.023337088525295258 0.027737438678741455 -0.076169855892658234 -0.372238397598266602 -0.025770854204893112 0.001529963454231620 -0.190116763114929199 -0.015796173363924026 -0.395287483930587769 0.488121569156646729 -0.082773491740226746 -0.144039392471313477 0.021055849269032478 0.192457482218742371 -0.017185211181640625 -0.071232520043849945 -0.001199877704493701 -0.111052446067333221 0.080888561904430389 -0.072830647230148315 -0.075557217001914978 -0.106220029294490814 -0.155217006802558899 0.069391787052154541 -0.094044879078865051 0.101317018270492554 0.081460721790790558 0.192101076245307922 0.095255203545093536 -0.083125978708267212 0.063373796641826630 0.190027594566345215 0.009732603095471859 -0.131459504365921021 0.140204027295112610 -0.002536937594413757 0.311520397663116455 -0.092201940715312958
-0.096679709851741791 -0.232271313667297363 -0.037481520324945450 0.108339682221412659 0.014748043380677700 0.028824863955378532 -0.019466141238808632 0.123833142220973969 -0.113296456634998322 0.136445969343185425 0.070732638239860535 0.095532745122909546 -0.192535966634750366 -0.109564654529094696 0.071975193917751312 -0.101799532771110535 -0.089561581611633301 0.046846058219671249 0.030304007232189178 -0.047225020825862885 -0.117258347570896149 -0.051688782870769501 0.144331350922584534 -0.201770767569541931 0.057006645947694778 0.068312868475914001 -0.081737779080867767 0.030845813453197479 0.005357516463845968 -0.152039662003517151 -0.008574041537940502 -0.042952813208103180 0.114771656692028046 0.144932031631469727 -0.027572387829422951 -0.179037749767303467 -0.162320166826248169 -0.087511584162712097 -0.140500158071517944 -0.188674554228782654 -0.088619627058506012 0.138132408261299133 0.105886034667491913 0.119687631726264954 -0.062935121357440948 0.096564233303070068 -0.032985482364892960 -0.109885789453983307 -0.087566517293453217 -0.126068070530891418 0.090171165764331818 -0.008848940953612328 0.068608663976192474 -0.137631818652153015 -0.107030123472213745 0.086979195475578308 0.150021702051162720 -0.041775733232498169 0.071429572999477386 -0.169098734855651855 -0.087426662445068359 -0.117830902338027954 -0.097576908767223358 0.123340994119644165 0.171749159693717957 0.152811914682388306 0.173651814460754395 0.090926408767700195 0.111089266836643219 -0.048699587583541870 0.131162211298942566 -0.003213094314560294 0.049469977617263794 -0.160548135638237000 -0.039944320917129517 -0.214594855904579163 -0.236476644873619080 -0.147580534219741821 0.152055025100708008 0.060245331376791000 -0.040562223643064499 0.026193244382739067 0.292542576789855957 0.156084597110748291 0.015267402864992619 0.152504712343215942 0.097316056489944458 0.095876626670360565 -0.083051800727844238 -0.103792488574981689 0.014038724824786186 0.118523187935352325 -0.177203357219696045 0.080394484102725983 -0.063989691436290741 0.149441584944725037 0.184860914945602417 0.138827681541442871 0.123370684683322906 -0.099814407527446747
0.019806740805506706 0.338976889848709106 -0.269379168748855591 -0.123573340475559235 -0.077917389571666718 0.036553084850311279 0.154136493802070618 -0.059015702456235886 -0.005424496252089739 0.096439935266971588 -0.017824398353695869 -0.109003528952598572 0.109370447695255280 -0.191052630543708801 0.191387116909027100 0.045687906444072723 0.048579756170511246 -0.137157425284385681 -0.112481184303760529 0.106442965567111969 0.015455728396773338 0.072145454585552216 -0.062492653727531433 0.119610860943794250 -0.132859870791435242 -0.131734266877174377 0.055546630173921585 -0.002328725764527917 0.068057321012020111 0.064902812242507935 0.071867644786834717 -0.098258018493652344 -0.164146438241004944 -0.019423265010118484 0.126170173287391663 -0.050447151064872742 -0.067786492407321930 0.215137347579002380 0.021048475056886673 -0.021732730790972710 0.017070636153221130 0.000299534411169589 -0.289098769426345825 -0.101331941783428192 -0.107461608946323395 0.196595489978790283 -0.074256889522075653 0.047957871109247208 0.048689421266317368 -0.045909248292446136 -0.102564096450805664 0.179195448756217957 0.048685118556022644 0.041267175227403641 0.122467525303363800 -0.211434707045555115 -0.098660893738269806 0.115224502980709076 0.057856075465679169 0.204125672578811646 0.038499385118484497 0.067526571452617645 -0.120589978992938995 -0.040626339614391327 0.053052067756652832 -0.091393537819385529 -0.074121110141277313 0.075681552290916443 -0.007461200002580881 0.199828475713729858 -0.064531490206718445 0.220828503370285034 0.128522142767906189 0.031850319355726242 -0.054141782224178314 0.153866663575172424 0.216339513659477234 0.152622386813163757 0.039801996201276779 -0.102864094078540802 -0.098233327269554138 0.062660403549671173 -0.136677309870719910 -0.175158113241195679 0.139755010604858398 0.069750048220157623 -0.019543416798114777 -0.046672429889440536 0.101190127432346344 0.161488711833953857 0.174539521336555481 0.120461732149124146 0.037513311952352524 0.148010998964309692 0.043454349040985107 -0.016575161367654800 -0.146194025874137878 -0.041305445134639740 0.030446445569396019 0.087143436074256897
0.108942195773124695 0.040833912789821625 0.151614651083946228 0.202375844120979309 -0.047006923705339432 0.051105991005897522 0.037301473319530487 0.225660920143127441 0.076594032347202301 0.206477403640747070 0.124649114906787872 -0.016298929229378700 0.078511580824851990 0.232775121927261353 0.038150578737258911 0.050220780074596405 -0.349199742078781128 0.194275379180908203 -0.210273861885070801 -0.054657537490129471 -0.210377871990203857 0.172491192817687988 -0.141205266118049622 0.072957687079906464 0.037847872823476791 0.053225498646497726 -0.534000217914581299 0.276246905326843262 -0.276134610176086426 -0.163578748703002930 -0.137212321162223816 0.066569864749908447 -0.060677759349346161 0.135361418128013611 -0.146982431411743164 0.020988389849662781 -0.017445599660277367 0.117312267422676086 -0.168441981077194214 0.110625579953193665 0.044271867722272873 -0.174769341945648193 0.097316592931747437 -0.087379403412342072 0.069375023245811462 -0.334074914455413818 0.310642600059509277 -0.066728040575981140 0.065962009131908417 -0.112275391817092896 0.019388522952795029 -0.017758416011929512 -0.052563674747943878 0.189182445406913757 0.008017482236027718 0.255321234464645386 0.075314611196517944 -0.143024027347564697 -0.014592447318136692 -0.069623969495296478 -0.178984984755516052 0.086097836494445801 0.123770393431186676 0.107394881546497345 0.183206349611282349 -0.054938338696956635 -0.105227358639240265 -0.101326465606689453 0.006979784462600946 -0.153831824660301208 0.159457117319107056 -0.090860113501548767 -0.131702214479446411 -0.095153309404850006 0.160528168082237244 -0.060703486204147339 0.012043481692671776 0.058867350220680237 -0.146268889307975769 -0.086286358535289764 0.206820771098136902 0.048325870186090469 -0.074018515646457672 0.101999677717685699 -0.107951201498508453 -0.066213816404342651 -0.440030485391616821 0.044624343514442444 -0.020520064979791641 -0.099025331437587738 0.064687550067901611 0.202247217297554016 0.070473253726959229 -0.285219788551330566 -0.130534619092941284 -0.138645127415657043 0.249744474887847900 -0.160780578851699829 0.079527795314788818 -0.429693162441253662
-0.128111153841018677 -0.244334191083908081 0.043416175991296768 -0.119496129453182220 -0.003668291494250298 0.125706255435943604 0.072850137948989868 -0.088009774684906006 -0.220498338341712952 -0.153086856007575989 0.019517479464411736 -0.074043050408363342 -0.211466878652572632 0.196172162890434265 0.171251893043518066 0.096859976649284363 0.087893262505531311 0.174674540758132935 0.085045024752616882 -0.122115254402160645 0.173326790332794189 0.146012127399444580 0.114713162183761597 -0.158715993165969849 0.037984486669301987 -0.095353335142135620 -0.172906473278999329 0.073412790894508362 -0.058311332017183304 0.151667892932891846 0.094602935016155243 -0.083428762853145599 -0.112253390252590179 -0.102937050163745880 -0.091819673776626587 0.200515896081924438 0.035273656249046326 0.110174253582954407 0.016339896246790886 -0.009785391390323639 0.071223683655261993 -0.020312126725912094 -0.174081742763519287 0.112768039107322693 -0.042650651186704636 -0.100362353026866913 0.134896382689476013 0.057655282318592072 -0.111788064241409302 0.112820640206336975 0.162260293960571289 0.087296724319458008 -0.047657378017902374 0.004442644771188498 -0.221544682979583740 -0.067672826349735260 -0.102083280682563782 -0.068603396415710449 0.078630581498146057 0.093296676874160767 0.004078826867043972 0.092981450259685516 -0.155551761388778687 0.089170865714550018 0.190399259328842163 -0.101821742951869965 0.083188600838184357 0.065785259008407593 0.127886757254600525 0.104876488447189331 -0.125043570995330811 -0.205001845955848694 -0.053277015686035156 -0.038212906569242477 0.047655023634433746 -0.179630935192108154 0.163837343454360962 0.195355311036109924 0.010040676221251488 0.137521728873252869 -0.008253885433077812 -0.117871381342411041 0.182785615324974060 0.007384406402707100 0.045731775462627411 0.004277331754565239 -0.090640120208263397 -0.110779419541358948 -0.005721804685890675 -0.182306855916976929 0.116572737693786621 -0.082350082695484161 0.017409462481737137 0.184758931398391724 0.124740183353424072 0.026653349399566650 0.037541579455137253 -0.047269176691770554 0.029260596260428429 0.160648688673973083
-0.151127755641937256 -0.041395079344511032 0.153379485011100769 0.134737387299537659 -0.169296100735664368 0.115327693521976471 0.136369138956069946 0.080001629889011383 -0.047731541097164154 -0.083229631185531616 -0.001221976242959499 0.050920926034450531 0.157215446233749390 0.031376283615827560 -0.070251628756523132 0.123107284307479858 0.050748854875564575 -0.084306523203849792 0.105563752353191376 0.144068822264671326 -0.161848530173301697 0.173501640558242798 0.094722658395767212 -0.043865583837032318 0.118963338434696198 -0.184313431382179260 0.104441560804843903 0.170842751860618591 0.177472159266471863 0.167389139533042908 0.074379771947860718 -0.045830961316823959 0.055731829255819321 0.011183647438883781 0.008026153780519962 -0.229383990168571472 0.127883046865463257 -0.002352591603994370 0.168150693178176880 -0.056638307869434357 0.133702203631401062 -0.193937510251998901 0.078098677098751068 0.081614196300506592 -0.079562351107597351 -0.042856596410274506 0.000616522331256419 -0.088390536606311798 -0.015435501933097839 -0.068969413638114929 -0.232180193066596985 0.158317759633064270 -0.110963396728038788 -0.065435029566287994 0.179383769631385803 0.134946689009666443 0.025403989478945732 -0.086311474442481995 0.012923977337777615 0.002410790184512734 -0.130887433886528015 0.058669619262218475 0.029315888881683350 -0.123524203896522522 -0.099166326224803925 0.035406369715929031 0.058348711580038071 -0.068900309503078461 -0.028098097071051598 0.173578202724456787 -0.058906510472297668 0.145564436912536621 -0.047642309218645096 -0.061300616711378098 0.079830318689346313 -0.099766083061695099 -0.081762932240962982 -0.125370770692825317 -0.143257543444633484 -0.011238792911171913 -0.122366249561309814 -0.004179267212748528 0.085099115967750549 -0.093040183186531067 -0.092034414410591125 0.033226948231458664 -0.122488573193550110 -0.068366274237632751 0.079777128994464874 0.177122101187705994 0.008997024968266487 0.043775919824838638 -0.203576445579528809 0.008635008707642555 0.135732129216194153 0.029451146721839905 0.007304458413273096 -0.150326013565063477 0.049214866012334824 -0.098068878054618835
-0.138330280780792236 0.406459242105484009 0.019781166687607765 -0.067688494920730591 0.018011512234807014 -0.153772816061973572 -0.057696912437677383 -0.162464573979377747 0.034700714051723480 0.049998916685581207 -0.025872562080621719 -0.036035433411598206 0.272031068801879883 -0.032739400863647461 -0.127709582448005676 -0.097260445356369019 -0.127221092581748962 -0.139338642358779907 0.023585285991430283 -0.021187379956245422 0.029300272464752197 -0.124310210347175598 0.062175653874874115 0.130340561270713806 0.089101925492286682 -0.076416105031967163 -0.034041728824377060 0.120707191526889801 -0.037588261067867279 -0.135891735553741455 -0.056512974202632904 0.161241590976715088 -0.053317032754421234 -0.150244578719139099 0.019724469631910324 -0.148780822753906250 -0.110002778470516205 0.146931976079940796 0.170212015509605408 -0.074974924325942993 0.013726403936743736 0.109109476208686829 0.103757001459598541 0.124031499028205872 0.016812250018119812 -0.107671968638896942 -0.139054685831069946 -0.026955787092447281 0.090305916965007782 -0.165945336222648621 -0.079481244087219238 -0.137412592768669128 -0.161782145500183105 -0.051321674138307571 0.078260995447635651 0.114426642656326294 0.067362591624259949 0.039484109729528427 0.130841046571731567 0.164910122752189636 -0.085870169103145599 0.050486497581005096 -0.010437893681228161 -0.042639579623937607 -0.003121226327493787 -0.110693834722042084 -0.165570944547653198 0.079999037086963654 -0.007359417155385017 -0.032173063606023788 -0.079286664724349976 -0.119315490126609802 -0.003084440249949694 -0.032506540417671204 0.051947053521871567 0.153093993663787842 0.051559716463088989 0.083254843950271606 0.056789536029100418 -0.098283328115940094 0.170258983969688416 0.044157709926366806 -0.034999851137399673 0.082504138350486755 -0.022014601156115532 -0.009728968143463135 0.035986445844173431 0.109056383371353149 0.107903525233268738 -0.022452713921666145 -0.091208390891551971 -0.099972784519195557 0.044762317091226578 -0.136006474494934082 0.139738127589225769 -0.095927193760871887 -0.188177168369293213 -0.085839830338954926 -0.030149659141898155 0.015075920149683952
0.091482482850551605 0.057081948965787888 0.042554471641778946 0.023334322497248650 -0.209516048431396484 0.131376594305038452 -0.049182943999767303 0.084326468408107758 0.104694299399852753 -0.051626712083816528 -0.138727083802223206 -0.086934059858322144 0.163346275687217712 0.156794995069503784 0.172800704836845398 -0.180435791611671448 -0.001764300628565252 -0.070101402699947357 -0.045876476913690567 0.005353654269129038 0.080182865262031555 -0.148595154285430908 0.034771118313074112 0.092067457735538483 0.170734494924545288 0.089699484407901764 0.025035370141267776 -0.123536162078380585 0.025679569691419601 0.118891224265098572 0.008181015960872173 -0.055112637579441071 -0.095626458525657654 0.164464518427848816 -0.143737956881523132 0.146395862102508545 0.132808163762092590 0.161696061491966248 0.008547184057533741 0.070653982460498810 0.111305482685565948 -0.021812157705426216 -0.284558594226837158 -0.059222467243671417 -0.153480336070060730 -0.079713746905326843 0.174890041351318359 -0.055912103503942490 -0.084460817277431488 0.111304029822349548 -0.124488130211830139 0.107509732246398926 -0.041187390685081482 -0.149200350046157837 -0.165327578783035278 -0.154144644737243652 -0.151057854294776917 -0.015170244500041008 -0.144782260060310364 -0.049769941717386246 0.023659864440560341 0.112962119281291962 0.047922536730766296 0.089494891464710236 0.129603892564773560 -0.216468200087547302 -0.113308355212211609 -0.083960667252540588 0.042296979576349258 0.169760704040527344 -0.205591425299644470 0.188826367259025574 0.124763585627079010 0.075434707105159760 -0.144769474864006042 0.135751992464065552 0.392967879772186279 0.062605440616607666 -0.099179685115814209 0.005368585698306561 -0.211134836077690125 -0.033564969897270203 -0.082987159490585327 0.043813042342662811 0.200260192155838013 0.068262949585914612 -0.035223536193370819 0.014099274761974812 0.181137606501579285 -0.146143108606338501 0.067910745739936829 0.157661601901054382 0.197600260376930237 0.111165866255760193 0.033505506813526154 0.010092692449688911 -0.075888961553573608 -0.024372808635234833 0.027870593592524529 -0.130936488509178162
0.035234410315752029 -0.217006340622901917 -0.016749791800975800 -0.096884064376354218 0.074286013841629028 -0.020294936373829842 0.046895537525415421 0.136612474918365479 0.110930360853672028 -0.027617227286100388 0.140398010611534119 -0.004717290401458740 -0.155199721455574036 0.214271739125251770 -0.152496621012687683 -0.038975257426500320 0.084554277360439301 -0.230609595775604248 -0.007950381375849247 0.053549334406852722 -0.171535775065422058 -0.142841309309005737 0.068144261837005615 -0.003045199671760201 -0.126799032092094421 -0.047659978270530701 -0.033523827791213989 0.083598598837852478 -0.061484135687351227 -0.107852749526500702 0.068077437579631805 -0.102551095187664032 -0.038124479353427887 -0.120433539152145386 0.053867153823375702 0.044980429112911224 -0.036188300698995590 -0.123394079506397247 -0.113813489675521851 -0.087141893804073334 0.113272182643413544 0.105557143688201904 0.049229644238948822 0.144929915666580200 0.137706130743026733 -0.015047657303512096 0.055986847728490829 0.048097398132085800 0.103635102510452271 -0.053019262850284576 0.091764509677886963 0.135750174522399902 -0.054724860936403275 -0.075310930609703064 0.094001606106758118 0.139660984277725220 -0.147518157958984375 -0.035865053534507751 0.039733331650495529 0.094359658658504486 0.037522319704294205 0.205536246299743652 -0.050399102270603180 0.056288022547960281 0.097796462476253510 -0.132146745920181274 0.145405322313308716 0.135177016258239746 0.169612824916839600 0.061641544103622437 -0.042304810136556625 0.142096117138862610 0.082039415836334229 0.046083133667707443 0.137484624981880188 -0.177902311086654663 0.004473112989217043 -0.021600853651762009 0.046007439494132996 0.134234294295310974 -0.009189210832118988 -0.106381982564926147 0.157380774617195129 0.131709575653076172 0.032362408936023712 -0.170142158865928650 -0.104379236698150635 0.016994366422295570 -0.103311806917190552 -0.177355349063873291 -0.038122020661830902 -0.060103770345449448 0.066246241331100464 -0.160495623946189880 0.022144185379147530 0.084405452013015747 0.142707914113998413 -0.137281835079193115 0.085029475390911102 -0.290720969438552856
0.047672227025032043 -0.798143863677978516 0.330553948879241943 0.154544755816459656 0.119272366166114807 -0.123524352908134460 0.012733894400298595 0.232865408062934875 -0.154257655143737793 -0.107485413551330566 -0.059863634407520294 0.017575060948729515 -0.145386517047882080 -0.014814738184213638 0.078020647168159485 0.158785223960876465 0.138894870877265930 -0.087919034063816071 -0.054822809994220734 -0.187151998281478882 -0.014340473338961601 -0.082263149321079254 -0.116603396832942963 0.031933002173900604 0.153711557388305664 -0.072592213749885559 0.003904380137100816 -0.043777097016572952 -0.085496619343757629 -0.053729612380266190 -0.027212845161557198 0.084061726927757263 0.093970842659473419 0.137160941958427429 -0.034299239516258240 0.138691633939743042 0.103054009377956390 0.012080439366400242 0.106317102909088135 0.008831743150949478 -0.150733292102813721 -0.145540982484817505 -0.044174864888191223 0.202362492680549622 -0.002222303533926606 -0.070979692041873932 0.047165744006633759 -0.156020045280456543 0.077171787619590759 -0.067828029394149780 0.198839694261550903 -0.055647768080234528 -0.090869970619678497 0.097388811409473419 -0.170522108674049377 -0.135376363992691040 -0.112730309367179871 0.020473236218094826 0.054524715989828110 0.116983495652675629 0.126548364758491516 -0.053476173430681229 0.125213578343391418 0.024338532239198685 0.193199083209037781 0.122916504740715027 0.138818427920341492 -0.173407465219497681 0.121166519820690155 -0.161816239356994629 0.126929730176925659 -0.120289452373981476 0.123591475188732147 0.102272190153598785 0.123724721372127533 -0.097524493932723999 -0.152820393443107605 0.047631673514842987 0.156823903322219849 -0.117417804896831512 -0.052391666918992996 -0.116357415914535522 0.308260262012481689 -0.038886129856109619 -0.057072456926107407 -0.108537495136260986 0.048046529293060303 0.087741844356060028 0.087358966469764709 0.017346158623695374 -0.015574286691844463 0.036572895944118500 -0.136289566755294800 -0.035141181200742722 0.067467793822288513 -0.035625949501991272 0.200085639953613281 0.062398508191108704 -0.131066933274269104 -0.105746008455753326
-0.179993063211441040 -0.020074591040611267 -0.095181405544281006 -0.027347512543201447 0.090995743870735168 0.041348945349454880 0.162022784352302551 -0.153978183865547180 -0.048744264990091324 0.005088945385068655 -0.033530525863170624 -0.170145764946937561 0.223720431327819824 0.029623659327626228 0.139613285660743713 -0.081605933606624603 -0.056474357843399048 -0.108015470206737518 -0.181640639901161194 0.195409253239631653 0.056009549647569656 -0.103188961744308472 -0.033178474754095078 0.004435429349541664 -0.103152304887771606 -0.100620254874229431 -0.117885924875736237 0.029825642704963684 -0.079723529517650604 -0.021173801273107529 0.086031727492809296 -0.027963066473603249 -0.113085567951202393 0.031809169799089432 0.047390665858983994 -0.142284750938415527 -0.035379990935325623 0.264126539230346680 0.069546446204185486 0.079078413546085358 0.041609544306993484 -0.042324736714363098 -0.252106040716171265 0.036543026566505432 -0.117413021624088287 0.020969677716493607 -0.131422400474548340 -0.167455106973648071 -0.155562862753868103 0.107289060950279236 -0.022457314655184746 0.154673174023628235 0.170504882931709290 -0.134116739034652710 0.141708984971046448 -0.120774626731872559 0.060844674706459045 0.014273869805037975 0.116173632442951202 0.180623918771743774 0.199223861098289490 -0.046220831573009491 -0.158560246229171753 0.114097401499748230 -0.008201505057513714 0.010502725839614868 0.060273140668869019 0.115243919193744659 -0.125321969389915466 -0.039950072765350342 -0.073921374976634979 0.280213654041290283 0.080183438956737518 -0.081259347498416901 -0.194111064076423645 0.028630834072828293 0.165070682764053345 0.033342130482196808 0.064773187041282654 -0.046406365931034088 0.001467583817429841 -0.007251105736941099 -0.019464524462819099 -0.106125190854072571 0.120811931788921356 -0.190656617283821106 0.070107825100421906 -0.126355066895484924 0.121342338621616364 -0.035515531897544861 0.113368324935436249 0.056836806237697601 0.074571400880813599 -0.073097467422485352 -0.060060881078243256 -0.171963989734649658 0.067572221159934998 0.069510243833065033 0.084912128746509552 0.011605196632444859
0.154873475432395935 0.119230881333351135 0.016187731176614761 0.018930420279502869 -0.091879345476627350 0.031992722302675247 -0.052952039986848831 -0.139004617929458618 -0.091468453407287598 -0.057291045784950256 0.123940289020538330 0.055518914014101028 0.075048938393592834 0.104002363979816437 0.101647555828094482 -0.010907022282481194 -0.124650217592716217 0.118559323251247406 -0.031673416495323181 -0.007023266982287169 0.154254063963890076 0.179034605622291565 -0.056112725287675858 -0.049202650785446167 -0.213302820920944214 -0.056649971753358841 0.173253089189529419 -0.198102384805679321 -0.021173777058720589 -0.016055239364504814 0.151440903544425964 0.007028989959508181 -0.085856013000011444 -0.118619427084922791 0.269112855195999146 0.011699697934091091 0.031680196523666382 0.153956562280654907 0.136118844151496887 -0.104145340621471405 -0.102049231529235840 0.080442570149898529 0.093810178339481354 0.102768652141094208 0.089499182999134064 0.057507272809743881 -0.130221799015998840 0.137088432908058167 -0.062381286174058914 0.115471169352531433 0.136296570301055908 -0.060263574123382568 0.095426201820373535 -0.086182422935962677 -0.164325356483459473 0.104712933301925659 -0.053078752011060715 0.092938706278800964 0.110218033194541931 0.087442077696323395 0.149179518222808838 0.036086041480302811 0.064642831683158875 -0.020835040137171745 0.207398056983947754 0.194586068391799927 0.000007222636668303 -0.019370233640074730 0.079499654471874237 0.124714151024818420 -0.077371634542942047 -0.010710006579756737 0.108993075788021088 0.090121448040008545 0.204085975885391235 -0.136618539690971375 0.128952115774154663 -0.082658618688583374 0.037664499133825302 -0.118639595806598663 0.105220600962638855 -0.095682539045810699 -0.001140832551755011 0.147615581750869751 0.060825929045677185 -0.061294272541999817 -0.043148234486579895 0.185107052326202393 0.071212261915206909 0.131618738174438477 -0.119315840303897858 0.008100349456071854 0.059968542307615280 0.196616157889366150 -0.113519325852394104 -0.087139144539833069 0.051356758922338486 -0.003961635287851095 0.071643300354480743 0.177074566483497620
-0.141397133469581604 -0.131015524268150330 0.027342170476913452 0.043568354099988937 -0.134742394089698792 0.029372921213507652 -0.030908731743693352 -0.007503770757466555 0.033112987875938416 0.155720204114913940 0.042797297239303589 0.071363411843776703 -0.191861644387245178 -0.088723435997962952 -0.161455035209655762 0.177811756730079651 -0.130698889493942261 -0.174077302217483521 -0.037400294095277786 -0.041546106338500977 -0.124649688601493835 0.095112271606922150 0.148580342531204224 -0.115107551217079163 -0.111370377242565155 0.009476972743868828 -0.179275438189506531 -0.012409243732690811 -0.140746176242828369 -0.092091128230094910 -0.025481186807155609 0.087186545133590698 0.001664389972575009 -0.170281678438186646 -0.092452213168144226 -0.101386025547981262 0.091623365879058838 -0.005192330107092857 0.129611432552337646 -0.168374240398406982 -0.074802756309509277 0.001483776955865324 -0.036407999694347382 0.125586763024330139 -0.143169745802879333 -0.098843120038509369 -0.032826192677021027 0.011511092074215412 0.029839582741260529 -0.035133920609951019 -0.055143941193819046 0.036043085157871246 0.063134782016277313 -0.020070159807801247 -0.096791766583919525 0.122602775692939758 0.079727552831172943 0.073044314980506897 -0.130785852670669556 -0.150207549333572388 -0.203859537839889526 0.183953225612640381 0.149070546030998230 -0.014970045536756516 0.160822540521621704 -0.050343014299869537 -0.079334691166877747 -0.143256857991218567 0.001844516838900745 -0.192151352763175964 -0.025206128135323524 -0.101559266448020935 -0.155747771263122559 -0.097115233540534973 0.071753442287445068 0.091034643352031708 -0.143050119280815125 0.146325275301933289 -0.073407605290412903 0.193450286984443665 0.152428030967712402 0.167864829301834106 0.182791590690612793 0.154728218913078308 0.047423847019672394 0.043007422238588333 -0.049681827425956726 -0.159646928310394287 0.021822940558195114 0.141409292817115784 -0.070956826210021973 0.177890896797180176 0.107694275677204132 -0.148407578468322754 -0.094247251749038696 0.061800036579370499 0.149182364344596863 0.039503041654825211 0.146735161542892456 -0.178772017359733582
0.070008508861064911 -0.113555900752544403 0.073415607213973999 0.149301514029502869 0.153360247611999512 0.198037952184677124 -0.046158820390701294 0.016967102885246277 -0.056056722998619080 -0.079080656170845032 -0.120519511401653290 0.035542376339435577 -0.063521072268486023 0.135407716035842896 -0.106154002249240875 0.081032127141952515 0.061999469995498657 -0.023814825341105461 -0.060043819248676300 -0.201890662312507629 -0.280802100896835327 -0.175473317503929138 -0.051579449325799942 0.071731373667716980 0.109609603881835938 -0.168767139315605164 0.082742854952812195 0.073402926325798035 0.115985289216041565 -0.032886948436498642 0.153376534581184387 -0.006079379934817553 0.105817854404449463 -0.113851279020309448 -0.046416800469160080 -0.114806063473224640 -0.097532741725444794 0.090402729809284210 -0.032725535333156586 -0.146507024765014648 -0.005159213207662106 -0.116185165941715240 0.192199632525444031 0.107633076608181000 -0.177402526140213013 0.025131525471806526 -0.155997350811958313 0.005746121518313885 0.020911352708935738 -0.003478601574897766 -0.163063988089561462 -0.038491453975439072 -0.025662183761596680 -0.121443897485733032 -0.057776641100645065 0.041815228760242462 0.032052915543317795 0.119552269577980042 -0.083309248089790344 -0.200154840946197510 0.012558553367853165 -0.035422641783952713 -0.072120778262615204 0.063135586678981781 -0.104555621743202209 -0.056865565478801727 -0.013036976568400860 -0.065297022461891174 -0.062972277402877808 0.045974485576152802 -0.192103490233421326 0.158987686038017273 -0.196029812097549438 -0.177391141653060913 0.033321332186460495 -0.070073083043098450 -0.039610717445611954 0.093146607279777527 0.060955472290515900 0.037716396152973175 0.082487031817436218 0.161188706755638123 -0.097549431025981903 0.087222650647163391 -0.118953101336956024 -0.079024985432624817 0.122211642563343048 0.176248759031295776 -0.107950426638126373 0.031028529629111290 -0.077966772019863129 -0.091859422624111176 0.085493676364421844 -0.064365632832050323 0.018342504277825356 0.004944404121488333 -0.070580661296844482 -0.023327361792325974 0.027274092659354210 -0.171428546309471130
-0.006119522266089916 0.110339961946010590 0.091489881277084351 0.021508138626813889 0.174898326396942139 -0.177159041166305542 -0.146244704723358154 -0.085106499493122101 -0.072916038334369659 0.050482492893934250 0.193084508180618286 -0.077126294374465942 0.055693868547677994 0.099706903100013733 0.106360197067260742 0.121465772390365601 0.001379033317789435 -0.077949114143848419 -0.018758425489068031 0.053730629384517670 0.026487594470381737 -0.120742090046405792 0.146840661764144897 -0.039364978671073914 0.091104634106159210 0.015070600435137749 0.049093335866928101 -0.177098572254180908 0.015475295484066010 -0.021449591964483261 -0.078122034668922424 0.064484357833862305 0.178774073719978333 0.039663486182689667 -0.071276850998401642 -0.039890710264444351 0.166856974363327026 0.062893331050872803 -0.169220387935638428 -0.112375743687152863 -0.085925981402397156 0.119097158312797546 0.002383034443482757 -0.027545236051082611 -0.026125516742467880 0.059296462684869766 0.033532608300447464 0.125858977437019348 -0.141578912734985352 0.147387355566024780 -0.029551634564995766 -0.114699505269527435 -0.008915839716792107 -0.009381533600389957 -0.045793715864419937 0.094675570726394653 -0.175207108259201050 -0.126960217952728271 0.075887262821197510 -0.138843581080436707 0.018025623634457588 0.068496316671371460 0.023080570623278618 0.048544742166996002 0.138421967625617981 0.039388373494148254 0.106218904256820679 -0.023620828986167908 0.163403868675231934 0.075970552861690521 0.249050796031951904 -0.396502465009689331 0.145537704229354858 -0.024110069498419762 -0.063034474849700928 0.040786214172840118 0.017187040299177170 0.157453894615173340 0.082243435084819794 0.086778573691844940 0.101471431553363800 0.085009694099426270 0.026366198435425758 0.089106611907482147 -0.129602417349815369 0.175613895058631897 -0.043440192937850952 -0.079925134778022766 -0.069807939231395721 -0.202371537685394287 0.056786060333251953 0.059208087623119354 0.125188991427421570 0.121725812554359436 -0.000488370191305876 0.112713612616062164 -0.056806270033121109 0.141280889511108398 -0.174819871783256531 -0.144524544477462769
0.141776561737060547 -0.206207275390625000 0.168593347072601318 0.108030267059803009 0.005899960640817881 0.009791927412152290 -0.024263530969619751 0.006612439639866352 -0.094464294612407684 -0.122438766062259674 -0.067996330559253693 -0.137229025363922119 -0.092809490859508514 0.086381897330284119 -0.114388391375541687 -0.099474415183067322 -0.142083764076232910 0.130046740174293518 -0.089589580893516541 -0.025632906705141068 -0.072705723345279694 0.088446989655494690 0.052613422274589539 -0.046968754380941391 0.036851987242698669 0.175910159945487976 -0.021418206393718719 0.068680271506309509 0.177305236458778381 0.102275289595127106 -0.005211275070905685 -0.099721781909465790 0.162130057811737061 -0.232952907681465149 -0.121229276061058044 0.041284732520580292 0.136827573180198669 -0.099716909229755402 -0.037312608212232590 0.149452716112136841 -0.064810849726200104 0.093997418880462646 -0.075739465653896332 0.157467678189277649 0.221393346786499023 -0.178633570671081543 -0.104490511119365692 0.129175126552581787 -0.076034829020500183 0.126359045505523682 0.041166488081216812 -0.140197470784187317 -0.156011328101158142 0.146427601575851440 -0.040419273078441620 0.185898140072822571 0.135636821389198303 0.098447218537330627 0.100127376616001129 -0.118057988584041595 -0.033621639013290405 -0.112424112856388092 0.188926681876182556 -0.139675378799438477 -0.031328983604907990 0.020547024905681610 0.029693031683564186 -0.077129848301410675 0.005395532120019197 -0.028193945065140724 0.055315554141998291 -0.075307272374629974 0.095277421176433563 -0.003541675163432956 0.003273948794230819 -0.153475686907768250 -0.032905079424381256 -0.083036616444587708 0.122513540089130402 0.096229329705238342 0.178257986903190613 -0.125516176223754883 -0.123756490647792816 0.165207251906394958 -0.017114514485001564 -0.039512742310762405 0.056340452283620834 0.112350314855575562 -0.182557255029678345 -0.226754844188690186 0.037670575082302094 -0.122471891343593597 -0.079032547771930695 -0.129628375172615051 -0.030876209959387779 -0.057730626314878464 0.152029380202293396 -0.179399922490119934 -0.076140291988849640 -0.088999636471271515
0.010293880477547646 0.233956202864646912 0.075769864022731781 -0.172409132122993469 0.060013528913259506 0.037916645407676697 -0.032891467213630676 0.007147099822759628 0.119032002985477448 -0.093800291419029236 -0.012054072692990303 0.071096129715442657 -0.129906103014945984 -0.032896712422370911 0.052090454846620560 -0.124922439455986023 0.188120365142822266 0.172548949718475342 0.097149483859539032 0.155625134706497192 0.062701940536499023 -0.100583419203758240 -0.137300252914428711 0.099361397325992584 0.057938806712627411 -0.171854853630065918 0.174637719988822937 -0.059175793081521988 0.090681925415992737 0.134981483221054077 -0.002061568200588226 0.167642474174499512 -0.068711742758750916 -0.115172654390335083 -0.068647339940071106 0.161474823951721191 0.008460568264126778 0.023212499916553497 0.110990844666957855 -0.027536567300558090 -0.013017970137298107 0.131341338157653809 0.104389332234859467 -0.074300371110439301 -0.104301705956459045 -0.077192403376102448 -0.130045279860496521 0.046398807317018509 0.080875948071479797 0.076375678181648254 0.084600262343883514 0.042565416544675827 0.104673035442829132 0.042398791760206223 0.138638705015182495 -0.143275246024131775 0.092522665858268738 0.161625236272811890 0.022370792925357819 0.158385291695594788 0.049347683787345886 0.094215527176856995 -0.135681226849555969 -0.015617513097822666 0.055441521108150482 -0.018295289948582649 0.138322219252586365 -0.011350641027092934 -0.144364118576049805 0.061777189373970032 -0.142779424786567688 -0.123005665838718414 -0.127628475427627563 0.118915535509586334 0.063305296003818512 0.069562941789627075 0.039713650941848755 -0.082709737122058868 -0.003158310195431113 0.007257618010044098 -0.047547444701194763 -0.120622619986534119 -0.157144635915756226 -0.017179528251290321 0.158756926655769348 0.113436289131641388 0.064094640314579010 0.069242686033248901 0.023720769211649895 -0.022217268124222755 -0.056645706295967102 -0.164497613906860352 -0.044508185237646103 -0.043849121779203415 0.118325352668762207 -0.019270716235041618 -0.233775332570075989 0.023327304050326347 -0.090379275381565094 0.165727347135543823
0.080635495483875275 -0.175881236791610718 0.146654039621353149 0.089741505682468414 -0.151743799448013306 -0.005996086634695530 0.126340806484222412 0.098769865930080414 0.100253246724605560 -0.035356607288122177 -0.015583176165819168 -0.189057007431983948 0.116264514625072479 0.107803732156753540 0.076869763433933258 0.187222585082054138 -0.155531838536262512 -0.179662600159645081 -0.051688313484191895 -0.040657225996255875 -0.270071655511856079 0.088552676141262054 -0.124847725033760071 -0.089743852615356445 0.110152967274188995 -0.077171705663204193 -0.113749392330646515 -0.013155801221728325 0.121081903576850891 -0.156005427241325378 0.038925901055335999 -0.148301526904106140 0.091195493936538696 -0.068058900535106659 0.093027718365192413 -0.310798615217208862 -0.143126726150512695 -0.171466678380966187 -0.018829513341188431 -0.193273767828941345 -0.037351995706558228 -0.102784804999828339 0.111821576952934265 -0.024401331320405006 -0.151586577296257019 -0.070455625653266907 0.035508546978235245 0.098251007497310638 0.145294621586799622 -0.181728318333625793 -0.019305227324366570 0.037738103419542313 0.147575065493583679 -0.014682122506201267 0.037712346762418747 0.193881094455718994 0.129622861742973328 -0.063518263399600983 -0.210596650838851929 -0.024567423388361931 0.012855421751737595 0.030900977551937103 -0.053365673869848251 0.159853786230087280 0.140427842736244202 -0.026348672807216644 -0.015040817670524120 -0.078564338386058807 -0.002011531963944435 0.138670220971107483 0.013929399661719799 -0.042754143476486206 -0.081917576491832733 0.056702379137277603 -0.107515133917331696 0.011557949706912041 -0.272418797016143799 -0.111018158495426178 -0.141640469431877136 0.118813239037990570 -0.072531253099441528 0.137407615780830383 -0.048909775912761688 0.114882469177246094 -0.015772959217429161 -0.088222138583660126 0.113264851272106171 0.122900299727916718 0.122438713908195496 0.015003958716988564 0.069045566022396088 -0.003536085831001401 0.019913373515009880 -0.184123158454895020 0.093865573406219482 0.059375058859586716 0.189004540443420410 -0.115112714469432831 -0.060894664376974106 0.036805171519517899
0.204358860850334167 0.062644228339195251 0.155769884586334229 -0.162068858742713928 0.028195925056934357 -0.058969832956790924 0.145621329545974731 0.010037711821496487 -0.131773337721824646 -0.106405928730964661 -0.050000440329313278 0.041594538837671280 -0.143448665738105774 -0.022540401667356491 0.011017337441444397 0.138350367546081543 0.063497588038444519 -0.039434917271137238 -0.070907734334468842 0.165093749761581421 0.192862898111343384 -0.149681165814399719 0.048419047147035599 0.137217029929161072 0.028063116595149040 -0.166611492633819580 -0.056542284786701202 -0.005351685453206301 -0.071663342416286469 -0.019474610686302185 0.119813837110996246 0.032797198742628098 0.091172389686107635 0.006980750709772110 0.217264607548713684 -0.058722630143165588 -0.056057490408420563 0.065698325634002686 0.051117070019245148 0.152197495102882385 -0.086600482463836670 -0.144446954131126404 -0.223812252283096313 0.136391982436180115 -0.024390997365117073 0.238312125205993652 -0.142950296401977539 0.054559763520956039 -0.111093156039714813 0.159842312335968018 0.170460805296897888 -0.031185755506157875 0.028557291254401207 -0.256888538599014282 -0.120386444032192230 0.089980676770210266 -0.067023269832134247 -0.032457657158374786 0.113455809652805328 0.171109586954116821 0.013160553760826588 -0.105651013553142548 -0.052648432552814484 -0.175560757517814636 0.104042187333106995 0.043939247727394104 0.044382318854331970 -0.002887818729504943 0.043037839233875275 0.033818747848272324 0.005648042540997267 -0.111018896102905273 -0.056474257260560989 0.020940013229846954 0.135546296834945679 -0.009375833906233311 0.043104037642478943 0.079832449555397034 0.133675813674926758 -0.025827193632721901 0.012008258141577244 0.049878850579261780 0.052987981587648392 -0.021499203518033028 -0.077138125896453857 0.103863105177879333 0.158183142542839050 0.149368211627006531 -0.054066970944404602 -0.005730681121349335 0.112691901624202728 -0.136583924293518066 0.119852222502231598 0.166150599718093872 0.170936763286590576 0.158559024333953857 -0.009537504985928535 0.129655137658119202 -0.071301646530628204 0.113971211016178131
-0.043520424515008926 0.115149900317192078 0.041514735668897629 -0.100938394665718079 -0.047451164573431015 0.165663644671440125 0.165253713726997375 0.026185128837823868 -0.084230378270149231 0.080755263566970825 0.133199870586395264 -0.047571435570716858 -0.097248330712318420 -0.103175595402717590 -0.091241940855979919 -0.146698012948036194 -0.125629380345344543 0.187443867325782776 0.065310157835483551 -0.006553163286298513 0.197788730263710022 0.157405123114585876 -0.170786976814270020 -0.121931254863739014 -0.156616002321243286 -0.137459367513656616 -0.148014202713966370 0.210455507040023804 0.121138885617256165 0.001270303502678871 0.077441230416297913 -0.123794220387935638 -0.098111577332019806 0.003090123413130641 0.033914454281330109 -0.089873515069484711 0.178340911865234375 0.097716182470321655 -0.126162007451057434 0.020532095804810524 -0.060343548655509949 0.162107586860656738 0.024684159085154533 0.086555182933807373 -0.145548135042190552 -0.008968190290033817 -0.093051873147487640 -0.129389658570289612 0.083839036524295807 -0.058061879128217697 0.137327045202255249 -0.040030911564826965 0.025267394259572029 0.141681477427482605 -0.123152546584606171 0.106876760721206665 0.024825183674693108 0.115804314613342285 0.026529546827077866 0.138129651546478271 -0.095818981528282166 0.193115532398223877 -0.117407754063606262 0.165274903178215027 0.002780363894999027 -0.204679071903228760 0.000657610711641610 -0.112851068377494812 -0.083394989371299744 0.064142569899559021 -0.004689210560172796 0.147083997726440430 0.188777968287467957 0.160477340221405029 -0.113505318760871887 0.013363847509026527 0.148108601570129395 0.153383985161781311 0.170258268713951111 -0.117004670202732086 -0.188124567270278931 -0.037108194082975388 -0.020162489265203476 -0.023752229288220406 -0.048607863485813141 -0.163398578763008118 0.112218104302883148 0.075418584048748016 0.064839012920856476 -0.195421367883682251 -0.082089066505432129 0.023468777537345886 0.092292800545692444 0.149772390723228455 0.129250004887580872 -0.090910434722900391 -0.131409466266632080 -0.057723101228475571 0.221783965826034546 0.032265763729810715
0.148908779025077820 -0.017499219626188278 -0.036925829946994781 -0.154900044202804565 0.045878417789936066 -0.013745367527008057 -0.172483801841735840 0.105009935796260834 0.035576038062572479 -0.135534197092056274 0.153951242566108704 0.107387222349643707 -0.096489131450653076 -0.152263283729553223 0.072405427694320679 -0.092272423207759857 0.195248559117317200 0.142788380384445190 -0.045868627727031708 0.073678150773048401 0.085574708878993988 -0.011570903472602367 -0.056951940059661865 -0.162379592657089233 0.133860558271408081 -0.229444056749343872 0.005804626271128654 -0.057250559329986572 0.162103101611137390 0.070326745510101318 0.110138095915317535 -0.137937024235725403 0.041825938969850540 0.089659422636032104 0.199932128190994263 0.025963077321648598 0.100517645478248596 0.097156181931495667 -0.144946634769439697 -0.143965020775794983 0.111589245498180389 -0.046675071120262146 -0.151323229074478149 -0.087500043213367462 -0.007957897149026394 0.169132575392723083 -0.294150978326797485 -0.122457265853881836 -0.156464010477066040 -0.023599347099661827 0.167207598686218262 0.122339934110641479 0.117579624056816101 0.013930276967585087 0.071818806231021881 0.051290731877088547 -0.095074921846389771 -0.007268634624779224 0.126949638128280640 0.130190864205360413 -0.090875156223773956 -0.138676762580871582 -0.197023540735244751 -0.041925922036170959 -0.102858915925025940 0.038775585591793060 0.132508337497711182 0.072484932839870453 -0.149609640240669250 0.226905211806297302 -0.090776674449443817 -0.197643697261810303 0.030862912535667419 0.018242610618472099 -0.043384242802858353 -0.081388674676418304 0.186291679739952087 0.117985315620899200 -0.121620804071426392 0.050719603896141052 -0.163950845599174500 0.112113118171691895 -0.064470298588275909 -0.154549092054367065 0.171566367149353027 0.121404238045215607 0.237849175930023193 -0.160772338509559631 -0.029986618086695671 -0.174856156110763550 0.124073043465614319 -0.020224330946803093 0.134105175733566284 0.097518555819988251 -0.072551645338535309 0.140914335846900940 0.057328071445226669 -0.162215232849121094 -0.146270141005516052 0.314851105213165283
-0.115387946367263794 -0.123170942068099976 0.041576340794563293 -0.109358415007591248 -0.020919708535075188 0.074872009456157684 0.132661521434783936 -0.067311152815818787 -0.094722934067249298 -0.112954206764698029 0.108853809535503387 -0.109587162733078003 -0.146798938512802124 -0.006506843958050013 0.077516071498394012 0.000067595108703244 0.095775321125984192 -0.007383848074823618 -0.031464677304029465 0.002751183696091175 0.061814304441213608 -0.088056273758411407 0.083360694348812103 -0.073053985834121704 -0.102513208985328674 0.102367728948593140 0.013289436697959900 -0.101517468690872192 -0.157022118568420410 0.142534196376800537 -0.206712752580642700 -0.123863093554973602 0.026287596672773361 0.124371066689491272 -0.102965526282787323 0.153199315071105957 0.066128611564636230 0.206810832023620605 -0.148029625415802002 -0.013636805117130280 -0.050078563392162323 0.047653332352638245 0.139442577958106995 -0.144111141562461853 -0.070921927690505981 -0.013519832864403725 0.098631523549556732 -0.038036365061998367 -0.102906897664070129 -0.186423733830451965 0.090198658406734467 -0.061328548938035965 0.023548513650894165 0.047518469393253326 0.021638896316289902 0.002885264344513416 -0.141552478075027466 0.026784935966134071 -0.033275324851274490 -0.163147509098052979 0.088433377444744110 0.176348105072975159 0.019654640927910805 0.196167409420013428 -0.049509923905134201 -0.140399068593978882 0.049811344593763351 -0.057141274213790894 0.061907924711704254 -0.146283090114593506 -0.027907000854611397 0.058631099760532379 -0.145477116107940674 0.120118468999862671 -0.195531606674194336 0.094965428113937378 -0.046617597341537476 0.038345541805028915 -0.021004600450396538 0.029163690283894539 -0.196690276265144348 -0.117523550987243652 0.026304669678211212 0.108269691467285156 -0.057505235075950623 -0.162248000502586365 0.008486551232635975 -0.071490019559860229 -0.009768594056367874 -0.134997591376304626 -0.066355653107166290 0.007138530258089304 0.037977088242769241 -0.147501066327095032 0.059456788003444672 0.068531148135662079 0.171783402562141418 -0.041487284004688263 0.134324684739112854 0.052372351288795471
-0.182201340794563293 -0.153010427951812744 0.053093668073415756 -0.068975821137428284 0.175193399190902710 0.157094970345497131 -0.129402175545692444 0.068485870957374573 -0.007911072112619877 -0.104713581502437592 -0.101147525012493134 0.154094278812408447 -0.109694138169288635 0.030981432646512985 0.004620787687599659 0.176786541938781738 0.072541892528533936 0.069192603230476379 -0.001492099952884018 -0.051688641309738159 -0.192475661635398865 -0.149635389447212219 -0.143755048513412476 -0.135639861226081848 -0.179453864693641663 -0.184533193707466125 0.080794215202331543 0.114180363714694977 -0.031926207244396210 0.104327395558357239 -0.087486922740936279 0.143035203218460083 -0.130539387464523315 -0.068705819547176361 -0.233605220913887024 0.025208102539181709 -0.124767176806926727 -0.153747260570526123 -0.019496729597449303 -0.069019757211208344 -0.157196417450904846 -0.113638669252395630 -0.043500322848558426 0.052757702767848969 0.014646482653915882 -0.104397594928741455 0.027750378474593163 0.085317291319370270 -0.149177446961402893 -0.151785925030708313 0.057487644255161285 0.000666145584546030 -0.086525127291679382 -0.076073497533798218 -0.063638493418693542 -0.076178885996341705 0.166932716965675354 0.010096468031406403 0.017392335459589958 -0.205661669373512268 -0.185359373688697815 -0.112341590225696564 -0.054987467825412750 0.155228853225708008 -0.099120177328586578 0.011656059883534908 0.163369506597518921 -0.182073444128036499 -0.050329923629760742 -0.236400619149208069 -0.054801806807518005 -0.100214518606662750 0.095905952155590057 -0.097226761281490326 0.100205242633819580 -0.061732411384582520 0.014659974724054337 0.141772672533988953 0.102571882307529449 -0.057831302285194397 0.128926202654838562 0.178785845637321472 0.083764456212520599 0.014569956809282303 -0.139850407838821411 0.131525099277496338 -0.016162268817424774 0.078941822052001953 -0.127900362014770508 0.020659042522311211 -0.053709387779235840 -0.043370056897401810 -0.163196831941604614 -0.094209529459476471 0.083615727722644806 0.129383668303489685 -0.017698515206575394 -0.033701337873935699 0.056150969117879868 -0.150263592600822449
-0.066347904503345490 -0.204906508326530457 0.203868985176086426 -0.004512321203947067 0.015585366636514664 -0.189163759350776672 0.132319048047065735 0.167498424649238586 -0.006416016258299351 -0.031251925975084305 0.216094195842742920 0.108694151043891907 0.005655472166836262 0.156856581568717957 0.118150778114795685 0.091490700840950012 -0.101980052888393402 -0.004713528789579868 -0.083262942731380463 -0.065895676612854004 -0.060525357723236084 0.024546237662434578 0.131687387824058533 -0.012690789066255093 -0.068086594343185425 0.141261577606201172 0.150687351822853088 -0.075792513787746429 -0.111246325075626373 -0.213056191802024841 -0.098663158714771271 0.132401466369628906 0.185391560196876526 0.000701935787219554 0.034900944679975510 -0.018819184973835945 0.007515882141888142 -0.016454987227916718 0.053211253136396408 0.155384749174118042 0.039327289909124374 -0.033787228167057037 -0.019588446244597435 -0.142066150903701782 0.201960936188697815 0.010435021482408047 -0.179512381553649902 -0.041734524071216583 -0.074462488293647766 -0.042758777737617493 -0.035498581826686859 -0.184049725532531738 -0.196806743741035461 -0.119551897048950195 -0.156738698482513428 0.174175441265106201 0.104710295796394348 -0.118437267839908600 -0.061977196484804153 -0.070715837180614471 -0.181443929672241211 0.066548526287078857 -0.099260054528713226 -0.215745016932487488 0.137216329574584961 0.328811496496200562 -0.036579713225364685 -0.158851549029350281 0.118959546089172363 0.115188986063003540 0.057460032403469086 -0.504401981830596924 0.156323954463005066 0.156837552785873413 0.061654862016439438 -0.042487740516662598 -0.302296191453933716 0.160285800695419312 0.078918546438217163 0.215636953711509705 0.152339830994606018 -0.016706841066479683 -0.123148225247859955 -0.104919940233230591 0.086094968020915985 0.217465952038764954 0.129899606108665466 0.158169180154800415 0.032697707414627075 0.038851872086524963 -0.039013106375932693 0.099778085947036743 0.023133911192417145 0.003235132666304708 -0.032804634422063828 0.046970929950475693 -0.057985365390777588 -0.100364968180656433 -0.410572707653045654 0.068892486393451691
-0.070212841033935547 0.014948304742574692 0.011044926010072231 0.131158828735351562 -0.132276132702827454 0.116366185247898102 0.044433694332838058 0.025138083845376968 0.086648426949977875 0.169051274657249451 0.122903220355510712 -0.036200243979692459 0.108061552047729492 0.043331649154424667 0.153566315770149231 0.126245006918907166 0.079598315060138702 -0.059815563261508942 0.018323084339499474 0.000522267248015851 0.002435411792248487 -0.087606325745582581 -0.028302611783146858 -0.134479239583015442 0.148796379566192627 0.051209259778261185 -0.057720378041267395 -0.039723355323076248 0.163359329104423523 0.103279568254947662 -0.102417625486850739 -0.143294185400009155 0.149879530072212219 0.093158192932605743 -0.008233773522078991 0.041185002774000168 0.099317215383052826 0.085106320679187775 -0.110734350979328156 -0.010261163115501404 -0.032893981784582138 -0.105631098151206970 -0.077836796641349792 -0.006304414011538029 0.056924771517515182 0.102849029004573822 0.012513187713921070 0.016311254352331161 -0.099801264703273773 -0.147384926676750183 -0.028580212965607643 -0.154237359762191772 0.121982678771018982 0.135113358497619629 -0.130181252956390381 -0.041418761014938354 0.182195797562599182 0.091789260506629944 -0.000917695986572653 0.102808460593223572 0.143175974488258362 0.102389313280582428 -0.077704198658466339 -0.101691626012325287 -0.036913804709911346 0.109638705849647522 0.081869944930076599 0.128484487533569336 0.026302292943000793 0.132394790649414062 -0.153916582465171814 0.086321115493774414 -0.047248195856809616 0.147618308663368225 0.065079696476459503 -0.107510916888713837 0.128323450684547424 -0.009608836844563484 0.046604923903942108 -0.097204297780990601 -0.070429995656013489 -0.180085316300392151 -0.101410798728466034 0.107013411819934845 0.003336262190714478 -0.144142463803291321 0.113499671220779419 0.044835273176431656 -0.142408952116966248 0.022635376080870628 0.081041887402534485 -0.090259000658988953 -0.083914317190647125 -0.135014474391937256 -0.026326643303036690 0.122422657907009125 0.132441982626914978 -0.154889151453971863 -0.079770170152187347 0.135145246982574463
-0.113349288702011108 0.249485477805137634 0.003191627562046051 -0.058688141405582428 0.047857947647571564 0.151362076401710510 0.112550243735313416 0.051631797105073929 0.019833184778690338 0.047439627349376678 -0.077740341424942017 -0.150207787752151489 0.357737571001052856 -0.112740807235240936 0.075213022530078888 -0.136606797575950623 0.102196224033832550 -0.139088645577430725 -0.153005272150039673 0.256603151559829712 0.047119636088609695 0.086429491639137268 -0.128106310963630676 0.032933473587036133 -0.181930556893348694 -0.202417835593223572 0.069769524037837982 0.030591109767556190 -0.147093906998634338 0.145626395940780640 -0.118078149855136871 -0.067646384239196777 0.162918210029602051 0.082684315741062164 -0.086740732192993164 -0.088382475078105927 -0.127030611038208008 0.164819940924644470 -0.108152829110622406 -0.047526746988296509 0.011799493804574013 -0.073441721498966217 0.150847181677818298 -0.123337484896183014 0.135417371988296509 0.056551322340965271 0.155090808868408203 0.093198038637638092 -0.047004185616970062 0.093584425747394562 -0.056411799043416977 -0.040804851800203323 0.037238385528326035 0.102880232036113739 0.133817389607429504 0.124611742794513702 0.048474825918674469 -0.029069159179925919 -0.142318353056907654 0.182350292801856995 -0.114676386117935181 0.041432619094848633 0.057958133518695831 -0.039870597422122955 0.141468286514282227 0.096203438937664032 0.165667772293090820 0.042591474950313568 -0.020834479480981827 0.187590599060058594 -0.185195550322532654 0.263929903507232666 -0.073998026549816132 -0.127323687076568604 -0.002357854507863522 -0.114050827920436859 0.237649276852607727 -0.057815812528133392 0.135081022977828979 0.077717296779155731 0.149170652031898499 0.093422584235668182 -0.171773910522460938 -0.000216061613173224 0.023136656731367111 0.104493178427219391 0.166207998991012573 0.189722716808319092 0.004825700074434280 0.253463059663772583 0.035506572574377060 0.125609815120697021 -0.148620411753654480 0.103168882429599762 -0.000276407430646941 -0.137290060520172119 0.044663388282060623 0.035608146339654922 0.101212769746780396 -0.022019816562533379
0.251171350479125977 -0.118397459387779236 0.210744202136993408 -0.131157726049423218 0.081435419619083405 0.037127763032913208 -0.015967004001140594 0.103520102798938751 0.102241285145282745 0.166769593954086304 0.223215237259864807 -0.045839030295610428 -0.118041217327117920 0.175694882869720459 -0.165878832340240479 0.190417736768722534 0.031626563519239426 -0.153175488114356995 -0.116773605346679688 0.140243679285049438 0.060493975877761841 0.183336108922958374 -0.189419165253639221 0.079778708517551422 -0.050610043108463287 0.036463763564825058 0.007906224578619003 -0.142120480537414551 0.011405015364289284 -0.090085044503211975 0.006991610862314701 -0.064328886568546295 0.158666506409645081 -0.117796510457992554 0.010262187570333481 -0.134518325328826904 0.074260868132114410 -0.088532194495201111 0.041767928749322891 -0.111189141869544983 -0.146811649203300476 -0.099888727068901062 -0.101604484021663666 -0.062580049037933350 0.174493774771690369 0.096773162484169006 0.077327638864517212 -0.063590593636035919 0.081229969859123230 0.012826169840991497 -0.099781267344951630 -0.176083698868751526 -0.175021186470985413 0.022236205637454987 -0.029923589900135994 0.100056193768978119 0.161769747734069824 -0.207283675670623779 0.016486164182424545 0.104204513132572174 -0.159226030111312866 -0.009546876884996891 -0.040635399520397186 0.066224068403244019 0.142097339034080505 0.396023035049438477 -0.079387396574020386 -0.183345690369606018 0.174128577113151550 -0.025377983227372169 0.076372832059860229 -0.318191945552825928 -0.062401894479990005 0.087930701673030853 0.192268952727317810 0.001429436728358269 -0.158542305231094360 -0.056118056178092957 -0.073644705116748810 0.043578051030635834 0.126794934272766113 0.125543832778930664 0.139816552400588989 0.027977501973509789 0.058704886585474014 -0.015464792959392071 -0.084280632436275482 -0.045250400900840759 -0.069512590765953064 -0.055324595421552658 0.062293019145727158 -0.145498543977737427 0.016045618802309036 0.124667286872863770 -0.145803421735763550 0.054136727005243301 -0.120695635676383972 -0.036057643592357635 -0.055072713643312454 -0.036092042922973633
-0.065387502312660217 -0.066454917192459106 0.190164744853973389 0.146861076354980469 0.090235494077205658 0.004443940706551075 -0.056551419198513031 0.225901767611503601 -0.006883483380079269 -0.142887964844703674 -0.128195881843566895 -0.015282132662832737 -0.180590733885765076 0.022700497880578041 -0.149888008832931519 -0.048835515975952148 -0.106416955590248108 -0.037674628198146820 -0.116783872246742249 0.047273080796003342 0.221123918890953064 0.058763254433870316 -0.075192451477050781 -0.006864336319267750 0.131528526544570923 0.089359752833843231 -0.174065515398979187 -0.148845925927162170 0.010605324991047382 -0.184817999601364136 -0.011239000596106052 -0.146951630711555481 0.154327690601348877 0.040074147284030914 -0.102943621575832367 0.152389839291572571 -0.103204153478145599 0.110220357775688171 0.127068519592285156 -0.092324882745742798 0.164161682128906250 0.210740849375724792 -0.109649822115898132 -0.008120992220938206 0.187296494841575623 0.112760007381439209 -0.017316302284598351 0.033308848738670349 0.010728745721280575 0.056683655828237534 0.190126553177833557 0.054535686969757080 0.021739993244409561 -0.022708311676979065 -0.103110060095787048 -0.005254944320768118 0.069725468754768372 -0.007754230406135321 0.176905646920204163 -0.055824380367994308 0.096158497035503387 -0.107949480414390564 0.126392096281051636 0.036129891872406006 0.034484650939702988 0.056127045303583145 0.164336070418357849 0.162481188774108887 0.050033681094646454 0.026470869779586792 0.009427816607058048 -0.183395430445671082 -0.055871907621622086 0.002753872424364090 0.149766936898231506 -0.083964996039867401 -0.251491725444793701 0.176726996898651123 -0.050590213388204575 0.060720786452293396 0.025524152442812920 0.023070177063345909 -0.127235040068626404 0.152352750301361084 0.025552401319146156 -0.054541703313589096 -0.028405198827385902 -0.079307712614536285 -0.084788262844085693 -0.026802267879247665 -0.057274073362350464 0.098208203911781311 0.046849112957715988 0.184671193361282349 -0.124588012695312500 -0.140604957938194275 0.155658021569252014 -0.081370808184146881 0.057549774646759033 -0.156419694423675537
-0.007336525712162256 -0.048545014113187790 0.043948866426944733 0.005657021421939135 0.046085588634014130 -0.016453092917799950 0.144085481762886047 -0.028175156563520432 -0.053574413061141968 0.076068982481956482 0.100452363491058350 -0.079032495617866516 -0.042243212461471558 0.151327848434448242 0.131759256124496460 0.053623974323272705 -0.006177392788231373 0.062158782035112381 -0.070845201611518860 0.128347814083099365 0.147380501031875610 0.040860626846551895 -0.022331405431032181 0.045703157782554626 -0.039499823004007339 0.086892075836658478 0.098066799342632294 -0.167735680937767029 -0.004044801462441683 -0.066825918853282928 0.008676812052726746 0.126400202512741089 -0.069215051829814911 0.119397833943367004 -0.024181364104151726 0.131056487560272217 -0.166170984506607056 0.008327777497470379 0.098869666457176208 -0.007340131327509880 0.094875633716583252 -0.111957676708698273 -0.036952674388885498 0.127481490373611450 -0.027927991002798080 -0.102024264633655548 0.055372953414916992 0.016315968707203865 -0.000822959002107382 0.144244298338890076 -0.066735841333866119 -0.040019590407609940 0.145352140069007874 -0.099851489067077637 -0.134931758046150208 0.055890202522277832 0.021611087024211884 -0.071256019175052643 -0.114726394414901733 0.091231361031532288 -0.146645158529281616 -0.040808591991662979 -0.061404317617416382 -0.037000078707933426 0.009957670234143734 0.033002384006977081 -0.095147237181663513 0.015839356929063797 -0.147391662001609802 0.068514682352542877 0.164187252521514893 0.117451950907707214 0.151826992630958557 0.103272527456283569 0.071226693689823151 0.100350081920623779 0.236731976270675659 0.200847506523132324 -0.045433919876813889 -0.057876009494066238 0.137974426150321960 0.138472035527229309 -0.180531352758407593 0.028442507609724998 0.162829637527465820 -0.082269139587879181 -0.104926638305187225 -0.135826319456100464 0.023944381624460220 -0.129763588309288025 0.188513889908790588 0.036882247775793076 0.016288338229060173 0.041901845484972000 0.022077575325965881 0.109840787947177887 -0.157380983233451843 -0.142955154180526733 0.012285589240491390 0.177663221955299377
-0.173175960779190063 -0.115941479802131653 -0.151774659752845764 -0.064361102879047394 0.088560692965984344 0.138707756996154785 -0.143042325973510742 -0.059662878513336182 -0.056600615382194519 -0.171228498220443726 -0.107759930193424225 -0.040533538907766342 -0.110453881323337555 -0.115871228277683258 -0.036833047866821289 -0.147543132305145264 -0.118790067732334137 0.117034748196601868 0.104151681065559387 -0.098117880523204803 0.184883773326873779 -0.131316304206848145 0.102994486689567566 0.072160273790359497 -0.046698816120624542 0.287192314863204956 0.013698416762053967 0.004432463552802801 -0.159183576703071594 -0.096135541796684265 -0.072003863751888275 0.033712517470121384 0.028325976803898811 0.078279554843902588 0.151912868022918701 0.271940201520919800 0.180713608860969543 0.039469700306653976 -0.006481318734586239 -0.068305313587188721 0.022750692442059517 0.092513062059879303 -0.181369036436080933 0.013091993518173695 0.176597580313682556 -0.112019062042236328 -0.014452699571847916 0.096941225230693817 -0.075496561825275421 0.169976234436035156 -0.075158834457397461 0.041912268847227097 -0.021356984972953796 -0.080823794007301331 0.142422780394554138 -0.145596906542778015 -0.191148757934570312 -0.125708729028701782 0.033872209489345551 -0.092360772192478180 0.095821663737297058 0.004497520159929991 0.115580514073371887 0.136463373899459839 -0.040816161781549454 -0.205608606338500977 -0.174256458878517151 0.051330033689737320 0.109625279903411865 -0.101291611790657043 -0.150125369429588318 -0.037961501628160477 -0.088731877505779266 0.089241556823253632 0.148289918899536133 -0.016928220167756081 0.219221293926239014 -0.043400954455137253 -0.157093182206153870 -0.135013952851295471 -0.142408445477485657 0.151131376624107361 0.113224849104881287 -0.064490348100662231 -0.018401099368929863 -0.111138090491294861 0.103996269404888153 -0.160503298044204712 -0.020847864449024200 -0.138065800070762634 0.205828100442886353 -0.142254889011383057 0.230945333838462830 -0.076167054474353790 0.070788040757179260 -0.050775833427906036 -0.074633657932281494 0.164849519729614258 0.015493607148528099 0.047076635062694550
