#Layer 1 Weights:
-0.202178835868835449 -0.050677362829446793 -0.059770207852125168 -0.127325177192687988 -0.055817112326622009 0.087401360273361206 0.154000014066696167 -0.181580990552902222 0.027775151655077934 -0.149941086769104004 0.185253977775573730 -0.174491524696350098 -0.051391448825597763 -0.081798598170280457 -0.130492344498634338 -0.230955719947814941 0.107944235205650330 0.020198088139295578 0.134795770049095154 0.009282114915549755 0.061538327485322952 0.022936625406146049 0.127432212233543396 0.007910881191492081 0.119865790009498596 0.101573161780834198 -0.001505358028225601 -0.024013429880142212 0.152608901262283325 0.036286275833845139 0.134214460849761963 -0.057375304400920868 -0.031386733055114746 0.037773225456476212 0.073505267500877380 -0.062715560197830200 0.047869324684143066 -0.183110609650611877 -0.002347866073250771 0.111010342836380005 0.208490610122680664 -0.058883100748062134 0.196861207485198975 0.116897173225879669 -0.149563282728195190 -0.137057244777679443 -0.148509249091148376 -0.123329371213912964 0.084268167614936829 -0.171782106161117554 0.119741745293140411 -0.207687795162200928 0.100474029779434204 -0.124843798577785492 0.145256012678146362 0.117725394666194916 0.088510997593402863 0.069043070077896118 -0.097465708851814270 0.152745991945266724 0.106614463031291962 0.114433996379375458 -0.080042198300361633 0.108328029513359070 0.054020166397094727 0.014819538220763206 0.248697638511657715 0.102390766143798828 -0.090482369065284729 -0.109864398837089539 -0.006866488140076399 -0.086180254817008972 0.151360616087913513 0.109948508441448212 0.123708546161651611 0.088476717472076416 -0.013571905903518200 -0.167173936963081360 0.134374037384986877 -0.051582042127847672 -0.056295219808816910 0.184541046619415283 0.065379440784454346 -0.162320345640182495 -0.103756457567214966 -0.172991096973419189 -0.144860580563545227 0.030083108693361282 -0.068152487277984619 0.024158982560038567 0.119217425584793091 -0.012387250550091267 -0.024180341511964798 -0.111889332532882690 0.122993856668472290 -0.081950657069683075 0.144323959946632385 -0.025629827752709389 0.124257870018482208 0.025661865249276161
0.016418974846601486 0.169103100895881653 -0.046147935092449188 -0.044443711638450623 0.013448719866573811 0.129601150751113892 0.068460479378700256 0.110679052770137787 0.141390651464462280 -0.229388251900672913 0.028540665283799171 0.109717756509780884 -0.167667448520660400 -0.106883645057678223 -0.116655625402927399 -0.036872893571853638 0.051790017634630203 0.119678020477294922 -0.154103338718414307 0.035007849335670471 -0.088128164410591125 0.173445701599121094 -0.091354236006736755 0.112740106880664825 -0.179577544331550598 -0.008098190650343895 -0.082043193280696869 -0.083606675267219543 -0.036048088222742081 0.019982919096946716 0.054823838174343109 0.001193428412079811 -0.108647726476192474 -0.108754806220531464 0.039590075612068176 -0.090873003005981445 -0.146664097905158997 -0.137127399444580078 -0.030411671847105026 -0.039867576211690903 0.184341862797737122 -0.157667845487594604 0.092226073145866394 0.161371260881423950 0.147062882781028748 -0.016262182965874672 -0.131277337670326233 -0.039932209998369217 -0.123865567147731781 -0.076195009052753448 -0.126374706625938416 -0.177821323275566101 -0.130443304777145386 0.149114534258842468 0.141347587108612061 -0.132420152425765991 0.077120169997215271 0.115851745009422302 -0.097205303609371185 0.024236777797341347 0.108108371496200562 0.154852539300918579 -0.131603732705116272 0.003621062729507685 0.163232609629631042 0.091551706194877625 0.003847158281132579 -0.209548592567443848 -0.188756346702575684 0.169095352292060852 0.107004597783088684 0.070691362023353577 0.133598566055297852 0.200211673974990845 -0.110790871083736420 0.017812985926866531 -0.167459547519683838 0.110374808311462402 0.011443567462265491 0.036079619079828262 -0.175517439842224121 0.098524756729602814 0.114271216094493866 -0.080935031175613403 -0.154836162924766541 -0.087980888783931732 0.070668756961822510 -0.160263583064079285 -0.085385262966156006 -0.080238133668899536 -0.062894761562347412 -0.057763919234275818 0.057999480515718460 0.064388945698738098 -0.006038233637809753 0.048984166234731674 0.132989391684532166 -0.148076564073562622 -0.085896678268909454 -0.013294016942381859
0.101573608815670013 -0.049177601933479309 -0.111077733337879181 0.112837493419647217 -0.153266265988349915 0.136504784226417542 -0.089941047132015228 0.065702371299266815 -0.067084752023220062 -0.134987086057662964 -0.056029498577117920 0.035073366016149521 -0.100083172321319580 -0.024214653298258781 0.122825331985950470 0.047213312238454819 0.116348400712013245 0.121264584362506866 0.014782327227294445 0.070251211524009705 -0.106527894735336304 -0.072484098374843597 -0.043238695710897446 -0.094120390713214874 0.141499117016792297 0.098873972892761230 0.165527671575546265 0.128264501690864563 -0.056874401867389679 -0.150879532098770142 0.081354871392250061 0.111666254699230194 0.030781485140323639 0.103909827768802643 -0.001262504374608397 -0.073613315820693970 0.137746363878250122 0.075044184923171997 0.085390388965606689 0.111864037811756134 -0.117105074226856232 -0.047353338450193405 0.161012545228004456 -0.069712288677692413 0.106479600071907043 -0.107251182198524475 0.137602493166923523 0.114593587815761566 0.157888278365135193 0.137833833694458008 -0.049505509436130524 0.131882473826408386 -0.156223282217979431 -0.152848124504089355 -0.034692857414484024 -0.042403675615787506 0.105825595557689667 0.114763207733631134 -0.177325040102005005 -0.056211959570646286 0.151853337883949280 -0.008111232891678810 -0.008202822878956795 0.134864911437034607 0.137012675404548645 -0.260964453220367432 -0.049285698682069778 -0.104817651212215424 0.020958770066499710 0.004126059822738171 0.156395718455314636 0.158584743738174438 0.007309849839657545 0.144541040062904358 0.102252192795276642 0.034519966691732407 0.166852578520774841 0.136682271957397461 0.061966758221387863 -0.049492806196212769 -0.067581526935100555 0.103632241487503052 -0.027316635474562645 -0.162332519888877869 0.141851007938385010 -0.172538012266159058 0.140980288386344910 0.020175108686089516 -0.108598105609416962 0.028287736698985100 -0.004631740972399712 0.041198853403329849 0.018952893093228340 0.174915179610252380 -0.011568955145776272 0.030424872413277626 -0.176332622766494751 -0.175787076354026794 -0.077158100903034210 0.020735351368784904
-0.215044423937797546 -0.165449678897857666 -0.158845707774162292 0.069198146462440491 -0.021644143387675285 -0.030660901218652725 0.041645310819149017 -0.125288501381874084 0.114130884408950806 -0.171178787946701050 -0.053168006241321564 -0.212235957384109497 -0.227961212396621704 -0.068481966853141785 0.005896938499063253 -0.063076689839363098 -0.152265667915344238 -0.230405807495117188 0.204441919922828674 0.012483937665820122 -0.008625885471701622 0.010547925718128681 0.124891214072704315 0.117759987711906433 -0.136649698019027710 0.084193550050258636 -0.020163111388683319 -0.161256536841392517 -0.074507407844066620 -0.058632928878068924 0.016165072098374367 -0.038904927670955658 0.110192097723484039 0.110111095011234283 -0.015594602562487125 0.056686609983444214 0.140187665820121765 -0.216456279158592224 -0.005644034594297409 0.208328157663345337 0.212798416614532471 0.026888439431786537 -0.072061233222484589 -0.039188787341117859 -0.212140172719955444 0.142794817686080933 0.090604834258556366 0.021855935454368591 -0.096180051565170288 -0.121855184435844421 0.072074130177497864 -0.031192746013402939 0.140352025628089905 0.087843328714370728 0.128577336668968201 -0.049817826598882675 -0.054839942604303360 0.180348992347717285 0.120756275951862335 -0.055989820510149002 0.066245354712009430 -0.087659671902656555 -0.104344226419925690 -0.138456463813781738 -0.164846971631050110 -0.064406193792819977 0.004769451916217804 0.136298388242721558 0.271400392055511475 0.159554481506347656 0.176990047097206116 0.066263556480407715 0.178925961256027222 0.140513494610786438 -0.165893331170082092 0.040302377194166183 -0.106106095016002655 -0.082671038806438446 -0.049853190779685974 -0.039481312036514282 -0.023566195741295815 0.069628678262233734 -0.097452878952026367 -0.135283380746841431 -0.129888400435447693 -0.056819990277290344 0.114663444459438324 0.063267782330513000 -0.078923828899860382 -0.092549748718738556 0.123212471604347229 0.154130443930625916 -0.079329416155815125 -0.203349292278289795 0.136002689599990845 -0.189364984631538391 0.048318907618522644 0.064373902976512909 -0.139439746737480164 0.090062238276004791
-0.162539944052696228 0.100916415452957153 0.047520313411951065 -0.002238573506474495 0.151006564497947693 -0.053276300430297852 -0.106136783957481384 -0.175688326358795166 -0.031316176056861877 -0.033154103904962540 -0.010789864696562290 -0.065331034362316132 0.145528376102447510 0.164181619882583618 -0.140182837843894958 0.034894242882728577 0.140287026762962341 -0.163950055837631226 0.129223436117172241 -0.150395795702934265 -0.155403584241867065 0.065591037273406982 0.126548215746879578 -0.114978261291980743 -0.031044680625200272 0.107391729950904846 0.127066612243652344 -0.032356139272451401 0.060823798179626465 -0.046139277517795563 -0.113905608654022217 -0.005758768413215876 0.162012800574302673 -0.123538255691528320 -0.117158323526382446 0.092000447213649750 0.168191745877265930 0.167529061436653137 0.070513442158699036 0.134055152535438538 -0.035189181566238403 0.158826142549514771 0.068557173013687134 0.108409687876701355 0.084769912064075470 0.141325220465660095 -0.133427172899246216 -0.141263246536254883 -0.162884593009948730 -0.147569730877876282 -0.139895796775817871 -0.113789580762386322 -0.020507909357547760 -0.093380942940711975 -0.120104879140853882 -0.040393870323896408 -0.083296917378902435 0.169826894998550415 -0.069371923804283142 -0.077574774622917175 -0.013412795960903168 0.165979385375976562 0.070412836968898773 0.079896718263626099 0.082635723054409027 0.061469994485378265 -0.046557128429412842 -0.086480908095836639 0.235872492194175720 -0.020828289911150932 -0.060042820870876312 0.030935132876038551 0.161821633577346802 0.040676914155483246 -0.165882200002670288 0.131682246923446655 0.012311964295804501 0.124833449721336365 0.103521265089511871 -0.020356155931949615 0.051907930523157120 -0.042135834693908691 0.160733520984649658 -0.040618102997541428 -0.040646132081747055 -0.133063197135925293 0.005446241702884436 0.093354880809783936 0.064706191420555115 0.054876249283552170 -0.032379813492298126 0.058960273861885071 0.108813196420669556 -0.024253591895103455 -0.172706767916679382 0.111869961023330688 -0.224982693791389465 0.067789316177368164 -0.112557947635650635 -0.044899191707372665
0.106430776417255402 0.022165471687912941 0.018197448924183846 0.028161296620965004 0.060028687119483948 -0.054962210357189178 0.201177850365638733 0.069823369383811951 0.132543280720710754 -0.176831990480422974 -0.015848025679588318 0.123022519052028656 0.051934301853179932 -0.145246118307113647 0.150026142597198486 -0.188484117388725281 -0.039990421384572983 0.015298699028789997 0.092222325503826141 0.062688760459423065 -0.021226219832897186 -0.128907069563865662 0.009444963186979294 -0.005579189397394657 0.025806447491049767 -0.085903562605381012 -0.176895752549171448 0.087922245264053345 0.117767877876758575 -0.107452012598514557 0.082624733448028564 0.113143764436244965 0.119165532290935516 0.144215986132621765 0.143710076808929443 0.184786424040794373 0.102463580667972565 0.159508273005485535 -0.121291965246200562 -0.147822231054306030 0.124101899564266205 0.038900744169950485 -0.137202396988868713 -0.048008047044277191 0.047191049903631210 0.088836111128330231 0.123320519924163818 -0.072793178260326385 -0.085868246853351593 -0.080545596778392792 0.144147217273712158 0.100923791527748108 -0.034596841782331467 0.134200364351272583 0.092164427042007446 0.188760951161384583 -0.090159855782985687 -0.071433193981647491 0.043047711253166199 0.010741731151938438 -0.015543193556368351 0.134898751974105835 -0.156386107206344604 -0.139750897884368896 -0.122183889150619507 -0.051965065300464630 0.073738113045692444 -0.106879808008670807 0.166950851678848267 0.106407888233661652 0.181708738207817078 0.106109261512756348 0.019948884844779968 -0.016880672425031662 -0.084711484611034393 0.094102397561073303 0.023505030199885368 0.020438291132450104 -0.122684553265571594 -0.041335090994834900 -0.078396961092948914 0.164710119366645813 0.051023155450820923 -0.143466487526893616 0.167021349072456360 0.144494786858558655 0.144053339958190918 -0.066337078809738159 -0.101471364498138428 0.169325217604637146 0.187511548399925232 0.138798058032989502 -0.012656723149120808 0.003987897653132677 -0.033021617680788040 -0.136435762047767639 -0.137221872806549072 -0.060068245977163315 -0.063676595687866211 -0.019229836761951447
-0.153086453676223755 0.164168700575828552 -0.140700161457061768 0.020192772150039673 -0.132460087537765503 0.087648138403892517 0.013835182413458824 0.138609781861305237 0.063903391361236572 0.021784199401736259 -0.073958463966846466 -0.050191782414913177 0.003090213751420379 0.094677969813346863 -0.046770390123128891 0.147956192493438721 -0.117684073746204376 -0.031665202230215073 -0.020372658967971802 0.118083596229553223 0.088125087320804596 0.106076285243034363 -0.126938417553901672 -0.098187848925590515 0.131025403738021851 0.160124853253364563 0.119759835302829742 -0.145036533474922180 -0.006685815285891294 -0.086209237575531006 -0.069860391318798065 -0.128244325518608093 -0.017375973984599113 0.005933676846325397 -0.004582175519317389 0.025575170293450356 0.127458795905113220 -0.138333797454833984 0.134677648544311523 -0.130929976701736450 -0.137059807777404785 -0.016211757436394691 -0.122242383658885956 -0.157511949539184570 0.073425725102424622 -0.074523158371448517 0.082655884325504303 0.103497371077537537 -0.043133370578289032 0.107893317937850952 0.148065671324729919 0.154745250940322876 -0.009151848964393139 0.106257110834121704 0.038391973823308945 0.165079563856124878 -0.153151586651802063 -0.114099390804767609 -0.069911397993564606 -0.014724802225828171 0.067173920571804047 -0.119852632284164429 -0.100430130958557129 -0.009015209041535854 -0.042100738734006882 -0.168822914361953735 -0.000338375568389893 -0.119147397577762604 0.006271229125559330 0.014560584910213947 -0.073437653481960297 0.166859418153762817 -0.094008050858974457 -0.074264921247959137 -0.038138400763273239 0.094423055648803711 -0.132685914635658264 0.076874360442161560 -0.168962612748146057 -0.058970734477043152 -0.139509275555610657 0.110476627945899963 -0.152989774942398071 0.109468720853328705 0.142182365059852600 0.007432725746184587 -0.122990526258945465 0.101939760148525238 0.112633846700191498 0.123280458152294159 -0.019302258267998695 0.095713175833225250 -0.054781332612037659 0.148917779326438904 0.118209369480609894 -0.148720905184745789 -0.105008304119110107 0.158980026841163635 0.094088055193424225 0.047202803194522858
0.108009517192840576 -0.099307239055633545 -0.120962783694267273 0.083571054041385651 -0.083035431802272797 -0.009791570715606213 -0.171904981136322021 -0.039133366197347641 0.079435855150222778 -0.125029951333999634 -0.049070190638303757 0.145941972732543945 0.150962606072425842 -0.108813032507896423 0.103475898504257202 -0.021755015477538109 -0.054660424590110779 -0.075480550527572632 0.004840266425162554 -0.072852805256843567 -0.064326874911785126 -0.152531385421752930 -0.141782492399215698 -0.029343066737055779 -0.013135487213730812 -0.132445275783538818 0.028580209240317345 0.066703580319881439 0.129775583744049072 -0.104866601526737213 0.117484115064144135 -0.012015854008495808 -0.033549219369888306 -0.116168439388275146 0.087630167603492737 0.068089798092842102 0.038942504674196243 0.097256265580654144 0.064667090773582458 -0.083279132843017578 0.039365250617265701 -0.144661843776702881 0.141113162040710449 0.081312336027622223 0.076092250645160675 0.088062651455402374 0.091002263128757477 -0.023286955431103706 0.137680426239967346 0.066220447421073914 0.140406548976898193 -0.040854081511497498 -0.063829354941844940 -0.013471141457557678 -0.170228838920593262 0.117667794227600098 -0.153305575251579285 -0.076079957187175751 0.087464511394500732 -0.032942630350589752 -0.012068647891283035 -0.138591200113296509 0.011747689917683601 0.113994896411895752 0.154398679733276367 -0.226079702377319336 0.054338160902261734 0.040047891438007355 0.231052160263061523 0.033895328640937805 -0.042096216231584549 -0.112588413059711456 -0.057392228394746780 -0.085089810192584991 -0.121474213898181915 0.098569653928279877 0.146754384040832520 0.088645346462726593 -0.040560130029916763 -0.104524604976177216 -0.115793764591217041 -0.169110804796218872 0.050286810845136642 -0.175510957837104797 -0.043358869850635529 -0.109369114041328430 0.107543416321277618 0.093516536056995392 -0.133846804499626160 -0.023772008717060089 -0.128330960869789124 0.012682997621595860 -0.131479278206825256 -0.098129898309707642 0.095843203365802765 -0.036648575216531754 0.005238225683569908 -0.071298889815807343 -0.088639087975025177 -0.065528035163879395
-0.081396535038948059 0.008093257434666157 0.011385679244995117 0.087496958673000336 0.147224411368370056 0.134820610284805298 -0.045062262564897537 -0.015788706019520760 0.100944988429546356 0.128716066479682922 -0.078317210078239441 0.026227053254842758 0.087470978498458862 0.127056747674942017 0.072549350559711456 -0.003323272569105029 0.140539467334747314 -0.052845504134893417 0.153950616717338562 -0.182149887084960938 -0.003466121153905988 0.172087207436561584 -0.035839963704347610 -0.009589800611138344 0.114197008311748505 0.019542640075087547 0.142004311084747314 0.028393937274813652 -0.055665578693151474 -0.030101038515567780 -0.077173076570034027 0.063095144927501678 -0.111773259937763214 -0.088137969374656677 -0.017305305227637291 -0.188527911901473999 0.154706776142120361 0.158683836460113525 -0.012696648016571999 -0.001298899063840508 0.000595307908952236 -0.072836428880691528 0.145937561988830566 -0.063792563974857330 -0.002846945310011506 -0.061692334711551666 -0.145312592387199402 0.070952765643596649 0.014034277759492397 -0.128984615206718445 -0.092067092657089233 0.113404534757137299 -0.108816742897033691 0.178360566496849060 0.142351850867271423 -0.101960673928260803 -0.030901236459612846 0.026573957875370979 0.110393948853015900 0.102159217000007629 -0.020095698535442352 0.112392880022525787 -0.068174883723258972 0.164389491081237793 -0.085878871381282806 0.173601463437080383 -0.194368675351142883 -0.067050807178020477 -0.292095273733139038 0.058085273951292038 0.163240328431129456 0.014140453189611435 0.147021368145942688 0.032815232872962952 0.155232027173042297 0.023246228694915771 0.021836722269654274 -0.146563544869422913 0.076333545148372650 0.095575504004955292 -0.149872615933418274 -0.007470207754522562 -0.154479444026947021 0.136791855096817017 -0.134462296962738037 -0.060091458261013031 0.111984863877296448 -0.170507103204727173 -0.055919457226991653 0.150034710764884949 -0.123997502028942108 -0.136383056640625000 0.097775042057037354 -0.105257950723171234 0.066228568553924561 -0.015611259266734123 -0.083730354905128479 -0.157212123274803162 -0.116836160421371460 0.121754772961139679
0.197507485747337341 -0.145929440855979919 -0.062001198530197144 0.082488313317298889 0.099320486187934875 -0.181832954287528992 -0.253980398178100586 -0.004951889161020517 -0.042902499437332153 0.223247841000556946 -0.142517417669296265 0.101662941277027130 0.039464931935071945 0.115457966923713684 -0.096014522016048431 0.199700281023979187 0.023142147809267044 -0.076623544096946716 -0.203351438045501709 0.013367007486522198 0.099457681179046631 0.035463858395814896 -0.038486368954181671 -0.173067972064018250 0.072782278060913086 0.062416572123765945 0.152676835656166077 -0.057822994887828827 0.054368015378713608 -0.107458628714084625 -0.071207784116268158 0.055580798536539078 -0.090311408042907715 0.132433667778968811 -0.061121143400669098 0.068727061152458191 -0.035732060670852661 -0.047698747366666794 0.121428549289703369 -0.073259226977825165 -0.109411709010601044 0.036295760422945023 -0.102612651884555817 0.154895991086959839 -0.110304534435272217 0.101535387337207794 0.078046955168247223 0.107574880123138428 -0.145448923110961914 0.040755324065685272 0.098652169108390808 0.196906313300132751 0.111225157976150513 0.172477230429649353 -0.189557135105133057 -0.091626375913619995 0.048421699553728104 -0.038626208901405334 -0.042457118630409241 -0.004758990835398436 -0.163277074694633484 0.045311648398637772 -0.129616901278495789 -0.060393929481506348 0.037145495414733887 0.080098614096641541 -0.278443723917007446 -0.053160604089498520 -0.045889481902122498 0.101318106055259705 0.065407186746597290 -0.062914259731769562 -0.094182290136814117 -0.012641819193959236 0.032788194715976715 0.113425351679325104 0.033655356615781784 0.091461986303329468 0.010189825668931007 -0.015082618221640587 -0.061738085001707077 0.010987369343638420 0.104120388627052307 0.176705121994018555 0.143265530467033386 0.194602623581886292 -0.184583410620689392 -0.201569959521293640 0.194731488823890686 -0.207992002367973328 -0.116317495703697205 -0.022444682195782661 0.030322846025228500 -0.063724026083946228 0.003442044369876385 0.125633969902992249 0.190751239657402039 -0.104668535292148590 -0.004094125237315893 -0.184292227029800415
0.085466891527175903 -0.007702905219048262 -0.077881477773189545 -0.014412042684853077 0.066462770104408264 -0.051252193748950958 -0.258927464485168457 -0.033191561698913574 0.016693275421857834 0.253735780715942383 -0.177608847618103027 0.171014696359634399 0.124209351837635040 0.165142655372619629 -0.067183367908000946 0.035709168761968613 -0.034681726247072220 -0.029704267159104347 0.004857290536165237 0.033785868436098099 0.136950477957725525 -0.066400885581970215 -0.111546225845813751 -0.101299658417701721 0.187737584114074707 -0.134609058499336243 -0.138808429241180420 0.235005199909210205 0.127908349037170410 0.164587780833244324 0.117375046014785767 0.090724483132362366 0.031900800764560699 -0.015920037403702736 0.021121706813573837 -0.013929153792560101 -0.053068865090608597 0.185978963971138000 0.163035497069358826 0.018213417381048203 0.050778020173311234 -0.138868436217308044 -0.159784540534019470 0.003033426590263844 0.138043731451034546 0.144770190119743347 0.160753712058067322 -0.136486470699310303 -0.044577207416296005 -0.070361830294132233 -0.065804101526737213 0.110915906727313995 -0.086092829704284668 -0.054584354162216187 0.096422992646694183 -0.079536393284797668 0.107769012451171875 0.050679504871368408 0.128602296113967896 -0.102267429232597351 -0.190452456474304199 -0.206308975815773010 0.156928896903991699 -0.146075546741485596 0.057013072073459625 -0.107465498149394989 -0.206926748156547546 0.086933501064777374 -0.000074522766226437 0.112389452755451202 -0.055942431092262268 0.062123347073793411 -0.081270776689052582 -0.219628900289535522 -0.119560122489929199 0.160497844219207764 0.111876301467418671 -0.122883975505828857 0.142846688628196716 -0.050786681473255157 0.147019907832145691 -0.022955562919378281 0.191685855388641357 0.156841456890106201 0.047772582620382309 -0.054250925779342651 0.025304336100816727 -0.163362860679626465 0.176167592406272888 0.057659424841403961 0.087803654372692108 0.153751909732818604 -0.100356504321098328 0.216861963272094727 -0.110434487462043762 0.044748872518539429 0.184630066156387329 -0.027854960411787033 0.150516048073768616 0.035110700875520706
0.025222452357411385 -0.086022503674030304 -0.130372330546379089 -0.074145853519439697 -0.190275132656097412 0.175280094146728516 -0.016458960250020027 -0.056875508278608322 0.063848815858364105 0.050391037017107010 0.028787096962332726 -0.127975568175315857 -0.244293570518493652 -0.108698464930057526 0.057490367442369461 0.039484441280364990 -0.017438752576708794 -0.223206922411918640 0.272267580032348633 -0.019297139719128609 -0.094144657254219055 -0.166709840297698975 -0.060009196400642395 0.212650388479232788 0.075087673962116241 -0.157508924603462219 0.175729691982269287 0.105062015354633331 -0.057517789304256439 0.056050647050142288 -0.115041315555572510 0.021615672856569290 -0.233007296919822693 -0.107530623674392700 -0.234951034188270569 -0.081853382289409637 0.057620644569396973 -0.016463417559862137 0.036175318062305450 -0.028315113857388496 0.099925525486469269 -0.152508825063705444 0.079074047505855560 0.083925008773803711 -0.140929117798805237 -0.002983720274642110 -0.061084173619747162 0.174691557884216309 -0.108820840716362000 -0.172037839889526367 -0.084141716361045837 -0.034997113049030304 -0.077267296612262726 -0.184768572449684143 -0.034711096435785294 -0.077764756977558136 -0.038174003362655640 0.030145041644573212 0.050814524292945862 0.008072973228991032 0.062339469790458679 0.050130084156990051 -0.025129998102784157 -0.093647263944149017 -0.033499572426080704 -0.085959143936634064 0.188720777630805969 -0.018728207796812057 -0.040331032127141953 0.114073447883129120 0.110140755772590637 0.045844823122024536 0.109842494130134583 -0.087702594697475433 0.160653397440910339 -0.122174143791198730 -0.217718660831451416 -0.145441249012947083 -0.127385228872299194 0.054048623889684677 -0.254634827375411987 0.238429680466651917 -0.102662846446037292 -0.019876126199960709 -0.025855330750346184 0.096283040940761566 -0.080073490738868713 0.064009241759777069 0.010637219995260239 -0.059719886630773544 0.145560830831527710 0.139014720916748047 0.133902654051780701 -0.214749187231063843 -0.078664220869541168 -0.164365515112876892 -0.028675429522991180 -0.003911511041224003 -0.157538458704948425 0.025804355740547180
-0.045785810798406601 0.102277889847755432 -0.134467035531997681 -0.103894226253032684 0.028123397380113602 0.100117944180965424 0.175912842154502869 -0.117264181375503540 -0.084234900772571564 0.082531929016113281 0.013497643172740936 0.030945478007197380 -0.165423244237899780 -0.057160358875989914 0.048763431608676910 -0.227229818701744080 -0.143533036112785339 -0.172427088022232056 0.163412526249885559 -0.013447158038616180 -0.089921422302722931 0.020172813907265663 0.075301311910152435 0.048679783940315247 -0.038935631513595581 0.190830603241920471 -0.006024100817739964 0.020867694169282913 0.061033621430397034 0.026408374309539795 0.003735907375812531 0.152798727154731750 -0.009621731936931610 0.036534104496240616 0.014375468716025352 0.100685283541679382 0.156129404902458191 0.144814148545265198 -0.146528378129005432 -0.149454310536384583 -0.005416831001639366 -0.061244759708642960 0.173913389444351196 -0.086940966546535492 -0.127491980791091919 0.044635239988565445 0.043524377048015594 -0.148106396198272705 -0.165378153324127197 0.088925041258335114 -0.049102298915386200 -0.046920999884605408 0.032302934676408768 0.109103962779045105 0.161289408802986145 0.185054928064346313 0.077832542359828949 -0.024278109893202782 -0.106893002986907959 0.092789642512798309 -0.116036966443061829 -0.094853088259696960 -0.107408314943313599 -0.058397118002176285 -0.041825797408819199 -0.189214125275611877 0.045118469744920731 -0.135903567075729370 -0.054085843265056610 -0.093753658235073090 0.126114562153816223 -0.001773679628968239 0.092709101736545563 0.110039658844470978 0.078127555549144745 0.062854975461959839 0.046640310436487198 -0.035149633884429932 0.079023897647857666 0.078133001923561096 0.027740791440010071 -0.156624123454093933 0.058615785092115402 0.076828852295875549 -0.031524252146482468 -0.105235725641250610 0.155126973986625671 0.011133288033306599 0.097266472876071930 -0.149398282170295715 0.189090460538864136 -0.151287093758583069 0.035122867673635483 -0.136952698230743408 -0.010193891823291779 -0.033880367875099182 0.106934875249862671 0.051044598221778870 -0.136904045939445496 -0.092829428613185883
-0.151162445545196533 -0.075732201337814331 -0.020757287740707397 0.106525465846061707 0.151363655924797058 -0.065356478095054626 -0.160502880811691284 0.095991767942905426 0.030166322365403175 -0.047752443701028824 -0.015020972117781639 -0.082984872162342072 0.022695606574416161 0.028123062103986740 0.135715320706367493 -0.098451271653175354 0.149274706840515137 -0.020395537838339806 -0.079149588942527771 -0.021297503262758255 0.030210342258214951 -0.160846963524818420 0.111891061067581177 0.040454033762216568 -0.001826914376579225 -0.128529384732246399 0.002047359012067318 0.031291600316762924 -0.102264620363712311 -0.058050751686096191 0.046496119350194931 -0.099291495978832245 0.069412879645824432 0.009066705591976643 0.105672970414161682 -0.046745561063289642 0.018755868077278137 0.139192372560501099 0.068015232682228088 -0.067587837576866150 -0.141608238220214844 -0.027822474017739296 -0.089135177433490753 0.164335474371910095 -0.072050832211971283 -0.128584355115890503 -0.124836236238479614 -0.032437980175018311 -0.008774386718869209 0.095335423946380615 -0.176209762692451477 -0.106133460998535156 -0.102960377931594849 -0.126314148306846619 -0.134228497743606567 -0.046238947659730911 0.100511163473129272 -0.028987243771553040 0.042208574712276459 -0.061777159571647644 -0.018894668668508530 0.075240686535835266 -0.117204874753952026 0.000798028078861535 -0.150244474411010742 0.188647627830505371 0.125165641307830811 0.094904944300651550 -0.314661383628845215 -0.027559911832213402 -0.184636756777763367 -0.133677020668983459 0.064716011285781860 0.067466869950294495 -0.147200256586074829 -0.017146881669759750 0.023090180009603500 -0.033960599452257156 -0.093651473522186279 -0.174064099788665771 -0.050852164626121521 -0.103510342538356781 -0.115710452198982239 0.167087420821189880 -0.152805671095848083 0.098852805793285370 -0.035796448588371277 -0.087710477411746979 0.013528651557862759 -0.012879773043096066 -0.041294544935226440 0.064123429358005524 -0.100090399384498596 -0.134674131870269775 0.004916054196655750 0.066029556095600128 0.172879442572593689 -0.087038449943065643 -0.082378737628459930 0.119863048195838928
0.077811844646930695 0.213399246335029602 0.156869515776634216 0.000129181076772511 0.083900794386863708 -0.241833314299583435 0.076131276786327362 0.255894005298614502 -0.022046726197004318 -0.067120499908924103 -0.175986230373382568 0.254257321357727051 -0.049762733280658722 -0.048767939209938049 0.244930505752563477 -0.055548865348100662 0.073597922921180725 -0.012745104730129242 -0.045643597841262817 0.212335810065269470 0.149726241827011108 0.151276499032974243 -0.165740132331848145 0.116254739463329315 0.102557614445686340 0.101700685918331146 0.052879676222801208 -0.004430721048265696 -0.068206757307052612 0.048869941383600235 -0.050889007747173309 0.156132176518440247 0.102588087320327759 0.057800173759460449 0.049412105232477188 0.028846768662333488 -0.134522855281829834 0.153041064739227295 -0.139796897768974304 -0.201616793870925903 -0.156446963548660278 -0.065425127744674683 0.031789246946573257 -0.078011758625507355 -0.035831253975629807 -0.008159598335623741 0.044209670275449753 -0.016499802470207214 -0.068650931119918823 0.172231301665306091 0.112145394086837769 -0.001283439807593822 -0.130757257342338562 0.218809634447097778 -0.151176467537879944 -0.039469152688980103 0.068633481860160828 0.112514980137348175 0.047081429511308670 -0.132821321487426758 0.059595614671707153 0.038438588380813599 -0.234785720705986023 0.059203848242759705 -0.042668230831623077 0.164687573909759521 0.033157732337713242 -0.137826904654502869 -0.033024035394191742 0.103127770125865936 0.075327239930629730 -0.181861668825149536 -0.101807057857513428 0.158529803156852722 0.070688277482986450 0.075106970965862274 0.239211335778236389 0.001262711011804640 -0.046033490449190140 0.067177772521972656 0.183645084500312805 -0.055886350572109222 0.224846273660659790 -0.043660797178745270 -0.069909892976284027 0.213448151946067810 -0.050958778709173203 -0.141036421060562134 0.215446159243583679 -0.145988136529922485 -0.030987279489636421 -0.160926774144172668 -0.130120575428009033 -0.144495829939842224 -0.044447988271713257 0.202302038669586182 -0.179417833685874939 -0.050662551075220108 -0.056291893124580383 -0.149144768714904785
0.153904750943183899 0.124273262917995453 0.077863559126853943 -0.202393367886543274 -0.108672000467777252 -0.082392401993274689 0.160940334200859070 0.185177162289619446 0.058520011603832245 -0.076730929315090179 0.043819550424814224 0.080754458904266357 0.150443241000175476 -0.059501420706510544 0.112808041274547577 0.060376640409231186 0.071482971310615540 -0.038559731096029282 0.072966933250427246 0.023757832124829292 0.066923193633556366 0.198058709502220154 -0.180287092924118042 -0.142182946205139160 -0.014398647472262383 -0.091970592737197876 -0.048704944550991058 0.058129325509071350 -0.145584389567375183 0.153154954314231873 -0.091957271099090576 0.176066502928733826 0.084262266755104065 0.042964890599250793 -0.105273172259330750 0.268927663564682007 -0.069739416241645813 0.111549846827983856 0.050749719142913818 -0.171618208289146423 -0.083198428153991699 0.098208419978618622 0.138666510581970215 -0.083622321486473083 -0.018428837880492210 -0.116971835494041443 0.157044917345046997 0.023754710331559181 -0.097661420702934265 -0.040970396250486374 0.024396309629082680 0.108963921666145325 0.090545192360877991 0.164717540144920349 0.087316341698169708 0.111881673336029053 0.030982984229922295 -0.119033478200435638 -0.123137325048446655 -0.192939281463623047 -0.184643700718879700 0.044675096869468689 -0.173029199242591858 0.113111160695552826 -0.094775721430778503 -0.138059258460998535 0.096134006977081299 0.188158854842185974 0.218078628182411194 -0.039674181491136551 0.117352664470672607 -0.169112801551818848 -0.072700999677181244 0.108116991817951202 0.075370192527770996 0.021297043189406395 0.072435863316059113 -0.134493067860603333 -0.078481823205947876 -0.014746555127203465 -0.087095409631729126 -0.100083097815513611 0.108151108026504517 -0.078579343855381012 -0.097671173512935638 -0.056996174156665802 0.090080179274082184 -0.147762179374694824 0.108827330172061920 -0.074337869882583618 -0.156795293092727661 -0.029124120250344276 0.169504180550575256 0.183461546897888184 -0.053108897060155869 -0.039921708405017853 -0.033525761216878891 -0.120530091226100922 0.045039150863885880 0.029720364138484001
-0.094300404191017151 0.112004995346069336 0.057155948132276535 -0.108090177178382874 0.161548450589179993 -0.126710161566734314 -0.146780654788017273 0.184927791357040405 0.100745201110839844 0.138333365321159363 -0.169313207268714905 0.086451843380928040 0.138377800583839417 0.055147133767604828 -0.105337463319301605 0.273562401533126831 0.083578318357467651 0.061316289007663727 0.115916915237903595 0.023278089240193367 -0.058806825429201126 0.140276759862899780 0.011521735228598118 -0.196770176291465759 0.028704328462481499 -0.089050859212875366 -0.085227511823177338 0.068064577877521515 -0.022802637889981270 0.001300312578678131 -0.054989192634820938 0.196146368980407715 0.107605926692485809 0.105608411133289337 0.181689202785491943 0.163001284003257751 -0.030304038897156715 -0.014735236763954163 0.112785257399082184 -0.145870298147201538 -0.101430959999561310 0.053654614835977554 -0.165145739912986755 -0.135739952325820923 0.192533880472183228 -0.094103567302227020 0.084732361137866974 0.074941895902156830 0.062846668064594269 0.051028814166784286 0.077936120331287384 -0.091477058827877045 0.012999440543353558 0.053909029811620712 -0.115504346787929535 0.014915216714143753 0.150768831372261047 0.099083170294761658 -0.040426857769489288 -0.069826267659664154 -0.154654815793037415 0.112464688718318939 -0.124409727752208710 -0.179586082696914673 -0.060471981763839722 -0.029814690351486206 -0.118430122733116150 0.039563219994306564 0.127017080783843994 -0.031363211572170258 -0.090773411095142365 0.054421432316303253 0.071125745773315430 0.022870179265737534 0.003376128850504756 0.212280780076980591 -0.134051129221916199 0.161723807454109192 -0.126117303967475891 -0.221845924854278564 0.189800024032592773 0.122931309044361115 -0.111943937838077545 0.142715305089950562 -0.007222977932542562 0.042870137840509415 0.045080140233039856 -0.155876904726028442 -0.118963569402694702 0.115188531577587128 0.026238888502120972 0.036282975226640701 0.013070485554635525 0.205474287271499634 -0.077476844191551208 0.082057014107704163 0.115952558815479279 -0.185153543949127197 0.081869408488273621 -0.015205282717943192
0.030540328472852707 -0.167820602655410767 0.084965400397777557 0.162450864911079407 -0.162672817707061768 -0.124826766550540924 -0.053510311990976334 -0.037581339478492737 0.031341109424829483 -0.175988495349884033 0.011290083639323711 -0.085152968764305115 0.052493404597043991 -0.067308522760868073 0.115930527448654175 0.122912429273128510 0.115259639918804169 -0.127820774912834167 0.177708297967910767 0.113113291561603546 0.110954277217388153 0.121170207858085632 0.116574250161647797 -0.018383957445621490 0.028717106208205223 -0.070628948509693146 0.035953737795352936 -0.188482016324996948 0.105249561369419098 -0.109747402369976044 0.082736067473888397 0.023134551942348480 0.061572387814521790 0.056645557284355164 0.133214071393013000 0.053590916097164154 0.117303967475891113 0.004234737716615200 -0.158061295747756958 -0.109765224158763885 -0.080443784594535828 -0.056525461375713348 -0.149894282221794128 -0.163860231637954712 0.110783934593200684 0.084651820361614227 -0.163445785641670227 -0.078284420073032379 -0.015391143038868904 0.157131120562553406 -0.013177910819649696 -0.150346189737319946 -0.002299078740179539 0.136685937643051147 -0.157028615474700928 0.201420754194259644 -0.053064145147800446 -0.019626013934612274 0.081092000007629395 0.156577184796333313 0.131717875599861145 0.140283048152923584 0.157918632030487061 -0.104619309306144714 -0.068744398653507233 -0.272797852754592896 0.133905500173568726 0.147879078984260559 0.035795826464891434 -0.054613370448350906 0.098287485539913177 0.160408094525337219 0.000344169035088271 -0.111183777451515198 0.079886317253112793 -0.077686034142971039 -0.038108151406049728 0.112757846713066101 -0.002326723653823137 0.035017386078834534 -0.158754050731658936 0.011618155054748058 0.088032424449920654 0.020013412460684776 -0.095423668622970581 -0.056403223425149918 0.128854960203170776 0.076183564960956573 0.100514367222785950 -0.067547328770160675 0.147391095757484436 -0.100015081465244293 0.106738328933715820 0.170861750841140747 -0.090764686465263367 -0.110217250883579254 -0.070742510259151459 0.086213834583759308 0.052936337888240814 -0.122003696858882904
-0.050484020262956619 0.103117629885673523 0.073980800807476044 0.052465975284576416 -0.061402719467878342 0.122097440063953400 -0.173558220267295837 -0.101834304630756378 -0.050029538571834564 -0.069687373936176300 -0.097740717232227325 0.118146412074565887 0.084259852766990662 -0.073348246514797211 -0.077277712523937225 -0.112328767776489258 -0.081312298774719238 0.205563724040985107 0.079595424234867096 -0.072710789740085602 0.155321896076202393 0.006511339917778969 0.166382133960723877 0.038029700517654419 0.157696396112442017 -0.116800695657730103 0.097762040793895721 0.137012064456939697 0.148300126194953918 0.155976504087448120 -0.134754687547683716 -0.002628244226798415 0.068363755941390991 0.154633179306983948 0.131377130746841431 -0.143123224377632141 0.064922824501991272 0.095390476286411285 -0.088296748697757721 -0.012714386917650700 -0.020703172311186790 -0.044438205659389496 -0.177397415041923523 0.079781740903854370 0.086043052375316620 -0.014934922568500042 -0.116667442023754120 0.129349276423454285 -0.068645797669887543 0.060725405812263489 -0.103780895471572876 0.103216052055358887 -0.105454139411449432 -0.148198947310447693 0.106407724320888519 0.133325845003128052 -0.172428846359252930 0.103438958525657654 -0.113113664090633392 -0.135489329695701599 0.135217756032943726 -0.123368807137012482 0.082976222038269043 0.003954955376684666 0.109121747314929962 0.210442841053009033 0.117158986628055573 -0.043984398245811462 -0.112512007355690002 -0.027879206463694572 -0.129240036010742188 0.119220696389675140 -0.049510676413774490 0.097699686884880066 0.099074624478816986 -0.072116270661354065 0.166822239756584167 -0.132769688963890076 0.092742547392845154 0.088818162679672241 -0.048762083053588867 -0.090187601745128632 0.030398434028029442 0.001299934228882194 -0.041981909424066544 0.109131179749965668 0.022557035088539124 -0.112356536090373993 -0.146167531609535217 -0.060966055840253830 0.068679705262184143 -0.032864388078451157 -0.028075270354747772 -0.001494363648816943 0.001387360040098429 0.081118665635585785 0.147798836231231689 -0.160394623875617981 0.000138580842758529 -0.062344897538423538
0.170605719089508057 -0.136038035154342651 -0.041296958923339844 0.024053845554590225 -0.044889524579048157 0.009873907081782818 -0.073071613907814026 -0.085062891244888306 0.161963313817977905 0.170312359929084778 -0.015788719058036804 -0.047658618539571762 -0.101681001484394073 0.179588362574577332 -0.064460784196853638 0.022085901349782944 0.162749797105789185 0.099365629255771637 0.012402855791151524 -0.000751462182961404 0.115570344030857086 -0.121837973594665527 0.060262415558099747 0.034242663532495499 0.186958923935890198 0.044908061623573303 -0.071144573390483856 0.055775195360183716 -0.001639486057683825 -0.116057969629764557 -0.032194677740335464 0.196993127465248108 0.104145526885986328 -0.077878721058368683 0.106889806687831879 0.233846038579940796 -0.069068893790245056 0.182060450315475464 0.107702806591987610 -0.050282396376132965 -0.150624707341194153 -0.157555669546127319 -0.051016699522733688 -0.045662183314561844 0.189639776945114136 -0.174316346645355225 0.169541507959365845 -0.118777260184288025 -0.040015563368797302 0.004909670911729336 0.153062015771865845 -0.105124250054359436 -0.146903872489929199 0.149820744991302490 -0.071861512959003448 0.008643632754683495 0.086713321506977081 0.037047211080789566 -0.182148754596710205 -0.146506190299987793 -0.090928442776203156 -0.115828007459640503 -0.019056083634495735 -0.041101876646280289 -0.017011765390634537 -0.251491099596023560 -0.195083722472190857 0.080577321350574493 0.335266560316085815 -0.032106064260005951 -0.185196146368980408 0.085558541119098663 0.079986356198787689 0.024659611284732819 -0.150468155741691589 0.200590774416923523 0.008882700465619564 0.168522074818611145 0.174340412020683289 0.010320133529603481 -0.004879422485828400 0.071740344166755676 -0.113383524119853973 0.016807939857244492 -0.134722784161567688 -0.128878235816955566 0.079306811094284058 -0.088406227529048920 0.054106630384922028 -0.135921970009803772 0.141368836164474487 0.165011569857597351 0.058128595352172852 -0.110903210937976837 0.034311376512050629 0.125887304544448853 -0.161315351724624634 -0.221331030130386353 0.126176849007606506 0.123847231268882751
-0.096112847328186035 0.117309898138046265 0.034942887723445892 0.146708294749259949 0.048789232969284058 0.143257752060890198 -0.142754346132278442 -0.171507760882377625 0.003826215164735913 0.113050132989883423 0.155792921781539917 -0.027019729837775230 -0.089395776391029358 0.015674108639359474 0.069851465523242950 0.116327844560146332 0.020934073254466057 -0.084493167698383331 0.161102861166000366 -0.116045929491519928 0.034514833241701126 0.075077608227729797 -0.008710825815796852 -0.143727943301200867 0.041638601571321487 -0.083803772926330566 0.032955918461084366 0.081925570964813232 -0.103289104998111725 -0.004318966995924711 -0.120373964309692383 -0.018078260123729706 -0.021852111443877220 -0.211322501301765442 0.076490886509418488 -0.012711625546216965 -0.046749345958232880 0.150961145758628845 -0.112396903336048126 0.197590008378028870 0.118368566036224365 -0.099858045578002930 0.075349293649196625 -0.178464069962501526 -0.151532322168350220 0.020397936925292015 0.079748518764972687 -0.077929906547069550 -0.177896171808242798 0.152361005544662476 -0.062416080385446548 0.050190851092338562 0.166173905134201050 -0.095973841845989227 -0.082717731595039368 -0.143284067511558533 0.042890898883342743 -0.170897737145423889 -0.026672298088669777 0.083493486046791077 0.027889352291822433 0.047861672937870026 0.174979165196418762 -0.044097729027271271 0.132262602448463440 -0.020663207396864891 -0.027277974411845207 0.131616115570068359 0.053564976900815964 0.027915397658944130 -0.041777614504098892 -0.018061436712741852 0.020739873871207237 0.067475803196430206 0.062869705259799957 0.024869658052921295 -0.175786793231964111 -0.207440093159675598 0.121897056698799133 -0.122611217200756073 0.069856226444244385 0.180270060896873474 0.093734778463840485 -0.029624696820974350 -0.186855703592300415 -0.081840470433235168 -0.156579926609992981 0.001813033013604581 -0.169559687376022339 0.090952835977077484 0.037169501185417175 -0.068169191479682922 0.035622861236333847 0.047141276299953461 0.215067833662033081 -0.104600839316844940 -0.080742374062538147 0.157610580325126648 -0.091013543307781219 0.139777734875679016
0.127943694591522217 -0.080829299986362457 -0.126716360449790955 0.109374903142452240 -0.033942483365535736 0.078480683267116547 0.096563525497913361 -0.053418572992086411 -0.065348990261554718 0.104672908782958984 0.157655805349349976 -0.056503199040889740 -0.108889855444431305 -0.013165307231247425 -0.090873055160045624 0.153766259551048279 0.148087203502655029 -0.119017854332923889 -0.003351380350068212 -0.107452668249607086 0.131572291254997253 0.098134405910968781 0.113447584211826324 -0.015721859410405159 -0.042444873601198196 -0.194197684526443481 0.051251836121082306 0.089130148291587830 -0.161965996026992798 -0.101341910660266876 -0.086795426905155182 0.153799325227737427 -0.073677353560924530 0.125605657696723938 -0.019013399258255959 -0.152422860264778137 -0.076029688119888306 -0.045891340821981430 0.147122502326965332 0.141699105501174927 0.116586595773696899 -0.048804815858602524 0.003523235209286213 0.147905826568603516 0.007018331438302994 -0.142157420516014099 -0.138153359293937683 0.087831921875476837 -0.078179948031902313 -0.058478888124227524 -0.081865690648555756 0.123718187212944031 0.112267747521400452 0.039264541119337082 -0.004346702247858047 0.115541152656078339 0.061779275536537170 0.115036398172378540 0.149336948990821838 0.081521905958652496 0.104168713092803955 -0.032740965485572815 0.016131216660141945 0.112655170261859894 -0.006250024307519197 0.139082148671150208 -0.213188648223876953 0.011911484412848949 -0.234912946820259094 -0.159715414047241211 -0.141560554504394531 -0.013979265466332436 0.046863783150911331 0.001578395953401923 0.015678141266107559 -0.136281549930572510 0.035402543842792511 0.183193802833557129 0.004400587640702724 0.013199114240705967 0.191579341888427734 0.141569510102272034 -0.018967896699905396 0.042893331497907639 -0.119361467659473419 0.004058530088514090 -0.107705265283584595 -0.059854842722415924 -0.155303224921226501 -0.114593558013439178 0.140978023409843445 0.127699136734008789 -0.115349292755126953 0.169738471508026123 -0.121390953660011292 -0.053035844117403030 0.054260421544313431 0.145851016044616699 0.021474801003932953 -0.141766980290412903
-0.191368624567985535 -0.167500615119934082 -0.154827862977981567 0.090282984077930450 -0.071913331747055054 0.018312776461243629 0.143946081399917603 0.045716173946857452 -0.141429126262664795 0.027335023507475853 0.055197678506374359 -0.097845084965229034 0.037244882434606552 -0.177300050854682922 0.002275770297273993 0.095028579235076904 -0.170440241694450378 -0.129705518484115601 0.031769309192895889 -0.117340303957462311 0.106527380645275116 -0.096559017896652222 -0.033468309789896011 -0.098832495510578156 0.000879399420227855 0.018298046663403511 -0.024878483265638351 -0.048455070704221725 0.177452251315116882 -0.078656755387783051 0.030462643131613731 -0.036341313272714615 0.022872192785143852 -0.152786165475845337 0.024644121527671814 -0.112985812127590179 0.211841478943824768 -0.226185768842697144 0.051201064139604568 0.186228841543197632 0.001328951213508844 -0.170560464262962341 -0.028013210743665695 -0.241407498717308044 -0.124366529285907745 0.051457166671752930 0.099464304745197296 -0.000623305677436292 0.048564475029706955 -0.206748962402343750 -0.060065697878599167 -0.092220664024353027 0.154297754168510437 -0.054230749607086182 0.082938767969608307 -0.007224362343549728 -0.023805640637874603 0.183399915695190430 -0.037725474685430527 -0.093296594917774200 0.116801567375659943 0.014355699531733990 0.128791600465774536 -0.012737489305436611 -0.102746903896331787 -0.186482876539230347 0.053537856787443161 0.059773761779069901 -0.019540935754776001 0.009261590428650379 0.017348591238260269 0.051151406019926071 -0.117320604622364044 0.024715963751077652 -0.156369447708129883 0.088050708174705505 0.010879318229854107 -0.077118963003158569 -0.121413581073284149 -0.107289284467697144 -0.218938052654266357 0.037935823202133179 -0.180620387196540833 0.117404356598854065 0.122700653970241547 -0.134910523891448975 0.042698048055171967 -0.060399003326892853 0.046625617891550064 0.081299483776092529 0.176845759153366089 0.149483352899551392 -0.195010781288146973 -0.046230688691139221 0.250928521156311035 -0.179298251867294312 -0.090293549001216888 0.179727673530578613 -0.174157083034515381 -0.097978644073009491
0.145901337265968323 -0.137716203927993774 0.164410933852195740 -0.036955963820219040 -0.012083585374057293 -0.195549577474594116 -0.320954948663711548 -0.046225719153881073 0.156332388520240784 0.263628125190734863 -0.120057150721549988 -0.031606756150722504 -0.060800589621067047 0.041119795292615891 0.032124534249305725 0.271457582712173462 0.066181749105453491 0.175604358315467834 -0.186656698584556580 0.027091832831501961 0.176896840333938599 0.165072068572044373 0.082883477210998535 -0.056923411786556244 -0.027396067976951599 -0.103355534374713898 0.162935897707939148 -0.061558082699775696 0.121962226927280426 -0.001981754787266254 0.074562586843967438 -0.042213935405015945 0.008034750819206238 -0.025230534374713898 0.033683996647596359 0.106186270713806152 0.016295863315463066 0.204397752881050110 0.076162986457347870 -0.048675429075956345 -0.157659679651260376 -0.069022484123706818 -0.163906216621398926 -0.121444672346115112 0.227052569389343262 -0.041383452713489532 0.136157929897308350 -0.094471156597137451 -0.132133588194847107 0.043848466128110886 -0.147713661193847656 0.182635873556137085 -0.121649488806724548 0.200562700629234314 -0.203081846237182617 0.038420964032411575 0.127101883292198181 -0.153667911887168884 0.001258624484762549 0.063796453177928925 -0.185348257422447205 -0.127822294831275940 -0.049326770007610321 -0.162143394351005554 0.193938463926315308 -0.098750323057174683 0.018873091787099838 0.036807872354984283 0.041743915528059006 0.013710583560168743 -0.021790726110339165 0.029286704957485199 0.183952391147613525 -0.052636291831731796 0.053298801183700562 0.099048174917697906 -0.089969724416732788 0.044700682163238525 0.179365321993827820 -0.187385261058807373 0.196583002805709839 -0.107560768723487854 0.216463565826416016 0.132364913821220398 0.170847222208976746 -0.009160844609141350 -0.074140749871730804 -0.159555092453956604 -0.007754665333777666 -0.043146528303623199 -0.019761467352509499 -0.070091873407363892 0.172288268804550171 0.205359444022178650 -0.209183558821678162 0.086253985762596130 -0.090772658586502075 -0.005613563582301140 0.034104485064744949 -0.083079546689987183
-0.046383563429117203 -0.095872223377227783 0.065886206924915314 0.021196316927671432 0.143251866102218628 -0.090960808098316193 0.036848220974206924 0.009913397021591663 -0.004061206709593534 0.017411153763532639 -0.180163875222206116 0.003390708705410361 -0.028196714818477631 0.064093224704265594 -0.076940074563026428 -0.190617442131042480 0.088639855384826660 0.074844114482402802 -0.216541156172752380 -0.073744185268878937 -0.085851497948169708 0.166928783059120178 -0.119724176824092865 -0.200269997119903564 -0.164556041359901428 0.138062804937362671 -0.249588176608085632 -0.099350400269031525 0.047433067113161087 -0.092685744166374207 -0.072491876780986786 0.004975576885044575 -0.093904353678226471 0.189942091703414917 -0.000217330525629222 0.115346692502498627 -0.062323670834302902 -0.042959704995155334 0.062189958989620209 -0.008481733500957489 -0.079213827848434448 -0.009531488642096519 0.006192770786583424 0.109789356589317322 0.013406224548816681 -0.223252519965171814 -0.090903088450431824 -0.141251951456069946 -0.037885919213294983 -0.027939535677433014 0.102413073182106018 0.136113643646240234 0.000615101889707148 -0.005735473241657019 -0.142342671751976013 -0.042180787771940231 0.051981769502162933 -0.135375589132308960 0.087039060890674591 -0.132545366883277893 -0.093264393508434296 -0.189480125904083252 0.066835723817348480 0.120712108910083771 0.160748496651649475 0.110689669847488403 0.202433913946151733 -0.025663688778877258 0.009647184982895851 -0.171890586614608765 -0.157923236489295959 -0.190156593918800354 -0.021336339414119720 -0.100988127291202545 -0.192489415407180786 0.110764309763908386 0.060342531651258469 0.156851455569267273 -0.062384951859712601 0.049651235342025757 0.030297454446554184 0.100880548357963562 0.073415249586105347 -0.051446352154016495 0.181551590561866760 -0.057689938694238663 0.184012517333030701 -0.108784519135951996 0.010491860099136829 -0.041912384331226349 -0.030192242935299873 0.120861642062664032 -0.140528962016105652 0.157445579767227173 -0.234101861715316772 0.063623815774917603 0.010724972933530807 0.047484178096055984 0.176039010286331177 -0.118347302079200745
-0.088162787258625031 -0.073181107640266418 0.125975862145423889 0.081109173595905304 0.095470942556858063 0.128192275762557983 0.166397616267204285 -0.013442421332001686 0.047541201114654541 0.121713586151599884 -0.019662886857986450 0.002906672190874815 -0.052960984408855438 -0.146549060940742493 0.111814491450786591 -0.180973827838897705 0.050232894718647003 -0.088374353945255280 0.073820613324642181 -0.005336419213563204 0.008343392983078957 0.076947934925556183 -0.128946244716644287 -0.005475016776472330 0.077445089817047119 0.189226374030113220 0.092757821083068848 -0.146872341632843018 -0.092357322573661804 -0.028172258287668228 -0.084999024868011475 0.151475876569747925 0.072928972542285919 0.146190315485000610 0.070349946618080139 0.010061312466859818 0.161913529038429260 0.114152923226356506 0.102503493428230286 0.060137506574392319 -0.091286443173885345 0.078671000897884369 -0.053541865199804306 -0.022543566301465034 0.006267790216952562 0.042810846120119095 0.094450503587722778 -0.012828940525650978 -0.088153034448623657 0.072006963193416595 0.097575008869171143 -0.137656509876251221 -0.175255954265594482 0.107248149812221527 -0.083549395203590393 -0.138145014643669128 -0.054759893566370010 0.177744314074516296 0.121439047157764435 -0.154653891921043396 -0.005425523966550827 0.179577946662902832 -0.082199223339557648 -0.127370461821556091 -0.018148433417081833 0.037357904016971588 0.127028733491897583 -0.036390345543622971 0.152436867356300354 0.161877050995826721 0.093500837683677673 -0.120877243578433990 -0.171379491686820984 0.127359792590141296 -0.139437302947044373 0.059304829686880112 0.133877173066139221 0.141662314534187317 0.102616049349308014 -0.038456365466117859 -0.186930894851684570 -0.060399845242500305 0.085966341197490692 0.071457989513874054 0.117850646376609802 -0.121243283152580261 0.088650025427341461 -0.003953102510422468 0.063068456947803497 -0.072310999035835266 -0.011315515264868736 0.063237167894840240 0.160379394888877869 -0.040004953742027283 -0.137088939547538757 0.027350366115570068 -0.227765828371047974 0.153772920370101929 -0.064063757658004761 -0.025119923055171967
-0.011013315990567207 -0.078971602022647858 -0.177747637033462524 -0.096803963184356689 0.073948711156845093 0.141948342323303223 -0.016050374135375023 -0.030723262578248978 -0.127581700682640076 -0.220939755439758301 -0.125117406249046326 -0.114932112395763397 -0.172350674867630005 0.134121060371398926 -0.056443300098180771 0.007024044636636972 -0.166586264967918396 0.061329428106546402 0.005901647266000509 -0.182849586009979248 -0.040517132729291916 -0.071205273270606995 0.004583937581628561 0.024574154987931252 0.045086719095706940 -0.073887743055820465 -0.064766697585582733 -0.007049660198390484 -0.068073190748691559 -0.077400259673595428 -0.061860993504524231 0.132051080465316772 -0.165477707982063293 0.045355148613452911 0.022865979000926018 -0.114955335855484009 -0.078994944691658020 -0.077564671635627747 0.037568658590316772 -0.141557916998863220 -0.094489917159080505 -0.024174900725483894 -0.107126198709011078 0.092994764447212219 0.104615047574043274 -0.000643301929812878 -0.103068731725215912 0.046347282826900482 -0.108843319118022919 0.075517609715461731 0.165775552392005920 -0.029212454333901405 -0.009829552844166756 -0.088588446378707886 0.003800133708864450 -0.003304104786366224 0.160608232021331787 -0.067374676465988159 0.084166243672370911 0.022640440613031387 -0.109641395509243011 0.067239530384540558 0.133762329816818237 -0.032940611243247986 0.076014362275600433 -0.157004624605178833 -0.027830069884657860 -0.161300167441368103 0.174576580524444580 -0.033508040010929108 0.152827322483062744 0.009125260636210442 -0.168617650866508484 -0.055038213729858398 -0.036795649677515030 0.011783258989453316 0.146974965929985046 0.094588406383991241 0.117030188441276550 -0.110388748347759247 -0.017329731956124306 -0.016869455575942993 0.125182181596755981 -0.098092101514339447 0.046756766736507416 0.125001549720764160 0.056499000638723373 0.099661752581596375 -0.070635750889778137 -0.049805264919996262 -0.018555968999862671 -0.020131114870309830 -0.137916833162307739 -0.142196834087371826 0.167699918150901794 -0.033161442726850510 -0.151884973049163818 0.122664391994476318 -0.002765173092484474 -0.094668276607990265
0.000557308376301080 0.150179669260978699 0.003979380708187819 -0.168359473347663879 0.158111423254013062 -0.133280619978904724 -0.088379994034767151 0.051873523741960526 -0.058743409812450409 -0.153414249420166016 -0.120607249438762665 -0.170048281550407410 0.109080754220485687 0.201716333627700806 0.047713387757539749 0.124351792037487030 0.070791147649288177 -0.094835802912712097 0.130971327424049377 0.181680470705032349 -0.102126039564609528 0.006586122792214155 -0.159175917506217957 -0.163312330842018127 -0.072503976523876190 0.141401082277297974 0.172497987747192383 -0.115207456052303314 -0.107453562319278717 0.168507963418960571 0.095813140273094177 0.000843047862872481 -0.117273956537246704 0.047736246138811111 -0.004692651797086000 0.026426577940583229 0.046115223318338394 -0.074298150837421417 0.167151123285293579 -0.049026943743228912 -0.089830622076988220 0.078631140291690826 0.033363930881023407 0.060098536312580109 0.133499205112457275 -0.028339242562651634 -0.032519597560167313 0.146997317671775818 -0.165472865104675293 -0.092773251235485077 0.055000681430101395 -0.034594058990478516 0.148611173033714294 -0.175720870494842529 0.049995891749858856 -0.007698263507336378 0.074214406311511993 -0.029766157269477844 -0.083964280784130096 0.031785033643245697 0.125800311565399170 -0.161524429917335510 0.111689135432243347 0.049149896949529648 0.167150571942329407 -0.064440853893756866 0.161833062767982483 0.124297074973583221 -0.012739807367324829 -0.059146892279386520 0.045493189245462418 0.069462880492210388 0.058092866092920303 0.086542859673500061 0.163035884499549866 -0.099466904997825623 0.131441250443458557 -0.083744004368782043 0.020736813545227051 0.135674521327018738 0.083708249032497406 0.055776927620172501 -0.107196643948554993 0.049086533486843109 0.140710249543190002 -0.084209024906158447 0.065881334245204926 0.161294549703598022 -0.070233121514320374 -0.092551432549953461 0.158129572868347168 -0.127737000584602356 -0.032915022224187851 -0.155270710587501526 0.090544529259204865 0.057072676718235016 0.097267977893352509 -0.100363805890083313 0.130849778652191162 0.162035927176475525
0.060595262795686722 0.078710675239562988 0.043872900307178497 0.177873015403747559 -0.047678221017122269 0.110132858157157898 -0.141089379787445068 0.154374763369560242 -0.057574711740016937 -0.074404746294021606 0.141004815697669983 0.006404220592230558 0.095544509589672089 -0.142961010336875916 0.147778540849685669 -0.156145304441452026 -0.140320122241973877 -0.112076058983802795 0.165625140070915222 0.070829547941684723 -0.016366044059395790 0.140543505549430847 -0.060260888189077377 0.161181807518005371 -0.066017508506774902 0.169814601540565491 -0.162994623184204102 -0.015957659110426903 -0.048253566026687622 -0.157102480530738831 0.005481230095028877 0.015905860811471939 -0.121886983513832092 -0.125499576330184937 -0.079400703310966492 -0.187676131725311279 -0.045017696917057037 0.168555080890655518 -0.005049409344792366 0.143059775233268738 0.017601186409592628 -0.109840802848339081 0.025437410920858383 0.020994188264012337 -0.174426242709159851 -0.074249081313610077 -0.094728969037532806 0.124821119010448456 0.013386421836912632 0.144032508134841919 0.069025680422782898 0.029478728771209717 -0.074460841715335846 0.168932944536209106 0.090753696858882904 0.063437327742576599 -0.132848322391510010 0.052560213953256607 -0.117793425917625427 -0.117876619100570679 -0.020500658079981804 0.102959610521793365 0.158218607306480408 -0.065101563930511475 -0.108247786760330200 0.038917489349842072 0.123131163418292999 -0.194144129753112793 -0.112499222159385681 0.157830074429512024 0.118415884673595428 -0.148487448692321777 -0.007739758118987083 0.132434859871864319 0.087229445576667786 -0.184465810656547546 -0.074862845242023468 0.149489074945449829 0.074914865195751190 -0.095122449100017548 0.175247669219970703 0.151540428400039673 -0.088810458779335022 0.056489046663045883 -0.100175268948078156 0.019320275634527206 0.167385920882225037 0.032715655863285065 0.097205065190792084 -0.018543368205428123 0.153848931193351746 -0.090427845716476440 -0.138312250375747681 0.016037570312619209 0.026362314820289612 -0.096437387168407440 0.139435246586799622 -0.015632294118404388 0.079884856939315796 -0.155844971537590027
0.041930716484785080 0.012941181659698486 -0.054489888250827789 0.118394009768962860 -0.087182857096195221 -0.119226180016994476 0.026771981269121170 -0.085011072456836700 -0.182512298226356506 0.120938159525394440 0.009945518337190151 -0.082135781645774841 0.039911024272441864 0.006730756722390652 0.101901024580001831 -0.136765092611312866 -0.089659042656421661 0.162214681506156921 0.171946093440055847 0.005484887398779392 -0.002124015940353274 -0.173426702618598938 -0.147507652640342712 0.080765061080455780 0.116577669978141785 -0.159998297691345215 -0.026221049949526787 -0.168516248464584351 -0.102786257863044739 0.089067950844764709 0.158789262175559998 -0.020693784579634666 -0.032499331980943680 -0.181076958775520325 -0.051817566156387329 -0.232426851987838745 0.036443542689085007 -0.175340801477432251 -0.196379750967025757 -0.037874005734920502 -0.043535321950912476 0.069267190992832184 -0.125396817922592163 0.046087626367807388 0.048499707132577896 0.119320161640644073 0.014986030757427216 0.163617447018623352 -0.198399126529693604 0.106650821864604950 0.097878679633140564 -0.085329130291938782 0.172579973936080933 -0.156416073441505432 0.042534232139587402 -0.177580386400222778 -0.058482281863689423 -0.039543520659208298 -0.104114897549152374 0.136550486087799072 0.123196087777614594 -0.024366296827793121 -0.011364683508872986 0.199791833758354187 -0.128171667456626892 0.063110329210758209 0.039510123431682587 0.051338233053684235 -0.155850484967231750 -0.000909238820895553 -0.092099040746688843 0.045718137174844742 0.103228949010372162 -0.028382221236824989 0.098877109587192535 -0.141871452331542969 0.032213509082794189 0.023952616378664970 -0.033925164490938187 -0.063998676836490631 -0.093728058040142059 -0.060460478067398071 -0.131420627236366272 -0.128986626863479614 0.063793726265430450 -0.101630792021751404 -0.131993904709815979 -0.142460286617279053 0.076374076306819916 0.062400672584772110 0.101416781544685364 0.158400326967239380 0.121468439698219299 -0.187577620148658752 0.129779443144798279 0.097566239535808563 0.210833549499511719 0.145764648914337158 -0.138177022337913513 0.088229201734066010
-0.131911188364028931 0.027923336252570152 0.076608873903751373 0.110315911471843719 0.084071248769760132 -0.099755585193634033 0.187734693288803101 -0.194655850529670715 -0.129693031311035156 -0.083255589008331299 -0.139786839485168457 0.068278148770332336 0.125768840312957764 0.091889940202236176 -0.182475611567497253 0.056758616119623184 -0.050186440348625183 -0.227049902081489563 0.101789392530918121 -0.159586519002914429 -0.114218883216381073 0.125403478741645813 -0.014574407599866390 0.022769300267100334 0.063185386359691620 -0.010268934071063995 0.118859499692916870 0.069343723356723785 -0.001419772161170840 0.164131745696067810 -0.094067640602588654 -0.138919696211814880 0.108910359442234039 -0.082602843642234802 -0.197186470031738281 -0.006511878222227097 0.198332399129867554 -0.034344326704740524 0.046411342918872833 0.116201415657997131 0.196610838174819946 0.124042451381683350 0.066432669758796692 0.108481228351593018 0.090174265205860138 0.039330370724201202 0.056807763874530792 -0.059203621000051498 -0.023239096626639366 -0.166556149721145630 -0.096349738538265228 0.024418558925390244 0.189803943037986755 0.119712479412555695 0.049728710204362869 0.096356429159641266 -0.070124648511409760 0.060280807316303253 -0.118854798376560211 0.076944664120674133 0.106513783335685730 -0.137947157025337219 0.109610185027122498 0.152386665344238281 0.087735414505004883 -0.139497742056846619 -0.126906186342239380 0.164635956287384033 -0.010898483917117119 -0.158556833863258362 0.019594414159655571 0.096477143466472626 0.147773638367652893 0.053622614592313766 0.061434458941221237 -0.144967615604400635 0.088559880852699280 -0.193767249584197998 -0.146054685115814209 -0.020862067118287086 0.086615405976772308 0.049611866474151611 0.054507814347743988 -0.064530953764915466 0.096321061253547668 -0.204218953847885132 0.155950993299484253 0.008899549953639507 -0.049284227192401886 0.035535477101802826 -0.023248873651027679 0.121068112552165985 0.115815654397010803 0.083850897848606110 0.108839094638824463 -0.158714458346366882 -0.146693885326385498 -0.117068000137805939 0.111348688602447510 -0.076223276555538177
0.056648511439561844 -0.132268816232681274 -0.116352789103984833 0.091879270970821381 -0.034450143575668335 0.076236590743064880 0.032852042466402054 0.019809976220130920 -0.211643114686012268 -0.284797847270965576 0.010302309878170490 -0.099042117595672607 0.053162183612585068 -0.202865123748779297 -0.171869114041328430 -0.228484392166137695 -0.148571476340293884 -0.145733952522277832 0.019084967672824860 -0.195632308721542358 -0.060108516365289688 -0.029418997466564178 0.031069830060005188 0.177425920963287354 -0.072242714464664459 -0.053279399871826172 -0.009641151875257492 -0.044405635446310043 0.017007334157824516 0.019137423485517502 -0.095360107719898224 -0.194282993674278259 -0.017361348494887352 0.138507574796676636 -0.213713347911834717 -0.011049151420593262 -0.069060280919075012 0.029623825103044510 -0.081822350621223450 -0.041047122329473495 0.091934815049171448 -0.164442554116249084 -0.009174359031021595 0.010648468509316444 0.012729295529425144 0.020088385790586472 -0.040904115885496140 0.141439005732536316 -0.171385735273361206 -0.041240487247705460 0.107587851583957672 0.010838336311280727 0.185023143887519836 -0.200396806001663208 0.221577808260917664 -0.041453238576650620 -0.091752663254737854 -0.035814348608255386 -0.002076309407129884 -0.078395247459411621 0.109805189073085785 0.079231411218643188 -0.141303524374961853 0.222974047064781189 -0.061699435114860535 -0.041494436562061310 0.069511003792285919 -0.056353028863668442 -0.051087062805891037 -0.130581691861152649 -0.073229417204856873 0.152408421039581299 0.105318851768970490 0.103860087692737579 0.096835345029830933 -0.148029610514640808 -0.106000348925590515 -0.096212156116962433 -0.170825332403182983 0.234337911009788513 -0.047390896826982498 0.201259404420852661 -0.169340550899505615 0.060060273855924606 0.032052848488092422 -0.149946153163909912 0.173512279987335205 0.080403134226799011 0.032826859503984451 0.113187171518802643 0.107568860054016113 -0.120746888220310211 0.124608516693115234 -0.199110284447669983 0.099533475935459137 -0.149509623646736145 -0.009872905910015106 -0.048823423683643341 -0.096394121646881104 -0.090155273675918579
0.077686987817287445 0.062870495021343231 -0.114646561443805695 -0.088065057992935181 0.045655529946088791 0.081176646053791046 -0.061413597315549850 0.167979419231414795 -0.044992223381996155 -0.205936595797538757 -0.027492195367813110 0.051277868449687958 -0.019847689196467400 0.064491122961044312 0.018648635596036911 -0.200043722987174988 -0.172098621726036072 0.069683894515037537 -0.168585702776908875 0.005880660843104124 -0.161413326859474182 -0.150943338871002197 0.141228944063186646 0.161858290433883667 0.102752499282360077 0.151870638132095337 -0.108232647180557251 0.062655344605445862 -0.150107115507125854 -0.110225774347782135 -0.129194289445877075 0.124708183109760284 0.105086937546730042 0.078432030975818634 -0.110799811780452728 0.087008304893970490 0.048679742962121964 -0.128020480275154114 0.037490688264369965 0.016081629320979118 -0.137175738811492920 -0.062922097742557526 0.071327552199363708 -0.155755668878555298 -0.022639008238911629 0.143700480461120605 0.072785452008247375 -0.168761476874351501 0.129672810435295105 0.007294116541743279 -0.159429252147674561 -0.170601114630699158 0.096369154751300812 -0.103634111583232880 0.006280351895838976 -0.130620017647743225 -0.017608052119612694 0.111301146447658539 0.041733514517545700 -0.092079646885395050 0.066953919827938080 -0.050405502319335938 -0.146657809615135193 0.105188354849815369 -0.086148217320442200 0.045773375779390335 -0.131435111165046692 0.131426855921745300 0.217037558555603027 -0.097367353737354279 -0.085577033460140228 -0.104056790471076965 -0.038750756531953812 -0.161883130669593811 -0.069808162748813629 -0.071855254471302032 -0.162091016769409180 -0.001275849062949419 -0.148554608225822449 -0.120522364974021912 -0.068889684975147247 0.069718495011329651 0.048992622643709183 0.111824505031108856 0.111298546195030212 -0.112391054630279541 -0.012026147916913033 -0.095886081457138062 0.099966749548912048 -0.100833088159561157 0.057583063840866089 0.136927470564842224 0.112775258719921112 0.054119430482387543 -0.064940780401229858 -0.124166592955589294 -0.083864092826843262 0.003429175121709704 -0.078923054039478302 -0.136315509676933289
0.014009305275976658 0.066167779266834259 -0.212415605783462524 -0.111500740051269531 -0.050966981798410416 -0.137928873300552368 -0.080866798758506775 -0.175946503877639771 -0.045512873679399490 -0.197220325469970703 -0.047343742102384567 0.135176375508308411 -0.118983432650566101 -0.056121200323104858 0.070311434566974640 -0.010524049401283264 -0.032849870622158051 0.025149961933493614 0.038774061948060989 -0.155064687132835388 -0.100284643471240997 -0.180109083652496338 -0.127980634570121765 -0.094793245196342468 -0.133056372404098511 -0.047804962843656540 -0.152855709195137024 -0.186171248555183411 0.118597045540809631 0.055947817862033844 0.081256151199340820 -0.162010401487350464 0.079280912876129150 -0.093587979674339294 -0.056596335023641586 0.172009259462356567 -0.104287445545196533 -0.125898301601409912 -0.033677056431770325 0.180478706955909729 0.104998618364334106 -0.017055930569767952 -0.119206711649894714 -0.195402652025222778 -0.190797895193099976 -0.000546449737157673 0.023353205993771553 0.001343897543847561 -0.034656319767236710 0.130454123020172119 0.137365221977233887 -0.096337586641311646 -0.081536740064620972 -0.101705193519592285 -0.057150147855281830 0.012975871562957764 -0.033703811466693878 0.191172629594802856 0.115175746381282806 0.034546103328466415 0.104246079921722412 0.055165395140647888 0.090515471994876862 0.050626952201128006 0.097099363803863525 -0.313636004924774170 0.033671513199806213 -0.181922525167465210 0.281954169273376465 0.137149259448051453 0.086808502674102783 0.141857475042343140 0.018857872113585472 -0.027972800657153130 -0.055943492799997330 0.032865140587091446 -0.089175984263420105 -0.107639402151107788 -0.109620220959186554 0.167311862111091614 -0.007228618022054434 0.079678140580654144 -0.158560544252395630 -0.120291031897068024 -0.108229063451290131 -0.169415324926376343 0.017194932326674461 0.125353932380676270 -0.037498869001865387 0.079565525054931641 -0.078435398638248444 0.041171759366989136 0.091197982430458069 -0.086131773889064789 0.090548910200595856 -0.143389165401458740 -0.177072316408157349 0.020881868898868561 -0.040825542062520981 0.173271909356117249
0.029034836217761040 0.026318937540054321 0.115422010421752930 -0.169445142149925232 0.008132336661219597 -0.198866873979568481 -0.208472222089767456 -0.000695370545145124 0.022571420297026634 0.213299289345741272 -0.033885233104228973 -0.084708817303180695 0.056739944964647293 -0.015217340551316738 -0.122673504054546356 0.210883781313896179 0.047759093344211578 0.016228677704930305 -0.018498349934816360 0.213310614228248596 -0.067603081464767456 -0.031821932643651962 -0.139860689640045166 -0.100196577608585358 0.216428354382514954 -0.042048051953315735 0.064874932169914246 0.045164123177528381 0.099116034805774689 -0.009633254259824753 0.055760778486728668 0.108830913901329041 -0.062752172350883484 -0.057211466133594513 0.209415212273597717 0.109293416142463684 0.110309496521949768 0.200296446681022644 0.094596192240715027 0.050354246050119400 0.034469071775674820 0.133122026920318604 0.100303582847118378 0.092995665967464447 0.034178849309682846 -0.148740053176879883 0.032296933233737946 0.107314027845859528 0.156741291284561157 0.090117022395133972 -0.005768135655671358 -0.116546332836151123 0.044072549790143967 0.194454640150070190 -0.106758654117584229 -0.104060046374797821 0.147927761077880859 -0.108644336462020874 0.103888735175132751 0.043874911963939667 0.098976694047451019 0.031179841607809067 -0.148591667413711548 -0.197277590632438660 0.146341830492019653 0.081572398543357849 -0.232555836439132690 0.048654012382030487 0.001629140810109675 0.007851969450712204 0.051505636423826218 -0.189369633793830872 0.009888127446174622 0.031090518459677696 0.128787204623222351 0.115929193794727325 0.198125585913658142 -0.013616139069199562 0.070453330874443054 -0.131353005766868591 0.103048361837863922 0.034807711839675903 -0.109997987747192383 0.085485666990280151 0.076222755014896393 0.088088274002075195 -0.063761509954929352 0.116766557097434998 0.042821269482374191 -0.082385390996932983 -0.200552299618721008 0.056287232786417007 0.118477791547775269 -0.038049362599849701 -0.114807538688182831 0.093497306108474731 -0.050366941839456558 0.100564971566200256 0.189867466688156128 -0.039904773235321045
0.153724238276481628 -0.118006877601146698 0.105769537389278412 -0.157905608415603638 -0.047202624380588531 -0.041946645826101303 0.004518065601587296 0.120205849409103394 -0.145950213074684143 0.187403365969657898 -0.035938262939453125 -0.115138478577136993 -0.123436555266380310 0.163385584950447083 -0.056626375764608383 0.135363563895225525 0.002214915351942182 -0.122923783957958221 0.079183585941791534 0.211637467145919800 0.180079117417335510 -0.181747615337371826 0.153720736503601074 -0.160772353410720825 0.057499513030052185 -0.132505178451538086 0.057031646370887756 0.130903005599975586 0.029203759506344795 0.013512554578483105 0.144021824002265930 -0.030577262863516808 0.051765341311693192 -0.102066375315189362 0.038551323115825653 -0.057244941592216492 -0.036534864455461502 0.108057640492916107 0.029566787183284760 -0.091247834265232086 0.056512489914894104 0.058004774153232574 -0.097914002835750580 -0.152731716632843018 0.006511233281344175 -0.068774975836277008 0.021901525557041168 -0.170363739132881165 0.027369683608412743 -0.018277987837791443 0.061752244830131531 0.144724890589714050 -0.088458135724067688 -0.036699879914522171 0.009977891109883785 0.072116136550903320 -0.083032436668872833 -0.141689956188201904 -0.177397906780242920 0.028476202860474586 -0.162566646933555603 -0.117330431938171387 0.086263500154018402 -0.041436664760112762 -0.065982460975646973 -0.169496119022369385 -0.111838929355144501 0.008185549639165401 0.161203593015670776 0.145698487758636475 -0.145303532481193542 -0.013338891789317131 0.017754126340150833 0.111700549721717834 -0.025488153100013733 0.027525361627340317 0.101592473685741425 0.038952756673097610 0.131543353199958801 -0.069679185748100281 -0.049606509506702423 0.111891306936740875 0.159579232335090637 -0.011628654785454273 -0.035416796803474426 0.130215585231781006 -0.019773308187723160 -0.066095694899559021 0.007318538147956133 -0.171603709459304810 0.004276127554476261 0.044034045189619064 0.027968607842922211 -0.141004741191864014 0.060996253043413162 0.134477511048316956 -0.086132921278476715 -0.191618829965591431 -0.119711600244045258 -0.126220285892486572
0.070721171796321869 0.062351964414119720 -0.167355805635452271 -0.069710604846477509 -0.131414055824279785 0.063998155295848846 0.005848028231412172 0.156374081969261169 -0.061343409121036530 0.010799803771078587 0.145732238888740540 0.104515597224235535 0.104346707463264465 0.037182424217462540 -0.156436249613761902 -0.173413991928100586 0.134908393025398254 0.196961328387260437 -0.116844199597835541 -0.130495533347129822 -0.159038960933685303 0.148216009140014648 -0.006479112897068262 0.158538639545440674 0.117145299911499023 0.106507562100887299 -0.114933654665946960 0.046546854078769684 -0.040283896028995514 0.064087033271789551 -0.152125984430313110 0.078387171030044556 -0.069669321179389954 0.110514976084232330 0.045138951390981674 -0.036009062081575394 -0.142328023910522461 -0.007753954734653234 -0.143156871199607849 0.129068180918693542 -0.009067852050065994 -0.063854552805423737 -0.102912478148937225 -0.031784825026988983 0.114300146698951721 -0.143727391958236694 0.018305568024516106 -0.023748032748699188 -0.126927301287651062 0.095034986734390259 0.152331769466400146 0.053633835166692734 0.084974087774753571 0.011818329803645611 0.064613729715347290 0.024074006825685501 -0.151415124535560608 0.083448246121406555 0.027772283181548119 0.120652586221694946 -0.160808503627777100 0.028536485508084297 -0.094883337616920471 0.157932445406913757 0.031076572835445404 0.274904996156692505 -0.016691332682967186 0.099528238177299500 -0.012759048491716385 0.146786183118820190 0.024499509483575821 0.065820604562759399 0.054976604878902435 -0.142023786902427673 -0.097060352563858032 0.104005567729473114 -0.136762619018554688 0.053383380174636841 -0.125828415155410767 -0.029783610254526138 0.041199434548616409 -0.162000611424446106 -0.060621507465839386 -0.145081222057342529 0.011293993331491947 -0.078561842441558838 -0.079119026660919189 0.161967635154724121 -0.016007671132683754 -0.078204043209552765 0.141856655478477478 0.167309045791625977 -0.105279706418514252 -0.074403747916221619 0.112139895558357239 -0.053058795630931854 0.190040469169616699 0.176468953490257263 0.081297166645526886 0.004087894689291716
-0.009520116262137890 -0.163791522383689880 -0.092661447823047638 -0.103581599891185760 -0.156938821077346802 0.102665692567825317 -0.031375914812088013 0.115541361272335052 -0.146224871277809143 0.031750630587339401 0.107366941869258881 -0.063835680484771729 0.001730324234813452 -0.052066788077354431 0.104556746780872345 -0.219844937324523926 -0.005135252606123686 -0.132695823907852173 -0.106904730200767517 -0.130439922213554382 -0.058345939964056015 -0.128262966871261597 0.118372827768325806 0.012296212837100029 -0.226272344589233398 0.147226199507713318 -0.097623623907566071 -0.056485690176486969 0.062218431383371353 -0.059294667094945908 0.157398611307144165 0.103820756077766418 0.085529118776321411 0.092142648994922638 0.089463248848915100 0.043730422854423523 0.203454717993736267 0.037301436066627502 -0.015624327585101128 0.098217450082302094 0.146343857049942017 0.155775859951972961 0.114190503954887390 -0.129937171936035156 0.028987711295485497 -0.070240445435047150 -0.192296788096427917 -0.002987168729305267 -0.134493708610534668 -0.101964823901653290 0.127386465668678284 -0.115041032433509827 0.104157678782939911 -0.052721321582794189 0.135997712612152100 -0.051316488534212112 0.052021820098161697 0.120865248143672943 0.079724900424480438 0.088733121752738953 -0.097306601703166962 -0.023687889799475670 -0.018018646165728569 0.112307541072368622 -0.116476498544216156 -0.169195398688316345 0.101341329514980316 0.072647027671337128 0.157965883612632751 -0.064306415617465973 0.013117896392941475 0.030374346300959587 0.016714556142687798 0.055260162800550461 0.037375450134277344 -0.204874724149703979 0.116451039910316467 0.098689302802085876 0.002783259144052863 0.092831067740917206 -0.126102134585380554 0.092224530875682831 -0.181058093905448914 0.091467469930648804 -0.096913419663906097 -0.047290112823247910 0.129807338118553162 -0.067900836467742920 -0.183695450425148010 0.122868843376636505 0.133221566677093506 -0.021983884274959564 0.091147921979427338 0.069539129734039307 -0.058272495865821838 -0.088946841657161713 0.021214136853814125 0.036485809832811356 -0.181745171546936035 -0.151774302124977112
0.148018762469291687 0.159536167979240417 0.020450150594115257 -0.051899373531341553 -0.058040082454681396 -0.090182118117809296 -0.153705224394798279 0.196354225277900696 -0.102490186691284180 0.193915203213691711 -0.139557391405105591 0.049783058464527130 0.161042228341102600 -0.026613714173436165 0.108148641884326935 -0.082756981253623962 0.108868844807147980 0.153645545244216919 0.051151350140571594 -0.030149966478347778 0.164613634347915649 0.052068687975406647 0.017168994992971420 -0.102297261357307434 -0.014185490086674690 0.088063620030879974 -0.043611820787191391 0.148402333259582520 -0.161534637212753296 0.110474392771720886 0.058275129646062851 0.056052386760711670 0.116612114012241364 0.053365133702754974 0.122686088085174561 -0.088018633425235748 -0.027489027008414268 -0.107453778386116028 0.051432430744171143 0.131804794073104858 -0.186972185969352722 -0.030090918764472008 0.092891141772270203 0.087433703243732452 -0.012299307622015476 -0.126705184578895569 0.076398245990276337 -0.185778468847274780 0.124590680003166199 -0.043822694569826126 -0.141737863421440125 0.179420381784439087 0.026521056890487671 0.061127364635467529 -0.139649033546447754 -0.186326757073402405 -0.031816456466913223 -0.105514287948608398 0.068668045103549957 0.143045395612716675 0.043290924280881882 0.032695516943931580 -0.084518253803253174 -0.077887520194053650 0.037087570875883102 0.279052317142486572 -0.106556318700313568 -0.106447748839855194 -0.058074425905942917 -0.023076402023434639 0.026537373661994934 -0.144965842366218567 -0.038241557776927948 -0.069519542157649994 0.165918424725532532 0.016952682286500931 0.158412009477615356 0.136628985404968262 0.026708412915468216 0.009389541111886501 0.033556442707777023 -0.184840679168701172 0.196910709142684937 -0.056640431284904480 0.070649683475494385 0.168318465352058411 -0.144896268844604492 0.028879452496767044 -0.137106463313102722 -0.160587057471275330 -0.135721698403358459 0.115459129214286804 -0.004783775657415390 -0.120730116963386536 -0.122652150690555573 -0.123999223113059998 -0.098056450486183167 0.163826450705528259 -0.112815022468566895 0.017728572711348534
0.202432826161384583 -0.097892612218856812 0.257932305335998535 0.024595554918050766 0.166756540536880493 -0.255598783493041992 -0.165138766169548035 0.231142163276672363 0.184587225317955017 0.242551252245903015 0.024599364027380943 -0.044061366468667984 0.283388733863830566 0.271968305110931396 0.187551543116569519 0.152009576559066772 0.163996040821075439 0.119142189621925354 -0.158665254712104797 -0.068337842822074890 0.162254750728607178 0.056127574294805527 -0.151462525129318237 -0.040304560214281082 0.110204808413982391 0.116185799241065979 -0.196180671453475952 0.136296197772026062 -0.139351904392242432 0.145151704549789429 -0.215742856264114380 0.037455487996339798 0.218360662460327148 0.020941350609064102 -0.014952466823160648 0.145112186670303345 -0.000055960968893487 0.271168142557144165 0.209616333246231079 -0.173565819859504700 -0.254271626472473145 0.169520556926727295 -0.194181159138679504 -0.014588054269552231 0.039896704256534576 0.030561694875359535 0.160102248191833496 -0.002635648008435965 -0.053833328187465668 0.216766044497489929 0.022504296153783798 0.296790480613708496 -0.233367770910263062 -0.000005775519639428 -0.157442823052406311 0.066750548779964447 -0.035487212240695953 -0.076289363205432892 -0.074198067188262939 -0.140786647796630859 0.050161972641944885 -0.188664585351943970 -0.171644791960716248 0.005846378393471241 0.211760148406028748 0.076340243220329285 -0.207263708114624023 0.110739789903163910 -0.142632007598876953 -0.170971706509590149 -0.094320639967918396 0.033872846513986588 0.113604657351970673 -0.039178233593702316 0.005306996405124664 -0.036597840487957001 0.245600104331970215 0.238357752561569214 0.220442593097686768 -0.227584183216094971 0.276244193315505981 0.007080986164510250 0.262477010488510132 0.125527858734130859 -0.113293118774890900 -0.049397394061088562 -0.024057935923337936 -0.042711995542049408 0.143612518906593323 -0.208569183945655823 -0.012832641601562500 -0.104333400726318359 -0.128401294350624084 0.070413760840892792 -0.105198323726654053 0.278828740119934082 -0.106833733618259430 -0.191599160432815552 0.180772170424461365 0.133114203810691833
0.103753127157688141 0.128939628601074219 0.034346740692853928 -0.075384549796581268 0.038703292608261108 0.142810612916946411 0.014155671931803226 0.080098003149032593 0.018558638170361519 -0.061518475413322449 0.136335834860801697 -0.017972094938158989 0.045269522815942764 -0.144911751151084900 0.072132349014282227 0.080046191811561584 0.049060240387916565 0.068572133779525757 0.116105273365974426 0.014669887721538544 -0.049264464527368546 -0.158491685986518860 0.056524373590946198 0.079301565885543823 -0.149446949362754822 0.031429365277290344 0.043686270713806152 -0.109924748539924622 -0.170455962419509888 0.064331084489822388 0.020843209698796272 0.140142366290092468 0.083773307502269745 0.026344863697886467 -0.105134606361389160 0.090115800499916077 0.029815742745995522 0.111892931163311005 0.135461732745170593 -0.129171013832092285 0.063765823841094971 0.155536234378814697 -0.181519061326980591 0.072711214423179626 -0.081189140677452087 -0.091110520064830780 0.153616398572921753 0.080315977334976196 0.134335875511169434 0.044455595314502716 -0.129091620445251465 -0.073515020310878754 0.132124528288841248 0.058963406831026077 0.035769484937191010 0.142734721302986145 -0.168467327952384949 0.088235415518283844 0.109158121049404144 0.092783503234386444 0.060447916388511658 0.089034110307693481 -0.127214744687080383 -0.195674255490303040 0.078192442655563354 0.183625593781471252 0.033110614866018295 0.162523493170738220 -0.187089174985885620 -0.054416887462139130 -0.136292845010757446 0.022805139422416687 0.173682913184165955 0.115273609757423401 0.114752776920795441 0.162830054759979248 0.128912597894668579 0.071289762854576111 -0.030106773599982262 0.015547549352049828 0.117989674210548401 -0.159517809748649597 -0.124162398278713226 0.064615681767463684 -0.044060751795768738 -0.063834391534328461 -0.089324660599231720 -0.063381180167198181 0.070852711796760559 0.093804396688938141 -0.040060047060251236 -0.125003039836883545 0.045079447329044342 0.129076898097991943 0.144850328564643860 0.116734564304351807 -0.072445318102836609 -0.031634200364351273 0.015457644127309322 0.130495116114616394
-0.103640466928482056 0.048759665340185165 -0.137262433767318726 0.194544911384582520 -0.137290820479393005 -0.100646041333675385 -0.019873907789587975 -0.209161281585693359 0.124030038714408875 0.001930962782353163 0.100145556032657623 0.085170485079288483 0.089624002575874329 0.061725348234176636 0.116395868360996246 -0.190477415919303894 -0.039302811026573181 -0.041967935860157013 0.043787982314825058 -0.029742579907178879 -0.160649731755256653 -0.157530605792999268 0.077947579324245453 0.071621946990489960 -0.002705900929868221 0.001798356650397182 -0.012635845690965652 -0.101952753961086273 -0.103087171912193298 0.093818299472332001 -0.013956562615931034 0.098559647798538208 -0.099638387560844421 0.089487135410308838 -0.011543774046003819 -0.064479254186153412 -0.012124342843890190 -0.117911264300346375 -0.210709616541862488 0.150512143969535828 0.005289523396641016 0.082645662128925323 0.196098223328590393 -0.035173889249563217 0.032903186976909637 0.204969659447669983 -0.125312462449073792 0.103097178041934967 0.025048954412341118 0.093655705451965332 0.221752539277076721 -0.000248719588853419 0.103139571845531464 -0.201305955648422241 0.128869161009788513 -0.066541552543640137 -0.183839991688728333 -0.042609971016645432 0.029305240139365196 -0.066666871309280396 0.162789002060890198 -0.119011662900447845 0.166972279548645020 -0.024930117651820183 -0.114892601966857910 -0.000348156434483826 -0.043030224740505219 -0.054200481623411179 0.169964745640754700 -0.046610973775386810 -0.052631396800279617 -0.041074611246585846 -0.131126388907432556 -0.009945026598870754 0.156624123454093933 -0.063352562487125397 -0.085155233740806580 -0.220055595040321350 -0.160341471433639526 -0.107390835881233215 -0.178233146667480469 0.000601325649768114 0.017694704234600067 -0.078462749719619751 0.117346696555614471 -0.057112853974103928 -0.089735023677349091 0.202139541506767273 -0.077564865350723267 -0.057170595973730087 0.218642964959144592 -0.134459182620048523 0.070842601358890533 -0.104520328342914581 -0.013052028603851795 -0.130993843078613281 -0.118677765130996704 0.108559891581535339 -0.198494255542755127 0.111989527940750122
0.051796473562717438 -0.014179908670485020 -0.124123558402061462 0.177955105900764465 -0.136593624949455261 -0.167949020862579346 0.029666928574442863 -0.154916182160377502 0.047269955277442932 0.047582417726516724 0.174322679638862610 -0.169663444161415100 -0.096500776708126068 0.093558818101882935 0.059593752026557922 -0.122128255665302277 -0.097833685576915741 -0.139103427529335022 0.034761279821395874 0.111754857003688812 -0.162658721208572388 -0.101324170827865601 -0.074936255812644958 0.043824311345815659 0.053848959505558014 0.010198222473263741 -0.035441353917121887 0.180864080786705017 0.107440426945686340 -0.024100830778479576 0.128861054778099060 -0.044704783707857132 0.053768899291753769 0.074303142726421356 -0.122272074222564697 -0.007677956018596888 0.080454744398593903 0.045044679194688797 -0.186646834015846252 0.059164009988307953 0.134453490376472473 -0.069497905671596527 -0.158414021134376526 -0.069152906537055969 -0.095155544579029083 -0.060777626931667328 0.060506958514451981 0.067039780318737030 0.035050254315137863 0.158864632248878479 0.157895252108573914 -0.052748762071132660 -0.041436929255723953 -0.000887855072505772 -0.056644190102815628 -0.037708610296249390 -0.184099793434143066 -0.034634191542863846 0.148881316184997559 0.115448281168937683 0.156615316867828369 0.052106048911809921 -0.022978613153100014 -0.033256169408559799 -0.090095229446887970 0.163663461804389954 -0.021366180852055550 -0.101414084434509277 -0.329860448837280273 -0.016134064644575119 -0.036952264606952667 -0.011318849399685860 0.143587559461593628 0.063429825007915497 0.120117291808128357 -0.150773555040359497 -0.105738237500190735 0.038683731108903885 -0.171045809984207153 -0.113561578094959259 0.170464187860488892 0.139889344573020935 -0.050568409264087677 0.037660196423530579 -0.107214063405990601 -0.158065170049667358 0.120393224060535431 -0.069978959858417511 -0.177224025130271912 -0.069865413010120392 -0.092161536216735840 -0.078875862061977386 -0.176872625946998596 0.123392857611179352 -0.061378516256809235 -0.151449829339981079 0.136036232113838196 0.128941416740417480 -0.076089300215244293 -0.164757877588272095
0.118934541940689087 0.078570902347564697 -0.084470584988594055 -0.026957834139466286 -0.062207326292991638 0.037904232740402222 -0.036126777529716492 0.143337473273277283 0.059665989130735397 0.109779678285121918 -0.045433036983013153 0.035614717751741409 -0.153021171689033508 -0.082028150558471680 -0.148879706859588623 -0.213621824979782104 -0.135721564292907715 -0.005834749899804592 -0.092036038637161255 -0.188950225710868835 -0.115326620638370514 -0.048113387078046799 0.031846780329942703 0.152605548501014709 0.004141064360737801 0.033015854656696320 0.135684236884117126 0.097956687211990356 0.061955362558364868 -0.053463805466890335 0.099398493766784668 0.071754842996597290 0.003008904866874218 0.033109951764345169 0.120759330689907074 -0.251407146453857422 0.177784338593482971 -0.090113386511802673 -0.017765644937753677 -0.044618990272283554 0.068947546184062958 0.000915902492124587 0.082244411110877991 -0.035971950739622116 -0.109781205654144287 0.168529137969017029 -0.181835800409317017 0.173448652029037476 0.034719556570053101 0.052307076752185822 0.108706533908843994 0.013649296015501022 -0.137040749192237854 -0.080474279820919037 0.062302161008119583 0.070603728294372559 -0.170925840735435486 -0.018514271825551987 -0.159288540482521057 -0.055304545909166336 -0.154609113931655884 0.224897831678390503 -0.133494779467582703 0.129886820912361145 0.035077385604381561 0.258615344762802124 0.043287601321935654 -0.067586272954940796 -0.324547946453094482 -0.048176530748605728 -0.138408243656158447 -0.022170752286911011 -0.149946078658103943 0.180714264512062073 -0.127268269658088684 -0.179772883653640747 -0.080369614064693451 -0.090240672230720520 -0.104231037199497223 -0.053304806351661682 -0.138238340616226196 0.177064627408981323 -0.113812394440174103 -0.010340614244341850 -0.077807076275348663 -0.030569115653634071 -0.020294042304158211 0.148313105106353760 -0.174939438700675964 0.097452357411384583 0.023637762293219566 0.020366063341498375 0.051227729767560959 -0.038266900926828384 -0.136808618903160095 -0.121566839516162872 -0.085816808044910431 -0.028832878917455673 0.141560941934585571 -0.010471984744071960
0.115076884627342224 -0.048724275082349777 -0.025132708251476288 -0.073374539613723755 0.105890877544879913 0.114758469164371490 -0.112248003482818604 -0.041600570082664490 -0.107051111757755280 -0.104616343975067139 0.146451443433761597 0.011483457870781422 -0.009641673415899277 0.006531213410198689 0.098311409354209900 -0.059943675994873047 -0.088043779134750366 -0.016805689781904221 -0.107869029045104980 -0.016848729923367500 -0.002921323059126735 -0.154905974864959717 0.153944656252861023 0.085843704640865326 -0.193476736545562744 0.045318379998207092 0.048775848001241684 0.014508363790810108 0.013311663642525673 -0.069121114909648895 -0.000996071728877723 -0.089353747665882111 -0.103630848228931427 0.018100554123520851 -0.049555040895938873 -0.219007149338722229 -0.011145523749291897 -0.070301115512847900 0.019018029794096947 -0.114660382270812988 -0.052265055477619171 -0.054172266274690628 0.061199367046356201 0.144652932882308960 -0.066675029695034027 0.134730771183967590 -0.013568297028541565 0.212679207324981689 -0.144849404692649841 -0.040034938603639603 0.072552591562271118 -0.072725571691989899 0.096334286034107208 0.075151599943637848 0.175061464309692383 0.065429985523223877 -0.010804186575114727 0.081926725804805756 -0.043351236730813980 -0.105533167719841003 -0.010003500618040562 0.036217775195837021 0.104628272354602814 0.185068264603614807 0.011071906425058842 0.277982443571090698 0.073678292334079742 0.052071716636419296 -0.287971735000610352 0.002672873437404633 0.072089754045009613 0.076713919639587402 -0.093067817389965057 0.190799713134765625 0.174265131354331970 0.096771441400051117 0.157953441143035889 -0.068586148321628571 0.027064783498644829 0.072800554335117340 -0.067560762166976929 -0.110978141427040100 0.047969307750463486 0.067761048674583435 0.061698921024799347 0.200055509805679321 0.177801966667175293 0.167459502816200256 -0.016954360529780388 0.106839962303638458 -0.069929003715515137 -0.148728862404823303 -0.036128126084804535 0.097326770424842834 0.150378093123435974 0.055873367935419083 0.230731338262557983 0.201870426535606384 -0.101574085652828217 -0.005244097672402859
-0.217994332313537598 -0.035366412252187729 -0.156452119350433350 0.267454147338867188 -0.117263726890087128 0.116570465266704559 0.135322555899620056 -0.049175206571817398 0.024684894829988480 -0.091293096542358398 0.199102446436882019 -0.077548079192638397 0.074418231844902039 -0.184706166386604309 -0.176616534590721130 -0.339329451322555542 0.050423264503479004 -0.045865170657634735 -0.004870358388870955 -0.040952462702989578 -0.106371775269508362 -0.072381190955638885 0.131006821990013123 0.224139288067817688 -0.066496744751930237 -0.082870706915855408 0.069749385118484497 -0.102379202842712402 0.107505716383457184 -0.107936441898345947 0.045583151280879974 -0.123091839253902435 0.027856608852744102 -0.131147190928459167 -0.183541521430015564 0.082876980304718018 -0.018435269594192505 0.046499587595462799 0.033361066132783890 0.098822169005870819 0.175352141261100769 0.118009090423583984 0.126518651843070984 -0.002989457454532385 -0.084374457597732544 0.185162872076034546 -0.260497510433197021 -0.037707231938838959 -0.007103706710040569 -0.144685357809066772 0.139353498816490173 -0.173062577843666077 0.100344516336917877 0.033888727426528931 -0.058460049331188202 0.054858099669218063 -0.113100543618202209 -0.095924079418182373 -0.146035999059677124 0.139584988355636597 0.138353884220123291 0.043558474630117416 -0.030571535229682922 -0.070882603526115417 -0.135722443461418152 0.080129265785217285 -0.007412329781800508 -0.058966945856809616 -0.110222294926643372 0.141278594732284546 0.289614170789718628 0.158622398972511292 0.126886114478111267 0.083329454064369202 0.055231794714927673 -0.225736871361732483 0.080518402159214020 -0.025231778621673584 0.016546482220292091 0.290728628635406494 -0.102850317955017090 0.037937469780445099 -0.184024363756179810 -0.042283799499273300 -0.136259838938713074 -0.001344353077001870 0.097265318036079407 -0.067722253501415253 0.032957941293716431 0.192347094416618347 0.012437704950571060 -0.079526811838150024 -0.131554573774337769 -0.249684482812881470 0.223685994744300842 -0.156038269400596619 -0.073222808539867401 0.082098357379436493 -0.090714499354362488 -0.137348785996437073
