#Layer 0 Weights:
0.244078621268272400 0.190694779157638550 -0.003677891334518790 0.091093301773071289 0.038822576403617859 0.085469707846641541 -0.000725201447494328 -0.081516996026039124 0.068126201629638672 -0.192099913954734802 -0.276754856109619141 0.106812961399555206 0.143558621406555176 -0.090465649962425232 -0.035640507936477661 -0.140123844146728516 -0.256247729063034058 0.097159504890441895 -0.180599540472030640 -0.276905238628387451 -0.072282060980796814 -0.072351112961769104 0.068320214748382568 -0.259391635656356812 -0.021915186196565628 0.041096795350313187 0.103878572583198547 -0.067188523709774017 0.131484210491180420 0.130047619342803955 0.075853057205677032 0.225738018751144409 0.046304140239953995 0.242005512118339539 -0.140684425830841064 -0.132619723677635193 0.096086055040359497 0.267719924449920654 -0.150351092219352722 -0.129021421074867249 -0.126787766814231873 0.112794190645217896 0.076318494975566864 0.168015673756599426 0.153142139315605164 0.174015566706657410 -0.222584381699562073 0.214336693286895752 -0.181363731622695923 0.144435256719589233 0.148477420210838318 -0.045835219323635101 0.120585314929485321 -0.007181933615356684 -0.223424643278121948 -0.059401974081993103 -0.193332299590110779 -0.107097014784812927 0.176308467984199524 -0.131807580590248108 -0.021782718598842621 0.031987201422452927 -0.157216951251029968 0.021013304591178894 -0.189483419060707092 -0.163466423749923706 -0.215380668640136719 -0.091044932603836060 0.231982171535491943 -0.122759237885475159 0.171147629618644714 0.211021095514297485 0.216364145278930664 -0.153332591056823730 0.177489385008811951 -0.247811153531074524 -0.209735676646232605 0.095262803137302399 -0.056791953742504120 0.165241077542304993 -0.052675273269414902 0.037711370736360550 0.239437788724899292 -0.179323688149452209 0.240920886397361755 -0.086072772741317749 0.271202743053436279 0.238829821348190308 0.262769281864166260 0.214490711688995361 0.134765163064002991 0.205532595515251160 0.119500197470188141 -0.175826355814933777 0.216671004891395569 -0.122599214315414429 0.015713106840848923 0.147397503256797791 -0.212290406227111816 0.145245239138603210
-0.141888871788978577 -0.114817738533020020 0.111816547811031342 0.057744059711694717 0.093934156000614166 0.013425769284367561 0.170601382851600647 0.152384817600250244 -0.059544194489717484 -0.027402609586715698 0.060218505561351776 -0.018021550029516220 0.037937209010124207 -0.207324758172035217 -0.038444157689809799 0.122178316116333008 0.077182330191135406 0.142186805605888367 -0.217286154627799988 0.233347490429878235 0.204215839505195618 -0.064629979431629181 0.017327744513750076 -0.028777997940778732 -0.038583490997552872 0.009849427267909050 0.072349160909652710 0.045240152627229691 -0.157447919249534607 -0.094712436199188232 0.143977031111717224 -0.033494763076305389 0.113832153379917145 0.171970874071121216 -0.027326006442308426 0.065642334520816803 -0.138110876083374023 -0.027847852557897568 -0.168359518051147461 -0.021318767219781876 -0.040040239691734314 0.070406347513198853 -0.085986129939556122 -0.142023399472236633 -0.196340486407279968 0.013961223885416985 -0.135869801044464111 0.021949147805571556 -0.129841372370719910 0.152235552668571472 -0.137363433837890625 -0.106291182339191437 0.091974504292011261 -0.213890254497528076 -0.134762853384017944 0.042590603232383728 0.212572902441024780 0.183222457766532898 0.119487859308719635 -0.196378275752067566 -0.000606008630711585 0.040557418018579483 0.096486330032348633 -0.153482034802436829 0.063508309423923492 0.171048864722251892 -0.070005103945732117 -0.032314654439687729 -0.239876240491867065 -0.165368601679801941 -0.036552347242832184 -0.183694973587989807 0.026168808341026306 0.146393463015556335 -0.065929256379604340 -0.152349889278411865 -0.052109800279140472 -0.034668963402509689 -0.169811472296714783 -0.022768663242459297 -0.228796690702438354 0.196640878915786743 -0.041841708123683929 0.118713535368442535 -0.069937832653522491 -0.161014914512634277 -0.162008881568908691 -0.034886833280324936 -0.234641373157501221 0.173750221729278564 0.173091560602188110 0.236973866820335388 0.007955992594361305 0.003078245557844639 0.034491147845983505 0.227572008967399597 0.063725724816322327 0.084792688488960266 -0.200369268655776978 -0.075409062206745148
