#Layer 3 Weights:
-0.093383662402629852 -0.010562711395323277 -0.112378828227519989 -0.177418917417526245 -0.065823219716548920 -0.002394713228568435 0.007532527670264244 0.066437005996704102 0.200717821717262268 -0.051450982689857483 0.309288471937179565 -0.125784382224082947 -0.127607166767120361 -0.168528243899345398 -0.095107525587081909 0.097588457167148590 -0.266332209110260010 0.123043358325958252 0.118221946060657501 -0.027658475562930107 -0.039278205484151840 -0.101669132709503174 -0.092017896473407745 0.064975582063198090 0.079727120697498322 0.124444052577018738 0.004009915515780449 0.025290215387940407 -0.151235625147819519 -0.058895867317914963 0.197185695171356201 -0.011692388914525509 0.095408409833908081 0.175789564847946167 0.009291987866163254 -0.066237866878509521 0.102312386035919189 -0.129435524344444275 0.206689238548278809 0.141263335943222046 -0.190596848726272583 -0.060275994241237640 0.238658100366592407 0.194719105958938599 -0.063650622963905334 -0.137723386287689209 0.065229162573814392 0.232261896133422852 0.042502149939537048 -0.097943127155303955 0.027242880314588547 -0.001597875147126615 -0.251222997903823853 -0.065629690885543823 0.055112794041633606 0.068229980766773224 0.116219580173492432 -0.047250177711248398 -0.174585580825805664 0.097060300409793854 -0.288592725992202759 0.130034178495407104 -0.075061812996864319 0.057475510984659195 0.111132942140102386 0.302507936954498291 -0.053645480424165726 -0.074584715068340302 -0.200711116194725037 0.006311596836894751 -0.143004104495048523 -0.000396519986679778 0.191874772310256958 0.101831287145614624 0.200804367661476135 -0.060959432274103165 -0.082968398928642273 -0.113740995526313782 -0.108055204153060913 -0.110521078109741211 0.083140105009078979 -0.135189861059188843 0.052990969270467758 0.160152554512023926 -0.233553692698478699 -0.138325765728950500 0.113125957548618317 -0.000331540970364586 -0.060429550707340240 -0.157457217574119568 0.087349012494087219 -0.175998464226722717 -0.070161730051040649 0.074665598571300507 0.010929292999207973 0.129128590226173401 -0.189725354313850403 0.016609655693173409 0.072142407298088074 -0.082529731094837189
-0.046508111059665680 -0.099790140986442566 -0.104177638888359070 -0.004203468095511198 0.045702893286943436 -0.039805911481380463 0.013184575363993645 0.150895088911056519 0.103164665400981903 0.117523901164531708 0.234660923480987549 0.053031038492918015 -0.079035997390747070 -0.134109914302825928 -0.109723456203937531 0.066766329109668732 0.183079749345779419 -0.154632121324539185 0.097926467657089233 -0.094498090445995331 -0.167158275842666626 -0.125499486923217773 0.054064009338617325 -0.031978197395801544 -0.096108175814151764 0.065481968224048615 0.080032899975776672 -0.024318451061844826 -0.105303734540939331 -0.037187073379755020 0.100406378507614136 -0.125929027795791626 0.082990683615207672 -0.167495772242546082 0.212000116705894470 -0.140510141849517822 0.045648913830518723 -0.105389870703220367 -0.050715461373329163 0.112848117947578430 0.153292432427406311 -0.016350042074918747 -0.123014360666275024 -0.098663516342639923 -0.132109180092811584 0.070021092891693115 -0.135447531938552856 -0.113603755831718445 0.089331485331058502 -0.024898255243897438 0.107197873294353485 -0.052574452012777328 0.143148541450500488 -0.143898129463195801 0.184454947710037231 -0.154226690530776978 0.064306400716304779 0.192314088344573975 -0.074997380375862122 -0.110033653676509857 0.090461000800132751 0.026676673442125320 -0.156290903687477112 -0.095309831202030182 0.060309361666440964 0.054973565042018890 0.001752031734213233 -0.217811077833175659 0.072318680584430695 -0.080503083765506744 0.027044996619224548 -0.332419395446777344 -0.118115246295928955 -0.058087185025215149 -0.111336499452590942 0.020554568618535995 -0.128577828407287598 -0.006697792094200850 0.159957185387611389 -0.154851555824279785 0.148985937237739563 0.119632638990879059 0.164693266153335571 -0.111144870519638062 -0.141179129481315613 -0.092267207801342010 0.150712877511978149 -0.118636868894100189 0.157707944512367249 0.005676227156072855 -0.085262134671211243 -0.034579537808895111 -0.121024839580059052 -0.002244421280920506 -0.081024341285228729 0.055557154119014740 -0.091663889586925507 -0.131745249032974243 0.043796986341476440 -0.042727526277303696
-0.055082298815250397 0.106828913092613220 -0.042955309152603149 -0.191224262118339539 0.190357506275177002 -0.099775359034538269 0.144453972578048706 -0.026506399735808372 -0.070334471762180328 -0.086536407470703125 0.178362354636192322 0.183278873562812805 -0.105678915977478027 0.086161144077777863 -0.120193392038345337 0.114955000579357147 0.039582204073667526 -0.068344645202159882 -0.061572458595037460 -0.209296524524688721 0.154010698199272156 0.084730453789234161 -0.072333142161369324 0.052224032580852509 0.070512332022190094 0.019569378346204758 0.122381605207920074 0.009635695256292820 -0.035466585308313370 -0.118517503142356873 0.050810351967811584 0.030741726979613304 0.031686209142208099 -0.005205939523875713 -0.057693894952535629 0.134303689002990723 0.157563790678977966 0.149212703108787537 -0.099214144051074982 -0.196888744831085205 0.076501950621604919 0.056140251457691193 0.038532156497240067 0.085148423910140991 -0.053594078868627548 -0.003522017505019903 -0.189001932740211487 0.098976418375968933 -0.003618034534156322 -0.008934075012803078 -0.067805387079715729 0.052022639662027359 0.004524255171418190 0.077612087130546570 0.011455958709120750 -0.047823842614889145 -0.111265122890472412 0.073577955365180969 0.142265990376472473 -0.022803420200943947 0.097762085497379303 0.003079739632084966 -0.144292250275611877 0.042941909283399582 -0.153458997607231140 -0.147316798567771912 0.099610731005668640 -0.163208082318305969 -0.071805417537689209 0.093653365969657898 -0.078119561076164246 -0.133952036499977112 -0.119265958666801453 0.094419300556182861 0.112494446337223053 -0.112335972487926483 0.045541509985923767 -0.136656999588012695 0.156586512923240662 -0.152200579643249512 0.025720657780766487 0.145092636346817017 -0.001586470520123839 0.069682113826274872 0.156101673841476440 -0.021558457985520363 0.201440200209617615 0.155352577567100525 0.100999519228935242 -0.070289433002471924 0.036509197205305099 0.086584120988845825 0.053912695497274399 -0.166510000824928284 -0.025370812043547630 0.178446829319000244 -0.016367018222808838 0.129529803991317749 0.136787697672843933 0.152817204594612122
0.141815468668937683 -0.011158459819853306 0.264674156904220581 -0.237741202116012573 -0.064597971737384796 -0.111614190042018890 0.188523173332214355 -0.084962733089923859 0.020099278539419174 -0.006999755743891001 -0.050929781049489975 -0.146788507699966431 -0.195641979575157166 -0.049299832433462143 -0.094396173954010010 -0.194336801767349243 0.103963561356067657 -0.172526419162750244 -0.049606796354055405 -0.216719254851341248 0.119402118027210236 0.034618236124515533 0.027230164036154747 -0.136947005987167358 0.076774246990680695 0.100108802318572998 -0.021465877071022987 0.173062205314636230 -0.220400050282478333 -0.021072391420602798 0.120770104229450226 0.105527393519878387 -0.000046245942940004 -0.183329984545707703 0.177627608180046082 0.020394479855895042 0.013693568296730518 0.095455236732959747 -0.089810334146022797 -0.065129600465297699 0.060367826372385025 -0.037011399865150452 0.035751756280660629 0.124022617936134338 -0.043763324618339539 0.048320345580577850 -0.153928399085998535 -0.073674410581588745 0.039827235043048859 0.037777632474899292 0.090874798595905304 -0.139008298516273499 -0.076522722840309143 0.012738677673041821 -0.116458728909492493 -0.132577255368232727 0.110613502562046051 0.159786209464073181 -0.140513837337493896 -0.035658083856105804 -0.164345696568489075 -0.203683301806449890 -0.154382839798927307 0.025226615369319916 0.054792691022157669 0.113412790000438690 -0.090896382927894592 0.087747097015380859 0.004557647276669741 -0.123741738498210907 -0.118289075791835785 -0.126846089959144592 0.073183685541152954 0.076060950756072998 -0.021501742303371429 0.120916806161403656 -0.023034801706671715 -0.015349466353654861 0.168038427829742432 0.071523115038871765 0.078455746173858643 0.117061436176300049 0.019357552751898766 0.061852499842643738 -0.041955586522817612 0.036830905824899673 -0.080375254154205322 -0.071386247873306274 0.132631555199623108 0.001387193333357573 -0.166615918278694153 0.013628610409796238 0.063788808882236481 0.043439965695142746 0.003111936850473285 -0.102949723601341248 0.139402717351913452 -0.121483162045478821 -0.027462199330329895 0.174246102571487427
0.123659998178482056 -0.110363841056823730 0.019253166392445564 0.090421214699745178 -0.061773568391799927 0.152945086359977722 0.089134208858013153 0.203127294778823853 0.040390249341726303 0.029871623963117599 -0.175851091742515564 -0.033796425908803940 -0.000659914861898869 0.122827813029289246 -0.087992735207080841 -0.072877004742622375 0.190762713551521301 -0.121413446962833405 -0.022584026679396629 0.154685139656066895 0.156770080327987671 -0.122173763811588287 0.020870609208941460 -0.146591275930404663 0.005418494343757629 0.041954603046178818 0.034769576042890549 0.056373819708824158 -0.048804447054862976 -0.084917232394218445 -0.173063039779663086 -0.111093588173389435 0.129225701093673706 -0.147039264440536499 0.074315018951892853 -0.062023870646953583 0.011808185838162899 0.067938290536403656 -0.011737916618585587 0.097939655184745789 -0.150285050272941589 0.132790103554725647 -0.023569885641336441 0.074010550975799561 -0.113680623471736908 0.158053353428840637 0.035774331539869308 -0.169419005513191223 -0.053147800266742706 -0.063781335949897766 0.056854240596294403 -0.035896066576242447 -0.107533626258373260 -0.116028904914855957 -0.067542061209678650 0.035104900598526001 0.173368677496910095 0.192946806550025940 -0.000681063625961542 -0.121834173798561096 0.017126874998211861 -0.167395770549774170 0.065582863986492157 0.162988796830177307 0.151697546243667603 -0.110949292778968811 0.116834230720996857 0.023376870900392532 0.153474897146224976 0.136790528893470764 0.034348867833614349 0.104600258171558380 0.045551478862762451 0.051539462059736252 -0.087812967598438263 -0.036207821220159531 -0.098097182810306549 -0.093806207180023193 0.210207015275955200 -0.054676264524459839 0.117790982127189636 0.045294187963008881 -0.101458638906478882 0.067787066102027893 0.041358429938554764 0.193832486867904663 0.082799144089221954 0.104928649961948395 0.024756565690040588 0.046989496797323227 0.130238294601440430 -0.014433541335165501 -0.117889009416103363 -0.022632908076047897 -0.046303182840347290 -0.191451326012611389 0.147743701934814453 -0.081313043832778931 0.020227178931236267 -0.071536540985107422
-0.173290759325027466 0.205329805612564087 0.032751295715570450 -0.062922641634941101 -0.141213253140449524 -0.022035516798496246 -0.073595114052295685 0.078590355813503265 -0.014115043915808201 -0.126018404960632324 0.300194591283798218 -0.017490331083536148 0.086955443024635315 -0.124786540865898132 0.166783347725868225 -0.166712939739227295 -0.065328858792781830 -0.042223561555147171 0.033260393887758255 -0.113381318747997284 0.072001852095127106 -0.117248810827732086 0.067912511527538300 0.067103378474712372 0.011997652240097523 0.024886989966034889 -0.009533652104437351 0.065440498292446136 -0.122064277529716492 -0.082539774477481842 0.008554409258067608 0.052264127880334854 -0.085678480565547943 -0.097730197012424469 0.112444847822189331 0.011975576169788837 0.137434795498847961 -0.051834736019372940 0.081405080854892731 0.051148097962141037 -0.070281952619552612 -0.176635310053825378 0.037668392062187195 0.140961885452270508 0.050083994865417480 -0.123983018100261688 -0.246849685907363892 0.025057736784219742 -0.142355114221572876 -0.043613232672214508 -0.038571383804082870 -0.106571227312088013 -0.204059779644012451 0.039842706173658371 -0.133446067571640015 -0.074173502624034882 -0.067269980907440186 0.106270447373390198 -0.042872030287981033 0.082403466105461121 -0.148551806807518005 -0.134133726358413696 -0.038512468338012695 -0.028684979304671288 0.071111626923084259 0.127731606364250183 0.087121911346912384 -0.117400161921977997 0.141468793153762817 -0.032814178615808487 -0.111387744545936584 -0.050067346543073654 0.068988852202892303 -0.106846593320369720 0.141585171222686768 0.038179937750101089 0.140965342521667480 -0.043234582990407944 -0.050199005752801895 0.126588135957717896 0.046848602592945099 0.113924302160739899 -0.119465760886669159 -0.057672332972288132 -0.031516652554273605 0.118383891880512238 -0.075430132448673248 -0.172643691301345825 -0.005131196696311235 -0.006818315479904413 0.099302195012569427 0.017848560586571693 0.074460409581661224 -0.167845219373703003 0.166440665721893311 0.094706848263740540 -0.133463576436042786 0.114044941961765289 0.095228455960750580 -0.097695149481296539
0.033509444445371628 0.010153948329389095 -0.015356537885963917 0.000507039600051939 0.072203516960144043 0.109124504029750824 0.172271132469177246 0.033375177532434464 0.127283319830894470 -0.132760122418403625 -0.219891428947448730 0.064769469201564789 0.200260639190673828 0.093708433210849762 0.153619140386581421 -0.124433450400829315 0.191440343856811523 -0.090908721089363098 -0.052030380815267563 0.194046378135681152 -0.093355506658554077 -0.010904666036367416 -0.099260382354259491 -0.069852747023105621 -0.049744907766580582 0.118511632084846497 -0.108452104032039642 0.148475348949432373 0.058270636945962906 -0.063517391681671143 -0.098496310412883759 -0.154875606298446655 -0.165391966700553894 0.113178983330726624 -0.109551496803760529 -0.035094860941171646 -0.137483999133110046 0.122471019625663757 -0.013630201108753681 -0.131766200065612793 -0.028237303718924522 0.088854715228080750 -0.111210852861404419 0.056889809668064117 -0.055090412497520447 -0.014354366809129715 0.247618615627288818 -0.137563079595565796 0.128077015280723572 -0.124047920107841492 -0.001004311023280025 -0.088059902191162109 -0.106219165027141571 0.177451446652412415 -0.077075257897377014 -0.131617337465286255 0.147761657834053040 -0.156930357217788696 -0.072270676493644714 0.175884500145912170 0.001792267663404346 -0.005177717655897141 0.036201480776071548 -0.021520761772990227 -0.162245273590087891 0.035957995802164078 0.072837412357330322 -0.039106309413909912 0.105759926140308380 -0.167999848723411560 -0.031512696295976639 0.162537395954132080 -0.098065130412578583 0.113026060163974762 -0.159142836928367615 -0.035864979028701782 -0.135552361607551575 0.076670534908771515 0.157825276255607605 -0.132309019565582275 -0.039048667997121811 -0.134224623441696167 0.154538556933403015 0.137813165783882141 0.182656139135360718 -0.059012465178966522 -0.147827133536338806 -0.043225873261690140 0.022990046069025993 0.030719192698597908 0.084348008036613464 -0.052159152925014496 0.149602770805358887 0.112628720700740814 0.070909462869167328 -0.175597131252288818 -0.052823483943939209 0.030977677553892136 -0.020760739222168922 0.114852175116539001
0.135812684893608093 -0.069827117025852203 -0.003018458373844624 -0.088887721300125122 -0.102403141558170319 -0.103249199688434601 -0.078002169728279114 -0.029209753498435020 0.034846823662519455 -0.101721711456775665 0.052667949348688126 0.002175529720261693 0.111533217132091522 -0.172546014189720154 0.059183210134506226 -0.088206306099891663 -0.177710101008415222 0.115640878677368164 -0.154255539178848267 0.063166327774524689 0.075685970485210419 0.078743249177932739 -0.113642632961273193 -0.059730939567089081 0.105015985667705536 0.018498400226235390 -0.179437518119812012 0.009969416074454784 -0.056394509971141815 -0.183223217725753784 0.159040600061416626 0.113315187394618988 0.063185274600982666 0.172525703907012939 -0.059476979076862335 -0.040708519518375397 -0.034280344843864441 -0.093140095472335815 0.129040360450744629 0.082654111087322235 0.085727132856845856 -0.107086971402168274 -0.108442440629005432 0.030744783580303192 -0.075755901634693146 0.070955276489257812 -0.032091841101646423 0.151469781994819641 -0.043315973132848740 0.056435648351907730 0.128862202167510986 -0.090212158858776093 -0.038057342171669006 0.171231865882873535 -0.148047074675559998 0.194734260439872742 0.068860225379467010 -0.051038574427366257 -0.136884048581123352 0.147795513272285461 -0.025298738852143288 0.011570770293474197 -0.116157233715057373 0.025132495909929276 0.015711683779954910 0.198680073022842407 -0.048048425465822220 0.243512257933616638 -0.014414147473871708 0.137020662426948547 0.048553328961133957 -0.054656855762004852 0.167066499590873718 0.109790183603763580 -0.004902217537164688 0.044863115996122360 0.150439471006393433 0.040809582918882370 -0.153895124793052673 0.162939429283142090 -0.161844223737716675 -0.129505306482315063 -0.076802596449851990 0.150486782193183899 -0.124461233615875244 -0.009326329454779625 -0.064958535134792328 -0.048596289008855820 -0.039187613874673843 0.129599258303642273 -0.052511516958475113 0.105592653155326843 0.170452877879142761 -0.116959936916828156 -0.183878988027572632 0.074510306119918823 -0.074939161539077759 0.033624310046434402 0.096003584563732147 -0.105302207171916962
0.024155627936124802 0.113126330077648163 -0.038044273853302002 0.042145974934101105 -0.098907314240932465 -0.182176053524017334 -0.035833060741424561 0.078799590468406677 -0.043983235955238342 -0.035755559802055359 0.047415945678949356 0.037578463554382324 -0.088410906493663788 -0.163941130042076111 -0.195396006107330322 -0.015117417089641094 0.043216928839683533 0.138030856847763062 -0.106072239577770233 -0.106576457619667053 0.013807933777570724 -0.164496943354606628 0.063482090830802917 0.096580490469932556 0.017431465908885002 0.111244961619377136 0.037570014595985413 0.038824666291475296 -0.136923030018806458 -0.157925367355346680 0.064629554748535156 0.153535604476928711 -0.118913315236568451 0.019452255219221115 0.027418041601777077 -0.095302976667881012 -0.057467769831418991 -0.175363048911094666 0.112282112240791321 -0.117316246032714844 -0.165777057409286499 -0.214339733123779297 0.059358242899179459 0.009554769843816757 -0.142079979181289673 0.169668659567832947 -0.071899406611919403 -0.110392682254314423 -0.080555908381938934 0.112924151122570038 -0.000205471704248339 0.148195981979370117 0.034883614629507065 0.051314853131771088 0.123806133866310120 0.075440354645252228 0.016292249783873558 -0.152235135436058044 -0.194344878196716309 0.017118578776717186 -0.065048508346080780 -0.135637536644935608 -0.123696371912956238 -0.005278212483972311 -0.074556976556777954 0.152512162923812866 -0.008193574845790863 -0.085198171436786652 0.171890109777450562 -0.064066879451274872 -0.040414195507764816 -0.118683211505413055 -0.045544382184743881 -0.084189578890800476 -0.000318492646329105 0.106206171214580536 0.103574201464653015 0.107830241322517395 0.077724546194076538 0.009857599623501301 -0.164386808872222900 0.141718253493309021 -0.131861001253128052 -0.104082345962524414 0.021421039476990700 -0.162436082959175110 0.052498646080493927 -0.170029133558273315 -0.108380876481533051 0.000258089508861303 0.072965510189533234 -0.130433216691017151 -0.194147273898124695 -0.034602668136358261 -0.028988521546125412 -0.045318264514207840 -0.101356089115142822 -0.104621306061744690 0.114024728536605835 0.164154797792434692
0.127781763672828674 -0.160409003496170044 0.087410598993301392 -0.012098122388124466 0.008557567372918129 -0.137776076793670654 -0.017452899366617203 -0.095631524920463562 -0.151333793997764587 0.006099253427237272 -0.084979206323623657 0.074255324900150299 0.007968974299728870 -0.036542724817991257 0.063936837017536163 0.025000346824526787 0.089079648256301880 -0.037954837083816528 0.048596262931823730 -0.176640212535858154 0.059140995144844055 0.116939261555671692 0.040456384420394897 0.050222754478454590 0.155804082751274109 -0.243806019425392151 -0.088751278817653656 -0.014013082720339298 -0.127214863896369934 -0.123529516160488129 0.048948418349027634 -0.105025559663772583 -0.101471111178398132 -0.062428560107946396 -0.095800220966339111 0.163885518908500671 0.141295388340950012 0.000645095948129892 -0.046023823320865631 -0.097455792129039764 0.041399285197257996 -0.034550085663795471 -0.162854209542274475 -0.042046573013067245 -0.029826672747731209 -0.035428825765848160 -0.167960599064826965 0.015212401747703552 0.087429285049438477 -0.107197999954223633 0.096374370157718658 0.025742925703525543 -0.159402564167976379 0.086388193070888519 -0.048150446265935898 -0.170528709888458252 0.048158444464206696 -0.021763954311609268 -0.070890985429286957 -0.137772679328918457 -0.070090308785438538 -0.182662054896354675 -0.102146588265895844 0.150185108184814453 -0.067968145012855530 -0.060030810534954071 -0.143747329711914062 0.118501767516136169 -0.002409770386293530 -0.199216932058334351 0.038368035107851028 -0.129457861185073853 0.014860169962048531 -0.084139853715896606 -0.012186877429485321 0.133298769593238831 0.065597258508205414 -0.137085139751434326 0.053080737590789795 -0.118731670081615448 0.042250949889421463 -0.035580612719058990 0.151084348559379578 -0.189194962382316589 0.148190215229988098 -0.052473619580268860 -0.050566948950290680 -0.037546817213296890 0.142744734883308411 -0.001747208298183978 0.160747721791267395 -0.071790546178817749 0.104793444275856018 0.047039303928613663 -0.158036604523658752 -0.008893582969903946 -0.014696795493364334 -0.029540725052356720 -0.083956629037857056 0.050653759390115738
-0.115868464112281799 -0.186462983489036560 -0.214636087417602539 -0.103704012930393219 0.123277544975280762 0.143843099474906921 -0.123265586793422699 0.185113012790679932 -0.137081250548362732 -0.023429708555340767 -0.136820316314697266 0.075903899967670441 -0.106735840439796448 0.159937933087348938 -0.036515031009912491 0.082073196768760681 0.079093948006629944 0.123124539852142334 -0.188295841217041016 0.178184345364570618 0.023043688386678696 0.160933464765548706 -0.060268793255090714 -0.107078574597835541 0.067733742296695709 -0.013325614854693413 0.083482101559638977 -0.130240082740783691 0.099394343793392181 0.065421566367149353 -0.065432012081146240 -0.085712336003780365 -0.087886683642864227 -0.086981602013111115 -0.169300198554992676 0.013021308928728104 -0.236395239830017090 0.039582591503858566 -0.006828463636338711 -0.012999532744288445 -0.175908714532852173 0.040353100746870041 -0.074097551405429840 0.083489917218685150 -0.065270803868770599 0.145153552293777466 0.094117827713489532 -0.037092991173267365 0.152129277586936951 -0.007839374244213104 0.182096123695373535 -0.077950894832611084 0.201580256223678589 0.093323126435279846 -0.083949029445648193 -0.050782732665538788 -0.062138084322214127 0.052003160119056702 0.101090542972087860 -0.077378220856189728 -0.037870243191719055 -0.021153666079044342 -0.094021521508693695 0.162670955061912537 -0.050193935632705688 -0.098582640290260315 0.045329254120588303 -0.177501976490020752 -0.095767639577388763 -0.041198041290044785 0.157484054565429688 0.039550945162773132 0.002601759275421500 0.135100424289703369 -0.107119552791118622 -0.095849603414535522 0.071115851402282715 0.089922845363616943 0.139853000640869141 -0.104576677083969116 0.174599990248680115 0.099337168037891388 -0.029622368514537811 0.078480817377567291 0.061581041663885117 0.081582695245742798 0.043455298990011215 0.152938857674598694 -0.133813545107841492 0.103342987596988678 -0.056340474635362625 0.175080701708793640 -0.041762053966522217 -0.167707771062850952 0.010544118471443653 -0.093006514012813568 -0.172592252492904663 -0.126874208450317383 -0.001744598615914583 0.131221830844879150
-0.094569705426692963 -0.223861142992973328 -0.181332439184188843 -0.120684117078781128 0.127504944801330566 -0.015413027256727219 0.240180388092994690 0.196077615022659302 -0.041146080940961838 -0.037948932498693466 -0.175103783607482910 0.067212387919425964 0.034424439072608948 0.124226056039333344 0.057074595242738724 0.116887912154197693 0.242934226989746094 -0.118976727128028870 -0.025284295901656151 0.051628924906253815 0.002855899278074503 0.062459390610456467 0.055194083601236343 0.202562510967254639 -0.018208948895335197 -0.122090764343738556 0.160243630409240723 -0.176368311047554016 0.095213219523429871 0.104115813970565796 -0.298743754625320435 -0.000407845800509676 0.068062052130699158 0.172839343547821045 0.067810475826263428 -0.145434722304344177 -0.208753302693367004 -0.103399232029914856 -0.002112402347847819 -0.218773409724235535 0.000482443516375497 0.309264928102493286 0.019362365826964378 -0.144508555531501770 0.047081440687179565 0.113367050886154175 -0.085268668830394745 -0.119631089270114899 -0.082351319491863251 0.148208096623420715 -0.091673225164413452 -0.173862576484680176 0.011683663353323936 -0.081467166543006897 0.158334463834762573 -0.143237724900245667 -0.060222085565328598 0.151016652584075928 0.172562405467033386 -0.090902656316757202 0.175912052392959595 0.189671590924263000 0.089520923793315887 0.275895088911056519 -0.182237461209297180 -0.185577169060707092 0.107068739831447601 -0.044211626052856445 0.193561628460884094 0.021744797006249428 0.092579647898674011 0.158777073025703430 -0.088337332010269165 0.022712185978889465 -0.233281433582305908 0.126464039087295532 -0.001600971445441246 0.109879955649375916 -0.070932433009147644 0.090634427964687347 0.087324693799018860 -0.104665197432041168 0.109528332948684692 0.120892420411109924 -0.011616744101047516 -0.090031169354915619 0.008910014294087887 0.167286708950996399 -0.190152212977409363 -0.097471192479133606 0.219526559114456177 0.175815284252166748 0.009500717744231224 -0.069690600037574768 -0.098716720938682556 -0.073272861540317535 0.018341634422540665 0.169801309704780579 -0.062573879957199097 0.004460697993636131
0.170252203941345215 -0.060810692608356476 0.053967669606208801 0.136634916067123413 0.123144529759883881 0.025272820144891739 0.072753138840198517 -0.034020446240901947 -0.103662848472595215 -0.133624210953712463 -0.232986196875572205 0.077885337173938751 0.170550450682640076 0.082648746669292450 -0.122760549187660217 -0.036078639328479767 -0.110647365450859070 0.096771858632564545 0.107293121516704559 0.180715963244438171 -0.100670658051967621 0.154853105545043945 -0.132929533720016479 0.102766096591949463 -0.043117173016071320 -0.008396565914154053 0.044515896588563919 -0.009163198061287403 0.196746036410331726 0.109423637390136719 -0.025505619123578072 -0.073670148849487305 -0.118431925773620605 -0.050398811697959900 -0.115573965013027191 0.108374170958995819 -0.143320024013519287 -0.064697176218032837 0.046134643256664276 0.094144076108932495 -0.048174519091844559 0.009315755218267441 0.059454891830682755 0.079973444342613220 0.038100831210613251 0.098527491092681885 0.171623587608337402 0.117447540163993835 0.145905464887619019 -0.086189210414886475 0.017126794904470444 0.151157364249229431 -0.085504315793514252 0.141771629452705383 -0.098036691546440125 -0.030044559389352798 -0.004367865622043610 -0.184708327054977417 -0.173715040087699890 0.169976904988288879 0.046315379440784454 0.202330932021141052 0.085016414523124695 0.028349870815873146 0.059480838477611542 0.079061210155487061 0.149504631757736206 -0.092875637114048004 0.049732450395822525 0.135476499795913696 0.102368481457233429 0.200402095913887024 0.016072493046522141 -0.071842595934867859 0.112764701247215271 0.015185523778200150 0.139495342969894409 -0.027988413348793983 -0.092787683010101318 -0.098677597939968109 -0.140686854720115662 0.086055621504783630 -0.057320635765790939 0.097890309989452362 -0.008450744673609734 -0.039994854480028152 0.015922859311103821 -0.048770654946565628 -0.072305463254451752 0.111130975186824799 -0.048670660704374313 -0.190038606524467468 -0.018048947677016258 0.030762143433094025 0.161911830306053162 0.063955448567867279 -0.082133837044239044 -0.103409476578235626 -0.011171133257448673 -0.144722566008567810
0.003901358693838120 -0.150908604264259338 0.173715829849243164 -0.167119532823562622 0.128560572862625122 0.054593946784734726 -0.037621982395648956 0.114716589450836182 -0.056747611612081528 0.022428911179304123 -0.145451202988624573 0.001428554183803499 -0.088344998657703400 0.125820696353912354 0.027792971581220627 0.095726996660232544 0.082459516823291779 0.119297765195369720 0.134449318051338196 -0.099453948438167572 0.119603618979454041 0.034027647227048874 -0.072408914566040039 0.119540199637413025 0.025907386094331741 0.051505304872989655 -0.117968797683715820 -0.120664440095424652 -0.091495066881179810 -0.051024284213781357 -0.180705115199089050 -0.100502319633960724 0.100583940744400024 0.092318087816238403 0.026633914560079575 0.147940829396247864 -0.133962109684944153 0.055632673203945160 0.122993201017379761 -0.128811269998550415 -0.149145662784576416 -0.054811205714941025 0.075869433581829071 0.194839149713516235 -0.074385181069374084 0.023040087893605232 -0.062442295253276825 -0.189371868968009949 -0.142922773957252502 -0.050170741975307465 -0.117294415831565857 0.117350779473781586 0.112341575324535370 0.018182290717959404 0.043685775250196457 -0.091203227639198303 -0.049499515444040298 -0.126476585865020752 -0.113376826047897339 -0.170102596282958984 0.179219737648963928 0.143662348389625549 -0.050655890256166458 0.160070717334747314 0.153642788529396057 -0.164668172597885132 0.056659203022718430 0.018287809565663338 -0.088487952947616577 0.158664643764495850 0.104900166392326355 -0.085431069135665894 -0.002788421465083957 0.039864275604486465 -0.112344890832901001 -0.017233803868293762 -0.083008550107479095 -0.122625768184661865 0.202112436294555664 -0.074641138315200806 0.023828051984310150 0.058293618261814117 -0.056507181376218796 0.046146791428327560 -0.049334146082401276 0.044272266328334808 0.056867178529500961 -0.035627797245979309 -0.057865425944328308 0.111086264252662659 -0.022101856768131256 -0.063085451722145081 0.030497383326292038 0.133544608950614929 0.008564789779484272 -0.074797488749027252 0.038474578410387039 -0.087413929402828217 0.088002026081085205 0.158209457993507385
0.018604034557938576 0.197792813181877136 0.168395400047302246 0.076369330286979675 0.122361928224563599 -0.225868016481399536 -0.073565438389778137 0.024348542094230652 0.138338625431060791 -0.077505506575107574 0.022102771326899529 -0.160356685519218445 0.080152392387390137 0.136640727519989014 0.026316786184906960 -0.131449297070503235 -0.097979687154293060 -0.089071832597255707 -0.194503843784332275 -0.044281076639890671 -0.056940346956253052 -0.218692734837532043 0.088204823434352875 0.115638852119445801 -0.086170338094234467 0.171509310603141785 -0.147036671638488770 -0.115818895399570465 0.140696391463279724 0.033385727554559708 0.016481610015034676 0.196238249540328979 -0.163603320717811584 0.094983004033565521 -0.061191417276859283 0.066946916282176971 0.150145202875137329 0.061951138079166412 -0.015453321859240532 -0.019357793033123016 0.054930638521909714 0.013248602859675884 0.040877681225538254 0.143983513116836548 0.024208694696426392 0.052777286618947983 0.043034564703702927 0.202475830912590027 -0.134930834174156189 -0.029714860022068024 0.106731139123439789 -0.057960111647844315 0.127674058079719543 0.072696298360824585 0.063196487724781036 0.059279911220073700 0.093383781611919403 -0.171851605176925659 -0.165895208716392517 0.007635722868144512 -0.182553827762603760 0.101200878620147705 -0.147617653012275696 0.012632519938051701 -0.134264394640922546 0.224905058741569519 0.104070216417312622 0.020025514066219330 0.013600337319076061 0.089774034917354584 -0.151804864406585693 0.012839811854064465 -0.042790107429027557 -0.248728841543197632 -0.014602915383875370 -0.118253283202648163 0.020060015842318535 -0.111664682626724243 0.003903028322383761 0.044714447110891342 -0.007496471051126719 0.106163628399372101 0.013306183740496635 0.154224067926406860 -0.156246364116668701 -0.080892011523246765 0.165021255612373352 0.008057541213929653 0.112218640744686127 -0.126402154564857483 -0.142374724149703979 -0.151201620697975159 -0.051588639616966248 -0.031196409836411476 -0.156935378909111023 0.118224121630191803 0.173365101218223572 -0.136094719171524048 -0.089579299092292786 -0.212070807814598083
0.110555350780487061 -0.014301621355116367 -0.123164698481559753 0.127226039767265320 -0.032600622624158859 0.155987501144409180 0.167601168155670166 0.067845739424228668 -0.157276630401611328 -0.032964598387479782 -0.022860474884510040 -0.057043757289648056 -0.015170816332101822 0.059958100318908691 0.166873782873153687 -0.104501180350780487 0.092800468206405640 -0.071103826165199280 0.007010833360254765 -0.123875111341476440 0.008370832540094852 -0.019660681486129761 -0.137183815240859985 -0.035718627274036407 0.061189733445644379 -0.025022931396961212 0.124969601631164551 -0.059301029890775681 0.110441051423549652 0.005971973761916161 0.013671413064002991 0.066565915942192078 0.017577063292264938 0.028811072930693626 0.131744712591171265 -0.057261027395725250 -0.048851672559976578 -0.128069415688514709 0.055191274732351303 -0.074242345988750458 0.135211810469627380 0.224197685718536377 0.019941011443734169 0.128119230270385742 -0.152214884757995605 0.081137813627719879 0.012396042235195637 0.047120746225118637 0.021685827523469925 0.077828556299209595 0.127147719264030457 -0.139358326792716980 -0.090958952903747559 0.087292097508907318 -0.060319233685731888 -0.078689649701118469 -0.082418188452720642 -0.011659032665193081 -0.065207794308662415 -0.015384101308882236 0.008567218668758869 -0.002849405631422997 0.075781300663948059 0.065933234989643097 0.111477203667163849 -0.081923201680183411 -0.067809239029884338 -0.095681533217430115 -0.158534571528434753 0.058559343218803406 0.167977854609489441 0.152606308460235596 -0.053599398583173752 -0.003715330036357045 -0.028849162161350250 0.042391136288642883 0.044610086828470230 -0.191755905747413635 0.091244816780090332 -0.052212603390216827 -0.140004470944404602 -0.116239510476589203 -0.116805262863636017 -0.041686374694108963 0.002349733840674162 0.050228167325258255 -0.095138914883136749 -0.113622948527336121 -0.062787443399429321 -0.043898742645978928 -0.088098727166652679 0.091905914247035980 0.011469281278550625 0.133602827787399292 -0.017297288402915001 -0.116952463984489441 -0.045090328902006149 0.084122478961944580 -0.094253316521644592 0.117584340274333954
0.025603545829653740 -0.200490221381187439 -0.290220081806182861 0.054299760609865189 -0.076899997889995575 -0.064254783093929291 0.203719422221183777 -0.130218774080276489 0.103982754051685333 0.068331263959407806 0.195021525025367737 0.167408302426338196 0.125643819570541382 -0.133607715368270874 0.201590433716773987 -0.172069415450096130 -0.137185350060462952 0.078142374753952026 -0.055128246545791626 0.075584858655929565 -0.181731864809989929 0.011277000419795513 -0.079385578632354736 -0.063902705907821655 -0.030607324093580246 -0.127760067582130432 0.150772333145141602 -0.046936839818954468 -0.068387649953365326 0.202547341585159302 0.085321903228759766 0.016685102134943008 0.063533723354339600 0.193480074405670166 0.067281268537044525 0.093596242368221283 -0.033675398677587509 -0.125194668769836426 0.099420115351676941 0.115592613816261292 -0.147135406732559204 0.576380848884582520 0.135059952735900879 -0.211081251502037048 -0.101272150874137878 -0.016337884590029716 -0.115665964782238007 0.100740790367126465 -0.057862665504217148 0.183919578790664673 -0.015833169221878052 -0.023698592558503151 0.144823163747787476 -0.023565940558910370 -0.189621523022651672 -0.198020011186599731 -0.050894942134618759 -0.056272119283676147 -0.086484409868717194 0.140326023101806641 0.064066328108310699 0.168607935309410095 -0.034299977123737335 -0.118717499077320099 -0.084551252424716949 -0.059846937656402588 0.129815474152565002 -0.083795815706253052 -0.090541116893291473 0.115650624036788940 -0.021503986790776253 -0.060201518237590790 -0.129917785525321960 0.109860785305500031 -0.093193583190441132 -0.014457751065492630 0.101826213300228119 0.018717193976044655 -0.158315300941467285 0.001382622052915394 0.127371191978454590 -0.115372136235237122 -0.026858657598495483 -0.091970652341842651 -0.104746133089065552 -0.032524045556783676 -0.145196691155433655 -0.154825463891029358 -0.099928505718708038 0.065505586564540863 0.185420200228691101 -0.048059176653623581 0.104771561920642853 0.110157288610935211 -0.063002556562423706 -0.082689866423606873 -0.202772617340087891 0.145986676216125488 0.082653529942035675 0.121695071458816528
-0.120122574269771576 -0.081131868064403534 0.208784744143486023 0.113850593566894531 0.055386826395988464 -0.049939680844545364 0.024369060993194580 -0.004042213782668114 -0.208010911941528320 -0.113585859537124634 -0.175385341048240662 0.013006832450628281 0.116892032325267792 0.182341530919075012 0.025766417384147644 -0.003828035201877356 0.182802379131317139 -0.197333380579948425 0.182345196604728699 0.217313587665557861 -0.090367905795574188 -0.069911725819110870 -0.040481768548488617 0.199023827910423279 0.061382982879877090 0.003492971649393439 -0.006010693497955799 -0.128042608499526978 0.052127610892057419 0.137028753757476807 -0.129971593618392944 -0.093884550034999847 -0.035704206675291061 -0.061803206801414490 0.015500913374125957 0.035869896411895752 -0.110739961266517639 -0.085577629506587982 0.036302134394645691 -0.260663837194442749 -0.057736802846193314 0.003160774009302258 -0.114314965903759003 -0.051504541188478470 0.089024171233177185 0.164239406585693359 0.162547618150711060 0.009578834287822247 0.020366420969367027 0.076443187892436981 0.056078087538480759 -0.100641794502735138 0.203618988394737244 -0.065649658441543579 -0.050045505166053772 -0.256195306777954102 -0.128581389784812927 -0.047029279172420502 0.190231963992118835 0.037525303661823273 0.036739792674779892 -0.072070173919200897 0.186016887426376343 0.196204528212547302 -0.136271342635154724 0.038964126259088516 -0.173412874341011047 -0.184386059641838074 -0.087163299322128296 -0.147676140069961548 0.218456923961639404 -0.041377365589141846 -0.112200416624546051 0.040607076138257980 -0.143877238035202026 0.098532751202583313 0.022928325459361076 -0.023545416072010994 -0.007862922735512257 0.018881639465689659 -0.038213331252336502 0.122081078588962555 -0.109361700713634491 -0.119770489633083344 0.200837120413780212 0.013174041174352169 0.038652542978525162 0.166956573724746704 -0.003152260556817055 -0.150142326951026917 0.159735590219497681 -0.066936455667018890 0.166319027543067932 -0.161318585276603699 -0.100152336061000824 0.018188761547207832 0.017816063016653061 0.128423601388931274 -0.131622597575187683 0.119211092591285706
0.050355702638626099 -0.039887238293886185 -0.004291687626391649 0.157043889164924622 0.097362689673900604 0.005904458928853273 0.153274655342102051 -0.027528312057256699 -0.206635862588882446 -0.071417078375816345 -0.051500521600246429 0.090320266783237457 -0.049041517078876495 -0.000275087222689763 0.157945320010185242 -0.143794625997543335 0.268432021141052246 0.039821416139602661 0.071309179067611694 -0.130474269390106201 0.025196138769388199 -0.103005290031433105 0.113665677607059479 0.048038966953754425 -0.102528385818004608 -0.232037290930747986 0.229378342628479004 -0.056775886565446854 0.094316780567169189 0.083193317055702209 -0.087371997535228729 0.021124275401234627 0.125970706343650818 -0.058203913271427155 -0.128136321902275085 0.114701986312866211 -0.087052524089813232 -0.020578233525156975 0.012444820255041122 -0.220129624009132385 0.066311880946159363 0.302888751029968262 -0.157850041985511780 -0.169047921895980835 0.174488544464111328 -0.129250109195709229 0.151467427611351013 -0.084930531680583954 -0.067265681922435760 -0.160464122891426086 0.134915068745613098 -0.138808280229568481 0.094588115811347961 -0.072923414409160614 0.108284942805767059 -0.262534022331237793 -0.057526532560586929 0.127493932843208313 0.012761035934090614 0.036600612103939056 0.268506169319152832 -0.100837230682373047 -0.083497457206249237 0.285259157419204712 0.012503146193921566 -0.140646710991859436 0.157436653971672058 -0.209104433655738831 0.091786131262779236 -0.150659114122390747 0.004326358903199434 0.054248828440904617 -0.084020137786865234 0.262726247310638428 0.025684058666229248 0.114540681242942810 0.039195209741592407 -0.007678451947867870 -0.000499912130180746 -0.161480292677879333 -0.051692351698875427 -0.010295771062374115 0.007729236036539078 -0.065012000501155853 0.135990783572196960 -0.047344550490379333 0.079331405460834503 -0.058119498193264008 -0.005996827501803637 0.175460517406463623 0.139174401760101318 0.211433097720146179 -0.072037361562252045 -0.119030982255935669 -0.010419609025120735 0.020031448453664780 -0.086371421813964844 -0.103136017918586731 -0.137481436133384705 0.150328010320663452
0.117648795247077942 -0.133823499083518982 0.045353367924690247 -0.113636597990989685 0.127214923501014709 -0.215674042701721191 -0.025215249508619308 -0.111525140702724457 -0.015141301788389683 -0.098706960678100586 -0.070812605321407318 -0.083215296268463135 0.045633960515260696 -0.043912835419178009 -0.146990671753883362 -0.035310283303260803 0.066929541528224945 0.112062178552150726 0.067711941897869110 0.164270594716072083 0.209486320614814758 -0.051035750657320023 -0.109098404645919800 0.072269685566425323 0.175290316343307495 0.115357317030429840 -0.008603913709521294 -0.032988224178552628 0.066578134894371033 0.031815040856599808 -0.091612689197063446 -0.021924039348959923 -0.063535533845424652 0.114807210862636566 -0.125403642654418945 0.069025792181491852 -0.108779124915599823 -0.061501730233430862 0.107054390013217926 -0.094524025917053223 0.014759389683604240 -0.121483147144317627 0.115935452282428741 -0.052250765264034271 -0.141433715820312500 -0.078757353127002716 -0.073714040219783783 -0.060232844203710556 -0.070910632610321045 -0.105530470609664917 -0.088737793266773224 -0.043670486658811569 -0.001633014995604753 0.135180369019508362 0.126439914107322693 0.038261849433183670 -0.080390445888042450 0.137656912207603455 0.103192768990993500 0.042178243398666382 -0.085388161242008209 0.112001597881317139 0.162096410989761353 -0.088647216558456421 0.090797901153564453 -0.028847293928265572 0.075163364410400391 -0.010413511656224728 0.025122692808508873 0.096259512007236481 -0.079160235822200775 -0.101776205003261566 0.160284206271171570 -0.050084475427865982 -0.110335238277912140 -0.134653717279434204 0.023187186568975449 0.157641947269439697 -0.102036610245704651 -0.073538362979888916 -0.126864537596702576 0.119868375360965729 0.139875546097755432 -0.091308660805225372 0.107358165085315704 -0.105968050658702850 -0.082136124372482300 -0.095217071473598480 0.081728450953960419 -0.073463261127471924 0.044139560312032700 0.001110952347517014 0.136691659688949585 0.176420524716377258 -0.217248886823654175 -0.088379658758640289 -0.036056701093912125 0.015766153112053871 -0.119856595993041992 -0.176488876342773438
-0.093474745750427246 -0.009821305051445961 -0.059151273220777512 -0.021438444033265114 0.030945278704166412 0.273010134696960449 -0.013056411407887936 -0.050564788281917572 0.026976479217410088 0.000611894764006138 -0.055248845368623734 0.039171077311038971 -0.146448940038681030 -0.236860454082489014 0.047662831842899323 -0.082452535629272461 0.181891277432441711 -0.017335671931505203 -0.005182384978979826 -0.161651477217674255 -0.135425671935081482 0.112166836857795715 -0.107330180704593658 -0.118011415004730225 0.057109761983156204 -0.208916530013084412 -0.081897854804992676 0.129144787788391113 0.132763564586639404 0.055547621101140976 0.016382798552513123 0.004434997681528330 0.015857333317399025 -0.105716884136199951 0.126346737146377563 -0.146006673574447632 -0.004316057544201612 0.120186246931552887 -0.003064030548557639 0.017932785674929619 0.067478463053703308 0.221630573272705078 0.181750074028968811 -0.079680547118186951 -0.193333849310874939 0.017171815037727356 -0.075181126594543457 0.050170011818408966 0.053776614367961884 0.028479011729359627 0.137251093983650208 -0.011964964680373669 -0.046217441558837891 -0.117744095623493195 0.085975460708141327 -0.188279405236244202 -0.076534762978553772 0.132131770253181458 -0.091885209083557129 0.103572413325309753 -0.159773916006088257 -0.129649490118026733 -0.162726148962974548 0.013954326510429382 -0.007254661526530981 -0.068120241165161133 -0.124900735914707184 -0.102188013494014740 0.108417093753814697 -0.104914233088493347 0.026823397725820541 0.052778296172618866 0.047700703144073486 0.063221380114555359 -0.063510969281196594 -0.072246730327606201 -0.152074843645095825 -0.182253688573837280 -0.005149084609001875 0.155947551131248474 -0.003855139715597034 0.072338402271270752 -0.031005907803773880 0.163149818778038025 -0.019519723951816559 0.248727142810821533 0.042869783937931061 -0.044486142694950104 0.146586284041404724 0.117537483572959900 0.166597396135330200 -0.144360959529876709 0.066246718168258667 0.037980642169713974 -0.018346535041928291 -0.142722189426422119 0.082138121128082275 -0.105981551110744476 0.115655675530433655 -0.051308047026395798
-0.085346624255180359 -0.138337045907974243 -0.078929007053375244 0.034912463277578354 0.024766540154814720 0.059384033083915710 -0.049372114241123199 -0.048914771527051926 0.105755850672721863 -0.125150710344314575 0.012422252446413040 0.014349321834743023 0.046174339950084686 -0.054255228489637375 0.202608704566955566 0.193824574351310730 0.131154000759124756 -0.119441591203212738 0.100065372884273529 0.188762754201889038 -0.137202933430671692 0.072360575199127197 0.135924071073532104 0.175890848040580750 -0.119040049612522125 -0.112491972744464874 0.182810395956039429 -0.036315083503723145 0.147576645016670227 -0.082877121865749359 -0.086795911192893982 -0.234329760074615479 0.021189084276556969 -0.035111784934997559 -0.100115112960338593 0.073099553585052490 -0.020997738465666771 0.184830129146575928 0.105114877223968506 -0.190271407365798950 0.182872846722602844 0.108138002455234528 -0.222726315259933472 0.106782875955104828 0.096768341958522797 -0.010765683837234974 -0.083065837621688843 -0.208462849259376526 0.082194648683071136 -0.038491252809762955 -0.033504225313663483 -0.038630366325378418 0.258051216602325439 -0.107832022011280060 -0.128662362694740295 -0.034603338688611984 -0.032827224582433701 -0.002865790389478207 0.191131338477134705 0.123091265559196472 0.264293849468231201 -0.089080199599266052 0.084314905107021332 -0.002523341448977590 0.073127202689647675 -0.248412713408470154 -0.009784659370779991 0.057252544909715652 0.055888585746288300 0.057293288409709930 0.010796506889164448 0.152926161885261536 0.115547500550746918 -0.008180008269846439 -0.175264358520507812 -0.151257246732711792 0.070564225316047668 0.061259243637323380 0.213718399405479431 0.160027220845222473 -0.052110418677330017 0.025889275595545769 -0.157798290252685547 -0.053843148052692413 0.139169573783874512 0.038611531257629395 -0.066202819347381592 0.154452919960021973 -0.148536980152130127 0.133052974939346313 0.095260500907897949 0.025470823049545288 0.069155685603618622 0.138920664787292480 0.178199350833892822 -0.044065590947866440 -0.086562111973762512 0.016975935548543930 -0.109388686716556549 0.011384450830519199
-0.093467511236667633 0.072367660701274872 -0.018371231853961945 -0.140075907111167908 -0.009689087979495525 0.010266215540468693 -0.131660401821136475 0.007017819210886955 -0.160661160945892334 0.178086474537849426 -0.116593964397907257 -0.100249305367469788 0.013795346021652222 0.147985428571701050 0.101779565215110779 -0.010419636033475399 -0.058998223394155502 0.092080853879451752 0.185702070593833923 -0.043247133493423462 0.164876401424407959 -0.202628374099731445 -0.022586960345506668 0.005004661623388529 -0.096762411296367645 0.158095180988311768 -0.141078859567642212 0.138630777597427368 -0.155927330255508423 -0.109826289117336273 0.138200908899307251 0.034817688167095184 0.162556812167167664 0.088079661130905151 0.155092477798461914 0.155890181660652161 0.078090205788612366 -0.182543933391571045 0.118449121713638306 0.031456343829631805 0.102774180471897125 -0.126201316714286804 0.134134799242019653 -0.147069081664085388 0.175764784216880798 0.087415888905525208 -0.176010757684707642 0.102010674774646759 -0.043118149042129517 -0.086459949612617493 -0.136068582534790039 0.142714992165565491 -0.015630627050995827 0.115864679217338562 0.129226028919219971 -0.065006293356418610 0.020895775407552719 -0.090645499527454376 -0.051974534988403320 -0.160559505224227905 0.132839649915695190 0.023099539801478386 -0.100634247064590454 0.128861814737319946 0.093702323734760284 0.069641262292861938 -0.146082639694213867 -0.192832693457603455 0.151913985610008240 0.027065413072705269 0.003439961932599545 -0.178717255592346191 -0.030663890764117241 0.048238433897495270 0.082510776817798615 0.077571943402290344 -0.097010105848312378 -0.021952822804450989 -0.124625504016876221 0.046753600239753723 0.024116497486829758 -0.046569794416427612 0.050213456153869629 0.014805852435529232 -0.130562499165534973 -0.067700408399105072 0.095749057829380035 0.026166295632719994 0.131147101521492004 0.140777781605720520 -0.048193302005529404 0.135646075010299683 0.026513019576668739 0.076136283576488495 -0.068493649363517761 0.056829567998647690 -0.062599323689937592 -0.131877049803733826 -0.107421681284904480 0.118299588561058044
0.237127229571342468 0.048781435936689377 0.061720356345176697 -0.087854504585266113 -0.049419697374105453 -0.293277531862258911 0.053957458585500717 0.112526588141918182 -0.019822722300887108 0.136815980076789856 -0.144658327102661133 -0.006385362707078457 0.198245748877525330 0.207999527454376221 0.139879837632179260 0.207972809672355652 0.214664235711097717 0.112507127225399017 -0.036872666329145432 0.253283590078353882 0.153878420591354370 -0.105689331889152527 -0.146107316017150879 0.010123549960553646 -0.050684828311204910 0.008524125441908836 0.225672662258148193 -0.097261346876621246 0.041552189737558365 -0.198747113347053528 0.099077083170413971 -0.241737425327301025 -0.158928722143173218 0.119948826730251312 -0.251362055540084839 0.085775613784790039 -0.235162779688835144 0.015155327506363392 -0.081572048366069794 -0.187719464302062988 -0.097480647265911102 -0.128808051347732544 -0.134442389011383057 0.149518638849258423 -0.128021895885467529 0.052056126296520233 0.322176128625869751 -0.153888255357742310 -0.038433440029621124 -0.279108136892318726 -0.129218131303787231 -0.148130565881729126 -0.047210317105054855 -0.113510176539421082 0.074355222284793854 0.009732994250953197 -0.004907852970063686 0.039617545902729034 0.094319142401218414 0.069039709866046906 -0.001247657812200487 0.020434226840734482 0.252204328775405884 0.234868988394737244 0.124701090157032013 -0.200498476624488831 0.016281651332974434 -0.084599867463111877 0.169716790318489075 0.079767629504203796 0.234321951866149902 0.296610116958618164 -0.130422845482826233 -0.214539200067520142 -0.191074937582015991 0.151425361633300781 -0.216522976756095886 -0.012139988131821156 0.031145755201578140 -0.010758999735116959 -0.007647761143743992 0.003898089518770576 0.012312739156186581 0.016023324802517891 0.206343352794647217 -0.020270863547921181 -0.151751935482025146 0.051365867257118225 -0.051743280142545700 -0.136771380901336670 -0.080565281212329865 0.022451465949416161 0.132719129323959351 -0.012617575004696846 -0.141226723790168762 0.123584248125553131 0.180738657712936401 -0.081753894686698914 -0.218505263328552246 -0.069678992033004761
-0.038658503443002701 -0.201634436845779419 -0.012149651534855366 0.121477812528610229 0.213602021336555481 -0.143744036555290222 0.264785796403884888 0.012702975422143936 0.027446309104561806 -0.058715820312500000 -0.215009868144989014 0.051208600401878357 -0.037587545812129974 0.094412706792354584 -0.036570664495229721 -0.073458142578601837 0.055531896650791168 0.039626695215702057 0.155518203973770142 -0.034890923649072647 -0.015642413869500160 -0.119290180504322052 0.096158921718597412 0.050123874098062515 0.115728326141834259 -0.017844481393694878 0.192317798733711243 0.019428318366408348 -0.094286583364009857 -0.077883929014205933 -0.217831090092658997 -0.070120990276336670 0.096099331974983215 -0.038287796080112457 -0.103275038301944733 0.210776880383491516 -0.082635343074798584 0.149539887905120850 0.090286955237388611 -0.166884034872055054 0.099302597343921661 0.234518796205520630 -0.116594552993774414 0.002331464318558574 0.118588037788867950 -0.082098685204982758 0.215857058763504028 0.065348625183105469 0.018263349309563637 -0.028270956128835678 -0.180521190166473389 -0.125624209642410278 0.061999309808015823 0.047822773456573486 0.143922626972198486 -0.175550550222396851 -0.149584800004959106 0.102712333202362061 0.084577351808547974 -0.084263406693935394 0.152159199118614197 0.008223848417401314 0.090198419988155365 0.276815831661224365 -0.180501535534858704 -0.149637445807456970 -0.185285016894340515 -0.019336309283971786 0.037623908370733261 0.140028223395347595 0.026218656450510025 -0.120432794094085693 -0.051275596022605896 0.177205175161361694 -0.126998126506805420 0.170605897903442383 -0.003101459937170148 -0.023917917162179947 0.053265593945980072 -0.154100954532623291 0.170948028564453125 0.171445563435554504 -0.102176181972026825 0.122380159795284271 -0.049363490194082260 0.121790848672389984 -0.063345812261104584 -0.008493729867041111 -0.215910330414772034 -0.132174342870712280 0.090759903192520142 0.139223322272300720 -0.138261198997497559 0.115831539034843445 -0.130052030086517334 -0.033631112426519394 0.169671609997749329 -0.039425503462553024 -0.171050995588302612 0.104667842388153076
0.042304765433073044 -0.230626702308654785 0.149084270000457764 -0.151804402470588684 -0.105896756052970886 0.090145356953144073 0.105115972459316254 -0.038842640817165375 -0.089381255209445953 -0.049776583909988403 -0.195017680525779724 -0.002012690994888544 -0.152080044150352478 -0.062092896550893784 -0.031387180089950562 0.104501590132713318 0.013502436690032482 0.111851617693901062 0.076982699334621429 0.126993954181671143 0.030464557930827141 0.128835052251815796 -0.130924746394157410 0.111799135804176331 0.025855109095573425 0.049779292196035385 0.213277071714401245 -0.132290393114089966 0.044910363852977753 -0.005445638205856085 -0.154672548174858093 -0.026629097759723663 -0.043918214738368988 -0.026365971192717552 0.000018944532712339 -0.040426328778266907 0.029028877615928650 0.141598880290985107 -0.131926596164703369 -0.184274509549140930 -0.143047228455543518 0.019333437085151672 -0.102210976183414459 0.037723071873188019 -0.075989998877048492 0.104693450033664703 -0.010796751827001572 -0.006305526010692120 0.162264749407768250 -0.175940513610839844 -0.091656513512134552 0.124886631965637207 0.032580412924289703 -0.207400754094123840 -0.039381686598062515 -0.161387100815773010 0.156558871269226074 -0.016690984368324280 0.149311050772666931 0.011911150999367237 0.207305908203125000 0.015367696061730385 -0.075628697872161865 0.139563918113708496 0.084518983960151672 -0.146735653281211853 -0.078697226941585541 0.061150066554546356 0.188698366284370422 -0.035994816571474075 0.026072060689330101 0.178060442209243774 -0.173026472330093384 -0.111342906951904297 -0.229203954339027405 0.091980203986167908 -0.059416376054286957 -0.099001757800579071 0.130175784230232239 0.079100131988525391 -0.070218630135059357 -0.023339711129665375 0.033949077129364014 0.149215713143348694 0.083103172481060028 -0.139332562685012817 -0.079386450350284576 0.131504610180854797 0.053300037980079651 0.149952054023742676 0.097017541527748108 0.083690248429775238 0.141610383987426758 -0.096919611096382141 -0.054191712290048599 -0.065892636775970459 -0.066416941583156586 0.029139006510376930 0.105365268886089325 0.079554408788681030
-0.065636307001113892 -0.037288017570972443 -0.064653016626834869 0.162060528993606567 0.007503359578549862 -0.194177553057670593 -0.164762124419212341 -0.044916313141584396 -0.174548476934432983 0.083342798054218292 -0.197353795170783997 0.054084122180938721 0.207338869571685791 -0.026487434282898903 0.071173645555973053 0.077725194394588470 -0.096267364919185638 -0.139215916395187378 0.056020669639110565 0.322920978069305420 -0.101716354489326477 0.026793928816914558 0.031811777502298355 0.107791192829608917 -0.139770776033401489 0.045694228261709213 -0.050530694425106049 0.080827392637729645 -0.141445443034172058 0.134298995137214661 -0.002674405695870519 0.103643126785755157 0.043372832238674164 -0.136217102408409119 -0.236916720867156982 0.114602155983448029 -0.231567397713661194 -0.061390679329633713 0.103928558528423309 -0.032267533242702484 0.009287066757678986 -0.045150764286518097 -0.059093970805406570 0.197461709380149841 0.061298836022615433 -0.066083416342735291 -0.002050637267529964 0.158901765942573547 0.029229996725916862 -0.156817525625228882 0.130597159266471863 -0.192440912127494812 0.140620559453964233 -0.066985681653022766 0.053023014217615128 -0.093246757984161377 0.084203563630580902 -0.047467209398746490 0.179443061351776123 0.167520582675933838 0.148651421070098877 0.093721836805343628 0.078518144786357880 0.212008967995643616 -0.053198579698801041 0.082599498331546783 0.158454105257987976 -0.209684252738952637 -0.199242100119590759 0.122025683522224426 0.159546792507171631 -0.006013815756887197 0.143795505166053772 -0.000044059357605875 -0.115502275526523590 0.058150589466094971 0.056414425373077393 0.144948258996009827 -0.121461890637874603 -0.063983798027038574 0.007137360516935587 -0.021766537800431252 0.053799934685230255 -0.036653302609920502 0.029213262721896172 -0.059594102203845978 -0.206521958112716675 0.105869457125663757 -0.194207102060317993 -0.153202816843986511 0.066515535116195679 0.130467623472213745 -0.089409463107585907 0.009063372388482094 -0.172492370009422302 0.082791857421398163 0.120496362447738647 -0.040249060839414597 0.053546544164419174 -0.150499403476715088
0.008981577120721340 -0.165631145238876343 0.031173542141914368 0.039118450134992599 0.010343689471483231 0.067955516278743744 0.124141924083232880 -0.101013295352458954 0.111628830432891846 0.104643858969211578 -0.215753540396690369 0.016230922192335129 -0.143296957015991211 -0.098768569529056549 -0.008925894275307655 0.125526472926139832 0.195555165410041809 -0.037575285881757736 -0.202470302581787109 -0.057373892515897751 0.098497077822685242 0.128067865967750549 0.009983627125620842 0.128182485699653625 0.177621021866798401 -0.020039735361933708 -0.134101510047912598 -0.015089805237948895 0.096855796873569489 -0.011511540971696377 -0.124262638390064240 0.066898070275783539 -0.153560683131217957 -0.030134178698062897 0.075984008610248566 -0.142359554767608643 -0.062921456992626190 0.144262194633483887 -0.046782918274402618 -0.049855262041091919 -0.131601199507713318 0.085818491876125336 -0.028889616951346397 -0.125900804996490479 -0.082766190171241760 0.092044211924076080 -0.026777679100632668 0.023149512708187103 -0.004924459382891655 -0.111520618200302124 -0.031660739332437515 -0.096422672271728516 0.015301294624805450 0.105768680572509766 -0.004044453147798777 -0.132660731673240662 0.095995061099529266 0.062789484858512878 0.051979053765535355 -0.113633632659912109 0.117825292050838470 0.143865734338760376 0.105143584311008453 0.047937583178281784 0.112514175474643707 -0.019191710278391838 0.119118213653564453 -0.122298032045364380 -0.034152653068304062 -0.016469433903694153 -0.019203042611479759 0.053569264709949493 0.035313379019498825 -0.144112139940261841 -0.148897305130958557 -0.017149351537227631 -0.117590181529521942 -0.066124930977821350 -0.105575568974018097 0.045003879815340042 -0.162323102355003357 0.057659484446048737 -0.038304273039102554 0.041803658008575439 -0.112613022327423096 -0.012200748547911644 0.035571813583374023 0.164139017462730408 -0.085478827357292175 0.163112536072731018 0.181667447090148926 0.095652416348457336 0.094568870961666107 -0.171987876296043396 -0.124736234545707703 0.145760074257850647 -0.116399861872196198 -0.172789350152015686 0.172699123620986938 0.028773820027709007
-0.012274749577045441 -0.010889675468206406 -0.084774605929851532 -0.096120044589042664 -0.023524308577179909 0.156406551599502563 0.166062206029891968 0.082497961819171906 -0.032613240182399750 0.163452610373497009 -0.060509290546178818 0.232914358377456665 -0.219400048255920410 0.179843753576278687 0.080575875937938690 0.059875827282667160 -0.014829543419182301 -0.085763074457645416 0.147611171007156372 -0.215509250760078430 -0.107382714748382568 0.111637935042381287 0.126791313290596008 0.006746206898242235 -0.020853830501437187 -0.089665032923221588 0.075397171080112457 0.143120974302291870 0.014992954209446907 0.095588035881519318 0.028329033404588699 -0.100908517837524414 0.155475094914436340 -0.154692098498344421 0.087823130190372467 0.085690207779407501 0.134846732020378113 0.136655643582344055 -0.170375689864158630 0.119453914463520050 -0.025669366121292114 0.091824196279048920 0.035514697432518005 -0.136409491300582886 0.184208005666732788 0.145894438028335571 -0.053531032055616379 -0.256117671728134155 -0.139009460806846619 0.061477620154619217 -0.038830142468214035 0.160962209105491638 -0.068172849714756012 0.083143152296543121 0.197699874639511108 -0.019342297688126564 0.079902336001396179 -0.056595280766487122 0.181603625416755676 -0.015959445387125015 -0.016556518152356148 -0.203811049461364746 0.174441590905189514 0.232643231749534607 -0.145557701587677002 0.051326215267181396 -0.131714820861816406 0.113625712692737579 0.218494847416877747 0.105690605938434601 -0.002303863642737269 0.081314250826835632 -0.082380674779415131 -0.033591818064451218 -0.147889509797096252 0.044237148016691208 0.127319633960723877 0.120955474674701691 -0.010308028198778629 -0.133612185716629028 -0.143326044082641602 0.090882249176502228 0.179858237504959106 -0.042115237563848495 -0.057925280183553696 0.100541360676288605 0.037983570247888565 -0.071166902780532837 0.066850841045379639 -0.116967633366584778 -0.037562601268291473 0.028298817574977875 -0.059753380715847015 0.103800445795059204 0.113329872488975525 0.153209596872329712 0.069594494998455048 -0.100585475564002991 -0.078286267817020416 -0.117125444114208221
0.130419492721557617 -0.041126105934381485 0.074345871806144714 0.112068921327590942 0.036906946450471878 0.176574453711509705 0.171151891350746155 0.166840344667434692 -0.084207400679588318 -0.123707532882690430 -0.198592767119407654 0.107464246451854706 -0.046754743903875351 0.130804613232612610 -0.126449331641197205 0.024600816890597343 0.013149065896868706 0.018045367673039436 0.015234356746077538 0.139342650771141052 0.168870404362678528 0.025797849521040916 0.037550218403339386 0.133001178503036499 -0.131396397948265076 -0.087743781507015228 0.074159771203994751 0.075287587940692902 0.073498107492923737 -0.141168788075447083 -0.115741074085235596 0.011516741476953030 -0.079593263566493988 -0.012750119902193546 -0.125994041562080383 0.107875965535640717 -0.064444229006767273 0.112667925655841827 -0.000071128408308141 -0.184814170002937317 -0.006508950609713793 0.294774532318115234 -0.198725923895835876 -0.158077523112297058 -0.000840985565446317 -0.186638206243515015 0.050159551203250885 -0.057869993150234222 -0.099086865782737732 0.009724871255457401 -0.019074145704507828 0.029151869937777519 0.205415859818458557 -0.039704374969005585 0.162459403276443481 -0.011452998034656048 -0.021969255059957504 -0.102840438485145569 0.067435488104820251 0.164959415793418884 -0.046340744942426682 0.110103607177734375 -0.054933831095695496 0.188412159681320190 0.169666171073913574 -0.156620427966117859 -0.150180846452713013 -0.090729393064975739 0.120252691209316254 -0.114782832562923431 0.056878060102462769 0.167789831757545471 -0.130251333117485046 0.121465034782886505 -0.263296544551849365 0.080700062215328217 -0.126124963164329529 -0.139248728752136230 -0.115564472973346710 0.066633887588977814 0.021743100136518478 -0.164325401186943054 0.154454946517944336 -0.131388947367668152 0.102620959281921387 0.141431823372840881 -0.057506520301103592 0.116178475320339203 -0.029492558911442757 0.076263591647148132 0.097593054175376892 0.148456379771232605 -0.168401151895523071 0.174840629100799561 0.017864875495433807 0.115828901529312134 -0.205744862556457520 -0.109034165740013123 -0.113791495561599731 0.135487794876098633
-0.175810739398002625 -0.055501852184534073 0.085045710206031799 -0.184351935982704163 -0.084110997617244720 0.019383668899536133 0.036816429346799850 -0.073146186769008636 -0.095706701278686523 0.084782280027866364 0.135372087359428406 -0.065614655613899231 -0.021316425874829292 -0.192382991313934326 0.087809637188911438 0.070236444473266602 -0.114928476512432098 0.020767824724316597 -0.021763255819678307 0.009782225824892521 0.099470458924770355 -0.075457401573657990 0.008509859442710876 -0.000537490646820515 -0.116959884762763977 0.102034509181976318 0.160319492220878601 0.075957208871841431 -0.092028327286243439 0.077452398836612701 -0.136877864599227905 -0.076033711433410645 0.079179309308528900 0.055763028562068939 0.129573240876197815 0.089021459221839905 0.027804281562566757 0.132293015718460083 -0.155083343386650085 0.082128509879112244 -0.092665128409862518 0.112361058592796326 -0.123710587620735168 -0.124068610370159149 -0.012606396339833736 0.178231433033943176 -0.265570580959320068 0.081773884594440460 0.095424927771091461 0.138210505247116089 -0.155098348855972290 -0.048887353390455246 -0.161142155528068542 0.103130772709846497 0.109586127102375031 -0.017280237749218941 0.148966372013092041 -0.078223042190074921 0.014865090139210224 -0.060791827738285065 -0.077282644808292389 -0.057572685182094574 -0.039199136197566986 -0.154019817709922791 0.022645387798547745 0.124179035425186157 -0.043398637324571609 0.030266582965850830 0.081603914499282837 0.166073337197303772 -0.228215113282203674 -0.247244596481323242 -0.110892184078693390 0.042814861983060837 -0.046686585992574692 0.096747338771820068 0.018462164327502251 -0.024235520511865616 0.075363814830780029 -0.119331017136573792 -0.030093427747488022 0.118466258049011230 0.011866008862853050 0.001705050934106112 -0.140544161200523376 0.152162089943885803 -0.102828547358512878 -0.033167280256748199 0.192005053162574768 -0.027787579223513603 0.100771673023700714 -0.062049005180597305 -0.122680664062500000 -0.098477572202682495 -0.076675467193126678 -0.169655337929725647 -0.044199217110872269 0.158634439110755920 -0.143258944153785706 0.079293176531791687
-0.158735871315002441 -0.103515833616256714 0.070667028427124023 0.147431910037994385 -0.160341247916221619 -0.193443924188613892 -0.111511431634426117 0.093949355185031891 -0.146547868847846985 0.004831075668334961 0.047765001654624939 -0.076248735189437866 -0.109025366604328156 0.209774971008300781 -0.225161552429199219 0.050672709941864014 -0.056545358151197433 0.126236543059349060 -0.200042411684989929 0.137414827942848206 0.149684339761734009 -0.064274042844772339 -0.044046703726053238 -0.028112275525927544 -0.065098278224468231 0.221828475594520569 0.104678772389888763 0.129602029919624329 0.068492613732814789 -0.071377016603946686 0.126567140221595764 0.031005742028355598 0.009315576404333115 -0.023502763360738754 -0.129127755761146545 0.100188381969928741 0.075127415359020233 0.124892063438892365 0.132749781012535095 0.022850615903735161 -0.080660529434680939 -0.406621038913726807 -0.130476400256156921 0.279382646083831787 0.100509837269783020 -0.077911317348480225 0.173517659306526184 0.061260197311639786 0.155774533748626709 -0.121877469122409821 -0.023443005979061127 0.156456768512725830 -0.064139343798160553 0.090718857944011688 -0.143633067607879639 0.219059556722640991 -0.071927838027477264 -0.079006329178810120 0.047161784023046494 0.097903832793235779 -0.166799649596214294 0.166875019669532776 -0.026697980239987373 0.107486516237258911 -0.109091348946094513 -0.053699206560850143 0.006115205120295286 -0.029613286256790161 -0.103829279541969299 0.172426119446754456 0.168455496430397034 -0.039575375616550446 0.146282613277435303 0.029446477070450783 0.096061855554580688 -0.055342275649309158 -0.118281535804271698 0.030724270269274712 -0.090767823159694672 -0.033030916005373001 0.111716590821743011 -0.122549206018447876 0.100453510880470276 -0.089906826615333557 -0.044974040240049362 -0.027559345588088036 0.126497134566307068 0.008618884719908237 0.123426809906959534 0.044147480279207230 -0.221828594803810120 -0.158774271607398987 0.163089364767074585 -0.157260298728942871 -0.216847270727157593 0.002085530897602439 0.003424430498853326 -0.015189660713076591 0.073778532445430756 -0.124715194106101990
0.057207655161619186 0.145889252424240112 -0.240404397249221802 -0.104253955185413361 -0.122188784182071686 0.269396394491195679 -0.007844809442758560 0.122406132519245148 -0.015865800902247429 -0.158921107649803162 0.186734035611152649 -0.011936832219362259 -0.214869782328605652 -0.140082344412803650 0.187242254614830017 -0.060820985585451126 0.133779555559158325 -0.132456004619598389 -0.032588701695203781 0.018958665430545807 0.035322602838277817 0.081565082073211670 -0.094381667673587799 -0.091678828001022339 -0.133862793445587158 0.022754048928618431 -0.060349155217409134 -0.042402710765600204 -0.100539825856685638 -0.008575915358960629 0.040470033884048462 -0.061891097575426102 0.194192081689834595 0.051869478076696396 -0.052884817123413086 -0.029822489246726036 0.079052746295928955 0.014489195309579372 0.088721603155136108 -0.133586868643760681 0.081634052097797394 0.240310147404670715 -0.048345286399126053 -0.116128012537956238 -0.082058660686016083 0.109196208417415619 0.049708697944879532 -0.067347787320613861 -0.018509659916162491 0.232090175151824951 -0.130407348275184631 0.037187021225690842 0.124119736254215240 -0.158956602215766907 0.005656537134200335 -0.016243794932961464 0.032355573028326035 0.124583028256893158 -0.135531857609748840 0.096353806555271149 0.129777535796165466 -0.184744209051132202 -0.209949940443038940 -0.161625966429710388 0.130321085453033447 -0.138419046998023987 0.156641855835914612 0.097409129142761230 -0.094196945428848267 0.023714471608400345 -0.144671231508255005 0.013126963749527931 -0.025692315772175789 0.036843165755271912 0.121311582624912262 -0.070645034313201904 0.158181533217430115 0.111725859344005585 -0.011944957077503204 -0.025869153439998627 -0.182267352938652039 0.177380830049514771 0.030393417924642563 -0.106706693768501282 -0.191399395465850830 0.098350979387760162 0.060700301080942154 -0.106961622834205627 0.166607409715652466 0.114308528602123260 0.121693506836891174 0.082470729947090149 -0.156455576419830322 -0.096296638250350952 -0.047265142202377319 -0.156373709440231323 -0.125496745109558105 -0.167418316006660461 0.111142151057720184 0.078239470720291138
-0.108685620129108429 0.135212197899818420 0.321033716201782227 -0.019864866510033607 -0.085451751947402954 0.041242528706789017 0.027403950691223145 -0.116268374025821686 -0.009057630784809589 0.061623051762580872 -0.214723363518714905 -0.006872183177620173 -0.007832325063645840 -0.062445882707834244 0.006742697674781084 0.179179102182388306 0.150310322642326355 0.124509774148464203 -0.015613698400557041 0.129398167133331299 0.088357523083686829 -0.185670614242553711 -0.020772984251379967 0.160301044583320618 -0.160709917545318604 0.168976277112960815 -0.079557947814464569 -0.128012061119079590 0.138434186577796936 -0.072933733463287354 -0.132212415337562561 -0.153872370719909668 0.005504286382347345 0.135182306170463562 -0.025790812447667122 0.125443309545516968 -0.082077607512474060 -0.086676642298698425 -0.064889632165431976 0.109972871840000153 -0.032356798648834229 -0.623043775558471680 0.162619799375534058 0.065744623541831970 -0.071966275572776794 0.000118931486213114 0.166903659701347351 0.095592521131038666 -0.069007225334644318 -0.071939192712306976 0.135142162442207336 0.035192675888538361 -0.155780717730522156 0.111165493726730347 0.177060112357139587 0.246145650744438171 0.043876904994249344 -0.117065891623497009 0.064608827233314514 0.091443702578544617 -0.025933351367712021 -0.102241024374961853 0.135419875383377075 -0.056899596005678177 -0.098127320408821106 0.006199195515364408 0.126922771334648132 -0.095538951456546783 0.048259284347295761 0.142114982008934021 -0.002622547559440136 -0.148287221789360046 0.105720199644565582 -0.325539380311965942 0.101162396371364594 -0.049478866159915924 -0.116188272833824158 -0.050423052161931992 0.073874808847904205 0.003643892705440521 -0.164186239242553711 0.192784622311592102 -0.027173884212970734 -0.095685914158821106 -0.015622185543179512 -0.196072056889533997 0.080947160720825195 0.105799406766891479 0.080963328480720520 0.156713292002677917 0.052485078573226929 -0.135497227311134338 0.116931863129138947 -0.124174781143665314 -0.000129209525766782 0.069782696664333344 0.060742802917957306 0.172318026423454285 -0.010549431666731834 0.047412123531103134
-0.004542708396911621 0.075272202491760254 -0.267412275075912476 0.201636359095573425 -0.110599413514137268 0.088985718786716461 -0.102767810225486755 -0.022070875391364098 -0.124573908746242523 0.074272066354751587 0.251330554485321045 -0.050680875778198242 -0.178639367222785950 -0.195529267191886902 -0.007318348158150911 -0.057626526802778244 0.129566162824630737 0.102742396295070648 -0.138524472713470459 -0.159901797771453857 -0.068997204303741455 0.203607842326164246 0.094170562922954559 -0.192267760634422302 0.160606220364570618 -0.107854485511779785 0.113041289150714874 -0.008003945462405682 0.068300619721412659 0.143881246447563171 -0.039388965815305710 -0.061870358884334564 -0.104253590106964111 0.060586072504520416 0.053592100739479065 -0.071084983646869659 -0.003725927323102951 -0.126125425100326538 0.121431261301040649 0.139714613556861877 -0.016130138188600540 0.289784610271453857 -0.014312339015305042 0.039162386208772659 -0.016551502048969269 0.070217803120613098 0.055231101810932159 -0.100446343421936035 -0.162954986095428467 0.231942445039749146 0.055704727768898010 0.077838845551013947 -0.130704134702682495 0.029473017901182175 -0.138721063733100891 -0.162577822804450989 -0.054517176002264023 0.016193414106965065 0.013758974149823189 -0.096240982413291931 0.021869799122214317 -0.106620691716670990 -0.061059717088937759 -0.026729745790362358 -0.134323522448539734 0.032159563153982162 0.114799328148365021 0.026353893801569939 0.061644859611988068 0.097588554024696350 -0.109656631946563721 -0.117313452064990997 -0.156278729438781738 0.368750751018524170 -0.155932307243347168 -0.149692773818969727 0.016854109242558479 -0.071704126894474030 0.054416902363300323 0.101753786206245422 -0.166893780231475830 -0.011976855807006359 -0.087091863155364990 0.156829491257667542 -0.124634347856044769 0.261367917060852051 -0.025249600410461426 -0.017788732424378395 0.152945265173912048 -0.036525141447782516 0.222870588302612305 0.118819974362850189 -0.059252519160509109 0.080440215766429901 0.048320099711418152 -0.147378370165824890 -0.246013686060905457 0.121207214891910553 0.117699623107910156 -0.009072973392903805
0.096069738268852234 0.091545619070529938 0.223070502281188965 -0.128713384270668030 0.073170773684978485 -0.228458255529403687 -0.034004770219326019 0.099350884556770325 -0.081509061157703400 0.026388343423604965 0.054542016237974167 -0.164306133985519409 0.019919333979487419 0.124907210469245911 -0.215016573667526245 -0.058379624038934708 -0.141644641757011414 -0.137300416827201843 0.100205339491367340 0.046545784920454025 0.078916914761066437 -0.028638435527682304 -0.163511410355567932 0.057273119688034058 -0.021786920726299286 0.045081373304128647 0.049588173627853394 0.061273358762264252 -0.021211437880992889 -0.105700947344303131 0.073148988187313080 -0.047932766377925873 -0.103578962385654449 -0.131191939115524292 0.128907680511474609 0.136093556880950928 0.168375030159950256 0.037507809698581696 -0.166787505149841309 0.026433734223246574 -0.093079157173633575 -0.160520508885383606 -0.001831504865549505 -0.019204845651984215 0.114756584167480469 0.084918469190597534 0.141272068023681641 0.087601214647293091 -0.039775557816028595 -0.093284815549850464 0.130463019013404846 -0.062287449836730957 0.034547042101621628 -0.116363577544689178 -0.082094669342041016 0.325295090675354004 0.022891728207468987 0.146113485097885132 -0.175096005201339722 -0.034624908119440079 -0.134401068091392517 -0.003103096270933747 0.083712324500083923 -0.148509129881858826 -0.056415580213069916 0.200422763824462891 0.034836418926715851 0.032721027731895447 0.127187281847000122 0.204425320029258728 -0.042065083980560303 -0.098410949110984802 -0.100032135844230652 -0.322443723678588867 0.081973247230052948 -0.152846068143844604 0.053917396813631058 0.171811491250991821 0.057237099856138229 0.137212753295898438 -0.056534610688686371 -0.052685637027025223 -0.037172298878431320 -0.063478291034698486 -0.151022106409072876 -0.261305153369903564 0.114314034581184387 0.026252735406160355 -0.015798006206750870 -0.059802774339914322 -0.152506962418556213 -0.169082105159759521 0.153389245271682739 -0.151865318417549133 -0.110914647579193115 -0.091535709798336029 0.025382392108440399 -0.120930880308151245 -0.141831666231155396 -0.198912546038627625
-0.158186689019203186 0.105970568954944611 0.272255510091781616 0.097971126437187195 -0.047914166003465652 -0.026345733553171158 -0.182643637061119080 -0.153060585260391235 -0.075888060033321381 -0.128339841961860657 0.033036429435014725 -0.134528324007987976 0.046403635293245316 0.165288433432579041 -0.048644006252288818 -0.005508662201464176 0.061052791774272919 0.120249263942241669 -0.056294295936822891 -0.126828819513320923 0.196326971054077148 -0.084755480289459229 -0.163208410143852234 0.019725618883967400 0.116666525602340698 0.252392262220382690 0.069517485797405243 -0.037151977419853210 -0.117008723318576813 -0.047549623996019363 0.041368011385202408 0.007689044345170259 -0.124897189438343048 -0.183036267757415771 0.089301183819770813 0.021785633638501167 -0.122913427650928497 -0.019496683031320572 0.083256274461746216 0.052126821130514145 -0.011299051344394684 -0.501988410949707031 0.078228525817394257 0.079521991312503815 0.136468827724456787 0.161851182579994202 0.115367822349071503 0.011180814355611801 -0.104963973164558411 -0.188393682241439819 -0.051782969385385513 -0.175992697477340698 -0.127517804503440857 0.201912358403205872 0.177622094750404358 0.248055741190910339 0.099464640021324158 -0.006189550273120403 -0.161731332540512085 -0.156359538435935974 -0.089183717966079712 -0.123005568981170654 -0.079869076609611511 -0.113079205155372620 0.078288242220878601 -0.116883642971515656 -0.019598364830017090 0.094090901315212250 0.039783362299203873 0.135806515812873840 -0.031706847250461578 -0.029070485383272171 -0.082024581730365753 -0.098116710782051086 0.214781835675239563 0.052451442927122116 0.096766293048858643 0.151428386569023132 -0.127700105309486389 -0.093026518821716309 0.049070585519075394 0.026905136182904243 0.124700717628002167 0.089771039783954620 0.012915085069835186 -0.057180155068635941 0.015493160113692284 -0.131593436002731323 -0.048571579158306122 0.000036803441616939 -0.127053931355476379 0.149425521492958069 0.123596847057342529 -0.117412067949771881 -0.104125998914241791 0.006099957972764969 -0.069981567561626434 -0.120188981294631958 -0.067859798669815063 -0.200862303376197815
-0.043310396373271942 0.050798729062080383 0.121442340314388275 -0.045506630092859268 0.194878414273262024 -0.041803102940320969 0.223460182547569275 -0.042849119752645493 0.114767827093601227 -0.123624093830585480 -0.117620743811130524 0.024219399318099022 0.075514271855354309 0.060873661190271378 -0.053368788212537766 0.070268288254737854 0.113148972392082214 -0.185177624225616455 0.196769058704376221 0.189607381820678711 -0.023222865536808968 -0.002631801879033446 0.014474432915449142 0.148824110627174377 -0.136166840791702271 -0.048618443310260773 -0.111030332744121552 0.078305542469024658 0.014019860886037350 0.178917989134788513 0.106975100934505463 -0.071857996284961700 0.012792986817657948 -0.171710267663002014 0.038704201579093933 0.165530696511268616 0.069509506225585938 0.007320649456232786 -0.135193854570388794 -0.134367525577545166 -0.069907583296298981 0.066542096436023712 0.005342914722859859 -0.132461771368980408 0.082100845873355865 0.058645211160182953 -0.136357873678207397 -0.047941453754901886 -0.063246324658393860 -0.131666660308837891 0.096071429550647736 -0.023679230362176895 0.095112003386020660 -0.179076284170150757 0.155300900340080261 -0.093681998550891876 0.033632420003414154 0.123711496591567993 -0.062189504504203796 0.010193258523941040 0.063020415604114532 -0.003725345013663173 -0.003098410554230213 0.042807102203369141 -0.129188373684883118 -0.139844790101051331 -0.162863895297050476 0.030321342870593071 0.123814322054386139 0.005462729372084141 0.119067363440990448 0.052201572805643082 -0.113282993435859680 -0.156022191047668457 -0.141145259141921997 0.013291457667946815 -0.097384631633758545 -0.113411679863929749 0.068091958761215210 0.043927188962697983 0.128323629498481750 0.171829238533973694 0.139081776142120361 -0.039460573345422745 0.166408181190490723 -0.078628726303577423 -0.117124922573566437 0.044368583709001541 0.097959846258163452 -0.024550341069698334 -0.009620706550776958 0.104208834469318390 0.044678244739770889 0.039864126592874527 -0.082348652184009552 0.014652934856712818 -0.001943797804415226 0.111584089696407318 -0.105461686849594116 0.049357112497091293
0.089258767664432526 -0.165489882230758667 0.053595449775457382 0.096885874867439270 -0.031065957620739937 -0.042729873210191727 0.008617708459496498 0.134567528963088989 0.078589789569377899 -0.102428972721099854 -0.104232892394065857 0.170863226056098938 -0.125620111823081970 0.145752280950546265 -0.196931317448616028 0.094985596835613251 0.099238149821758270 0.073294378817081451 0.006098838057368994 0.193338245153427124 0.145717620849609375 -0.056371640413999557 0.012164086103439331 0.204538136720657349 0.155810713768005371 -0.143775925040245056 0.193091765046119690 -0.104997023940086365 0.065685622394084930 -0.114943146705627441 0.022138861939311028 -0.163087710738182068 -0.011209807358682156 0.067514300346374512 0.108560979366302490 0.177565053105354309 -0.099602475762367249 -0.007922209799289703 -0.022388968616724014 -0.131207093596458435 0.119716674089431763 -0.099476687610149384 0.102627895772457123 0.066335633397102356 -0.089428111910820007 0.139929339289665222 -0.100129470229148865 -0.144656941294670105 -0.007330811116844416 -0.096234135329723358 -0.161885544657707214 0.023543504998087883 0.183076381683349609 0.047293826937675476 0.149639293551445007 0.038518499583005905 0.155650943517684937 0.122139096260070801 0.110195912420749664 0.100390449166297913 -0.053646769374608994 -0.046883746981620789 -0.089185111224651337 0.084452614188194275 -0.015690352767705917 -0.170201405882835388 -0.135543182492256165 -0.104917258024215698 0.233879879117012024 -0.011008787900209427 0.165038451552391052 0.060535144060850143 0.125004172325134277 -0.240835040807723999 -0.119595505297183990 -0.121863074600696564 -0.063661381602287292 -0.125238880515098572 0.015017694793641567 -0.199212566018104553 0.217065230011940002 0.042571749538183212 -0.012396755628287792 -0.094084613025188446 0.231175735592842102 0.066314868628978729 0.071393720805644989 0.226319372653961182 -0.011415855959057808 -0.013784212991595268 -0.084718748927116394 0.171514436602592468 0.078907549381256104 -0.087083779275417328 -0.126178711652755737 0.108836576342582703 -0.036871541291475296 -0.082311019301414490 -0.193874657154083252 -0.154763996601104736
-0.159234002232551575 -0.147578269243240356 0.065260641276836395 0.016704611480236053 0.171263337135314941 0.224839150905609131 0.169402420520782471 -0.137847676873207092 -0.103113569319248199 0.140083372592926025 0.268878519535064697 0.061762910336256027 0.053904682397842407 -0.172099873423576355 0.085355304181575775 -0.155797436833381653 -0.102716870605945587 0.036501813679933548 0.079281628131866455 -0.190966531634330750 -0.189646854996681213 0.141303092241287231 -0.169958233833312988 0.114021293818950653 0.028751280158758163 -0.065655253827571869 0.002357861958444118 0.101673617959022522 0.046769749373197556 0.041030589491128922 -0.022469174116849899 0.057404868304729462 0.037908989936113358 -0.105341620743274689 0.130480349063873291 0.028156615793704987 0.212437078356742859 0.075458720326423645 -0.004112994764000177 -0.016472132876515388 -0.080813258886337280 0.092887826263904572 0.134228274226188660 -0.020578354597091675 -0.066380508244037628 -0.018233584240078926 -0.225004374980926514 -0.037309922277927399 -0.008456364274024963 -0.049415960907936096 0.088517822325229645 0.127785921096801758 0.075206965208053589 -0.111611664295196533 0.117920204997062683 -0.186036095023155212 0.147941634058952332 0.172844156622886658 0.145312547683715820 -0.137936159968376160 0.186483711004257202 0.130798205733299255 -0.188652396202087402 -0.040239963680505753 0.134373620152473450 -0.026971656829118729 -0.040693346410989761 -0.159888803958892822 -0.100550778210163116 0.017480330541729927 -0.046981461346149445 -0.041504852473735809 0.094857856631278992 0.074599057435989380 -0.056126330047845840 0.034077264368534088 0.074540264904499054 -0.037352774292230606 -0.064729437232017517 0.033568024635314941 0.016277590766549110 0.152649059891700745 0.003495591459795833 -0.172492787241935730 0.025547526776790619 0.152630984783172607 0.045507334172725677 0.082297615706920624 0.154560148715972900 -0.016941536217927933 -0.056296348571777344 0.048443354666233063 -0.051620010286569595 -0.055267047137022018 0.004892783239483833 0.051882259547710419 -0.062290795147418976 0.162339791655540466 0.151482298970222473 -0.018881266936659813
-0.001034164102748036 0.045411322265863419 -0.074660122394561768 0.016673015430569649 0.155742704868316650 -0.103539198637008667 0.167545631527900696 -0.066580235958099365 -0.064818918704986572 -0.017949305474758148 0.016563082113862038 -0.080523341894149780 0.132842823863029480 0.096347682178020477 -0.063616767525672913 0.103238329291343689 -0.087831981480121613 0.082101300358772278 0.063490621745586395 -0.090892449021339417 0.085711814463138580 0.105472929775714874 -0.056409750133752823 0.093756996095180511 -0.131731301546096802 0.095313958823680878 0.145808935165405273 -0.021966492757201195 0.140857085585594177 -0.185624599456787109 -0.106671087443828583 0.148456379771232605 -0.093036323785781860 0.025097917765378952 -0.099283367395401001 -0.148275792598724365 0.112712912261486053 -0.157635241746902466 -0.107337310910224915 -0.147879123687744141 0.134967416524887085 -0.044091455638408661 -0.115844316780567169 0.042004328221082687 0.075784884393215179 -0.158806458115577698 0.052501950412988663 -0.126968711614608765 0.148860886693000793 0.003234447911381721 0.131679549813270569 0.069708727300167084 -0.163558885455131531 -0.168782949447631836 0.035313837230205536 0.089430592954158783 -0.076395802199840546 -0.067702375352382660 0.072006449103355408 0.078819900751113892 0.006147508043795824 0.130794003605842590 0.139964342117309570 0.168797865509986877 0.133750647306442261 0.086934760212898254 0.085014194250106812 -0.102539196610450745 0.091101631522178650 0.113121911883354187 -0.116145268082618713 0.113346956670284271 -0.163889214396476746 0.127169758081436157 -0.015122182667255402 -0.077044613659381866 -0.145569756627082825 0.106879808008670807 0.118355914950370789 -0.028185781091451645 0.009496606886386871 0.053149994462728500 0.159524589776992798 -0.125943988561630249 -0.016396598890423775 -0.001871875254437327 0.190702050924301147 0.086170867085456848 -0.104111954569816589 0.023440403863787651 0.058264706283807755 0.161474600434303284 -0.120794184505939484 0.059742756187915802 -0.178545445203781128 0.134944766759872437 -0.090126261115074158 -0.130012735724449158 -0.050672236829996109 0.022686362266540527
0.071223415434360504 -0.065904885530471802 -0.165296509861946106 0.151334196329116821 -0.030975021421909332 -0.044889245182275772 -0.016136620193719864 -0.023546656593680382 0.113164275884628296 -0.064005449414253235 0.216001361608505249 0.145251572132110596 -0.051496557891368866 -0.230704039335250854 0.122905738651752472 -0.046335488557815552 0.142729341983795166 0.015433691442012787 0.179797753691673279 0.089869365096092224 -0.134045034646987915 -0.033946372568607330 0.071621693670749664 0.122999049723148346 0.078825727105140686 -0.007461699191480875 0.137876704335212708 0.058965824544429779 -0.031093563884496689 -0.020693289116024971 -0.045660190284252167 -0.075805507600307465 -0.059564679861068726 0.170850962400436401 0.138195753097534180 -0.114560551941394806 -0.057636111974716187 0.062065675854682922 -0.037795148789882660 0.139414682984352112 0.095056444406509399 0.365089029073715210 0.072892531752586365 -0.302910774946212769 -0.160001799464225769 0.021843597292900085 0.102347783744335175 0.109904266893863678 0.088349558413028717 0.277972340583801270 0.132736980915069580 0.121180400252342224 -0.117864646017551422 -0.129246979951858521 -0.016532588750123978 0.070818148553371429 0.057941596955060959 -0.006684300024062395 -0.151881396770477295 -0.045541640371084213 0.124733805656433105 0.068602412939071655 -0.076785728335380554 -0.082996979355812073 -0.016899434849619865 0.151772409677505493 0.002371080452576280 -0.066227830946445465 -0.104714602231979370 -0.194315180182456970 -0.028746424242854118 -0.076472088694572449 0.095612816512584686 0.246438771486282349 -0.046681974083185196 -0.010007776319980621 0.187950745224952698 0.067137904465198517 0.065867133438587189 0.060824912041425705 -0.155370697379112244 -0.085325099527835846 -0.103470332920551300 -0.115388408303260803 -0.147069424390792847 0.200481489300727844 -0.033732935786247253 0.131806150078773499 0.159531116485595703 0.086860381066799164 0.129230603575706482 0.175773471593856812 0.167436525225639343 -0.134253159165382385 0.264087140560150146 0.085468277335166931 -0.087140165269374847 0.084284268319606781 -0.129481017589569092 -0.066631868481636047
-0.051023688167333603 -0.071154817938804626 0.137514859437942505 -0.050214536488056183 0.032158888876438141 0.073457568883895874 -0.026613665744662285 -0.111468113958835602 0.069636054337024689 0.030711075291037560 0.272252470254898071 -0.072288557887077332 -0.107698120176792145 0.051905013620853424 0.039486002177000046 0.067663177847862244 0.030856661498546600 0.004381015431135893 -0.009214253164827824 -0.220748901367187500 0.083714298903942108 -0.082967817783355713 0.119563303887844086 -0.148029386997222900 -0.116505436599254608 -0.106650307774543762 -0.138566434383392334 0.094903647899627686 -0.126337870955467224 -0.031054878607392311 0.169290512800216675 0.081984594464302063 0.153527319431304932 -0.025516496971249580 0.078509457409381866 -0.174650698900222778 0.202639117836952209 -0.174141064286231995 -0.182429954409599304 0.006266176234930754 -0.053467754274606705 0.036970816552639008 0.122211016714572906 -0.150053173303604126 -0.018261747434735298 -0.121307246387004852 -0.031682953238487244 0.058489825576543808 0.040000315755605698 0.110759474337100983 -0.064817965030670166 0.135044619441032410 0.025007007643580437 0.052417822182178497 -0.019615795463323593 -0.139822185039520264 -0.125213325023651123 -0.002940000500530005 0.065660096704959869 -0.024391643702983856 -0.057005506008863449 -0.267302572727203369 -0.083770051598548889 -0.102806426584720612 -0.189671620726585388 -0.053004842251539230 0.013789762742817402 0.125363036990165710 0.107565037906169891 0.067633256316184998 -0.088057279586791992 -0.228609293699264526 -0.056739121675491333 0.116416253149509430 -0.101284161210060120 0.159326672554016113 0.064624309539794922 -0.088031098246574402 -0.055669516324996948 -0.069705449044704437 -0.125582918524742126 0.076998248696327209 -0.144312262535095215 0.084048859775066376 -0.008574815467000008 0.117243722081184387 0.007301034405827522 -0.022680280730128288 0.054104011505842209 0.042425937950611115 0.099540881812572479 0.142918691039085388 -0.181579902768135071 -0.269627481698989868 0.103200428187847137 -0.158746793866157532 -0.091069348156452179 -0.030648645013570786 0.164169237017631531 0.079060167074203491
-0.039823058992624283 0.200409814715385437 0.227484464645385742 -0.147575035691261292 -0.168533936142921448 -0.012400923296809196 -0.209242984652519226 -0.129023596644401550 0.150745093822479248 -0.079885393381118774 -0.140396237373352051 0.117415860295295715 0.055622581392526627 0.018607804551720619 -0.243483394384384155 -0.106812015175819397 -0.184470131993293762 0.021818295121192932 -0.139278143644332886 -0.029948592185974121 0.127805680036544800 0.063875086605548859 -0.085071973502635956 0.163569360971450806 -0.046102076768875122 -0.005309207830578089 -0.030004575848579407 -0.054737724363803864 -0.114755667746067047 0.092932552099227905 0.077845156192779541 0.196825698018074036 0.173546940088272095 0.160391554236412048 -0.068536370992660522 -0.053821865469217300 0.095503024756908417 -0.092529088258743286 0.128945052623748779 -0.111780829727649689 -0.004188314545899630 -0.257817894220352173 0.098411202430725098 -0.076168172061443329 -0.073714137077331543 0.044464524835348129 -0.014664482325315475 0.073864921927452087 0.082025744020938873 -0.070585764944553375 -0.085745409131050110 0.083023004233837128 -0.000998199568130076 0.112233050167560577 -0.075638055801391602 0.276282250881195068 0.084244824945926666 0.160299375653266907 -0.045853588730096817 -0.033499911427497864 -0.168138146400451660 -0.001663745031692088 -0.075038172304630280 -0.066446758806705475 0.135426715016365051 -0.067023225128650665 -0.056139878928661346 -0.017883259803056717 -0.036648280918598175 -0.050285294651985168 -0.167901784181594849 -0.017982680350542068 0.205238848924636841 -0.193707332015037537 0.105803243815898895 0.125144109129905701 0.039058901369571686 0.129367232322692871 -0.076301001012325287 0.020465657114982605 0.165900662541389465 0.048586506396532059 -0.013936831615865231 -0.126393526792526245 0.118042051792144775 -0.086917936801910400 -0.146618768572807312 0.143410012125968933 0.055036205798387527 0.085247874259948730 0.052749108523130417 -0.008706739172339439 -0.016625534743070602 0.095571905374526978 -0.041008148342370987 0.023841483518481255 -0.099444791674613953 0.110201925039291382 -0.158508017659187317 0.100764103233814240
0.054461084306240082 0.079165741801261902 -0.021433761343359947 0.036619868129491806 0.095825351774692535 -0.210529744625091553 -0.090912289917469025 -0.110239028930664062 0.003774022450670600 0.064307652413845062 -0.266048938035964966 0.088165968656539917 -0.097159177064895630 -0.107796452939510345 0.091971963644027710 -0.076238147914409637 0.106452859938144684 0.060067005455493927 0.012827889062464237 0.210756227374076843 0.088600009679794312 -0.101592309772968292 -0.093552730977535248 0.135776937007904053 0.027763133868575096 0.013550998643040657 -0.076563961803913116 -0.149380654096603394 0.152413651347160339 0.130326673388481140 0.010799079202115536 -0.098360359668731689 0.146855756640434265 0.189882710576057434 -0.050716690719127655 0.085102610290050507 -0.152955412864685059 0.051110804080963135 -0.128003671765327454 -0.041633386164903641 -0.016650093719363213 0.160797566175460815 0.054112333804368973 -0.006570019293576479 -0.146265760064125061 -0.198871642351150513 0.059179138392210007 -0.153436422348022461 -0.097370564937591553 -0.195094227790832520 -0.134560063481330872 0.069954708218574524 0.169849380850791931 0.138072073459625244 -0.014158505015075207 0.125937402248382568 -0.133887156844139099 0.015208487398922443 0.123438566923141479 0.162895068526268005 -0.113088466227054596 0.063438862562179565 0.069864317774772644 0.027729865163564682 -0.139729693531990051 -0.049672756344079971 -0.005460773594677448 0.025453688576817513 0.082678176462650299 -0.014686461538076401 0.160802841186523438 0.254658102989196777 0.029705168679356575 -0.043660774827003479 0.004155860282480717 0.047466032207012177 0.127414539456367493 -0.053956262767314911 0.080018445849418640 0.123561911284923553 -0.142549470067024231 0.112183004617691040 0.059919614344835281 0.098587825894355774 -0.138527885079383850 -0.018853915855288506 -0.013732533901929855 -0.155461937189102173 -0.174102127552032471 0.125412508845329285 -0.145345583558082581 0.125550061464309692 0.061222098767757416 0.199107378721237183 0.017230426892638206 0.022112878039479256 -0.071032680571079254 0.021243391558527946 -0.063074901700019836 0.158985972404479980
0.044878114014863968 0.120486155152320862 -0.119927600026130676 0.082771420478820801 0.184624612331390381 -0.076985158026218414 0.098921149969100952 -0.126442775130271912 0.075970880687236786 0.028603190556168556 0.146080434322357178 0.008684331551194191 -0.107875607907772064 -0.011438794434070587 0.144420489668846130 -0.168640762567520142 0.146508410573005676 -0.080384559929370880 -0.019652221351861954 -0.230606555938720703 -0.187244951725006104 0.107479378581047058 -0.152948454022407532 -0.047265835106372833 0.060619641095399857 -0.016867112368345261 0.024519793689250946 -0.123026438057422638 -0.187813162803649902 0.106612883508205414 -0.013998623006045818 -0.073718383908271790 0.134416401386260986 0.081568196415901184 0.089565433561801910 0.117779977619647980 0.118942126631736755 -0.169577062129974365 -0.172489985823631287 -0.086493037641048431 -0.083428576588630676 -0.055261768400669098 0.088060133159160614 0.073351517319679260 0.109458744525909424 0.045032318681478500 -0.116206258535385132 -0.151825800538063049 0.126985684037208557 -0.086433149874210358 -0.016568701714277267 0.032335765659809113 0.026327809318900108 -0.060984659940004349 -0.102607563138008118 -0.112078234553337097 0.099276281893253326 0.051463861018419266 -0.004644923377782106 -0.106090575456619263 -0.160966381430625916 0.014903230592608452 0.038103446364402771 -0.087467409670352936 0.036434497684240341 0.043725155293941498 -0.082367770373821259 0.105461388826370239 -0.028926171362400055 0.053229738026857376 -0.098135009407997131 -0.213684424757957458 -0.078086040914058685 0.123233668506145477 -0.117730416357517242 0.103489503264427185 0.040899395942687988 0.033472269773483276 0.211262330412864685 -0.002251529600471258 0.147663190960884094 0.114284515380859375 0.089700959622859955 -0.128711685538291931 0.147010967135429382 -0.038173157721757889 -0.029926635324954987 0.041985329240560532 0.177112564444541931 0.147865623235702515 0.135337606072425842 0.184741988778114319 -0.026377132162451744 -0.126807793974876404 0.170781120657920837 0.012808915227651596 -0.059653710573911667 -0.105973102152347565 -0.068775296211242676 0.157935217022895813
