#Layer 5 Weights:
-0.022894954308867455 -0.025383276864886284 0.011514786630868912 0.075354598462581635 0.131706818938255310 0.107529230415821075 -0.012650272808969021 -0.152733042836189270 -0.039069246500730515 0.064733445644378662 -0.116031996905803680 -0.219383358955383301 0.063520982861518860 -0.178565740585327148 0.103233322501182556 0.108916699886322021 0.022366670891642570 0.164169088006019592 -0.048060268163681030 -0.213565692305564880 0.119513697922229767 0.010903892107307911 0.002721216296777129 -0.080501049757003784 -0.068606868386268616 -0.161608144640922546 0.147623941302299500 -0.124510422348976135 0.100257724523544312 0.043361514806747437 0.114283323287963867 -0.133041396737098694 -0.050702981650829315 0.154544904828071594 -0.070152670145034790 0.085658736526966095 0.167791306972503662 -0.002601716201752424 0.104941755533218384 0.166530773043632507 0.075186327099800110 0.103653840720653534 -0.121104851365089417 -0.134318515658378601 0.108379125595092773 0.151178851723670959 -0.066287726163864136 0.059118568897247314 -0.228943437337875366 -0.113612242043018341 0.014913824386894703 -0.088938273489475250 0.109533943235874176 0.030385786667466164 0.171954378485679626 -0.055669244378805161 -0.096908047795295715 0.120750568807125092 -0.036122590303421021 0.051603894680738449 0.139435350894927979 -0.144346743822097778 0.063379749655723572 0.015709500759840012 -0.242803648114204407 0.054169397801160812 -0.126107454299926758 -0.199629783630371094 0.109012201428413391 0.134485274553298950 0.078672081232070923 -0.041276309639215469 0.077981181442737579 0.075500264763832092 0.154034018516540527 -0.042738053947687149 -0.041741915047168732 -0.113038316369056702 -0.163879662752151489 0.100424222648143768 -0.136005491018295288 0.198648542165756226 0.011309287510812283 0.004644885659217834 -0.081701979041099548 0.163825452327728271 -0.112727098166942596 -0.051733996719121933 -0.114399641752243042 0.168234273791313171 0.058930043131113052 -0.095362961292266846 0.016562134027481079 -0.148595318198204041 -0.085636138916015625 -0.342184036970138550 0.021554106846451759 -0.146933272480964661 -0.030767885968089104 0.009227902628481388
0.058653708547353745 -0.187098011374473572 0.028680324554443359 -0.101788304746150970 -0.054798375815153122 0.124629713594913483 -0.104750230908393860 -0.044679731130599976 -0.196526631712913513 0.130531102418899536 0.003505355678498745 0.130859762430191040 0.136368349194526672 0.007042376324534416 0.137212246656417847 0.191390350461006165 0.326302826404571533 0.044550903141498566 0.151683598756790161 0.164438888430595398 0.009483044967055321 -0.046684633940458298 -0.165367871522903442 -0.017343236133456230 0.167768910527229309 -0.073160588741302490 -0.248231843113899231 -0.072532720863819122 -0.105488158762454987 -0.095805346965789795 -0.120672307908535004 0.079749733209609985 -0.023938447237014771 -0.093974381685256958 0.059482138603925705 -0.117573611438274384 -0.241898566484451294 0.195583388209342957 0.027639331296086311 -0.071896180510520935 0.179968029260635376 0.010242129676043987 -0.164948284626007080 0.163870677351951599 0.122087620198726654 -0.128846198320388794 0.095485635101795197 -0.053615782409906387 -0.001736565493047237 0.161522209644317627 -0.088040076196193695 0.078505590558052063 -0.005809282884001732 0.152284830808639526 -0.031046178191900253 -0.082398205995559692 -0.084063537418842316 -0.111904174089431763 0.068849973380565643 0.077717684209346771 0.010119430720806122 -0.111840404570102692 -0.085284128785133362 -0.096574686467647552 0.223094791173934937 -0.110963791608810425 -0.098123058676719666 -0.110458016395568848 0.003057295689359307 0.122666105628013611 0.120364755392074585 0.069743566215038300 0.077096946537494659 -0.095538675785064697 -0.289555698633193970 0.083663269877433777 0.115463167428970337 -0.175954788923263550 0.144639298319816589 0.173516139388084412 -0.131980970501899719 -0.175252482295036316 0.111033082008361816 0.102270759642124176 -0.045525457710027695 0.031014006584882736 -0.166378080844879150 -0.049585200846195221 -0.105636022984981537 0.037751026451587677 -0.023853957653045654 -0.089465148746967316 -0.105334445834159851 0.102577261626720428 -0.147232070565223694 0.057675279676914215 -0.032235834747552872 0.022030774503946304 -0.002016702666878700 0.007471315097063780
0.206504344940185547 0.156059160828590393 0.096670895814895630 -0.039033606648445129 0.146995812654495239 -0.118324831128120422 -0.124131843447685242 -0.142300590872764587 -0.031414624303579330 -0.073805443942546844 -0.067111872136592865 -0.180905357003211975 -0.081486754119396210 -0.170762687921524048 0.133536323904991150 -0.133638203144073486 -0.112315312027931213 -0.046615358442068100 -0.063640214502811432 -0.113752961158752441 -0.069364599883556366 -0.116018399596214294 0.018115611746907234 -0.211952105164527893 -0.063672564923763275 -0.177083969116210938 0.109932966530323029 -0.117137335240840912 -0.004395420663058758 -0.199773326516151428 0.048185870051383972 -0.130797341465950012 -0.018598940223455429 0.129306226968765259 0.077635787427425385 0.104388780891895294 0.100024618208408356 -0.028990438207983971 0.097074717283248901 -0.079775884747505188 -0.223802506923675537 0.170058161020278931 0.133517608046531677 -0.091669745743274689 -0.107223674654960632 -0.033634770661592484 0.220853835344314575 0.039422780275344849 -0.202666029334068298 -0.079018749296665192 -0.149660170078277588 -0.018683554604649544 -0.111726611852645874 -0.017920142039656639 0.026892568916082382 0.010799111798405647 0.048836451023817062 0.125154122710227966 -0.173481345176696777 -0.099537834525108337 -0.019372800365090370 0.026607124134898186 -0.011882758699357510 0.029499022290110588 -0.118965141475200653 -0.142549365758895874 0.090146966278553009 0.195395499467849731 0.205837339162826538 0.162543192505836487 0.047835011035203934 -0.120873548090457916 -0.212645500898361206 -0.135844781994819641 0.215153589844703674 0.060058280825614929 -0.151592612266540527 0.028212197124958038 -0.105144888162612915 -0.149425446987152100 -0.039745450019836426 -0.055923283100128174 0.055519070476293564 -0.003201749408617616 0.082771770656108856 0.116731122136116028 -0.167312756180763245 0.024123556911945343 -0.033259551972150803 0.162638619542121887 0.136618152260780334 0.095122747123241425 -0.097176231443881989 -0.156334683299064636 0.044136460870504379 -0.187076926231384277 -0.176577612757682800 0.106887072324752808 -0.218406960368156433 0.201938346028327942
-0.045877210795879364 -0.106170527637004852 0.168180823326110840 -0.178173616528511047 0.030264627188444138 -0.080953083932399750 0.223778769373893738 0.017086897045373917 0.055250376462936401 -0.015513827092945576 -0.073092877864837646 0.005193597637116909 -0.141095876693725586 -0.145976513624191284 0.120558068156242371 -0.068204119801521301 -0.081018418073654175 -0.209018066525459290 0.000232969934586436 0.131685107946395874 0.154936566948890686 -0.003771084593608975 0.126788765192031860 -0.070103392004966736 -0.143704563379287720 0.077307403087615967 0.082074463367462158 0.181271359324455261 -0.085088528692722321 -0.126258134841918945 -0.198629990220069885 0.148976162075996399 0.126034528017044067 0.089796185493469238 -0.114192515611648560 -0.085946455597877502 0.008429740555584431 -0.153258875012397766 0.162256613373756409 0.138306677341461182 0.036377180367708206 -0.063694618642330170 0.052827045321464539 0.030325220897793770 0.085564091801643372 -0.130419000983238220 0.113960556685924530 -0.042206559330224991 0.147979319095611572 0.002790668513625860 -0.185096457600593567 0.065307006239891052 -0.090748749673366547 0.077157519757747650 0.078499481081962585 -0.159353479743003845 -0.024574810639023781 0.206945419311523438 0.168863579630851746 -0.087965145707130432 0.037686850875616074 0.030575720593333244 0.177856102585792542 -0.031142862513661385 -0.055998455733060837 -0.194503054022789001 0.056490324437618256 0.022030634805560112 0.114818990230560303 -0.023521361872553825 0.037975106388330460 0.002481038449332118 0.087542630732059479 -0.130305752158164978 -0.030906990170478821 0.210934370756149292 0.035319816321134567 0.063460163772106171 0.201570734381675720 0.107530966401100159 -0.011519941501319408 0.127274587750434875 0.194908753037452698 0.146908491849899292 0.025004383176565170 0.017226671800017357 0.091646641492843628 -0.102578692138195038 -0.105390980839729309 -0.080370165407657623 -0.057126950472593307 -0.071165315806865692 0.149452641606330872 0.139431104063987732 0.026993880048394203 0.294331938028335571 -0.052905596792697906 0.006650777067989111 -0.019170727580785751 -0.084600053727626801
0.181922912597656250 0.092623628675937653 0.020744061097502708 -0.017465565353631973 -0.104931414127349854 0.159577399492263794 -0.015972271561622620 0.026821674779057503 0.077400565147399902 -0.057747509330511093 0.004847104195505381 -0.194548651576042175 -0.154888793826103210 -0.117220118641853333 0.101911149919033051 -0.107975549995899200 0.000419399264501408 0.010788382031023502 0.120439171791076660 -0.192907541990280151 0.100440822541713715 -0.147473812103271484 0.049123696982860565 -0.033166509121656418 -0.094955191016197205 -0.002860737498849630 -0.083442464470863342 0.133937835693359375 -0.076396517455577850 0.102545678615570068 -0.159692779183387756 -0.094875954091548920 0.020002229139208794 -0.084497869014739990 -0.051519572734832764 -0.008715446107089520 0.146550044417381287 -0.025353329256176949 0.047827348113059998 -0.163864940404891968 0.038919724524021149 0.136384621262550354 0.154292553663253784 -0.048032172024250031 -0.002110557863488793 0.107479393482208252 0.139624685049057007 0.001430546399205923 -0.254948675632476807 0.152673810720443726 -0.062186129391193390 0.159732669591903687 0.007758375257253647 0.007729751523584127 0.013326142914593220 -0.011426255106925964 -0.076804444193840027 0.069375440478324890 -0.075945451855659485 0.067116767168045044 -0.124910540878772736 -0.056870479136705399 0.105823718011379242 0.125318735837936401 0.003173943608999252 0.142341107130050659 0.167851954698562622 -0.122661814093589783 0.115249417722225189 0.093451298773288727 0.081977553665637970 -0.136618599295616150 -0.113070510327816010 -0.107975736260414124 0.016895955428481102 -0.112025342881679535 0.141342043876647949 -0.100727468729019165 -0.089937515556812286 -0.192992493510246277 -0.058847505599260330 -0.024668514728546143 -0.086353257298469543 0.137782946228981018 -0.150041311979293823 -0.061343327164649963 -0.110472835600376129 -0.044634908437728882 -0.133243829011917114 0.102424085140228271 -0.156416237354278564 0.002891352865844965 -0.139400169253349304 0.040676761418581009 0.027165433391928673 -0.245393604040145874 -0.162787586450576782 -0.087823435664176941 0.068386957049369812 0.028291050344705582
-0.122446268796920776 -0.042076613754034042 -0.104898765683174133 0.026502046734094620 0.055427212268114090 -0.024641914293169975 -0.142207458615303040 -0.009066401980817318 0.176603898406028748 -0.092999450862407684 -0.019168268889188766 -0.100916370749473572 0.014190819114446640 -0.146742030978202820 -0.190028920769691467 -0.177531808614730835 0.004212789237499237 -0.136319279670715332 -0.094943240284919739 -0.049388881772756577 -0.020873459056019783 -0.123712845146656036 0.087950833141803741 0.131137669086456299 -0.089901305735111237 -0.156931713223457336 0.154465317726135254 0.096509665250778198 -0.028885139152407646 0.031560432165861130 -0.067443951964378357 -0.118423677980899811 0.073938600718975067 0.143768414855003357 -0.154830902814865112 -0.173583731055259705 0.111013710498809814 0.029256898909807205 -0.100652642548084259 0.127719789743423462 0.189034923911094666 -0.047630265355110168 -0.027458429336547852 0.229089275002479553 0.190395757555961609 0.078868694603443146 0.069857679307460785 -0.071253806352615356 -0.068844355642795563 0.092138364911079407 -0.018399491906166077 -0.005684167612344027 0.097714714705944061 0.149147510528564453 0.089010231196880341 -0.034973699599504471 -0.021953720599412918 0.045330487191677094 0.003721818327903748 -0.142584443092346191 0.048876676708459854 -0.016401639208197594 0.156958132982254028 0.152362972497940063 -0.112843491137027740 0.089887492358684540 0.168246239423751831 -0.119083374738693237 -0.067414335906505585 -0.078355327248573303 0.016166076064109802 -0.144488036632537842 0.067896172404289246 -0.036100678145885468 -0.109952829778194427 0.030144872143864632 -0.036717016249895096 0.009420617483556271 0.067649610340595245 -0.129596874117851257 0.156471684575080872 0.138044729828834534 0.184138879179954529 0.098139800131320953 -0.099146060645580292 -0.190941512584686279 -0.028232946991920471 -0.176927983760833740 0.177393823862075806 0.103999339044094086 0.087712012231349945 -0.145643144845962524 -0.007405568379908800 -0.002939351601526141 0.033614106476306915 0.143938094377517700 0.144500955939292908 -0.135292604565620422 -0.109971851110458374 0.017387552186846733
0.156439319252967834 -0.108431734144687653 0.007470937911421061 -0.078299075365066528 0.142834559082984924 -0.085439808666706085 0.212821543216705322 0.060575511306524277 0.022048203274607658 0.150796398520469666 -0.030160956084728241 0.094875276088714600 -0.124811924993991852 0.097716473042964935 0.164071232080459595 -0.021496199071407318 0.117670387029647827 0.144344270229339600 -0.135862186551094055 -0.104508407413959503 -0.175319090485572815 0.123472422361373901 -0.178004637360572815 0.165854364633560181 0.081759467720985413 -0.149850443005561829 -0.167558208107948303 0.076691471040248871 -0.124568410217761993 0.010843054391443729 -0.074277192354202271 0.140857785940170288 0.057216774672269821 0.019265478476881981 -0.002939807716757059 0.140171691775321960 0.028449153527617455 0.067520186305046082 -0.134216904640197754 0.063418485224246979 -0.066427774727344513 0.044015407562255859 0.068257451057434082 -0.141062974929809570 0.205925941467285156 -0.083789251744747162 0.125388428568840027 0.063404098153114319 -0.033524457365274429 0.060698907822370529 -0.161706358194351196 -0.153291091322898865 -0.080453470349311829 -0.027540724724531174 -0.111202858388423920 -0.165170088410377502 -0.123010866343975067 0.158149868249893188 -0.201038703322410583 0.090466395020484924 -0.017280302941799164 -0.082368038594722748 0.027903454378247261 0.146322697401046753 0.128352060914039612 0.090681143105030060 0.080485716462135315 0.159026831388473511 0.033274281769990921 -0.054338768124580383 0.014029934071004391 -0.066409543156623840 -0.086367383599281311 -0.015726627781987190 -0.126478239893913269 0.010904100723564625 0.105098322033882141 0.004214174579828978 -0.014620968140661716 0.182007119059562683 0.039708223193883896 -0.073787510395050049 -0.190326884388923645 0.081254862248897552 -0.049874443560838699 0.041197802871465683 -0.007245464250445366 0.097248680889606476 0.027761029079556465 -0.183174714446067810 0.111610554158687592 0.001569078071042895 0.026327796280384064 0.024890394881367683 -0.093887373805046082 -0.011649870313704014 -0.074145890772342682 -0.093396730720996857 0.097052469849586487 -0.158487707376480103
0.061926834285259247 -0.159869626164436340 -0.047943778336048126 0.149162769317626953 0.133317545056343079 0.049128506332635880 -0.109302483499050140 0.092242278158664703 0.086269497871398926 0.026582257822155952 -0.048805460333824158 -0.096043549478054047 -0.052534651011228561 0.113474383950233459 -0.027104439213871956 -0.160656809806823730 -0.135315909981727600 0.125126495957374573 -0.196779027581214905 0.020303370431065559 0.170755133032798767 0.058206576853990555 -0.074052721261978149 0.014672914519906044 -0.007161840796470642 0.099165625870227814 -0.104556277394294739 -0.095845624804496765 0.153638705611228943 0.100565247237682343 -0.144930317997932434 0.058789759874343872 0.031824305653572083 -0.246949851512908936 0.026631318032741547 -0.139703541994094849 0.203415349125862122 0.067165039479732513 -0.142065763473510742 -0.005305057857185602 -0.095749840140342712 0.131055414676666260 0.165060713887214661 -0.161752671003341675 -0.174497440457344055 0.008609493263065815 0.261068671941757202 0.044249881058931351 -0.042655620723962784 -0.154837325215339661 -0.171627148985862732 0.105236105620861053 -0.095281101763248444 0.135713353753089905 0.026916652917861938 0.139169842004776001 0.092249833047389984 0.184110581874847412 -0.101312778890132904 0.051127634942531586 0.156261369585990906 -0.072196118533611298 0.152910858392715454 -0.130409896373748779 0.162457242608070374 -0.157131627202033997 -0.017680348828434944 -0.191280409693717957 -0.040816366672515869 0.151187926530838013 0.126168504357337952 -0.104929089546203613 0.052007887512445450 -0.072866998612880707 0.122274078428745270 0.027939880266785622 0.154747202992439270 0.142222985625267029 -0.116954617202281952 0.118518695235252380 0.063292987644672394 0.072635121643543243 -0.044590421020984650 0.071052655577659607 0.130156442523002625 -0.051362019032239914 -0.022346831858158112 -0.177364364266395569 0.039813298732042313 -0.065183781087398529 -0.011320393532514572 -0.126910373568534851 -0.184525549411773682 -0.196201071143150330 -0.120583117008209229 -0.001605994882993400 -0.178718820214271545 -0.144049271941184998 -0.194512337446212769 0.145061716437339783
0.023909723386168480 -0.127301126718521118 0.053843036293983459 -0.154540911316871643 0.144544959068298340 0.120036639273166656 -0.039705082774162292 0.015073616057634354 -0.125507667660713196 -0.003118048887699842 -0.070544734597206116 -0.110358670353889465 -0.060939844697713852 -0.115860641002655029 0.106536746025085449 0.090525187551975250 0.131788536906242371 0.095626674592494965 -0.080443792045116425 0.185271576046943665 0.060626111924648285 0.053814139217138290 0.070056207478046417 0.027664985507726669 -0.046209793537855148 -0.029751069843769073 -0.201724395155906677 -0.035489644855260849 -0.022417604923248291 -0.165249958634376526 0.070633530616760254 0.080445453524589539 -0.076218597590923309 -0.392169356346130371 -0.103395104408264160 -0.107314765453338623 0.100199557840824127 -0.060419667512178421 0.061965499073266983 0.123639397323131561 -0.028655027970671654 -0.094531759619712830 -0.103599600493907928 0.052054733037948608 0.103096880018711090 0.151323989033699036 -0.099421031773090363 -0.033687382936477661 0.185800477862358093 0.030308671295642853 0.071755513548851013 0.162125945091247559 0.175672903656959534 -0.024194585159420967 0.035461772233247757 0.240986958146095276 0.162879064679145813 0.081627354025840759 0.003439723514020443 0.036446489393711090 0.110561206936836243 -0.097374573349952698 0.109744019806385040 0.087053209543228149 -0.042984910309314728 0.099079027771949768 0.054731700569391251 -0.223443984985351562 -0.061771165579557419 0.093946471810340881 0.223885491490364075 -0.075666360557079315 0.054100587964057922 -0.061909597367048264 -0.074446521699428558 0.082972392439842224 0.074896223843097687 -0.034885831177234650 -0.004401494748890400 0.014078990556299686 0.229052633047103882 -0.040176276117563248 -0.128651723265647888 -0.167907968163490295 0.124483719468116760 -0.120215438306331635 0.035546690225601196 -0.056651819497346878 -0.130251079797744751 -0.116188429296016693 0.045473910868167877 -0.138825416564941406 -0.037089951336383820 -0.117900647222995758 0.017354726791381836 0.166989818215370178 0.031402379274368286 0.064437597990036011 0.098591521382331848 -0.130012989044189453
0.059245008975267410 -0.045826677232980728 -0.128805220127105713 0.031283028423786163 0.110773429274559021 0.003551258938387036 -0.138510823249816895 -0.142871469259262085 0.026423590257763863 0.033655114471912384 0.114373996853828430 -0.166740819811820984 -0.120217524468898773 0.046686217188835144 -0.069991737604141235 -0.055587466806173325 -0.143641486763954163 -0.115732304751873016 0.017067054286599159 0.109520047903060913 0.057431012392044067 -0.017231686040759087 -0.155566498637199402 -0.163008064031600952 -0.252847433090209961 -0.110129803419113159 0.178143575787544250 0.013195655308663845 0.239292696118354797 0.099789872765541077 -0.055978335440158844 0.118368230760097504 0.003849537111818790 0.121071875095367432 0.133208230137825012 -0.205918416380882263 0.065535187721252441 0.076961770653724670 0.057656038552522659 0.048339139670133591 -0.011872498318552971 -0.116474233567714691 -0.090613029897212982 -0.072429984807968140 0.145433589816093445 -0.053913597017526627 0.052235323935747147 0.039199970662593842 0.024431716650724411 0.015458925627171993 0.047869339585304260 -0.121811233460903168 -0.066354140639305115 -0.067065097391605377 -0.007732027210295200 -0.137746497988700867 0.127111896872520447 -0.034286525100469589 -0.177783206105232239 -0.118506692349910736 0.031000405550003052 0.166658684611320496 -0.114210762083530426 0.042292539030313492 -0.179590597748756409 -0.105586104094982147 -0.001265929080545902 -0.027464926242828369 0.164972826838493347 -0.091868288815021515 -0.119821675121784210 0.027210876345634460 -0.113270506262779236 -0.003513993928208947 0.060031604021787643 0.104803800582885742 -0.179089933633804321 0.133923932909965515 0.043604329228401184 -0.119509220123291016 -0.050499755889177322 0.031200494617223740 -0.095154173672199249 -0.012194790877401829 0.133580952882766724 -0.140784591436386108 0.109418518841266632 -0.142400845885276794 0.033697776496410370 -0.151984095573425293 -0.051007382571697235 -0.042463161051273346 0.038048688322305679 -0.079460866749286652 -0.003745548659935594 -0.175755366683006287 0.091587349772453308 0.031363375484943390 -0.193349540233612061 0.111932933330535889
0.035507515072822571 -0.164029851555824280 -0.169794082641601562 0.105063021183013916 0.019701858982443810 -0.028054358437657356 0.096791580319404602 0.119085498154163361 -0.024793697521090508 0.015386403538286686 -0.096674792468547821 -0.164911642670631409 -0.115129098296165466 0.172418311238288879 -0.123714625835418701 -0.075048200786113739 0.007292805239558220 -0.054653838276863098 -0.081658333539962769 -0.022802649065852165 0.137170955538749695 -0.150633826851844788 0.074691221117973328 -0.202159538865089417 -0.126917928457260132 -0.099620357155799866 0.082241170108318329 0.115973979234695435 0.147366270422935486 -0.006095162127166986 -0.065295800566673279 0.128728076815605164 0.003267884720116854 0.225974410772323608 -0.133249878883361816 -0.149364024400711060 0.092225760221481323 -0.135685041546821594 0.099840641021728516 -0.193115413188934326 -0.080046266317367554 0.169913142919540405 0.135699182748794556 0.084308505058288574 -0.082203090190887451 -0.097481869161128998 0.066384665668010712 0.184028163552284241 -0.177652820944786072 0.002877128077670932 0.007726944983005524 0.146650388836860657 0.026912845671176910 -0.042155697941780090 0.107264243066310883 -0.068833932280540466 0.008475151844322681 -0.214961528778076172 -0.156381919980049133 0.138961330056190491 -0.023041635751724243 0.113785646855831146 -0.026979280635714531 -0.180054962635040283 0.001385001232847571 0.054705306887626648 -0.102246508002281189 -0.194722458720207214 -0.069838054478168488 0.147835850715637207 -0.155110433697700500 -0.005754523910582066 0.010355986654758453 -0.021475559100508690 -0.086770266294479370 -0.076296851038932800 -0.006829745136201382 -0.050815675407648087 -0.123226776719093323 -0.045165542513132095 -0.009329239837825298 -0.039701238274574280 0.115168839693069458 -0.118579380214214325 -0.061414640396833420 0.075682625174522400 -0.000099394383141771 -0.136011958122253418 -0.115680530667304993 -0.125833734869956970 0.100806757807731628 -0.026708437129855156 -0.009580863639712334 0.117821291089057922 0.070771820843219757 -0.268785446882247925 0.084732338786125183 0.153177127242088318 -0.011612864211201668 -0.088882438838481903
0.092949524521827698 0.164687082171440125 -0.186064347624778748 -0.058466926217079163 -0.162710458040237427 0.082187756896018982 -0.105641409754753113 -0.110399261116981506 -0.067420400679111481 -0.103979706764221191 0.064622387290000916 -0.150140091776847839 0.119251333177089691 0.111259847879409790 0.132225111126899719 0.027489311993122101 -0.073350757360458374 0.186461299657821655 -0.070022515952587128 -0.000218736939132214 -0.015263334847986698 0.102195128798484802 0.181854248046875000 0.095788799226284027 -0.063720457255840302 -0.005135405343025923 -0.059689152985811234 0.176436901092529297 0.155570030212402344 0.015146511606872082 -0.019917448982596397 -0.073745027184486389 -0.155778050422668457 0.062250472605228424 -0.095367610454559326 -0.011924903839826584 0.146180167794227600 -0.066403917968273163 0.183748558163642883 -0.158068850636482239 -0.205592170357704163 -0.063358090817928314 0.151379495859146118 0.089397042989730835 -0.102510049939155579 -0.011062212288379669 0.083936035633087158 0.130859315395355225 -0.152599260210990906 -0.114007934927940369 0.087216533720493317 0.039479494094848633 0.038865741342306137 -0.058022636920213699 0.283164858818054199 0.075069524347782135 -0.109211228787899017 -0.078027807176113129 -0.062031235545873642 -0.158329084515571594 0.169377014040946960 0.054954923689365387 -0.037986651062965393 -0.089893564581871033 -0.200111210346221924 0.105856880545616150 0.018110098317265511 0.077212706208229065 -0.004066098947077990 -0.007339981384575367 0.129133209586143494 -0.178365007042884827 0.098573625087738037 -0.126645013689994812 0.102113224565982819 0.184218421578407288 -0.011479885317385197 -0.107592470943927765 -0.043291490525007248 0.004676344338804483 0.089627571403980255 0.017380464822053909 0.048513863235712051 -0.054508395493030548 -0.173603937029838562 -0.023979045450687408 -0.050512209534645081 -0.185758203268051147 0.080490611493587494 0.139972597360610962 -0.118318311870098114 -0.072829768061637878 0.093146875500679016 -0.156316578388214111 0.136528834700584412 -0.259887993335723877 0.115547537803649902 0.107878185808658600 -0.044631551951169968 0.127339437603950500
-0.041021417826414108 0.105751946568489075 0.017167000100016594 0.006360409781336784 0.124338999390602112 -0.079471841454505920 0.123197868466377258 0.046179920434951782 0.144457980990409851 -0.163662701845169067 -0.059254676103591919 0.015884073451161385 -0.094919547438621521 -0.060930952429771423 0.099917978048324585 0.169904887676239014 -0.033139873296022415 -0.079643607139587402 -0.006579960230737925 0.097651682794094086 0.021078936755657196 0.006125946529209614 -0.122946672141551971 0.172184050083160400 0.225210994482040405 0.125762373208999634 -0.073948472738265991 -0.114760160446166992 -0.207004740834236145 0.006136153358966112 -0.009363365359604359 0.138650193810462952 -0.113900251686573029 -0.090818047523498535 0.127746596932411194 0.068882845342159271 0.120522387325763702 -0.019214581698179245 -0.033178772777318954 0.159082278609275818 0.023128567263484001 0.049986816942691803 -0.079906053841114044 0.025270005688071251 0.143957585096359253 0.114965707063674927 -0.126045912504196167 0.117545880377292633 0.095363639295101166 0.134715944528579712 0.040382914245128632 0.022705690935254097 0.101977623999118805 -0.135459885001182556 0.015671800822019577 0.224558174610137939 0.130324125289916992 0.070882953703403473 -0.151922553777694702 0.057395491749048233 0.103907234966754913 -0.007280550431460142 0.109835088253021240 0.142640843987464905 0.070395156741142273 0.163799241185188293 -0.085355527698993683 -0.181625485420227051 0.134276673197746277 0.113778002560138702 0.084866032004356384 0.050676923245191574 0.025085417553782463 0.088775500655174255 -0.139081165194511414 -0.019993264228105545 0.096240773797035217 0.000216241038287990 -0.066907189786434174 0.009972971864044666 0.198176458477973938 -0.085452884435653687 -0.030958123505115509 0.005413586739450693 -0.125630483031272888 0.007067476864904165 0.071355812251567841 -0.004222339019179344 0.134913593530654907 -0.136478587985038757 0.028613645583391190 -0.177969843149185181 0.040799442678689957 0.135487556457519531 0.066307716071605682 0.021787492558360100 0.163924261927604675 0.079839721322059631 0.197546750307083130 -0.002307980554178357
0.191850394010543823 -0.042720362544059753 0.040596038103103638 0.023512519896030426 -0.009782551787793636 0.095968142151832581 0.159556388854980469 -0.012929855845868587 -0.139182567596435547 0.028115339577198029 -0.032550964504480362 -0.114664189517498016 0.005248914472758770 0.063046745955944061 0.133142024278640747 -0.015757743269205093 -0.213149324059486389 -0.050579663366079330 0.148965880274772644 -0.056049060076475143 -0.106031201779842377 -0.092567503452301025 0.116848759353160858 0.066152639687061310 -0.078602574765682220 0.060905754566192627 0.195457607507705688 -0.062345415353775024 -0.010239941067993641 -0.084945030510425568 -0.158995419740676880 -0.036557864397764206 -0.113059148192405701 0.126776486635208130 -0.093457780778408051 -0.036903500556945801 0.263138443231582642 0.138097703456878662 -0.024484323337674141 -0.142048075795173645 -0.070935316383838654 -0.101457796990871429 0.045511078089475632 -0.142112389206886292 -0.024279724806547165 -0.087727367877960205 0.180316239595413208 0.132318273186683655 -0.124203294515609741 0.033568374812602997 0.147711351513862610 0.061394918709993362 -0.192143693566322327 -0.000875834899488837 0.113677665591239929 0.154671981930732727 0.079038418829441071 0.071738339960575104 -0.117796614766120911 -0.166035875678062439 -0.017243202775716782 0.022297250106930733 0.009084969758987427 0.039384245872497559 -0.136248677968978882 0.114993944764137268 0.066507548093795776 -0.162647172808647156 -0.000729148625396192 0.021352278068661690 -0.111872985959053040 -0.112686440348625183 0.012400129809975624 -0.140556976199150085 0.007453124970197678 0.121991269290447235 -0.073266007006168365 -0.037983153015375137 0.106742992997169495 0.042449504137039185 -0.033096134662628174 0.001759172300808132 0.012311634607613087 -0.021553378552198410 0.090141251683235168 0.030518334358930588 -0.085618183016777039 0.034288510680198669 -0.054403632879257202 0.063182778656482697 -0.003865877864882350 0.080648086965084076 -0.006133062765002251 0.036454204469919205 -0.147732004523277283 -0.307919979095458984 -0.007238599006086588 -0.082904219627380371 -0.213640183210372925 0.025653460994362831
-0.159876272082328796 -0.007804425433278084 0.108431898057460785 0.162437900900840759 0.163278117775917053 -0.038463331758975983 -0.127824604511260986 0.157229334115982056 -0.036398977041244507 0.161229774355888367 -0.024962011724710464 0.170781552791595459 0.057052399963140488 -0.103940166532993317 -0.144825235009193420 -0.134778648614883423 -0.037864252924919128 -0.047363426536321640 0.148545056581497192 0.062750294804573059 0.156613036990165710 -0.087749816477298737 -0.169101685285568237 0.048590973019599915 0.272690415382385254 0.204863965511322021 -0.105154074728488922 -0.101877473294734955 -0.082338139414787292 0.001924072857946157 0.069511681795120239 -0.059795547276735306 -0.044628623872995377 -0.038477055728435516 -0.126905217766761780 -0.052775371819734573 -0.185604080557823181 0.024879626929759979 0.061011306941509247 0.143832519650459290 0.152981057763099670 -0.038953118026256561 0.145217806100845337 -0.066155195236206055 0.120660491287708282 0.134918466210365295 -0.054387297481298447 0.056987654417753220 0.111292749643325806 0.049153879284858704 0.120022065937519073 0.033521667122840881 0.118626736104488373 -0.044025655835866928 -0.233300656080245972 0.020496796816587448 -0.109892003238201141 -0.140247464179992676 0.033910356462001801 -0.123392313718795776 0.149268135428428650 0.106811389327049255 0.096486881375312805 0.029017679393291473 -0.127328157424926758 0.089808210730552673 -0.121176414191722870 0.065866038203239441 -0.181887373328208923 -0.102821417152881622 0.080044500529766083 -0.100669525563716888 -0.067560389637947083 -0.085821807384490967 0.094647563993930817 -0.065889596939086914 -0.031743764877319336 0.075116671621799469 0.160344585776329041 -0.112800411880016327 0.142631158232688904 0.086895711719989777 -0.188524574041366577 -0.130810782313346863 0.157819330692291260 0.074362918734550476 0.159049481153488159 0.041601978242397308 0.124170415103435516 -0.050611477345228195 0.110103219747543335 -0.076757378876209259 0.056354962289333344 -0.023719416931271553 -0.012907452881336212 0.256468862295150757 -0.110062979161739349 0.096249580383300781 0.106548063457012177 -0.088418409228324890
0.027429409325122833 0.105348639190196991 0.138392940163612366 0.154414653778076172 -0.009262821637094021 -0.036262687295675278 0.060504727065563202 -0.103141501545906067 0.225055277347564697 -0.142319276928901672 0.072273120284080505 0.082387089729309082 -0.148532554507255554 -0.135353907942771912 -0.144346922636032104 -0.260823130607604980 -0.198470026254653931 0.012363187968730927 -0.064922936260700226 -0.142494127154350281 0.188702017068862915 -0.083818420767784119 -0.048528525978326797 -0.056334108114242554 -0.015921708196401596 -0.175424277782440186 0.022294726222753525 0.074135437607765198 0.141189306974411011 -0.001760121202096343 -0.235867530107498169 -0.226627036929130554 -0.160154610872268677 -0.031844627112150192 -0.154349133372306824 -0.203832909464836121 -0.032610423862934113 -0.265819072723388672 -0.018802156671881676 0.118530802428722382 0.120146781206130981 -0.105114236474037170 0.173400446772575378 0.149925291538238525 0.122681252658367157 0.132801532745361328 0.032165262848138809 -0.092486172914505005 0.044961933046579361 -0.113688290119171143 -0.160561755299568176 0.155468180775642395 -0.053703360259532928 -0.113360516726970673 0.087255947291851044 0.073477253317832947 -0.071879819035530090 -0.097570262849330902 -0.016582462936639786 0.172167241573333740 -0.051772095263004303 0.009661686606705189 0.088457860052585602 -0.157028317451477051 -0.174026802182197571 -0.114268690347671509 0.037771116942167282 -0.143277913331985474 0.090174503624439240 -0.084708392620086670 -0.043163094669580460 -0.094937905669212341 0.058995012193918228 -0.089140988886356354 0.030723184347152710 -0.019490534439682961 0.081922568380832672 0.220211610198020935 -0.031654506921768188 0.074752010405063629 0.018675429746508598 -0.022199397906661034 -0.128484591841697693 0.154169380664825439 -0.148802936077117920 0.003974674269556999 0.116785764694213867 0.084818184375762939 0.027107024565339088 -0.016651432961225510 0.088016547262668610 -0.144929498434066772 -0.181172788143157959 -0.064509838819503784 -0.120333261787891388 0.221455365419387817 -0.014858970418572426 -0.078827768564224243 -0.043657474219799042 0.139773383736610413
0.066654346883296967 0.027941508218646049 0.032879330217838287 0.057417519390583038 -0.083554387092590332 0.131781235337257385 -0.186148688197135925 0.011167804710566998 -0.052320457994937897 -0.129944309592247009 -0.149558544158935547 -0.060860313475131989 0.145537510514259338 0.089886724948883057 -0.005434704944491386 -0.112449422478675842 -0.053978886455297470 -0.030094552785158157 0.143260374665260315 0.108070313930511475 0.092458158731460571 0.021893376484513283 0.195537418127059937 -0.055828213691711426 -0.159151092171669006 0.124784737825393677 0.224519506096839905 0.084875963628292084 -0.027026001363992691 0.096628576517105103 -0.089350774884223938 -0.158963575959205627 -0.095110401511192322 0.046445351094007492 -0.071281567215919495 0.059808649122714996 -0.170385211706161499 -0.082785412669181824 0.042759340256452560 0.087249264121055603 -0.142536118626594543 -0.040407449007034302 -0.184255793690681458 0.098443254828453064 -0.154400154948234558 -0.148589149117469788 0.053059369325637817 -0.100559227168560028 -0.159651979804039001 -0.076126843690872192 0.182999476790428162 -0.021770685911178589 0.161989033222198486 -0.108904086053371429 -0.051316615194082260 0.003589710220694542 -0.091441482305526733 -0.165008246898651123 0.012786986306309700 -0.000003779340431720 0.002178199822083116 0.162258252501487732 -0.087527744472026825 0.094437576830387115 0.042800474911928177 -0.117934502661228180 0.015238460153341293 0.263743549585342407 -0.188048511743545532 0.010245363228023052 0.020486500114202499 0.064275227487087250 0.146969884634017944 -0.142178207635879517 -0.147339567542076111 -0.010945379734039307 -0.105733476579189301 -0.091293312609195709 0.118019044399261475 0.024138228967785835 0.058123975992202759 -0.112793125212192535 0.072526775300502777 0.074189521372318268 -0.126545995473861694 0.073743075132369995 0.041402313858270645 0.132402390241622925 0.054843340069055557 0.084383971989154816 -0.092579163610935211 -0.113813675940036774 0.131480485200881958 0.064966060221195221 -0.023628979921340942 -0.175267815589904785 -0.027448074892163277 0.054334398359060287 -0.184911012649536133 0.089015483856201172
0.036865189671516418 -0.067563019692897797 0.185334458947181702 0.200628593564033508 0.117361776530742645 -0.006610144861042500 0.116060405969619751 -0.085159517824649811 -0.047251548618078232 0.085743337869644165 -0.043398883193731308 0.023101955652236938 0.108442239463329315 0.086597174406051636 0.215105116367340088 -0.144192591309547424 -0.111580729484558105 0.116862185299396515 -0.036146566271781921 0.073218688368797302 0.052939757704734802 0.068782486021518707 -0.091485075652599335 -0.063081771135330200 0.037013370543718338 -0.133129984140396118 -0.064626097679138184 0.009721375070512295 -0.054480399936437607 0.105735510587692261 0.177706956863403320 -0.150174632668495178 -0.161175385117530823 0.158474162220954895 -0.038257431238889694 0.036233022809028625 -0.038969673216342926 -0.084376648068428040 0.053793769329786301 -0.106222756206989288 -0.044685393571853638 0.144923448562622070 0.103772968053817749 -0.090692706406116486 -0.095888741314411163 -0.058023277670145035 -0.033746171742677689 0.093001499772071838 0.140565529465675354 0.101106181740760803 -0.224271371960639954 0.058676771819591522 -0.070627346634864807 -0.044841483235359192 0.104352876543998718 -0.076176308095455170 -0.063391990959644318 0.149398922920227051 -0.040652010589838028 0.041308317333459854 0.143695175647735596 -0.033531270921230316 -0.004682658240199089 0.188670426607131958 -0.098497875034809113 0.148721143603324890 0.135115012526512146 -0.045853104442358017 0.076402612030506134 -0.062860146164894104 0.087854675948619843 0.075007140636444092 0.002992207650095224 0.093315266072750092 0.131215974688529968 0.128362327814102173 -0.002230500802397728 -0.051417764276266098 0.138350620865821838 -0.189439296722412109 0.093238532543182373 -0.148278698325157166 0.001511694397777319 0.091574318706989288 0.113665848970413208 0.122350208461284637 0.082460097968578339 0.032912150025367737 0.089170895516872406 0.033276338130235672 -0.023299083113670349 0.142684996128082275 -0.184094578027725220 -0.088662564754486084 0.060538306832313538 -0.074720740318298340 0.008219845592975616 0.162306338548660278 -0.095854595303535461 -0.073066376149654388
-0.153153985738754272 -0.137271553277969360 0.168043881654739380 -0.127582773566246033 0.174116492271423340 0.025030527263879776 0.191400408744812012 0.047436255961656570 0.122501090168952942 0.155692681670188904 0.000778473273385316 0.061380513012409210 -0.148657903075218201 0.184881687164306641 0.046156574040651321 0.042186494916677475 -0.011336633935570717 0.245214641094207764 -0.054841168224811554 -0.050790119916200638 -0.026584992185235023 -0.023946244269609451 0.064239963889122009 -0.005966810043901205 0.097724556922912598 -0.094387702643871307 -0.069522298872470856 0.102291211485862732 -0.017360841855406761 0.008163455873727798 0.198712721467018127 0.003867033869028091 0.173388361930847168 0.255339443683624268 0.036150142550468445 -0.113246396183967590 0.007055130787193775 -0.091151379048824310 -0.062471352517604828 0.097632110118865967 -0.174153402447700500 -0.087280526757240295 0.013270626775920391 0.087815292179584503 0.102889545261859894 -0.043806765228509903 0.147339329123497009 -0.161736443638801575 -0.148184433579444885 0.309727966785430908 0.087371379137039185 0.056137375533580780 -0.101803421974182129 0.134460374712944031 0.183124050498008728 -0.307334274053573608 0.125909656286239624 0.079362235963344574 -0.066774211823940277 0.045399181544780731 0.022650666534900665 0.103752963244915009 0.103854142129421234 0.055107828229665756 -0.125229910016059875 0.036780424416065216 0.011532718315720558 0.225586161017417908 0.051012981683015823 -0.053918957710266113 -0.146221518516540527 -0.112516932189464569 0.166977450251579285 0.103254780173301697 0.203751742839813232 0.086854077875614166 -0.045361723750829697 0.189993679523468018 0.197627693414688110 0.059763457626104355 -0.182823225855827332 -0.068849399685859680 -0.016778867691755295 0.100545637309551239 -0.016552150249481201 0.035838749259710312 -0.126752451062202454 -0.025635436177253723 0.015499624423682690 -0.129383832216262817 0.123948156833648682 0.008861334994435310 0.162922009825706482 -0.031163614243268967 0.029751678928732872 -0.017375251278281212 -0.064158879220485687 0.106646530330181122 0.073845595121383667 -0.045467190444469452
-0.121864542365074158 -0.134130656719207764 -0.129718437790870667 0.006115160416811705 0.012993011623620987 0.131481662392616272 0.045354604721069336 -0.068988293409347534 0.018659112975001335 -0.113879874348640442 0.019964592531323433 0.027531571686267853 -0.135895967483520508 -0.056881226599216461 0.010670986957848072 0.011801831424236298 0.235065877437591553 -0.045735031366348267 -0.092061370611190796 -0.042340431362390518 -0.109501183032989502 0.114771530032157898 -0.121237687766551971 -0.039514813572168350 0.147012948989868164 -0.126445442438125610 -0.132228970527648926 -0.088854558765888214 0.037764433771371841 0.024112297222018242 -0.111190579831600189 -0.019328052178025246 0.024733988568186760 -0.356903880834579468 0.045352626591920853 0.131313294172286987 -0.171006411314010620 0.047901924699544907 0.019493093714118004 0.146772295236587524 -0.069306366145610809 0.126036614179611206 0.135215952992439270 0.061739336699247360 0.017448391765356064 -0.111373409628868103 -0.187212809920310974 0.119162462651729584 -0.141014084219932556 0.007611042354255915 -0.087295748293399811 -0.055620830506086349 0.122272439301013947 0.018107868731021881 -0.275095283985137939 0.023859983310103416 0.094158194959163666 0.081809394061565399 -0.158280387520790100 -0.152405261993408203 -0.002668460365384817 0.129635527729988098 -0.159451872110366821 0.036315675824880600 -0.018307169899344444 0.058576494455337524 -0.120206058025360107 -0.287379056215286255 0.047893401235342026 0.022671513259410858 -0.074428692460060120 -0.067570090293884277 -0.088728711009025574 0.076030291616916656 0.031369652599096298 0.108582757413387299 0.066356264054775238 -0.021301049739122391 0.037012625485658646 0.100102879106998444 -0.126508459448814392 0.130945563316345215 -0.017524711787700653 -0.021847246214747429 0.139562204480171204 0.106630578637123108 0.087391406297683716 0.027160059660673141 0.122978419065475464 -0.140879347920417786 0.125509992241859436 0.057564049959182739 0.124351248145103455 -0.184794723987579346 0.133178293704986572 0.111939117312431335 0.078594841063022614 -0.042809963226318359 0.040141969919204712 0.200371429324150085
-0.077796205878257751 0.005543256178498268 -0.178935766220092773 0.282916396856307983 -0.018934462219476700 -0.010414011776447296 -0.046671692281961441 0.139504685997962952 0.015433246269822121 0.098468087613582611 0.044460330158472061 -0.103603199124336243 0.208331421017646790 -0.059470683336257935 -0.080566540360450745 -0.084020830690860748 0.124814502894878387 0.149926632642745972 0.081756144762039185 -0.003009361214935780 0.050209116190671921 -0.110270678997039795 -0.074727825820446014 0.091356694698333740 0.058404710143804550 0.075246304273605347 0.091281235218048096 0.137289524078369141 -0.086078174412250519 0.152083709836006165 0.068442881107330322 0.144149631261825562 0.019740356132388115 -0.036192193627357483 0.180020406842231750 0.091416656970977783 -0.053242821246385574 0.134057700634002686 -0.044286068528890610 -0.194389626383781433 -0.124107040464878082 0.269655793905258179 0.077770464122295380 -0.065202318131923676 0.008175186812877655 0.075130119919776917 -0.145445778965950012 0.082487814128398895 -0.051729872822761536 0.007599712815135717 -0.001883276156149805 -0.136353671550750732 0.167090862989425659 -0.070201598107814789 -0.124098204076290131 0.103367649018764496 0.024021476507186890 -0.321873992681503296 -0.163522109389305115 0.123955219984054565 -0.112595096230506897 0.224820569157600403 -0.039812203496694565 0.159375593066215515 0.080143496394157410 -0.161044895648956299 -0.022188097238540649 -0.154784783720970154 0.041760794818401337 -0.146115630865097046 -0.259805679321289062 -0.051941815763711929 0.036570381373167038 -0.064832255244255066 -0.151894748210906982 0.088161498308181763 0.241588160395622253 -0.123772181570529938 -0.021333936601877213 0.162354484200477600 -0.318322032690048218 -0.025921456515789032 -0.146431982517242432 0.077652163803577423 0.076435938477516174 -0.113226413726806641 0.083484701812267303 0.167004272341728210 0.017726438120007515 0.033041216433048248 0.031585663557052612 0.051097746938467026 -0.007224047090858221 0.148831501603126526 0.158139228820800781 -0.207334384322166443 0.023437172174453735 0.040498144924640656 -0.076185464859008789 -0.065995350480079651
0.084520280361175537 -0.043660935014486313 -0.118263743817806244 0.044494759291410446 0.121321134269237518 0.016762034967541695 -0.064444892108440399 0.035120703279972076 -0.068907596170902252 -0.143864110112190247 0.183874770998954773 0.101564489305019379 -0.131800770759582520 0.063043467700481415 -0.121697559952735901 0.105443671345710754 0.018473699688911438 0.134330883622169495 0.031106818467378616 -0.054230436682701111 -0.161673709750175476 -0.063034027814865112 -0.007006399799138308 0.018906382843852043 0.060428481549024582 -0.088357761502265930 0.296376705169677734 0.092762038111686707 0.058518987149000168 -0.111861996352672577 -0.085267297923564911 -0.108525462448596954 0.006441558711230755 0.247388511896133423 -0.092721231281757355 0.088646546006202698 0.025354780256748199 0.076975814998149872 -0.012458453886210918 -0.158877491950988770 0.083480872213840485 -0.010037360712885857 -0.074882566928863525 -0.066987708210945129 -0.135867729783058167 -0.048295024782419205 -0.183420330286026001 -0.044147789478302002 -0.006360967643558979 0.014403665438294411 0.166039511561393738 0.063141368329524994 0.081500612199306488 -0.012227015569806099 0.167552247643470764 -0.038109861314296722 0.139595136046409607 -0.034263294190168381 -0.002438344759866595 -0.111212432384490967 0.127638116478919983 -0.057616800069808960 0.008228818885982037 0.096207953989505768 0.083138093352317810 -0.178195118904113770 -0.128984928131103516 0.277628570795059204 0.139157235622406006 0.090283058583736420 -0.044737931340932846 0.007750523742288351 0.016545578837394714 -0.066993594169616699 0.086471714079380035 -0.054579481482505798 -0.095386467874050140 0.150965586304664612 -0.102517105638980865 0.081815011799335480 -0.112735025584697723 0.022899858653545380 0.025899972766637802 -0.061974130570888519 -0.104416713118553162 -0.174315556883811951 -0.030184967443346977 -0.126892074942588806 -0.027753410860896111 0.002253291429951787 -0.003657414577901363 0.099868871271610260 0.174444124102592468 -0.023661021143198013 -0.080701030790805817 -0.121222369372844696 -0.163104966282844543 -0.108861610293388367 -0.102820821106433868 -0.158334538340568542
0.107519648969173431 0.029354954138398170 -0.116691112518310547 -0.159111097455024719 -0.053305502980947495 0.069947071373462677 0.072861850261688232 -0.049489326775074005 -0.085644431412220001 0.012132248841226101 -0.010578346438705921 0.216765075922012329 0.125798016786575317 0.141152173280715942 -0.021340923383831978 0.091906063258647919 -0.049553539603948593 0.044155616313219070 -0.141719043254852295 -0.049417302012443542 0.126894429326057434 -0.031003123149275780 -0.010797046124935150 -0.122676357626914978 0.004954150877892971 0.052601344883441925 -0.147824868559837341 -0.018364597111940384 -0.195992261171340942 -0.151490986347198486 -0.141400784254074097 -0.041455686092376709 -0.068120285868644714 -0.075834393501281738 0.150496467947959900 -0.094730831682682037 0.045422650873661041 -0.147621229290962219 0.101507484912872314 -0.029602212831377983 0.069422826170921326 -0.039187952876091003 0.091476023197174072 0.040902640670537949 -0.081752590835094452 0.024838043376803398 -0.138272941112518311 0.112592846155166626 0.227599993348121643 0.164182484149932861 0.046752147376537323 0.151143491268157959 -0.156443372368812561 -0.125228434801101685 0.064115606248378754 0.107338033616542816 -0.151767745614051819 0.177298948168754578 0.051035396754741669 -0.060030326247215271 -0.127936348319053650 0.022923868149518967 0.018437989056110382 0.072462275624275208 0.076449751853942871 0.094590343534946442 -0.016696019098162651 0.284121423959732056 0.093515560030937195 -0.022879971191287041 0.132003024220466614 0.091872669756412506 -0.117116026580333710 0.037251863628625870 -0.118248671293258667 -0.037559200078248978 0.049529656767845154 0.080313488841056824 0.113240651786327362 0.061211019754409790 -0.087938092648983002 0.097142361104488373 -0.135087370872497559 0.056330449879169464 -0.162553802132606506 -0.167498394846916199 -0.099719256162643433 0.043979555368423462 -0.000608637579716742 -0.080172553658485413 -0.017110738903284073 0.112568534910678864 -0.004543740302324295 0.249137103557586670 -0.152523145079612732 0.276525765657424927 0.136819615960121155 -0.029935108497738838 0.093357719480991364 -0.121425598859786987
-0.084937192499637604 0.128980904817581177 -0.013768568634986877 0.017413685098290443 0.158870309591293335 0.139678537845611572 -0.201686620712280273 0.149844273924827576 0.110614545643329620 0.105812311172485352 0.201823338866233826 0.107693895697593689 0.006918421480804682 0.102372460067272186 -0.003166406648233533 0.066771157085895538 0.130112588405609131 -0.008946244604885578 -0.104132905602455139 -0.145811781287193298 0.066158413887023926 -0.059643093496561050 -0.155681043863296509 -0.043421860784292221 -0.088828437030315399 -0.088521435856819153 -0.012831947766244411 0.084991395473480225 -0.048878781497478485 -0.130038097500801086 0.061443492770195007 0.227331429719924927 0.132240384817123413 0.038467966020107269 -0.121504850685596466 0.106135711073875427 -0.216097578406333923 0.110742703080177307 0.044349946081638336 0.130081087350845337 -0.001684729242697358 -0.078688554465770721 -0.148929446935653687 0.120489329099655151 -0.032408401370048523 0.089251875877380371 -0.177145898342132568 0.027487033978104591 -0.042642515152692795 -0.013097948394715786 0.149790912866592407 -0.169816032052040100 0.044456332921981812 0.087666407227516174 0.072950832545757294 0.022863022983074188 0.063570022583007812 -0.155460134148597717 -0.118614442646503448 0.111777469515800476 -0.054765548557043076 -0.066886946558952332 -0.028548305854201317 -0.090172164142131805 0.078627482056617737 0.098876580595970154 -0.160905912518501282 0.050950035452842712 0.080596052110195160 -0.073290869593620300 0.052547194063663483 -0.097170345485210419 -0.024981977418065071 -0.028650486841797829 -0.105825044214725494 0.043615587055683136 0.198291346430778503 -0.180625855922698975 0.144813179969787598 0.116696342825889587 -0.174753949046134949 0.129900023341178894 0.159094110131263733 -0.041000120341777802 -0.059485170990228653 -0.089390106499195099 -0.136132448911666870 0.099250555038452148 -0.085649058222770691 0.079113855957984924 0.109948374330997467 -0.023493262007832527 0.094829633831977844 0.015517442487180233 -0.066900953650474548 -0.141432717442512512 -0.021085401996970177 -0.141085162758827209 0.024450019001960754 0.128623783588409424
0.033073447644710541 0.077050581574440002 -0.172759577631950378 0.052633311599493027 0.020249387249350548 -0.059229541569948196 -0.130580782890319824 0.155368328094482422 0.085301220417022705 0.212429448962211609 -0.062287993729114532 0.043634723871946335 0.064061500132083893 0.063573054969310760 0.114523202180862427 0.108371309936046600 -0.161861374974250793 -0.132491454482078552 -0.007539726793766022 -0.055638696998357773 -0.020546011626720428 -0.096358850598335266 -0.131353855133056641 0.033305987715721130 -0.169612959027290344 -0.137206971645355225 -0.007237010635435581 0.025278188288211823 0.150500208139419556 -0.098045341670513153 -0.074811823666095734 0.103275589644908905 -0.032980766147375107 0.033864863216876984 -0.014708225615322590 -0.145752593874931335 -0.101184904575347900 0.169782280921936035 -0.054856840521097183 -0.170393705368041992 -0.198866307735443115 0.097849063575267792 0.044012840837240219 -0.133778393268585205 0.172179058194160461 -0.155095204710960388 -0.072605937719345093 0.055202938616275787 -0.159907191991806030 0.072255998849868774 0.101046986877918243 -0.099191591143608093 0.100644342601299286 0.111574061214923859 0.011759202927350998 -0.188427269458770752 0.152875438332557678 -0.090012840926647186 0.031139636412262917 -0.048429671674966812 -0.124992094933986664 -0.066856414079666138 0.053017772734165192 -0.127943545579910278 0.126217305660247803 -0.026556434109807014 0.074367687106132507 -0.008255707100033760 0.154658034443855286 -0.185953214764595032 -0.159457281231880188 -0.053157866001129150 0.033935487270355225 0.015469286590814590 -0.123028293251991272 0.106529735028743744 0.083914197981357574 0.112859979271888733 -0.068759031593799591 -0.189420521259307861 -0.007371256593614817 0.147489115595817566 0.085678972303867340 -0.072668023407459259 -0.153819531202316284 -0.113148041069507599 0.113221690058708191 -0.030735500156879425 -0.008522796444594860 0.047885891050100327 -0.102866366505622864 -0.095953769981861115 0.095493078231811523 -0.138187929987907410 0.078907996416091919 -0.200070068240165710 -0.094780758023262024 0.050311848521232605 0.014274889603257179 -0.000743103853892535
-0.137997686862945557 -0.170614391565322876 0.097602307796478271 -0.032947510480880737 0.155972912907600403 -0.072530008852481842 0.075961254537105560 -0.162112712860107422 0.128929033875465393 0.051112014800310135 0.035601355135440826 0.023678990080952644 0.147556185722351074 0.099114887416362762 0.093815527856349945 0.097281083464622498 0.048017974942922592 0.070636622607707977 -0.029046706855297089 -0.172620862722396851 -0.079433627426624298 -0.139199376106262207 0.150233849883079529 0.089370742440223694 -0.162336364388465881 -0.150814622640609741 0.189867943525314331 0.119397014379501343 0.152294859290122986 0.125439703464508057 0.015722358599305153 0.076349519193172455 -0.157740786671638489 0.385854303836822510 0.036843869835138321 -0.211440861225128174 0.088958509266376495 0.095374189317226410 -0.038920011371374130 -0.058742336928844452 -0.161086529493331909 -0.109387621283531189 -0.090745285153388977 -0.052465070039033890 0.046676181256771088 0.097156427800655365 0.049375995993614197 -0.108143270015716553 0.095932289958000183 0.191942334175109863 -0.113896548748016357 0.060524769127368927 0.017609121277928352 -0.002521211514249444 0.177798628807067871 -0.287203341722488403 -0.013591980561614037 0.118038974702358246 -0.104659117758274078 -0.132633537054061890 -0.055462423712015152 0.051503397524356842 0.137448579072952271 0.008434166200459003 -0.055857628583908081 -0.060631800442934036 -0.022165814414620399 0.300535321235656738 -0.162845537066459656 -0.010380317457020283 -0.134230345487594604 0.121327430009841919 -0.202031761407852173 -0.040810175240039825 -0.045589037239551544 -0.158501908183097839 -0.351886570453643799 -0.035439334809780121 0.067363955080509186 -0.067600093781948090 -0.072055138647556305 0.102236039936542511 -0.136649832129478455 0.075221247971057892 0.038512680679559708 0.001706549897789955 0.013956642709672451 0.052974581718444824 0.014501536265015602 -0.126203328371047974 0.080244012176990509 0.055001374334096909 0.191661074757575989 0.077401608228683472 0.059735558927059174 -0.167746812105178833 -0.048376742750406265 -0.083996966481208801 -0.070084288716316223 0.052108608186244965
-0.190056771039962769 -0.215870961546897888 -0.035740755498409271 0.039472017437219620 -0.212191015481948853 0.172765955328941345 -0.137504681944847107 -0.024883605539798737 -0.041230376809835434 0.202283084392547607 0.201663330197334290 -0.073078110814094543 0.274538725614547729 -0.091231934726238251 0.152760595083236694 0.141263782978057861 -0.064575895667076111 -0.069680459797382355 -0.041524693369865417 -0.139620661735534668 0.035165812820196152 -0.130917876958847046 -0.044317774474620819 -0.166045218706130981 0.061408620327711105 0.093129299581050873 -0.093765713274478912 0.030236685648560524 0.128510475158691406 0.047706428915262222 0.097539551556110382 -0.047212898731231689 -0.094875402748584747 0.255135506391525269 0.150517225265502930 0.219318479299545288 -0.001109947450459003 -0.123180553317070007 -0.144432693719863892 0.099744893610477448 0.055171705782413483 0.074329018592834473 -0.175573483109474182 -0.030390920117497444 0.169908717274665833 0.025819489732384682 -0.018480721861124039 0.078444331884384155 0.050848074257373810 0.040967509150505066 0.222854480147361755 -0.146594837307929993 0.035552822053432465 0.022856097668409348 -0.011450634337961674 0.183478564023971558 0.082935005426406860 -0.659633755683898926 0.021037643775343895 -0.005935482680797577 0.020037222653627396 0.316344797611236572 0.041187886148691177 -0.027859009802341461 -0.114673815667629242 -0.110771946609020233 -0.061275944113731384 0.153077557682991028 -0.172017559409141541 -0.219429939985275269 0.102326184511184692 -0.037503141909837723 0.083408355712890625 -0.102930940687656403 -0.002466779435053468 -0.078409515321254730 0.125152319669723511 -0.169645756483078003 -0.002947082975879312 -0.130887284874916077 0.087937027215957642 -0.178784593939781189 -0.098553039133548737 -0.109995968639850616 0.153402015566825867 -0.129211783409118652 0.177643552422523499 -0.060162626206874847 0.099490009248256683 -0.024390054866671562 0.082291871309280396 -0.057301279157400131 -0.122185848653316498 -0.112225227057933807 0.070258520543575287 -0.210402354598045349 0.127518579363822937 -0.063363447785377502 -0.153101146221160889 0.173392221331596375
-0.019145902246236801 0.078107580542564392 -0.021629860624670982 -0.245069414377212524 0.181704312562942505 -0.058153774589300156 -0.031462140381336212 -0.063105411827564240 -0.032100342214107513 -0.155716285109519958 0.059297736734151840 0.064729370176792145 -0.263462394475936890 -0.049567360430955887 -0.120224453508853912 -0.061102427542209625 0.060353819280862808 0.102949090301990509 0.115539692342281342 -0.004967478103935719 -0.008115973323583603 0.025000749155879021 -0.205183595418930054 0.132113844156265259 -0.138961285352706909 -0.181211218237876892 0.018415743485093117 0.035417549312114716 0.069597214460372925 0.075931966304779053 -0.095874376595020294 -0.085927203297615051 0.093549966812133789 -0.150191336870193481 -0.146233648061752319 -0.206646293401718140 0.050151903182268143 -0.004302054177969694 0.057025358080863953 0.069150298833847046 0.014894452877342701 -0.192529797554016113 0.093800298869609833 0.164461106061935425 0.095842204988002777 0.065164454281330109 0.143733441829681396 0.051658492535352707 -0.124001629650592804 -0.133665814995765686 -0.106026872992515564 0.145832076668739319 0.087463892996311188 0.119825586676597595 -0.233938351273536682 -0.018009660765528679 0.139238253235816956 0.331601470708847046 0.078366518020629883 -0.009278149344027042 -0.075723208487033844 -0.409326285123825073 0.158291012048721313 0.023419652134180069 0.101670563220977783 0.090960554778575897 0.154800534248352051 -0.175140708684921265 -0.051921013742685318 -0.011544983834028244 0.215753152966499329 0.046889606863260269 -0.018107941374182701 -0.005678153596818447 -0.048416480422019958 0.075748510658740997 -0.034709516912698746 0.068070910871028900 0.110787384212017059 0.147666022181510925 -0.102457486093044281 -0.072305873036384583 0.134182453155517578 0.004642706364393234 0.062065880745649338 -0.109475217759609222 -0.174686312675476074 0.080856688320636749 0.058438654989004135 0.087600894272327423 -0.049757618457078934 -0.083703100681304932 0.186428576707839966 -0.012360335327684879 -0.201858341693878174 0.136804878711700439 -0.059425797313451767 -0.078420750796794891 -0.156455010175704956 0.047008141875267029
-0.177933320403099060 -0.036296516656875610 0.051352936774492264 -0.108479768037796021 -0.115311637520790100 -0.124642081558704376 -0.200183808803558350 0.086666531860828400 -0.091294325888156891 0.019299697130918503 0.003895046655088663 0.066834591329097748 0.203306749463081360 -0.074495777487754822 -0.090414404869079590 -0.039389155805110931 -0.015504959970712662 -0.073785625398159027 -0.158610671758651733 -0.071856968104839325 -0.064689233899116516 0.040706157684326172 0.102980099618434906 -0.226844653487205505 -0.100867010653018951 -0.105364024639129639 0.175399020314216614 0.181448787450790405 -0.149094790220260620 -0.112635232508182526 0.020605331286787987 -0.040843136608600616 -0.195189088582992554 0.153737947344779968 0.031873058527708054 0.062693186104297638 0.051359523087739944 0.064094953238964081 -0.074422687292098999 0.058098427951335907 0.073732145130634308 -0.058155100792646408 -0.178181305527687073 -0.116851270198822021 -0.015890916809439659 0.205531001091003418 -0.120051592588424683 0.076435253024101257 0.099228113889694214 -0.034818533807992935 0.091812990605831146 -0.008494826965034008 0.204138591885566711 0.096341982483863831 0.013408326543867588 -0.048487413674592972 0.115415997803211212 -0.127234384417533875 -0.074172511696815491 0.185321286320686340 -0.000097549025667831 0.256949067115783691 0.030167220160365105 -0.148602843284606934 0.034866377711296082 0.016614334657788277 -0.043037753552198410 0.083027839660644531 0.000395098992157727 -0.229445219039916992 0.102477729320526123 0.099155746400356293 0.030944909900426865 0.027851024642586708 0.110220290720462799 -0.036608964204788208 -0.081392787396907806 -0.132492661476135254 -0.129858568310737610 -0.049081206321716309 -0.138761073350906372 -0.143399924039840698 -0.120225086808204651 0.128104224801063538 0.010328638367354870 -0.152750253677368164 -0.068622834980487823 -0.144659742712974548 -0.123688213527202606 0.105855174362659454 -0.044828426092863083 -0.246039047837257385 0.109742358326911926 -0.193634375929832458 -0.092950724065303802 -0.132655933499336243 0.046106107532978058 -0.090923450887203217 -0.005180185660719872 -0.082787401974201202
-0.167714044451713562 -0.017116161063313484 0.024562006816267967 0.051150660961866379 0.104404866695404053 -0.140443071722984314 -0.127821028232574463 0.092480584979057312 -0.020805345848202705 -0.030918605625629425 0.124534316360950470 0.017330162227153778 0.119006641209125519 -0.064108856022357941 -0.182014703750610352 0.160145655274391174 0.163907498121261597 -0.030349371954798698 0.100924216210842133 0.123047709465026855 0.171082437038421631 0.056654103100299835 0.066359207034111023 -0.122890450060367584 0.164543211460113525 0.155446261167526245 0.008100539445877075 0.055195420980453491 -0.005022744182497263 -0.020163588225841522 -0.086097292602062225 -0.047876819968223572 0.059942103922367096 -0.163172349333763123 0.174017935991287231 -0.038108889013528824 -0.118771336972713470 -0.099992312490940094 -0.146057754755020142 0.023788144811987877 0.180819258093833923 0.081814058125019073 0.077315717935562134 0.054801397025585175 0.066376648843288422 -0.048357225954532623 -0.109849512577056885 0.006317563820630312 0.209005996584892273 -0.038376655429601669 -0.161198765039443970 -0.076445408165454865 0.167913094162940979 0.038470279425382614 0.058419857174158096 0.012859856709837914 -0.063645765185356140 0.054242812097072601 0.090156473219394684 0.079356819391250610 0.059123884886503220 0.151606187224388123 -0.112165905535221100 -0.036834143102169037 0.025157703086733818 0.016586441546678543 -0.172271162271499634 -0.139940038323402405 0.050265058875083923 -0.000106447645521257 -0.001411995734088123 0.126672118902206421 0.019990520551800728 0.092837907373905182 0.121903233230113983 0.088413171470165253 0.028260214254260063 0.090662717819213867 -0.122842632234096527 0.044608242809772491 0.255272567272186279 -0.172575533390045166 0.125834181904792786 -0.034228555858135223 0.100670218467712402 -0.093581534922122955 0.017635630443692207 -0.023591244593262672 0.057636022567749023 0.089314028620719910 0.133964955806732178 -0.126082971692085266 -0.120014503598213196 0.106417402625083923 0.125621974468231201 0.281631082296371460 -0.026235084980726242 -0.111400462687015533 0.234832987189292908 0.057375062257051468
0.013270515017211437 -0.149262219667434692 0.118398286402225494 0.020142316818237305 -0.058753158897161484 0.102445453405380249 -0.186925217509269714 -0.015197451226413250 -0.065858937799930573 -0.045439966022968292 0.076133064925670624 -0.090812981128692627 -0.028335472568869591 -0.085467316210269928 0.078868053853511810 0.011802640743553638 -0.061441659927368164 -0.008109901100397110 -0.059559118002653122 -0.155389145016670227 -0.044722363352775574 -0.144801199436187744 0.020306611433625221 -0.144811421632766724 -0.007157339248806238 0.152100458741188049 -0.139218330383300781 0.171842813491821289 -0.022377341985702515 -0.117194257676601410 0.038176227360963821 -0.140828147530555725 -0.165241792798042297 0.116672068834304810 -0.160887628793716431 0.029224418103694916 -0.045568238943815231 0.099610790610313416 -0.025081554427742958 0.058184821158647537 -0.174197688698768616 0.084160283207893372 -0.028455439954996109 0.122391633689403534 0.108389027416706085 0.169880896806716919 -0.065436653792858124 -0.075412057340145111 -0.084090724587440491 0.072255752980709076 0.086265958845615387 0.120579615235328674 0.077180281281471252 0.164204642176628113 -0.042645201086997986 -0.024607952684164047 0.059134874492883682 -0.140816330909729004 0.110724262893199921 0.004840007517486811 -0.164486035704612732 0.294634222984313965 0.034702420234680176 0.123104847967624664 -0.016157325357198715 -0.018772251904010773 -0.099646888673305511 -0.146231725811958313 0.058039419353008270 -0.020976627245545387 0.088861450552940369 -0.094150103628635406 0.021588031202554703 -0.095438748598098755 0.034567721188068390 0.037453472614288330 0.160007238388061523 0.072294637560844421 -0.111504890024662018 -0.159931451082229614 -0.095410712063312531 -0.049859065562486649 -0.098973400890827179 -0.099310405552387238 -0.172552436590194702 0.111044600605964661 -0.079801365733146667 -0.166522756218910217 -0.190071463584899902 0.030805656686425209 0.123486995697021484 -0.134809955954551697 -0.013836428523063660 -0.172036394476890564 0.051934249699115753 0.029199227690696716 0.057250168174505234 0.099435880780220032 0.176110312342643738 -0.062487367540597916
0.110403694212436676 -0.064886152744293213 -0.061661195009946823 -0.112579815089702606 0.130131736397743225 0.156836926937103271 0.013886899687349796 0.096985161304473877 -0.009810057468712330 0.050735954195261002 0.004307968076318502 0.001622359268367290 -0.002606617519631982 -0.029361896216869354 0.087041631340980530 -0.128099426627159119 -0.179237633943557739 0.093991003930568695 -0.064781613647937775 -0.131252989172935486 -0.031625200062990189 0.054481063038110733 -0.078529007732868195 -0.139908745884895325 -0.155273586511611938 0.087326183915138245 0.198299825191497803 -0.092101633548736572 -0.112103104591369629 -0.188823014497756958 0.007378540933132172 -0.176457390189170837 -0.037825688719749451 0.226559221744537354 -0.070150099694728851 0.124099642038345337 -0.030299989506602287 -0.045211389660835266 -0.013183465227484703 0.004732496105134487 0.132093086838722229 -0.060311857610940933 0.157218813896179199 -0.087436594069004059 -0.219776093959808350 0.148394793272018433 -0.000904977554455400 0.191744878888130188 0.012176880612969398 -0.026151027530431747 -0.012476908974349499 0.042294491082429886 0.074322253465652466 0.064245902001857758 -0.056960370391607285 0.008562888018786907 0.028655694797635078 0.133349165320396423 0.145549878478050232 -0.010839367285370827 -0.081842757761478424 0.153098225593566895 -0.020222529768943787 0.013459863141179085 -0.127693802118301392 -0.012669429183006287 -0.085531212389469147 0.056240260601043701 0.072785809636116028 0.131462678313255310 0.022063473239541054 0.181210502982139587 -0.049263324588537216 0.009410929866135120 -0.095686390995979309 0.133074745535850525 -0.084398150444030762 -0.110631488263607025 -0.006801506970077753 -0.175796121358871460 0.127828359603881836 -0.070670321583747864 -0.032934341579675674 0.080511242151260376 0.129476562142372131 0.057314202189445496 0.031986054033041000 0.087042689323425293 -0.127924188971519470 0.032366685569286346 -0.029853580519556999 -0.091222845017910004 -0.099685452878475189 -0.087180249392986298 -0.098922729492187500 -0.185855478048324585 0.097081609070301056 0.132004305720329285 -0.121036335825920105 0.050010465085506439
0.050471086055040359 -0.143152654170989990 -0.008644726127386093 -0.032554574310779572 -0.155688360333442688 -0.102632604539394379 -0.157305523753166199 0.091407217085361481 -0.025736445561051369 -0.031022783368825912 -0.081655278801918030 -0.110742747783660889 -0.057200931012630463 0.168246313929557800 -0.033292915672063828 0.022005617618560791 0.053136538714170456 0.141006112098693848 0.131944909691810608 -0.120414309203624725 0.172271579504013062 0.124078199267387390 0.073928833007812500 -0.215697824954986572 -0.135287046432495117 0.034254398196935654 -0.056277900934219360 -0.094384372234344482 -0.027664586901664734 0.056248858571052551 -0.075086124241352081 -0.034062352031469345 0.144228905439376831 -0.059374444186687469 -0.050298362970352173 -0.033770680427551270 0.129257827997207642 0.031609147787094116 0.140178740024566650 0.066232889890670776 -0.183715000748634338 -0.168248951435089111 0.011564404703676701 0.017024077475070953 -0.201385080814361572 -0.091328956186771393 0.089902006089687347 0.160821303725242615 -0.046672940254211426 -0.121228493750095367 0.168053016066551208 -0.104301393032073975 0.174979537725448608 -0.157787948846817017 0.049718838185071945 -0.022770086303353310 0.071066312491893768 0.103721015155315399 0.012161475606262684 0.141184762120246887 0.048225820064544678 -0.196088433265686035 -0.084569938480854034 -0.185574367642402649 -0.199721843004226685 0.137752488255500793 -0.053788304328918457 -0.194941326975822449 -0.075674816966056824 0.103999204933643341 -0.052542183548212051 -0.148066967725753784 -0.021480882540345192 0.047606296837329865 0.099611796438694000 -0.147429794073104858 -0.093876376748085022 0.033771835267543793 -0.104084022343158722 -0.195687919855117798 0.105506010353565216 0.052039317786693573 -0.073571696877479553 -0.092637322843074799 -0.190650194883346558 -0.013385054655373096 -0.133255660533905029 -0.129061937332153320 -0.060191228985786438 0.127107217907905579 -0.152955204248428345 0.140726789832115173 0.181615695357322693 -0.152952432632446289 -0.006497082300484180 0.062676005065441132 -0.115087471902370453 0.052698053419589996 -0.173413634300231934 -0.093549892306327820
0.006287390831857920 -0.022058542817831039 0.051746059209108353 0.079886324703693390 -0.084135822951793671 -0.192333713173866272 0.087185002863407135 0.114440336823463440 -0.073491081595420837 -0.109865844249725342 0.011014508083462715 -0.056168809533119202 0.156479090452194214 -0.011169531382620335 -0.124330535531044006 0.010613753460347652 -0.100598223507404327 0.057069234549999237 -0.032257344573736191 -0.027070460841059685 0.132309064269065857 0.017436575144529343 0.084623456001281738 -0.017512015998363495 0.157389789819717407 0.008690421469509602 -0.132791742682456970 -0.157906562089920044 0.023119248449802399 -0.092685133218765259 0.030433811247348785 0.000513126840814948 0.177509769797325134 -0.025918386876583099 -0.023529345169663429 -0.056190028786659241 0.098321191966533661 0.080514974892139435 0.099453352391719818 0.124830901622772217 0.243869572877883911 -0.045108128339052200 -0.166146144270896912 -0.036270946264266968 -0.038014959543943405 0.018038647249341011 -0.148718297481536865 -0.081561498343944550 0.249474346637725830 -0.195152327418327332 0.152616351842880249 0.095395699143409729 -0.050063837319612503 0.105807162821292877 -0.252102315425872803 0.172112822532653809 0.008530705235898495 -0.000084468483692035 0.092889539897441864 -0.128827929496765137 -0.075214624404907227 0.108263030648231506 -0.146837204694747925 -0.101867705583572388 0.128476858139038086 -0.057365007698535919 0.031594403088092804 -0.191251844167709351 -0.027779364958405495 0.144065678119659424 0.118299104273319244 -0.095561087131500244 -0.119134962558746338 -0.069280542433261871 -0.096723861992359161 -0.033523615449666977 0.179530352354049683 -0.169799715280532837 0.149893879890441895 0.188944011926651001 -0.058208007365465164 -0.100927032530307770 -0.117830529808998108 -0.031516507267951965 -0.034701582044363022 -0.165470376610755920 -0.067386433482170105 -0.016310179606080055 -0.128335341811180115 -0.238859027624130249 -0.076589599251747131 -0.088145241141319275 0.060520086437463760 -0.018178194761276245 0.063686989247798920 -0.011112896725535393 -0.122478485107421875 0.086176007986068726 0.053661368787288666 -0.031755998730659485
-0.187348216772079468 -0.021037138998508453 -0.014667509123682976 0.049775641411542892 -0.152509897947311401 0.005599701311439276 0.069325163960456848 -0.065886557102203369 0.114911779761314392 0.122597910463809967 0.125488951802253723 0.049867179244756699 0.192899301648139954 -0.127236917614936829 0.102265179157257080 -0.084457151591777802 -0.006714256480336189 0.017329048365354538 -0.128816261887550354 -0.064496368169784546 0.170331224799156189 -0.110918737947940826 0.018605675548315048 -0.100873753428459167 -0.062341779470443726 -0.049518242478370667 0.074469491839408875 -0.163808375597000122 0.139377981424331665 0.181584328413009644 -0.046387512236833572 0.085038781166076660 -0.197342306375503540 -0.046240821480751038 0.066321030259132385 -0.155860185623168945 -0.075445607304573059 0.002484828233718872 -0.132553324103355408 -0.039937328547239304 0.100855305790901184 0.139726296067237854 -0.002968370215967298 -0.015340948477387428 -0.004214813001453876 -0.083761744201183319 -0.012874593026936054 -0.037133332341909409 -0.133719116449356079 0.085925221443176270 0.091979295015335083 0.056598156690597534 0.128419056534767151 -0.052284378558397293 -0.007249085232615471 0.069081708788871765 -0.017787538468837738 -0.136059910058975220 -0.066634379327297211 0.005377349909394979 0.016716184094548225 0.238047853112220764 0.113971255719661713 -0.177669748663902283 0.032404489815235138 -0.072997473180294037 0.008290499448776245 -0.032132644206285477 -0.017934260889887810 -0.034897614270448685 0.113016933202743530 -0.155032336711883545 -0.060688231140375137 0.050374321639537811 -0.061388019472360611 -0.085984349250793457 0.068444542586803436 -0.037378456443548203 -0.060460839420557022 -0.065831892192363739 0.104587033390998840 -0.065130218863487244 -0.110291816294193268 0.146384239196777344 -0.089294262230396271 0.006163578014820814 0.084813535213470459 -0.095083996653556824 -0.190377682447433472 0.188466370105743408 0.145112037658691406 -0.071281589567661285 0.022575212642550468 -0.023459862917661667 0.173891946673393250 -0.224953725934028625 0.155131787061691284 0.011855899356305599 -0.170025557279586792 0.138372942805290222
-0.162611752748489380 -0.100832067430019379 -0.103522017598152161 -0.137592017650604248 0.021608617156744003 0.109171122312545776 0.012667192146182060 -0.003631553379818797 -0.160952553153038025 0.210165500640869141 0.126257568597793579 -0.136020392179489136 -0.176941692829132080 0.059917822480201721 0.056997947394847870 0.022822650149464607 -0.232444494962692261 0.192378714680671692 0.113756872713565826 0.065365865826606750 0.059157390147447586 0.053066320717334747 -0.124149776995182037 0.019666247069835663 -0.235694199800491333 0.006875406485050917 0.076120026409626007 0.066139318048954010 0.133713111281394958 0.115314282476902008 -0.061126269400119781 -0.081691198050975800 0.028160464018583298 0.442566514015197754 0.105516046285629272 -0.062611341476440430 0.108529679477214813 -0.097520805895328522 -0.053867418318986893 -0.027658356353640556 0.056975554674863815 0.231946080923080444 -0.050427962094545364 0.159106254577636719 0.037598408758640289 -0.174757450819015503 0.164681330323219299 0.139200761914253235 -0.016279030591249466 0.039069294929504395 -0.214537486433982849 -0.009760414250195026 -0.110010787844657898 -0.059169948101043701 0.241261154413223267 -0.373431354761123657 -0.176980540156364441 -0.083407513797283173 -0.233250305056571960 -0.020741147920489311 0.118785016238689423 0.154326066374778748 0.006528377532958984 0.142399653792381287 0.010187203064560890 0.083444692194461823 0.011365044862031937 0.435322493314743042 -0.030359990894794464 -0.116597101092338562 -0.156422272324562073 -0.176864102482795715 -0.167452931404113770 -0.055248141288757324 -0.099887177348136902 -0.083204559981822968 -0.192124903202056885 0.035663459450006485 0.069975137710571289 0.139915138483047485 -0.256325840950012207 -0.170861944556236267 0.019244546070694923 -0.072027638554573059 -0.033261992037296295 0.040403097867965698 -0.072533577680587769 -0.112169101834297180 -0.105014696717262268 -0.208037599921226501 -0.020189730450510979 -0.013012181036174297 0.088550470769405365 0.112988986074924469 -0.093858234584331512 -0.165342956781387329 -0.225519955158233643 0.204602986574172974 -0.118515066802501678 -0.117106616497039795
0.176921322941780090 0.164406776428222656 -0.174986854195594788 -0.148962467908859253 -0.124806404113769531 -0.147504419088363647 0.117340862751007080 0.169220581650733948 0.118428386747837067 0.028163077309727669 -0.034427948296070099 -0.089936785399913788 -0.170909985899925232 0.060525339096784592 -0.076599501073360443 0.096212677657604218 -0.014949466101825237 0.052018992602825165 -0.098261907696723938 -0.167208820581436157 -0.081786833703517914 -0.042877245694398880 0.135661542415618896 0.061982315033674240 -0.096942178905010223 -0.022601952776312828 0.239085525274276733 0.065131820738315582 0.109803624451160431 -0.087166808545589447 0.167144462466239929 0.028620025143027306 -0.020445678383111954 0.167208060622215271 0.144248381257057190 0.021476713940501213 0.199827149510383606 -0.027024688199162483 -0.133342921733856201 -0.209811463952064514 -0.091813340783119202 0.168343126773834229 0.165532737970352173 -0.159804642200469971 0.083592757582664490 -0.175220623612403870 0.023197546601295471 -0.050525870174169540 0.035639654844999313 -0.104442365467548370 0.115240022540092468 0.038323771208524704 0.063771381974220276 0.092398740351200104 0.003537864657118917 -0.006267481483519077 -0.037296522408723831 -0.046991616487503052 -0.112995788455009460 0.052502196282148361 0.084901578724384308 0.111947186291217804 -0.147804483771324158 -0.152033627033233643 -0.088706649839878082 0.021262051537632942 -0.114108823239803314 0.062573611736297607 -0.039506912231445312 0.116932392120361328 0.096157535910606384 -0.074928186833858490 -0.072916477918624878 0.005845919251441956 0.049206320196390152 0.133918508887290955 -0.192835986614227295 0.089019648730754852 -0.096818387508392334 -0.078806482255458832 -0.126197338104248047 -0.129757940769195557 0.056490026414394379 -0.094358012080192566 0.065452374517917633 0.124723330140113831 -0.018428374081850052 0.001221178565174341 -0.164736121892929077 0.031601335853338242 -0.035193111747503281 -0.090143837034702301 0.104430146515369415 -0.159898936748504639 0.145961970090866089 0.017469987273216248 -0.172635942697525024 -0.088609538972377777 -0.077309608459472656 -0.153854236006736755
0.090051926672458649 0.078587092459201813 -0.016744824126362801 0.089551061391830444 -0.064135409891605377 0.146539762616157532 -0.092918187379837036 0.038491271436214447 -0.059428475797176361 0.145435586571693420 -0.071173749864101410 0.176895484328269958 -0.025238987058401108 0.006288768723607063 0.048264965415000916 0.038409270346164703 0.142504483461380005 -0.109976761043071747 -0.094201162457466125 -0.105351693928241730 0.137598440051078796 0.217987388372421265 0.031375866383314133 0.027107354253530502 -0.034933321177959442 0.219072207808494568 -0.136304482817649841 -0.183917105197906494 -0.202656716108322144 -0.082215078175067902 0.117886245250701904 -0.019577197730541229 0.142202630639076233 0.073868043720722198 0.029066041111946106 0.031816143542528152 -0.157333135604858398 0.003047680715098977 0.144370809197425842 0.019206689670681953 0.123939149081707001 -0.142125487327575684 -0.095923468470573425 0.054905265569686890 0.186279207468032837 -0.152102857828140259 -0.060714643448591232 -0.032905731350183487 -0.051031529903411865 -0.136516347527503967 -0.021558858454227448 -0.000251006596954539 -0.014181751757860184 0.042614270001649857 -0.236784324049949646 0.054881915450096130 0.016111729666590691 -0.037977050989866257 0.032326694577932358 -0.106151014566421509 -0.126121670007705688 -0.037778101861476898 -0.033278234302997589 0.115299575030803680 -0.092391140758991241 0.090299673378467560 -0.004111080430448055 -0.231593623757362366 -0.096871480345726013 -0.133723646402359009 0.135849907994270325 0.030843000859022141 0.038362089544534683 -0.118240661919116974 -0.114412926137447357 -0.013290302827954292 0.194895252585411072 0.028556743636727333 -0.015325951389968395 0.158951953053474426 0.135060757398605347 -0.185328245162963867 -0.146984517574310303 -0.152038320899009705 -0.058796286582946777 -0.149449959397315979 -0.032049279659986496 -0.005041651427745819 0.121064066886901855 -0.133964434266090393 -0.017401609569787979 -0.024395756423473358 -0.046625804156064987 0.184188932180404663 0.058203697204589844 0.189775452017784119 0.048869647085666656 0.160935282707214355 0.061077851802110672 0.019541639834642410
0.052155874669551849 0.169659614562988281 -0.058381769806146622 -0.015280464664101601 0.048070721328258514 -0.093234688043594360 0.005573360249400139 -0.072391591966152191 -0.062819898128509521 -0.266685724258422852 0.179026961326599121 0.080067932605743408 0.158843621611595154 -0.065299510955810547 0.108205884695053101 -0.109935052692890167 -0.079896926879882812 0.051720980554819107 -0.010666149668395519 0.081731304526329041 0.045849476009607315 -0.096608653664588928 0.097332417964935303 -0.161777630448341370 -0.061190355569124222 0.046726144850254059 0.142188906669616699 -0.002378547796979547 0.070448122918605804 0.052975885570049286 -0.011118233203887939 -0.167981609702110291 0.017230633646249771 -0.176730737090110779 -0.091174706816673279 0.064726047217845917 -0.036494921892881393 -0.100344486534595490 -0.141582593321800232 0.166745066642761230 -0.111297696828842163 -0.136295154690742493 0.118567384779453278 -0.095618151128292084 -0.144153252243995667 0.064327783882617950 0.061466649174690247 0.065375775098800659 -0.102017834782600403 0.023522360250353813 0.016495298594236374 -0.026400787755846977 0.122893780469894409 0.124517880380153656 0.050634223967790604 0.076000005006790161 0.156099870800971985 -0.030273256823420525 -0.018257981166243553 0.058482281863689423 0.030043780803680420 -0.054888300597667694 0.110167704522609711 -0.103135198354721069 0.040589462965726852 -0.126844540238380432 -0.115664198994636536 -0.109213121235370636 0.191853404045104980 0.019575398415327072 -0.040937263518571854 -0.086115345358848572 -0.052951827645301819 -0.163321271538734436 -0.087768435478210449 0.156879365444183350 -0.015912456437945366 0.151814490556716919 -0.150908738374710083 -0.118716426193714142 0.077933289110660553 0.014931151643395424 0.102030359208583832 0.142646417021751404 -0.083936668932437897 0.136862322688102722 -0.121429584920406342 -0.002247438533231616 -0.133061692118644714 0.111555293202400208 0.125845715403556824 -0.082224987447261810 0.083731569349765778 -0.052417203783988953 -0.121662117540836334 0.100911304354667664 -0.017657035961747169 0.029391225427389145 -0.056607641279697418 0.075805738568305969
0.159015908837318420 -0.048267181962728500 0.085289612412452698 -0.035460576415061951 0.059777028858661652 0.049604050815105438 0.040015783160924911 0.008924896828830242 0.107532642781734467 0.019168019294738770 -0.003877892391756177 0.151252940297126770 0.077818766236305237 0.028550263494253159 -0.003950801678001881 -0.166503116488456726 0.152937322854995728 0.160233676433563232 -0.120826944708824158 0.066254340112209320 -0.109395921230316162 -0.075717881321907043 -0.157371476292610168 0.087351851165294647 -0.041810557246208191 0.006096162833273411 0.171830281615257263 -0.023965498432517052 -0.072050020098686218 0.089745372533798218 -0.036910008639097214 -0.134318113327026367 -0.000710868567693979 -0.018118383362889290 0.035077765583992004 -0.022717408835887909 0.104211702942848206 -0.136527493596076965 0.001039627473801374 -0.006096894852817059 -0.099700137972831726 0.022018164396286011 0.134026318788528442 0.016608858481049538 0.150341615080833435 -0.139248132705688477 0.043512936681509018 0.002909968607127666 -0.249533399939537048 0.154319882392883301 -0.033420961350202560 -0.047383859753608704 -0.154292583465576172 0.069816723465919495 0.200050443410873413 -0.243142977356910706 -0.077872142195701599 0.070446074008941650 0.030584612861275673 -0.082816615700721741 -0.143594905734062195 -0.148711681365966797 0.171408399939537048 -0.002291167620569468 -0.153562530875205994 -0.055811166763305664 0.087555140256881714 0.208516657352447510 -0.015481084585189819 0.095084510743618011 -0.043539464473724365 -0.088371001183986664 -0.031808275729417801 0.006812973879277706 0.131866455078125000 -0.075487598776817322 -0.238439112901687622 -0.146888777613639832 0.165118977427482605 0.030755834653973579 -0.134946689009666443 0.003732261015102267 0.156296521425247192 -0.027391076087951660 0.080923281610012054 0.080007925629615784 -0.171766445040702820 -0.085691049695014954 0.160813167691230774 0.094071023166179657 -0.044246278703212738 0.062869876623153687 -0.000826791918370873 -0.122808292508125305 -0.094826564192771912 -0.220082283020019531 0.052308358252048492 -0.071984991431236267 -0.168167769908905029 -0.196393147110939026
0.077969096601009369 0.137599632143974304 -0.018395481631159782 0.080080717802047729 0.112956896424293518 -0.002617216203361750 0.005193366669118404 -0.062445838004350662 0.013136401772499084 -0.112559810280799866 -0.023340651765465736 0.156201034784317017 0.022819299250841141 -0.031711407005786896 -0.137078970670700073 0.227276995778083801 0.174192801117897034 0.017569037154316902 -0.120212659239768982 -0.046158134937286377 -0.163744047284126282 0.080240815877914429 -0.145550549030303955 0.194447845220565796 0.030272729694843292 0.111275218427181244 -0.049569580703973770 -0.022223273292183876 -0.072911582887172699 -0.116824522614479065 0.170290112495422363 -0.088707968592643738 0.140357404947280884 -0.083699606359004974 0.137134522199630737 0.098822861909866333 -0.110736958682537079 0.165593847632408142 0.156636938452720642 0.036668352782726288 -0.041740700602531433 0.065059088170528412 -0.168453365564346313 0.166577979922294617 -0.131272986531257629 0.139120146632194519 0.017961367964744568 -0.153936147689819336 0.198289260268211365 0.185445591807365417 0.041472114622592926 -0.025713328272104263 -0.019365426152944565 0.120828077197074890 -0.140366002917289734 0.040520559996366501 0.012721679173409939 0.069188624620437622 -0.051072075963020325 0.085070900619029999 -0.069717325270175934 -0.051200740039348602 0.059882365167140961 -0.038359712809324265 0.237775236368179321 0.158466368913650513 -0.144991561770439148 0.028722630813717842 0.030861936509609222 -0.083173833787441254 -0.098886467516422272 0.150745853781700134 -0.006944640539586544 -0.132913142442703247 -0.049661565572023392 -0.111725136637687683 -0.067251808941364288 0.011710758320987225 -0.024356149137020111 -0.118013761937618256 -0.147767424583435059 0.009882925078272820 0.021493192762136459 -0.101557500660419464 0.009398791007697582 -0.037586215883493423 -0.164415642619132996 -0.126195177435874939 -0.067055694758892059 -0.213813960552215576 0.007349416613578796 0.029617285355925560 -0.078027240931987762 0.106511466205120087 0.016624033451080322 -0.129592284560203552 -0.058833092451095581 0.064329713582992554 -0.105619005858898163 -0.169147104024887085
-0.111045308411121368 -0.020245397463440895 0.118289895355701447 0.049648277461528778 0.105722859501838684 -0.026978136971592903 0.040440347045660019 0.109828040003776550 0.119005374610424042 0.210857629776000977 0.003491156036034226 -0.120507948100566864 0.111938335001468658 0.069374658167362213 0.018886655569076538 -0.162688374519348145 0.027522282674908638 -0.054563418030738831 -0.075548470020294189 0.015774011611938477 -0.019680537283420563 0.099741742014884949 0.025157542899250984 0.077215798199176788 -0.080163843929767609 -0.147396475076675415 0.176055967807769775 -0.093610383570194244 0.091931991279125214 -0.095687299966812134 0.196168154478073120 0.017216920852661133 -0.151442795991897583 0.108666643500328064 0.160730987787246704 -0.083145700395107269 0.120131678879261017 -0.103549808263778687 0.173869356513023376 0.093313671648502350 -0.047122046351432800 -0.075920939445495605 0.074002534151077271 -0.076856121420860291 -0.048691302537918091 -0.052992146462202072 0.076575495302677155 -0.192813932895660400 0.050338618457317352 0.327974736690521240 -0.156109824776649475 -0.046156544238328934 -0.132405117154121399 0.035691056400537491 -0.006689338479191065 -0.231333792209625244 0.185470104217529297 0.093800261616706848 -0.137234240770339966 -0.177406683564186096 0.040064882487058640 0.128112152218818665 0.128279626369476318 -0.154325008392333984 0.088915221393108368 0.061337079852819443 0.056056030094623566 0.255954831838607788 0.061938125640153885 0.175491958856582642 -0.213733732700347900 0.152280226349830627 0.163104280829429626 0.063267402350902557 0.039492629468441010 -0.171373859047889709 -0.195242017507553101 0.092940971255302429 -0.052677512168884277 0.052042327821254730 -0.051558952778577805 0.129120245575904846 -0.161701411008834839 -0.026864469051361084 0.034974116832017899 -0.028001042082905769 -0.101510733366012573 0.062980733811855316 0.158592388033866882 0.012017760425806046 -0.060718331485986710 0.156858667731285095 0.186570927500724792 0.117691196501255035 -0.099138803780078888 0.026959227398037910 -0.206956043839454651 0.060645502060651779 -0.009241767227649689 0.003340135794132948
0.191510215401649475 0.044973835349082947 -0.181289806962013245 0.111129559576511383 0.023312760517001152 0.003715955652296543 -0.051269140094518661 -0.195090517401695251 0.194809451699256897 -0.084889307618141174 0.013916126452386379 -0.103608407080173492 0.028970427811145782 -0.021052526310086250 -0.151146993041038513 0.048752091825008392 -0.007742886897176504 -0.168833330273628235 -0.042246773838996887 0.033232603222131729 -0.040571402758359909 -0.036069326102733612 0.010887784883379936 0.056580539792776108 0.020103791728615761 0.129298195242881775 0.074183695018291473 0.134315252304077148 -0.112856842577457428 -0.041861169040203094 -0.054288186132907867 -0.067255191504955292 0.099837571382522583 -0.022891703993082047 -0.017831727862358093 -0.111027956008911133 0.172664135694503784 -0.023592896759510040 0.045718390494585037 0.082260750234127045 -0.108923584222793579 -0.193815827369689941 -0.091706655919551849 -0.035256482660770416 -0.239487528800964355 0.087936125695705414 0.125214025378227234 -0.023083401843905449 0.162487089633941650 0.062365964055061340 -0.190003365278244019 0.034732010215520859 -0.087408274412155151 -0.175351187586784363 -0.143983170390129089 0.094022929668426514 0.124241530895233154 0.040040060877799988 0.162562027573585510 -0.083917908370494843 -0.088690079748630524 -0.172646656632423401 0.010903062298893929 -0.124708861112594604 0.002173187443986535 -0.132788762450218201 0.055891372263431549 -0.159183830022811890 0.212120100855827332 0.105983600020408630 0.127099514007568359 0.000827289826702327 -0.068119466304779053 0.083673097193241119 0.124144151806831360 -0.089401051402091980 0.000626901222858578 0.184256747364997864 -0.146941423416137695 0.089231841266155243 0.103318825364112854 -0.050106476992368698 0.153025388717651367 -0.161192029714584351 -0.085065230727195740 -0.025209929794073105 0.057663962244987488 -0.189503967761993408 0.151779040694236755 0.034242708235979080 -0.129058092832565308 -0.119695223867893219 0.056582935154438019 0.069889515638351440 -0.044137120246887207 0.012177568860352039 -0.116605117917060852 -0.000850908807478845 -0.095499284565448761 0.145812883973121643
0.128587901592254639 0.161327674984931946 0.145243659615516663 0.089963331818580627 0.108010821044445038 0.064601644873619080 -0.004822008311748505 0.084910780191421509 -0.025810720399022102 -0.047098785638809204 -0.066098891198635101 -0.095259934663772583 0.201764062047004700 0.071155920624732971 -0.108863458037376404 -0.271194338798522949 -0.080596491694450378 -0.067905798554420471 -0.117791973054409027 -0.074603043496608734 0.130064874887466431 0.089742071926593781 -0.109904460608959198 0.030761871486902237 -0.116160452365875244 -0.035702988505363464 -0.001504690852016211 0.044601138681173325 -0.131488531827926636 -0.166120380163192749 -0.088001318275928497 -0.198047414422035217 -0.176554813981056213 0.196563243865966797 -0.065431669354438782 -0.181420519948005676 0.090556815266609192 -0.216376468539237976 -0.199738100171089172 -0.104326151311397552 0.131367519497871399 -0.037212591618299484 0.043202634900808334 0.186830803751945496 0.166401892900466919 -0.002512364415451884 0.322254806756973267 0.153359666466712952 -0.013657707720994949 -0.102014996111392975 0.191016986966133118 -0.048008143901824951 0.107409276068210602 0.047000389546155930 0.068212382495403290 0.269051671028137207 -0.123173542320728302 -0.265816330909729004 0.059412147849798203 -0.124041490256786346 0.042389281094074249 0.227458298206329346 0.165677919983863831 0.084312073886394501 -0.032291516661643982 -0.056269705295562744 -0.026504408568143845 -0.228593006730079651 -0.001876157708466053 -0.162490963935852051 0.017159316688776016 0.006288364529609680 0.133502915501594543 0.133939966559410095 0.048655625432729721 0.106438085436820984 0.043552156537771225 -0.015414562076330185 -0.214144080877304077 0.073940955102443695 0.028141032904386520 0.016637591645121574 -0.076171278953552246 -0.010705779306590557 -0.062809981405735016 0.178285703063011169 0.159265056252479553 0.071057349443435669 -0.137221276760101318 0.090515106916427612 -0.156597375869750977 -0.214403182268142700 -0.144906133413314819 -0.045799121260643005 -0.007787313312292099 0.246499806642532349 -0.142244562506675720 0.158651471138000488 -0.012585911899805069 -0.128760650753974915
0.124327123165130615 -0.066461406648159027 -0.022919300943613052 -0.032342933118343353 0.017557881772518158 -0.077286317944526672 -0.011947985738515854 0.031990077346563339 0.001026451704092324 0.174759045243263245 0.040107052773237228 0.037203695625066757 0.048441000282764435 0.155451819300651550 -0.176717206835746765 -0.114159941673278809 0.076666697859764099 0.020866950973868370 0.104021929204463959 0.092266596853733063 0.009845991618931293 -0.122466124594211578 0.060342110693454742 -0.107495561242103577 0.080023378133773804 -0.021066827699542046 0.252880543470382690 -0.165447086095809937 0.170508220791816711 0.171184673905372620 -0.117915481328964233 -0.224031612277030945 0.077933661639690399 0.246106147766113281 -0.044589683413505554 0.114298395812511444 -0.069722764194011688 0.164321392774581909 -0.031106937676668167 -0.076630540192127228 0.131105363368988037 0.131712839007377625 0.031547192484140396 -0.134837806224822998 0.102499075233936310 0.053987346589565277 0.165540635585784912 -0.157594516873359680 -0.031403746455907822 0.003645248245447874 -0.127922773361206055 -0.016775380820035934 0.082357592880725861 0.079229101538658142 0.102823495864868164 -0.037590701133012772 0.158891156315803528 -0.005228453781455755 0.027529779821634293 -0.063337936997413635 0.044968146830797195 0.075773984193801880 -0.010698974132537842 -0.111375540494918823 -0.007834535092115402 0.064267978072166443 0.037833776324987411 -0.083220228552818298 -0.179715722799301147 0.084336183965206146 -0.166342556476593018 0.058708120137453079 -0.013938413932919502 0.184158742427825928 -0.138447046279907227 -0.188717469573020935 0.194748416543006897 0.127742037177085876 -0.063359536230564117 -0.081800676882266998 0.155418619513511658 -0.006623651832342148 -0.125926762819290161 -0.110055975615978241 -0.087826140224933624 0.068743780255317688 -0.023913988843560219 0.132632151246070862 -0.144182085990905762 -0.126520916819572449 -0.126457661390304565 0.094650276005268097 -0.039860431104898453 -0.092772968113422394 0.176351800560951233 -0.019033294171094894 -0.069565214216709137 0.047579534351825714 -0.017725380137562752 -0.190576076507568359
-0.113711766898632050 -0.058711014688014984 0.108843296766281128 0.132241904735565186 -0.160227015614509583 -0.077394612133502960 -0.134213790297508240 0.095425561070442200 -0.021758439019322395 0.111659385263919830 -0.159499257802963257 -0.058406431227922440 0.136800587177276611 -0.054511915892362595 -0.090072706341743469 0.038767565041780472 -0.153289824724197388 0.146349355578422546 -0.071780562400817871 -0.091680899262428284 -0.051350332796573639 -0.108751960098743439 0.018000863492488861 -0.145510926842689514 0.141521066427230835 -0.028226790949702263 -0.138733655214309692 -0.156261637806892395 -0.038819532841444016 0.126879841089248657 0.017397165298461914 -0.105027705430984497 -0.127380087971687317 0.015028853900730610 0.110635615885257721 0.087734773755073547 0.125160217285156250 -0.144519105553627014 -0.055968742817640305 -0.101355895400047302 -0.110986970365047455 0.246474668383598328 0.159175008535385132 -0.044806007295846939 0.037964817136526108 -0.133507043123245239 0.036455940455198288 -0.098675727844238281 0.107024207711219788 -0.098329074680805206 0.090315550565719604 0.102028347551822662 -0.061462610960006714 -0.096369951963424683 0.012807474471628666 0.164737105369567871 -0.139312952756881714 -0.267733961343765259 -0.096347801387310028 0.188179790973663330 -0.010732038877904415 0.213619336485862732 0.003483719425275922 -0.007991275750100613 0.121214658021926880 -0.081378661096096039 -0.066790007054805756 0.130192682147026062 0.078098677098751068 -0.123396746814250946 -0.065026521682739258 0.103479124605655670 0.135478869080543518 0.181252479553222656 -0.096207357943058014 -0.158051028847694397 0.162005573511123657 0.135688051581382751 0.043836880475282669 0.167943581938743591 -0.254453033208847046 0.013487032614648342 -0.051129974424839020 0.168191209435462952 -0.010747367516160011 0.097630821168422699 -0.139301776885986328 0.100286506116390228 -0.078516431152820587 0.066497631371021271 0.090453594923019409 0.055654726922512054 0.038982272148132324 0.016012588515877724 -0.004098871722817421 -0.127402588725090027 -0.029571140184998512 0.186643138527870178 0.055491998791694641 -0.156960457563400269
