#Layer 7 Weights:
-0.055421002209186554 -0.022003388032317162 0.096979215741157532 0.098686434328556061 -0.048401918262243271 -0.158707752823829651 0.022502303123474121 0.151422873139381409 0.064552709460258484 0.017143350094556808 -0.045415893197059631 -0.123653896152973175 0.164841473102569580 0.078340612351894379 0.016475629061460495 -0.120002247393131256 -0.060172304511070251 -0.003261836012825370 -0.043615300208330154 0.023254327476024628 0.154242694377899170 -0.154628321528434753 0.093130342662334442 -0.033641356974840164 -0.033526577055454254 -0.170550078153610229 -0.133540406823158264 0.122575528919696808 0.206672564148902893 0.200892105698585510 0.096518807113170624 0.187543749809265137 -0.003791923401877284 0.048162005841732025 -0.092765517532825470 -0.157125115394592285 0.098552413284778595 0.146155565977096558 -0.122594602406024933 -0.148436784744262695 0.087921053171157837 0.003518159268423915 -0.103886023163795471 -0.126251995563507080 0.083228424191474915 -0.046195100992918015 -0.133392199873924255 0.010678015649318695 -0.131273105740547180 0.012697855010628700 0.115260712802410126 -0.062708832323551178 0.021470431238412857 0.075333133339881897 -0.034794740378856659 -0.099883601069450378 0.063539512455463409 0.102042846381664276 0.056343160569667816 0.091436393558979034 0.043461017310619354 0.160821899771690369 -0.034290552139282227 -0.142120212316513062 0.120954535901546478 -0.040464982390403748 0.008745745755732059 -0.078909076750278473 -0.077836342155933380 -0.054376550018787384 -0.088846586644649506 0.120982877910137177 -0.223316833376884460 -0.134968504309654236 0.019440922886133194 0.104738801717758179 -0.170189708471298218 -0.071614474058151245 -0.077621184289455414 -0.178755208849906921 0.146253123879432678 0.105390153825283051 -0.062598265707492828 0.076284795999526978 -0.041669785976409912 0.091803960502147675 -0.028065063059329987 -0.126129478216171265 -0.046161528676748276 -0.157037436962127686 0.049732293933629990 -0.012552890926599503 0.082872055470943451 0.116255581378936768 0.174397796392440796 0.019056331366300583 -0.157313212752342224 -0.140790119767189026 0.140041470527648926 0.156771659851074219
0.189804553985595703 -0.112088166177272797 0.094448953866958618 -0.099715977907180786 0.063304536044597626 -0.026316611096262932 -0.068572103977203369 0.120263934135437012 0.162170395255088806 -0.066007010638713837 0.102718658745288849 -0.063561730086803436 -0.053053542971611023 -0.015909785404801369 0.079015433788299561 0.044298600405454636 -0.165577948093414307 0.099004574120044708 0.040113698691129684 -0.123184524476528168 0.048788495361804962 -0.031946558505296707 -0.003588131628930569 -0.166055768728256226 0.071733899414539337 -0.133571326732635498 0.138818144798278809 -0.035415142774581909 0.120534479618072510 0.111699804663658142 -0.083497449755668640 0.145185559988021851 -0.048996817320585251 -0.103484623134136200 0.090143874287605286 0.084230110049247742 0.053413785994052887 0.147277191281318665 0.042837642133235931 0.054305378347635269 0.107811257243156433 -0.018293080851435661 0.031708978116512299 -0.135975480079650879 0.056430906057357788 -0.049009498208761215 0.191354930400848389 -0.187697276473045349 -0.083806864917278290 0.053787525743246078 0.106064118444919586 -0.141181707382202148 0.072754107415676117 0.087907902896404266 -0.170105412602424622 0.078215733170509338 -0.094147138297557831 -0.057302817702293396 -0.163449093699455261 -0.151262775063514709 0.142982900142669678 0.088086880743503571 -0.122451968491077423 -0.027435999363660812 -0.149340659379959106 0.131987914443016052 -0.142379656434059143 -0.157214358448982239 -0.155710265040397644 -0.170651003718376160 0.153981104493141174 -0.106434419751167297 -0.051699869334697723 0.111146576702594757 0.136034294962882996 -0.037709400057792664 -0.047167737036943436 -0.018935307860374451 0.029873950406908989 -0.069933503866195679 0.149879142642021179 0.061950143426656723 -0.172585681080818176 -0.088250465691089630 0.095325395464897156 -0.084908887743949890 0.060293287038803101 0.072978295385837555 -0.062254119664430618 0.064735978841781616 0.032512586563825607 0.111833795905113220 0.175408720970153809 0.067134596407413483 -0.096549466252326965 -0.171087533235549927 -0.095270603895187378 -0.100211188197135925 0.148498818278312683 0.109597153961658478
-0.126805186271667480 0.211446493864059448 0.104817762970924377 0.167609736323356628 0.083896845579147339 0.132772505283355713 -0.096422001719474792 0.078972309827804565 -0.120397858321666718 0.076104640960693359 0.070481069386005402 0.048590470105409622 -0.091563925147056580 -0.043027810752391815 -0.009544157423079014 0.005287439562380314 0.159461036324501038 0.174782261252403259 -0.021075416356325150 0.043277036398649216 0.168895542621612549 0.201922565698623657 -0.016076292842626572 -0.070228613913059235 0.142818450927734375 -0.087228074669837952 0.114785440266132355 0.038645029067993164 -0.054477024823427200 -0.105959825217723846 -0.146417364478111267 -0.035315148532390594 -0.034746028482913971 -0.002768333535641432 -0.142332985997200012 -0.222563400864601135 -0.038509558886289597 0.051844283938407898 0.020663546398282051 0.020555175840854645 -0.053114525973796844 0.183638364076614380 -0.168024361133575439 0.006531713996082544 0.166255056858062744 0.124342627823352814 0.103612981736660004 -0.166521683335304260 0.108845919370651245 0.073392823338508606 -0.022209342569112778 -0.144046515226364136 0.133308961987495422 0.017263080924749374 -0.050483334809541702 0.091126866638660431 0.062841787934303284 -0.020565764978528023 -0.067166946828365326 -0.062953747808933258 0.012001675553619862 -0.157523065805435181 -0.049814078956842422 -0.051930606365203857 -0.110546611249446869 -0.008071657270193100 -0.132616758346557617 0.095610566437244415 0.016804728657007217 0.097189642488956451 -0.142655685544013977 0.027104359120130539 -0.010900099761784077 0.050452817231416702 -0.058636911213397980 0.062354497611522675 -0.162955626845359802 -0.005196592304855585 -0.086744524538516998 -0.013999185524880886 0.161708921194076538 -0.173004344105720520 0.144106402993202209 0.016523737460374832 -0.139175012707710266 -0.140139281749725342 0.093774512410163879 0.243702501058578491 -0.099586427211761475 0.039882458746433258 -0.127063095569610596 0.086863614618778229 0.121447585523128510 -0.156932443380355835 -0.145169377326965332 0.101184666156768799 -0.174944132566452026 -0.180329024791717529 -0.132133632898330688 0.088698178529739380
-0.011646618135273457 -0.141126036643981934 0.164360657334327698 0.203565850853919983 0.171663790941238403 -0.101297013461589813 -0.039799477905035019 -0.076568625867366791 0.152956962585449219 -0.088352784514427185 0.045739285647869110 0.034073363989591599 -0.025438381358981133 0.059996765106916428 -0.151106402277946472 -0.174935325980186462 -0.042607903480529785 0.183615401387214661 0.057607326656579971 -0.012930590659379959 0.024695927277207375 -0.071052230894565582 0.037463251501321793 0.062041264027357101 0.048682734370231628 0.170299768447875977 -0.131907314062118530 -0.035641916096210480 0.115063704550266266 -0.095886483788490295 -0.164757177233695984 0.190102949738502502 -0.110696561634540558 0.128923311829566956 -0.036979582160711288 -0.130242541432380676 0.096386976540088654 -0.146003201603889465 0.039647918194532394 0.200335711240768433 -0.144246682524681091 -0.111396789550781250 0.006342823151499033 -0.057780750095844269 -0.078342631459236145 0.099305517971515656 -0.107492558658123016 0.106169022619724274 0.157550588250160217 -0.127108931541442871 -0.015858024358749390 0.075792491436004639 -0.121173128485679626 -0.141670376062393188 -0.006050894502550364 0.003347579389810562 -0.132528826594352722 -0.033270251005887985 0.051960945129394531 -0.178140550851821899 -0.110423430800437927 0.138779401779174805 -0.147935301065444946 -0.074775531888008118 0.021225523203611374 -0.037435267120599747 0.000793029961641878 0.165718093514442444 -0.091287694871425629 0.156881541013717651 0.088829979300498962 -0.080105386674404144 -0.204713657498359680 -0.188704460859298706 0.019742688164114952 -0.002840989734977484 0.018903806805610657 -0.119469307363033295 -0.039810918271541595 -0.018570298328995705 -0.151377826929092407 0.173184916377067566 0.022324163466691971 0.031041610985994339 -0.164344713091850281 0.082959845662117004 -0.150242179632186890 0.005290937144309282 -0.027463054284453392 -0.198916241526603699 0.133214399218559265 0.072771966457366943 -0.023618441075086594 -0.070259988307952881 0.046092975884675980 -0.009600365534424782 -0.046120241284370422 0.161969631910324097 -0.106440961360931396 -0.036387003958225250
-0.189369544386863708 -0.153176531195640564 -0.026376217603683472 -0.138267755508422852 0.084273688495159149 -0.176116019487380981 0.059186831116676331 -0.062055755406618118 0.116689726710319519 0.097138836979866028 0.105963356792926788 0.040408533066511154 0.031280230730772018 -0.046736534684896469 0.169342175126075745 0.040898665785789490 0.141509234905242920 -0.039230071008205414 0.120753079652786255 0.063679635524749756 0.042955327779054642 -0.054095260798931122 -0.006134587340056896 -0.012336757034063339 -0.196328833699226379 0.090152464807033539 0.083315148949623108 0.018912101164460182 0.017658086493611336 -0.027357827872037888 -0.171546682715415955 0.032974343746900558 -0.130973339080810547 -0.128106340765953064 0.000291045114863664 0.184564977884292603 -0.148572444915771484 0.048872921615839005 -0.023692581802606583 -0.109130583703517914 0.055737484246492386 0.067853644490242004 0.038319069892168045 0.071062482893466949 0.080184541642665863 0.182369887828826904 -0.186686336994171143 0.011333080939948559 -0.100535057485103607 -0.002228301251307130 -0.138399943709373474 0.067645363509654999 0.152347311377525330 -0.022406032308936119 0.094207443296909332 0.056667659431695938 0.151112213730812073 -0.040093682706356049 0.005456250160932541 0.045028615742921829 -0.034072659909725189 0.194815471768379211 -0.163644552230834961 -0.080051079392433167 -0.130866438150405884 0.022841244935989380 -0.063359916210174561 0.168343633413314819 -0.092418514192104340 -0.008453896269202232 0.031132787466049194 0.133274897933006287 -0.196323886513710022 0.017970798537135124 -0.122950159013271332 -0.018155537545681000 0.146720156073570251 0.027820028364658356 -0.216174364089965820 -0.029560500755906105 -0.151984214782714844 -0.134196102619171143 0.157773166894912720 0.136140301823616028 0.162534013390541077 -0.090988360345363617 0.000238632434047759 -0.049658846110105515 -0.119240187108516693 -0.006276180502027273 -0.038431521505117416 0.072644278407096863 0.135194569826126099 -0.116761535406112671 0.067666925489902496 0.042681325227022171 -0.160382628440856934 0.052635662257671356 0.149738252162933350 0.161312103271484375
-0.144242227077484131 -0.160802081227302551 -0.151019677519798279 -0.097393840551376343 -0.010841639712452888 0.040997087955474854 -0.169610947370529175 -0.008453917689621449 0.127389624714851379 0.052351512014865875 0.160991698503494263 0.147114992141723633 0.138946697115898132 -0.065605141222476959 0.106490105390548706 0.017472628504037857 -0.061075761914253235 -0.175223976373672485 0.069069825112819672 0.037554144859313965 0.082203932106494904 -0.106138251721858978 -0.020340865477919579 -0.181368738412857056 -0.042144190520048141 -0.069505997002124786 0.113586045801639557 -0.073770046234130859 -0.037039242684841156 0.056510306894779205 0.042451694607734680 -0.099353492259979248 -0.039286259561777115 -0.028879059478640556 -0.065297015011310577 -0.044483557343482971 -0.061890572309494019 0.170950472354888916 0.167492702603340149 0.130457684397697449 0.101374804973602295 -0.072412937879562378 -0.016951367259025574 -0.026864316314458847 0.137912794947624207 0.064830280840396881 -0.079968728125095367 -0.047560188919305801 -0.076763257384300232 -0.063511699438095093 -0.158365055918693542 0.032519340515136719 -0.072109788656234741 0.128741189837455750 0.154371038079261780 -0.000114489143015817 0.117893025279045105 -0.164358526468276978 0.083519116044044495 0.002865951741114259 -0.156365439295768738 -0.009515533223748207 -0.013744133524596691 -0.131745502352714539 0.187420263886451721 0.084863208234310150 -0.140486910939216614 -0.133809730410575867 -0.104848407208919525 -0.164659813046455383 0.125245869159698486 0.109855055809020996 -0.118690907955169678 -0.032466251403093338 -0.103493176400661469 0.061330255120992661 0.009287187829613686 -0.040807560086250305 -0.164818674325942993 -0.155108705163002014 -0.056535795331001282 -0.062083672732114792 0.079538583755493164 0.033583201467990875 0.215141043066978455 0.073746144771575928 0.120793804526329041 -0.160110309720039368 -0.002681460930034518 0.052255265414714813 0.121519565582275391 0.171048596501350403 0.070499993860721588 0.157550007104873657 -0.061353228986263275 0.072344034910202026 0.157578483223915100 -0.194652780890464783 0.053462702780961990 0.005476335063576698
-0.109863087534904480 0.154198631644248962 -0.136789396405220032 -0.009010704234242439 0.013136630877852440 -0.115397408604621887 -0.102909579873085022 -0.038196939975023270 -0.125793471932411194 0.082931481301784515 0.163494333624839783 0.184495657682418823 -0.136032700538635254 0.109334208071231842 -0.096897169947624207 -0.151101782917976379 0.073517464101314545 -0.176190719008445740 -0.163698628544807434 0.106689237058162689 0.123131394386291504 -0.127401217818260193 0.026093618944287300 -0.005856061354279518 0.195267871022224426 -0.044276326894760132 -0.087289430201053619 0.129841133952140808 -0.002421691082417965 -0.125747948884963989 0.097322590649127960 0.097005225718021393 0.091436296701431274 -0.150172904133796692 -0.045653499662876129 -0.073250450193881989 -0.020015323534607887 -0.056125998497009277 0.100935146212577820 -0.147019296884536743 0.008060805499553680 0.074133910238742828 -0.052222769707441330 -0.124918632209300995 -0.053306467831134796 0.069186329841613770 0.112663149833679199 -0.167004466056823730 -0.043735787272453308 0.012096287682652473 0.091249629855155945 0.043236665427684784 0.115332782268524170 0.179946422576904297 -0.171355366706848145 0.056159067898988724 0.013180628418922424 -0.056804846972227097 -0.150217205286026001 0.079347394406795502 0.026211505755782127 0.006109773181378841 -0.139767900109291077 0.071406506001949310 0.079524628818035126 -0.080564230680465698 0.045123178511857986 0.131151258945465088 0.054122544825077057 0.079215519130229950 -0.124932363629341125 0.176121205091476440 0.165341451764106750 -0.035202190279960632 0.106162399053573608 0.195930242538452148 -0.168935418128967285 0.014922362752258778 0.158973351120948792 -0.062879025936126709 0.147362068295478821 -0.123245723545551300 0.070403873920440674 0.053852211683988571 -0.088573820888996124 0.178231313824653625 0.092282757163047791 0.129084989428520203 -0.093385428190231323 0.055830191820859909 -0.053307235240936279 -0.114395476877689362 0.152576237916946411 0.121518693864345551 0.095764413475990295 0.113897643983364105 0.175057798624038696 -0.118053853511810303 0.081967160105705261 0.122813090682029724
-0.092021651566028595 0.135099530220031738 0.123765870928764343 -0.088944748044013977 0.170721337199211121 0.133747398853302002 0.173259347677230835 -0.004487080965191126 0.047633979469537735 -0.140139967203140259 -0.047565396875143051 -0.147443830966949463 -0.119351141154766083 -0.051960479468107224 0.124647572636604309 0.143610090017318726 0.111790001392364502 0.029257908463478088 -0.042554602026939392 0.189220890402793884 -0.152702242136001587 0.103676326572895050 0.084415055811405182 -0.105315640568733215 -0.186328753829002380 0.124201707541942596 -0.147736221551895142 -0.022832730785012245 -0.007094118278473616 0.048559192568063736 -0.176197066903114319 -0.070507958531379700 0.045196540653705597 0.004735459107905626 -0.067546203732490540 -0.090546846389770508 -0.079803436994552612 0.070814304053783417 -0.079623758792877197 0.129718214273452759 -0.123870812356472015 -0.027752993628382683 0.006183225661516190 -0.146924197673797607 -0.177400439977645874 0.130226731300354004 -0.159241169691085815 0.054227743297815323 -0.008600882254540920 0.107239328324794769 0.093338884413242340 0.145063146948814392 0.085531100630760193 0.021504478529095650 0.105771385133266449 0.041380956768989563 -0.059225905686616898 0.114247508347034454 0.088259547948837280 0.065056942403316498 -0.164980262517929077 0.143985047936439514 0.008216652087867260 -0.164420381188392639 0.053092189133167267 -0.147064477205276489 0.190081164240837097 0.139969080686569214 0.046032901853322983 -0.152992531657218933 -0.158856898546218872 -0.050693847239017487 0.108738198876380920 0.002197019988670945 0.042759962379932404 -0.199340581893920898 0.176307365298271179 -0.030269047245383263 -0.085679776966571808 -0.011727296747267246 -0.144910991191864014 0.083531923592090607 0.061225347220897675 -0.092151269316673279 0.062421526759862900 0.043574903160333633 0.120711468160152435 0.145161986351013184 0.167340800166130066 -0.216478124260902405 -0.063038267195224762 0.052360564470291138 -0.087038204073905945 0.151568263769149780 0.197803139686584473 0.005938855931162834 0.172505527734756470 -0.136478990316390991 0.142524167895317078 -0.049006104469299316
0.140566512942314148 0.149927228689193726 0.122006073594093323 -0.146702125668525696 -0.102594628930091858 0.013478897511959076 -0.143733546137809753 -0.055241215974092484 -0.047156739979982376 -0.014368293806910515 0.000449122133431956 -0.067389741539955139 0.103849917650222778 0.127218276262283325 0.146573960781097412 -0.085346214473247528 0.020834319293498993 0.079351358115673065 0.042032990604639053 -0.060311112552881241 -0.108181662857532501 -0.042787928134202957 0.121903337538242340 0.040213093161582947 -0.149526059627532959 -0.055391184985637665 -0.147052675485610962 0.037702288478612900 -0.138023376464843750 -0.035983540117740631 0.074694737792015076 -0.153810128569602966 -0.134993761777877808 -0.165997192263603210 -0.124384038150310516 0.011770052835345268 -0.144901856780052185 0.138987943530082703 0.016067156568169594 -0.144022554159164429 0.042552404105663300 -0.088609993457794189 0.149527072906494141 0.001323962933383882 0.042197216302156448 -0.093868665397167206 0.041749373078346252 -0.105743892490863800 0.007775841746479273 -0.044096533209085464 0.085882902145385742 0.119503445923328400 0.078368693590164185 -0.074711591005325317 0.134278222918510437 0.023124834522604942 0.050698067992925644 0.151892572641372681 0.171665787696838379 -0.156594216823577881 -0.106985934078693390 -0.114610522985458374 -0.100531354546546936 -0.036810018122196198 -0.067615129053592682 0.171531945466995239 -0.140060916543006897 0.153105840086936951 0.143308043479919434 0.026485992595553398 0.151236370205879211 -0.173608869314193726 0.052166286855936050 0.117482468485832214 0.032410614192485809 -0.029688466340303421 0.127581566572189331 -0.159994453191757202 -0.139886364340782166 -0.042163882404565811 -0.064114220440387726 -0.036277581006288528 0.064495399594306946 0.145194470882415771 -0.174425438046455383 -0.113079756498336792 0.119629681110382080 -0.072124920785427094 0.013592115603387356 0.003276533912867308 -0.042792927473783493 0.079857252538204193 0.177411109209060669 -0.021706882864236832 0.178596645593643188 -0.161877647042274475 0.095925547182559967 0.009860010817646980 0.128320619463920593 -0.124133735895156860
-0.072700709104537964 0.150778472423553467 0.115003995597362518 0.082699134945869446 0.121253408491611481 -0.129744395613670349 0.035331182181835175 0.173964634537696838 -0.106250084936618805 -0.022936830297112465 0.025537326931953430 0.138237580657005310 0.103992156684398651 0.026875013485550880 0.142869308590888977 -0.028328498825430870 -0.136354610323905945 -0.029576841741800308 -0.150936290621757507 0.027387738227844238 0.084858298301696777 0.022260446101427078 -0.025669056922197342 -0.133414283394813538 -0.132560700178146362 0.127159982919692993 -0.134799242019653320 0.139699622988700867 0.123027272522449493 -0.028922656551003456 -0.125327706336975098 -0.158528581261634827 -0.142393320798873901 0.125935837626457214 0.060520090162754059 0.158464521169662476 -0.073088862001895905 -0.046547900885343552 0.161304846405982971 -0.068578511476516724 0.112067073583602905 -0.038260865956544876 -0.045146528631448746 0.007501175161451101 -0.101311177015304565 0.124123357236385345 -0.042887795716524124 0.173556044697761536 0.159838229417800903 -0.053494665771722794 0.119463168084621429 -0.178347393870353699 0.152953162789344788 -0.168207451701164246 0.179955631494522095 0.094247348606586456 0.066760793328285217 0.064354322850704193 -0.075255297124385834 -0.123558081686496735 0.151641428470611572 0.034487713128328323 -0.108485020697116852 -0.100562170147895813 -0.088833704590797424 -0.042056292295455933 0.057413369417190552 -0.037641469389200211 -0.103691011667251587 0.075071051716804504 -0.041148897260427475 -0.002928191330283880 -0.149110302329063416 -0.054027542471885681 0.158388510346412659 0.146505355834960938 0.122943542897701263 0.149290323257446289 -0.078914523124694824 -0.021038785576820374 -0.155285969376564026 0.077540479600429535 0.152392223477363586 -0.103144697844982147 -0.063903465867042542 -0.004936692770570517 -0.184087604284286499 -0.036802124232053757 -0.048212453722953796 -0.087399534881114960 0.099938601255416870 -0.138551786541938782 -0.008355787955224514 0.103742197155952454 -0.015058092772960663 -0.132055044174194336 -0.143707573413848877 -0.054118819534778595 0.160412058234214783 0.184065669775009155
-0.066608861088752747 0.065731428563594818 -0.143894135951995850 -0.149048373103141785 0.132245406508445740 -0.089729361236095428 -0.130333200097084045 -0.155873671174049377 -0.062561906874179840 -0.158589079976081848 -0.058506935834884644 0.159275606274604797 -0.113259494304656982 -0.077526256442070007 0.029172169044613838 -0.106719858944416046 -0.002806073054671288 -0.088611997663974762 0.145592942833900452 -0.184090092778205872 -0.017783965915441513 0.104727596044540405 -0.098415926098823547 -0.127063050866127014 -0.122782230377197266 0.012164409272372723 0.039154432713985443 -0.068693228065967560 -0.206359192728996277 0.067295834422111511 0.115346595644950867 -0.145026177167892456 -0.126515924930572510 -0.077501878142356873 -0.070915840566158295 -0.081620492041110992 0.139646634459495544 0.161969840526580811 -0.015747226774692535 -0.090972848236560822 0.100688025355339050 -0.143145978450775146 0.118131287395954132 -0.156898275017738342 -0.088878162205219269 -0.208184659481048584 -0.117603391408920288 -0.105688281357288361 0.111883036792278290 -0.074042841792106628 -0.063905075192451477 0.142513662576675415 0.064386464655399323 0.188516676425933838 0.096055574715137482 0.121022164821624756 -0.088607653975486755 -0.056542992591857910 -0.080551758408546448 -0.032023154199123383 0.130909174680709839 0.120056845247745514 -0.037434808909893036 -0.149789750576019287 -0.022664554417133331 0.118101149797439575 -0.070042401552200317 -0.096274122595787048 -0.137508556246757507 0.123953744769096375 -0.072465680539608002 -0.121226653456687927 0.171896427869796753 0.198300555348396301 -0.106501936912536621 0.218611359596252441 -0.040377058088779449 -0.180937349796295166 -0.095748797059059143 0.096399955451488495 0.060674313455820084 0.045648187398910522 -0.031381968408823013 0.062149997800588608 0.028654545545578003 0.144986465573310852 0.058913175016641617 -0.120527528226375580 0.021065611392259598 0.142218977212905884 0.110995575785636902 -0.089915439486503601 0.017120482400059700 -0.011146464385092258 -0.069638215005397797 0.119000352919101715 0.001864375197328627 -0.099547147750854492 0.046883475035429001 -0.084610730409622192
-0.168979287147521973 0.134976744651794434 -0.123280800879001617 0.201322212815284729 0.080032050609588623 -0.149513810873031616 -0.107002310454845428 -0.074552133679389954 -0.010508910752832890 0.083950154483318329 -0.040345504879951477 -0.092544272541999817 0.049977507442235947 0.103132776916027069 0.138482183218002319 0.059373244643211365 0.014416918158531189 0.025198243558406830 0.014939504675567150 -0.129816368222236633 -0.076067097485065460 0.127785012125968933 0.007920865900814533 -0.071998871862888336 0.035912979394197464 -0.168319344520568848 -0.109955102205276489 -0.100930385291576385 -0.065176680684089661 0.157274678349494934 0.024587970227003098 -0.024745130911469460 -0.054309718310832977 0.051933631300926208 0.190443694591522217 -0.111907839775085449 -0.019209064543247223 -0.182811647653579712 -0.080080188810825348 -0.077319525182247162 0.013713262043893337 0.045345190912485123 0.157622411847114563 -0.119582816958427429 -0.079530477523803711 0.042539898306131363 0.113906607031822205 0.048546832054853439 0.022629816085100174 0.097571514546871185 -0.046561505645513535 0.025947704911231995 -0.008660011924803257 -0.067002035677433014 -0.091112606227397919 0.083778485655784607 0.047710757702589035 -0.172966778278350830 0.018181690946221352 0.128288462758064270 -0.132435262203216553 -0.111849211156368256 0.068696178495883942 0.048617444932460785 0.028036270290613174 0.015175897628068924 -0.047127149999141693 0.071821585297584534 -0.121909447014331818 0.071165993809700012 0.107760265469551086 -0.073774836957454681 0.109388090670108795 -0.105500981211662292 -0.027975672855973244 -0.180428326129913330 0.004765419289469719 0.007066769525408745 -0.099681206047534943 -0.152208879590034485 0.034787446260452271 0.180942431092262268 0.073019564151763916 0.187650740146636963 0.162854671478271484 0.059139609336853027 0.141780719161033630 0.080978982150554657 -0.058905050158500671 -0.090568155050277710 -0.011996076442301273 -0.090645663440227509 0.164034992456436157 0.158434331417083740 0.050621639937162399 -0.097098179161548615 0.103999018669128418 -0.120906062424182892 -0.078186765313148499 -0.003509967587888241
0.052563428878784180 0.015567084774374962 -0.072509482502937317 -0.080451443791389465 0.082406409084796906 -0.003838158911094069 -0.034756429493427277 -0.093230418860912323 -0.166852548718452454 -0.001642094575800002 -0.032835114747285843 0.109240531921386719 -0.074601456522941589 -0.082811169326305389 0.138225927948951721 -0.125411316752433777 -0.060380827635526657 0.146495684981346130 -0.028129566460847855 0.024403784424066544 -0.077446632087230682 0.045336153358221054 -0.064759649336338043 0.119576029479503632 -0.138972252607345581 0.101291939616203308 0.022689068689942360 0.082241028547286987 0.170119300484657288 -0.146558716893196106 0.070598825812339783 0.025126170367002487 -0.152487933635711670 0.184630379080772400 0.142797365784645081 -0.072126045823097229 0.155183583498001099 0.036619670689105988 0.124106936156749725 0.080629117786884308 -0.035489238798618317 -0.165386751294136047 0.087333850562572479 -0.155529052019119263 0.026185791939496994 0.186717182397842407 -0.099220454692840576 0.142808869481086731 -0.112912707030773163 0.049891203641891479 -0.077260203659534454 -0.136340737342834473 0.102015316486358643 0.132411241531372070 0.061901185661554337 -0.034605722874403000 0.038840532302856445 -0.140385046601295471 -0.173162683844566345 0.071007110178470612 0.052234560251235962 -0.103785842657089233 0.047625802457332611 0.121031194925308228 0.010078053921461105 -0.048663586378097534 0.081065870821475983 0.087883166968822479 -0.151700273156166077 0.019547719508409500 0.163258075714111328 0.123719774186611176 -0.139046102762222290 -0.098932631313800812 -0.093072153627872467 -0.077285788953304291 -0.014260724186897278 0.057007927447557449 0.122333541512489319 -0.127129212021827698 -0.021193582564592361 -0.004949569702148438 0.120841629803180695 0.007498580962419510 -0.069254890084266663 -0.012725215405225754 0.057843733578920364 -0.121167615056037903 -0.040884640067815781 -0.031761482357978821 -0.065441742539405823 -0.087751239538192749 -0.126795589923858643 0.142372399568557739 -0.004468413069844246 0.183208420872688293 0.007863428443670273 0.179951220750808716 0.152914136648178101 -0.093589849770069122
-0.072428092360496521 0.146390497684478760 0.073159627616405487 -0.018270878121256828 0.146625727415084839 -0.011051797308027744 0.105165772140026093 0.149830386042594910 0.160029917955398560 -0.251328885555267334 -0.128087058663368225 0.009094180539250374 0.079798616468906403 0.027932818979024887 0.011872136965394020 -0.065104708075523376 -0.089830197393894196 -0.130154445767402649 0.130895659327507019 0.001180621562525630 -0.148487880825996399 0.244386658072471619 -0.132905751466751099 -0.137637630105018616 -0.044804584234952927 0.163006693124771118 0.112119086086750031 0.169115200638771057 0.067923761904239655 0.018494436517357826 -0.069441512227058411 -0.125691235065460205 0.167794629931449890 -0.133986771106719971 -0.047948110848665237 -0.163069993257522583 0.064038969576358795 -0.017719339579343796 0.149199068546295166 -0.046753548085689545 0.086064092814922333 0.196521922945976257 -0.124007917940616608 0.016451843082904816 0.119806714355945587 -0.107047632336616516 -0.137506321072578430 0.109717950224876404 0.069601014256477356 -0.072954736649990082 0.092417463660240173 -0.150343149900436401 -0.006191721186041832 -0.006219054572284222 -0.036620579659938812 0.080957069993019104 0.136229127645492554 -0.110558420419692993 -0.050433155149221420 -0.114223748445510864 0.088269069790840149 0.110677465796470642 -0.048611082136631012 0.039831928908824921 -0.117285728454589844 0.132577508687973022 -0.152166992425918579 -0.089242845773696899 -0.084489144384860992 0.119628846645355225 -0.192106947302818298 -0.097513504326343536 0.096100009977817535 -0.089155122637748718 0.101840063929557800 -0.163420543074607849 -0.015553046017885208 0.005703078582882881 0.220632135868072510 0.058750160038471222 -0.081796869635581970 0.176812246441841125 -0.157437875866889954 0.058266758918762207 -0.127923280000686646 0.033562552183866501 -0.166295737028121948 -0.017019979655742645 -0.016394654288887978 -0.060919381678104401 -0.003125739982351661 -0.227188631892204285 0.084370739758014679 -0.176305636763572693 0.024900622665882111 0.155349984765052795 -0.131896436214447021 0.102622263133525848 0.013150908052921295 0.055573303252458572
0.057340268045663834 0.165616154670715332 0.169994354248046875 0.076786823570728302 0.092121817171573639 -0.170217826962471008 -0.156378760933876038 0.063535541296005249 0.118445478379726410 -0.093634441494941711 -0.071776360273361206 0.129688486456871033 0.160150304436683655 0.099680386483669281 -0.067586280405521393 0.024421069771051407 0.143581390380859375 -0.154839351773262024 0.074710562825202942 0.077976666390895844 0.028601462021470070 -0.029267866164445877 0.156243860721588135 -0.114076964557170868 -0.106721542775630951 -0.122302003204822540 0.070006839931011200 0.077980138361454010 0.048926707357168198 0.059338748455047607 0.129357904195785522 -0.116282902657985687 0.096878886222839355 -0.043167307972908020 -0.111960165202617645 0.160201951861381531 0.139258265495300293 0.027042645961046219 -0.013040505349636078 0.135521948337554932 -0.021016646176576614 0.024655565619468689 0.176924183964729309 -0.095951803028583527 -0.045945215970277786 -0.176402002573013306 -0.105794586241245270 0.139535203576087952 0.113959603011608124 -0.141769573092460632 -0.027240136638283730 0.163982734084129333 -0.169948011636734009 0.119409479200839996 0.083801053464412689 -0.053715754300355911 0.159487739205360413 0.045170042663812637 -0.113319374620914459 -0.138454943895339966 0.132237523794174194 0.154254958033561707 0.096875697374343872 -0.095162242650985718 -0.015695217996835709 0.156242907047271729 -0.000261815264821053 0.148448258638381958 -0.052285727113485336 0.115685753524303436 -0.161127120256423950 -0.168918758630752563 0.114776961505413055 -0.038393191993236542 -0.070163279771804810 0.146314382553100586 0.135368138551712036 -0.147417962551116943 -0.095994353294372559 0.103341005742549896 0.101019769906997681 0.101150169968605042 -0.094142518937587738 -0.153467506170272827 0.048596959561109543 0.143308520317077637 -0.130400657653808594 -0.017751449719071388 0.124250181019306183 -0.083053864538669586 -0.146676108241081238 0.153032481670379639 -0.023679962381720543 -0.029291527345776558 -0.119922503829002380 -0.223779052495956421 0.118399120867252350 0.073878027498722076 -0.028773004189133644 -0.150207325816154480
-0.023538498207926750 0.038667351007461548 0.056320648640394211 -0.032970566302537918 -0.086483828723430634 0.167954608798027039 0.150861710309982300 -0.002350185532122850 -0.116200134158134460 0.020531058311462402 -0.181009754538536072 0.135693222284317017 0.097435593605041504 0.011541794054210186 0.000007986342097865 -0.010934492573142052 0.095966927707195282 -0.116282343864440918 0.000491291168145835 0.064859971404075623 0.093187496066093445 -0.106585018336772919 -0.046029366552829742 0.043061334639787674 -0.123527541756629944 0.032075092196464539 0.089920714497566223 -0.089802265167236328 -0.022308778017759323 0.161250233650207520 -0.157054021954536438 -0.141456589102745056 0.013304100371897221 -0.021355498582124710 -0.059263892471790314 -0.003419653046876192 -0.095176674425601959 -0.055443674325942993 0.035614248365163803 0.097139261662960052 -0.129221186041831970 -0.106487460434436798 0.101344108581542969 -0.184101104736328125 0.083801187574863434 -0.084099948406219482 0.110755279660224915 -0.060684829950332642 -0.180775508284568787 -0.103646747767925262 -0.124522268772125244 0.006822591647505760 0.136806264519691467 -0.055438209325075150 -0.127245008945465088 0.054569892585277557 -0.009153877384960651 -0.126085236668586731 -0.025568062439560890 -0.131226450204849243 0.132585480809211731 0.035471394658088684 0.105226851999759674 0.135760858654975891 -0.139913633465766907 -0.080988369882106781 -0.121537096798419952 -0.133105158805847168 -0.125427246093750000 0.137034550309181213 0.154475867748260498 0.058672931045293808 -0.175224035978317261 0.089358761906623840 -0.039085131138563156 -0.146381884813308716 0.036583036184310913 -0.025315033271908760 0.152841389179229736 -0.095052719116210938 0.055130243301391602 0.004073044750839472 -0.140359535813331604 0.185855820775032043 0.167100146412849426 0.097480230033397675 -0.043492358177900314 -0.061316963285207748 -0.099985703825950623 0.046443235129117966 -0.161565408110618591 0.153700932860374451 -0.027563456445932388 -0.136672213673591614 0.054518073797225952 -0.040348775684833527 0.053643997758626938 0.172483116388320923 0.057252075523138046 0.130942732095718384
-0.007645799778401852 0.168861418962478638 -0.153516009449958801 0.027733147144317627 0.154339388012886047 0.020809264853596687 0.123442597687244415 -0.097639515995979309 -0.018115106970071793 0.050376050174236298 0.030116619542241096 -0.176112741231918335 -0.034269772469997406 0.065399095416069031 -0.068003661930561066 -0.023558972403407097 0.050349168479442596 0.150419965386390686 0.024389289319515228 -0.034676797688007355 0.024972481653094292 -0.123881213366985321 -0.004704498685896397 -0.008924929425120354 -0.107047490775585175 0.090439572930335999 -0.045644603669643402 0.002858033636584878 0.164574488997459412 0.193901181221008301 0.117229238152503967 0.189797401428222656 0.073824577033519745 -0.138591110706329346 0.182384878396987915 -0.020265407860279083 -0.044514801353216171 -0.166385427117347717 0.171601518988609314 0.147212117910385132 0.038487333804368973 0.166085138916969299 0.122639916837215424 -0.021311115473508835 0.136201828718185425 -0.014911839738488197 0.125981077551841736 0.096972003579139709 -0.161560684442520142 -0.110588021576404572 0.146975874900817871 -0.004838930442929268 0.141867384314537048 0.124244756996631622 0.073895797133445740 -0.074831038713455200 0.082503363490104675 0.161905869841575623 -0.146590650081634521 -0.016458570957183838 -0.014520767144858837 0.151286169886589050 -0.026725089177489281 0.073173463344573975 -0.120100930333137512 -0.096094936132431030 0.006932165008038282 -0.029031857848167419 -0.113849155604839325 -0.086076959967613220 -0.143350556492805481 -0.066899657249450684 -0.191047906875610352 0.063320718705654144 0.069422416388988495 -0.126693502068519592 0.010117661207914352 0.063594892621040344 -0.081270918250083923 0.124185152351856232 -0.050292085856199265 0.181017056107521057 -0.150545313954353333 0.100767433643341064 0.031570278108119965 0.021190535277128220 -0.185899525880813599 0.089348509907722473 0.095168143510818481 -0.071191422641277313 0.086625047028064728 0.110418207943439484 0.077308386564254761 -0.114986933767795563 0.087899304926395416 -0.148292347788810730 -0.175321534276008606 0.142105415463447571 0.022648127749562263 -0.181382015347480774
0.072888515889644623 0.176374197006225586 0.122071087360382080 0.096851684153079987 0.196854606270790100 0.069083474576473236 0.148680984973907471 0.019900983199477196 -0.062512926757335663 -0.058722440153360367 -0.005684063769876957 0.124669246375560760 -0.063988342881202698 0.183490172028541565 0.141531825065612793 0.159851610660552979 -0.077704116702079773 -0.053291782736778259 0.089065156877040863 0.119454540312290192 -0.123311668634414673 -0.041515696793794632 0.070278272032737732 0.177976697683334351 0.099793985486030579 0.148290082812309265 -0.164757698774337769 -0.101307913661003113 -0.108599744737148285 -0.039986185729503632 -0.039033401757478714 -0.074643000960350037 0.073424942791461945 0.158321484923362732 -0.015680454671382904 -0.096435807645320892 -0.106416352093219757 -0.058023031800985336 -0.002606533002108335 -0.103723466396331787 -0.185366511344909668 0.096285447478294373 -0.095200084149837494 0.079191409051418304 0.014500541612505913 -0.044981274753808975 0.128174662590026855 0.120035767555236816 0.115379557013511658 0.202201828360557556 -0.057564385235309601 -0.003929341677576303 -0.093683153390884399 -0.161241963505744934 0.012353111989796162 0.034625448286533356 -0.125731363892555237 0.016931412741541862 0.083444178104400635 0.033640336245298386 -0.026284079998731613 0.158788859844207764 0.088980875909328461 0.008913447149097919 -0.025771008804440498 -0.078544676303863525 0.099349685013294220 0.012129530310630798 -0.134450227022171021 -0.044116515666246414 0.004959377460181713 0.127632230520248413 -0.152300059795379639 -0.172951892018318176 0.126724317669868469 -0.142973810434341431 0.168642908334732056 -0.122839309275150299 0.051510661840438843 0.062696702778339386 -0.106147356331348419 0.037529766559600830 -0.019051315262913704 -0.025582075119018555 -0.135313078761100769 0.084531038999557495 -0.043272968381643295 0.108127899467945099 -0.084567986428737640 -0.087611041963100433 -0.124349251389503479 0.128791362047195435 -0.179405972361564636 -0.005330303218215704 0.141529068350791931 0.046321429312229156 -0.031710572540760040 -0.156586065888404846 0.137322634458541870 -0.053728584200143814
0.021901959553360939 0.154535755515098572 0.072444155812263489 0.107474699616432190 -0.125231057405471802 -0.039587434381246567 -0.003595075570046902 0.040242530405521393 0.068061329424381256 -0.033609572798013687 0.032470744103193283 -0.046315960586071014 0.080616042017936707 -0.029909560456871986 -0.093726970255374908 0.115390256047248840 -0.173701971769332886 -0.103620186448097229 0.008697316050529480 -0.055209077894687653 -0.023409262299537659 -0.156589820981025696 0.124605074524879456 0.135293722152709961 0.121142111718654633 -0.006449372973293066 0.165060654282569885 -0.129569217562675476 -0.078944392502307892 -0.151093974709510803 -0.080786108970642090 -0.023740971460938454 0.132377997040748596 0.033653002232313156 -0.028778091073036194 -0.109609603881835938 0.120229624211788177 0.016613475978374481 -0.149973735213279724 -0.055172108113765717 -0.160231530666351318 -0.075140431523323059 -0.154622972011566162 -0.135085791349411011 -0.113357052206993103 0.126568168401718140 0.019515223801136017 0.102604545652866364 0.137458309531211853 -0.019524533301591873 -0.010955897159874439 -0.000148258695844561 -0.046628881245851517 0.083740517497062683 -0.058432459831237793 -0.099013552069664001 0.087582409381866455 0.075486622750759125 -0.008653881028294563 -0.070988960564136505 0.000936751603148878 -0.026854800060391426 -0.067148238420486450 -0.131557539105415344 -0.070811308920383453 0.116922765970230103 0.056120548397302628 -0.058424394577741623 -0.076916076242923737 0.142149120569229126 0.141347587108612061 -0.024904923513531685 0.122782394289970398 0.140563175082206726 -0.137896075844764709 0.057007718831300735 0.093096636235713959 0.051276110112667084 -0.012154107913374901 -0.012861686758697033 0.067654788494110107 -0.075519986450672150 -0.147367626428604126 0.017900872975587845 -0.133680433034896851 0.119087018072605133 0.126399442553520203 0.046923745423555374 -0.104720078408718109 0.061095025390386581 0.151759609580039978 -0.136422336101531982 0.145716875791549683 0.149266257882118225 -0.143358543515205383 0.100244477391242981 0.055722255259752274 0.007186810486018658 -0.121602721512317657 -0.018713545054197311
0.022089459002017975 0.141271308064460754 0.027537841349840164 0.009742518886923790 -0.111461773514747620 0.098610304296016693 0.079307369887828827 -0.089165113866329193 -0.120890893042087555 0.086098559200763702 -0.079133257269859314 -0.049625907093286514 0.083017662167549133 0.156875804066658020 -0.033238038420677185 0.018263440579175949 0.163165420293807983 -0.094292975962162018 -0.115442797541618347 -0.081434212625026703 0.025213330984115601 -0.086406722664833069 -0.100460536777973175 0.117915026843547821 0.170878946781158447 0.192655384540557861 -0.008213523775339127 0.205453783273696899 -0.092268913984298706 -0.107579104602336884 -0.023047266528010368 -0.115301363170146942 -0.084613345563411713 0.044965445995330811 -0.028306417167186737 -0.025231819599866867 0.074523076415061951 -0.088906459510326385 0.143373638391494751 0.147087872028350830 -0.050369616597890854 0.144293874502182007 0.057124916464090347 0.066656008362770081 -0.134733766317367554 -0.166348457336425781 0.142336443066596985 0.077157780528068542 0.189299181103706360 -0.119880005717277527 -0.129143491387367249 -0.102404154837131500 -0.161454871296882629 0.166819483041763306 -0.136903703212738037 -0.037831518799066544 0.003969422075897455 -0.100083991885185242 -0.090163365006446838 -0.071931436657905579 -0.033172342926263809 -0.076567642390727997 0.059452831745147705 0.107101388275623322 0.038184225559234619 0.118320189416408539 -0.189821615815162659 0.082392886281013489 0.150422081351280212 0.034824855625629425 0.018775913864374161 -0.013874294236302376 0.083420157432556152 -0.047117538750171661 0.107351265847682953 0.021011345088481903 -0.125918954610824585 -0.102316141128540039 0.060078930109739304 -0.055312417447566986 -0.150933042168617249 0.079181320965290070 -0.071496881544589996 0.111464567482471466 -0.148450970649719238 -0.123553566634654999 0.127907618880271912 0.048367939889431000 -0.053960837423801422 0.154318511486053467 0.059569071978330612 -0.159330159425735474 0.098883159458637238 0.113521143794059753 -0.223843306303024292 -0.003657657885923982 0.150017738342285156 -0.047232791781425476 -0.139667287468910217 0.096651926636695862
0.079855941236019135 0.029420120641589165 0.076812960207462311 0.104765497148036957 -0.155391171574592590 -0.021633030846714973 0.043448626995086670 0.018105307593941689 0.127770602703094482 0.029560657218098640 -0.046086028218269348 0.143023982644081116 0.092079862952232361 -0.078168861567974091 -0.104162089526653290 -0.164628341794013977 -0.089514844119548798 0.145171314477920532 0.037558063864707947 -0.140821516513824463 -0.092167116701602936 0.015791501849889755 0.016564594581723213 -0.083494968712329865 -0.025506110861897469 0.134496867656707764 0.127253010869026184 -0.126887962222099304 -0.102934993803501129 -0.175033926963806152 -0.065418004989624023 -0.054513670504093170 0.023054348304867744 -0.176533281803131104 -0.102304108440876007 -0.113160811364650726 0.131544917821884155 0.168468475341796875 -0.036399669945240021 0.086002685129642487 0.103539451956748962 -0.124917164444923401 0.169777795672416687 0.051371484994888306 -0.064276829361915588 0.020159440115094185 0.009589409455657005 -0.175362795591354370 0.021363308653235435 -0.106271676719188690 0.082236342132091522 -0.140604585409164429 0.032549433410167694 0.004545630887150764 0.086170338094234467 -0.090873405337333679 0.179769977927207947 0.122797407209873199 0.161165818572044373 -0.010471392422914505 0.154957860708236694 0.037813525646924973 -0.121571913361549377 0.024678930640220642 0.105250477790832520 -0.107681453227996826 -0.127442196011543274 -0.028385151177644730 -0.074279986321926117 0.033951915800571442 -0.108025737106800079 -0.171926602721214294 0.112763769924640656 0.148860186338424683 -0.070269837975502014 0.121110215783119202 0.111344777047634125 -0.017725624144077301 0.052461110055446625 0.047950614243745804 -0.138796702027320862 -0.100186541676521301 -0.119907431304454803 -0.080005593597888947 -0.004913699347525835 0.048179280012845993 0.069094337522983551 -0.071588106453418732 -0.158699631690979004 0.044938866049051285 -0.023942330852150917 0.101163655519485474 0.094768673181533813 -0.013225848786532879 0.135391145944595337 -0.202086761593818665 0.007243968546390533 0.038469910621643066 0.110723130404949188 0.116726860404014587
-0.019463039934635162 -0.118383564054965973 -0.123759530484676361 -0.069924816489219666 0.084761574864387512 0.083512403070926666 -0.052616912871599197 0.047738283872604370 -0.127577185630798340 0.164570227265357971 0.033429026603698730 -0.057957001030445099 -0.106422312557697296 0.148773610591888428 0.069211386144161224 0.070815965533256531 -0.117623753845691681 -0.114014364778995514 0.097451828420162201 0.131254032254219055 0.005107417237013578 -0.144183441996574402 -0.108204387128353119 0.088685147464275360 -0.052113328129053116 -0.139273002743721008 -0.178186267614364624 0.019421959295868874 0.133359506726264954 0.026381693780422211 -0.165372058749198914 0.020834067836403847 0.087835229933261871 0.002721493365243077 0.166171014308929443 -0.103890202939510345 0.046175640076398849 -0.159903019666671753 0.035225052386522293 0.138436451554298401 0.086043655872344971 -0.011554643511772156 -0.048584070056676865 -0.184005022048950195 -0.089694648981094360 0.069197840988636017 -0.004918717313557863 -0.127812564373016357 0.014434475451707840 -0.060940392315387726 0.032802116125822067 0.044444806873798370 0.117918528616428375 0.037862077355384827 -0.046748250722885132 -0.047930009663105011 0.141604483127593994 -0.139604389667510986 -0.076424762606620789 0.124449096620082855 0.109362043440341949 -0.108895614743232727 -0.086179658770561218 -0.076705969870090485 -0.063906215131282806 0.112203262746334076 0.093466244637966156 0.103466160595417023 0.062001325190067291 0.091679066419601440 -0.099821373820304871 -0.122219264507293701 0.028950491920113564 0.141956657171249390 -0.195965558290481567 -0.177102401852607727 -0.048679232597351074 0.159426599740982056 -0.168524354696273804 -0.115817025303840637 -0.107390515506267548 -0.119661353528499603 0.065143600106239319 -0.116404190659523010 -0.150561705231666565 0.006069965194910765 -0.071665950119495392 -0.089223623275756836 0.082125514745712280 0.138865008950233459 -0.118140183389186859 0.039544690400362015 0.058670822530984879 0.151405468583106995 0.175597935914993286 0.042335975915193558 0.152694091200828552 0.181398987770080566 0.109765566885471344 -0.151993244886398315
0.037071742117404938 0.010389408096671104 0.028906710445880890 -0.114894419908523560 0.121021017432212830 -0.000516788510140032 0.022218823432922363 -0.048948064446449280 -0.033990781754255295 0.015803301706910133 -0.010452435351908207 0.011955106630921364 -0.000426239508669823 -0.151698425412178040 -0.185177013278007507 -0.064456820487976074 -0.085991911590099335 -0.135772824287414551 -0.054114773869514465 0.066057339310646057 0.008175321854650974 -0.026680402457714081 0.046290896832942963 -0.073426127433776855 -0.178177699446678162 -0.137003421783447266 0.042938169091939926 0.022501723840832710 0.169120877981185913 -0.113241776823997498 -0.014729239046573639 -0.142814651131629944 -0.125441536307334900 -0.036113917827606201 -0.132294490933418274 0.015901444479823112 -0.089425832033157349 -0.171098083257675171 -0.163475856184959412 0.016973977908492088 0.158548176288604736 -0.170190095901489258 0.079993061721324921 0.018187290057539940 -0.092000745236873627 0.036243576556444168 -0.130220144987106323 -0.004610634408891201 0.018936371430754662 0.051204837858676910 -0.011879900470376015 -0.105388417840003967 0.019194303080439568 -0.000423508812673390 0.085948832333087921 0.001677597756497562 -0.151164993643760681 -0.022081162780523300 -0.014323878102004528 0.080216296017169952 -0.069861970841884613 0.102616138756275177 0.033715769648551941 -0.141262888908386230 -0.035078592598438263 0.084523752331733704 -0.000114576287160162 -0.092568747699260712 0.024429414421319962 0.083541035652160645 0.173584476113319397 0.051225285977125168 -0.123817995190620422 -0.026462746784090996 -0.111928977072238922 -0.043464738875627518 -0.047933589667081833 0.165756925940513611 -0.001427769311703742 0.073338486254215240 0.156510174274444580 -0.019599674269556999 0.038385648280382156 -0.053088329732418060 -0.104478284716606140 -0.007374132052063942 0.066368378698825836 -0.047335326671600342 -0.103077642619609833 -0.069017507135868073 -0.013153301551938057 0.056050147861242294 -0.144536286592483521 0.097342886030673981 0.102088049054145813 0.022129172459244728 0.026548689231276512 -0.139023795723915100 0.084792390465736389 0.021688304841518402
-0.082215160131454468 0.065664917230606079 -0.057119995355606079 -0.049254234880208969 -0.164007335901260376 -0.000207757679163478 0.051526855677366257 -0.086470730602741241 -0.159403920173645020 -0.087262563407421112 -0.065094977617263794 0.164039030671119690 -0.020875198766589165 -0.119662232697010040 0.044335108250379562 -0.103944167494773865 0.132882639765739441 0.022985329851508141 -0.033434256911277771 0.042206015437841415 -0.035075958818197250 -0.074340395629405975 0.104065336287021637 0.021439258009195328 0.152290359139442444 0.005205275490880013 -0.103917658329010010 0.076039589941501617 -0.082055367529392242 0.162631571292877197 0.015753453597426414 -0.011489082127809525 0.085788086056709290 -0.083677463233470917 -0.093805514276027679 -0.012082754634320736 0.140118300914764404 0.098526872694492340 0.078722439706325531 -0.035531975328922272 0.047594375908374786 0.026145698502659798 0.119646571576595306 0.158395171165466309 0.072939187288284302 -0.053532801568508148 -0.072572380304336548 -0.000746488629374653 0.085984699428081512 -0.082382291555404663 0.165987819433212280 0.053279571235179901 0.125976562500000000 0.042149908840656281 0.083223715424537659 0.127294242382049561 0.078682951629161835 -0.107885457575321198 0.082514651119709015 -0.037956550717353821 -0.163130074739456177 -0.167158961296081543 0.036751102656126022 0.135331630706787109 0.143734455108642578 -0.102035738527774811 0.158317700028419495 -0.157218828797340393 -0.140232175588607788 0.034070052206516266 0.035991530865430832 -0.174406200647354126 0.122965350747108459 -0.107311055064201355 -0.062612935900688171 0.096704564988613129 0.099589906632900238 0.089396730065345764 -0.000860837579239160 0.147955775260925293 -0.075953312218189240 -0.176382005214691162 -0.116526022553443909 -0.166215494275093079 0.069865405559539795 -0.161515846848487854 -0.076728224754333496 0.092295460402965546 -0.116234928369522095 -0.093988291919231415 -0.069965131580829620 0.011687401682138443 0.014265167526900768 0.015656575560569763 -0.158896058797836304 -0.007941431365907192 0.074954792857170105 0.084381446242332458 -0.088742338120937347 0.167017206549644470
0.128264069557189941 -0.074358627200126648 0.054282441735267639 0.043303348124027252 -0.014974752441048622 0.000659459154121578 0.121125116944313049 -0.050824545323848724 0.060961589217185974 -0.035880245268344879 -0.102385364472866058 -0.077624917030334473 0.092430606484413147 -0.179376006126403809 0.069422990083694458 0.114976108074188232 -0.153668493032455444 -0.155886530876159668 -0.036845479160547256 -0.020162183791399002 -0.023850373923778534 0.160230100154876709 -0.055918209254741669 -0.049600630998611450 0.156145483255386353 -0.006414781790226698 0.073701038956642151 -0.168176040053367615 0.028345908969640732 -0.014975160360336304 -0.083683423697948456 0.105457291007041931 0.163209944963455200 -0.061152514070272446 0.034441616386175156 0.003196043428033590 0.113933928310871124 0.142031252384185791 -0.154747024178504944 -0.165110677480697632 -0.031257808208465576 -0.150645315647125244 0.026556318625807762 0.161538928747177124 -0.098017796874046326 -0.118365786969661713 0.129460275173187256 -0.050638925284147263 -0.141893997788429260 -0.014260348863899708 0.119485631585121155 -0.146351456642150879 0.074464589357376099 0.157801628112792969 -0.060351897031068802 -0.121769607067108154 0.123208306729793549 0.048135180026292801 0.091593079268932343 0.039261672645807266 0.033272679895162582 -0.012622058391571045 0.151468306779861450 0.156935796141624451 -0.089341886341571808 -0.001889555365778506 -0.108337700366973877 -0.176505774259567261 0.074459083378314972 0.154171869158744812 0.111124716699123383 -0.034247547388076782 0.123095087707042694 -0.001746013644151390 0.195466667413711548 -0.150503516197204590 0.085482113063335419 0.059810947626829147 -0.069851525127887726 -0.025841765105724335 0.090168163180351257 -0.000490020029246807 0.107262156903743744 -0.030986068770289421 -0.079500615596771240 -0.062495026737451553 0.060420587658882141 -0.145833149552345276 -0.154723435640335083 0.062274113297462463 0.112157948315143585 -0.134623378515243530 -0.155649423599243164 -0.163520514965057373 0.077681891620159149 -0.153982952237129211 0.028440579771995544 0.003572897752746940 0.010890360921621323 0.075483128428459167
-0.037121493369340897 0.152777701616287231 -0.045048054307699203 -0.088940583169460297 -0.037787415087223053 -0.057099189609289169 -0.213873162865638733 -0.018532948568463326 0.126606911420822144 -0.296612679958343506 -0.042900577187538147 0.121055804193019867 0.260064989328384399 0.051726050674915314 -0.239861845970153809 0.122876718640327454 -0.058080617338418961 -0.104634404182434082 0.053284380584955215 -0.011362970806658268 -0.293792515993118286 0.220010712742805481 -0.154694110155105591 0.227550372481346130 0.028207216411828995 -0.037101984024047852 -0.110982879996299744 0.032701119780540466 -0.055199697613716125 0.098182015120983124 -0.056434493511915207 0.024857567623257637 -0.148724704980850220 -0.134911581873893738 0.130929544568061829 -0.151094973087310791 0.004344726447016001 -0.080204129219055176 0.088524118065834045 -0.019682431593537331 0.104766353964805603 0.125482589006423950 0.122304700314998627 -0.154034018516540527 -0.021051861345767975 -0.023009564727544785 0.054696489125490189 0.141577839851379395 0.089139886200428009 -0.045832749456167221 0.465831339359283447 0.049792136996984482 -0.061597000807523727 -0.024024868384003639 0.051881503313779831 -0.210606917738914490 -0.051707029342651367 -0.279925823211669922 -0.021213112398982048 0.108066149055957794 -0.010587505996227264 0.194516599178314209 0.117676675319671631 -0.210826680064201355 0.088947921991348267 0.192291259765625000 -0.027653878554701805 -0.097201660275459290 -0.237305328249931335 -0.145699560642242432 -0.259341627359390259 -0.192233860492706299 0.124117285013198853 -0.075675152242183685 -0.172908142209053040 0.063259646296501160 0.193097963929176331 -0.085242502391338348 0.253929257392883301 -0.113523088395595551 -0.201902881264686584 -0.118116527795791626 0.045314457267522812 -0.033839333802461624 -0.270019143819808960 -0.034273255616426468 0.183857128024101257 0.242792189121246338 0.103254489600658417 -0.182454779744148254 0.079599626362323761 -0.017022820189595222 -0.166057571768760681 -0.136197164654731750 0.368088901042938232 0.062834247946739197 -0.088877722620964050 0.056283924728631973 0.192383214831352234 -0.172385782003402710
-0.084356322884559631 0.115221895277500153 -0.046645641326904297 -0.063765734434127808 0.165104538202285767 0.141040071845054626 0.090782299637794495 0.009364142082631588 -0.121659055352210999 0.176388666033744812 0.016190253198146820 0.049228750169277191 0.081003002822399139 -0.039631456136703491 0.046221230179071426 -0.082531742751598358 0.043377935886383057 0.157411724328994751 -0.048890985548496246 0.048764001578092575 -0.052026767283678055 0.052459556609392166 -0.160101637244224548 0.052293810993432999 -0.081963270902633667 0.127884343266487122 -0.150796309113502502 -0.122449509799480438 -0.042720597237348557 0.199524223804473877 -0.041285876184701920 0.074253089725971222 0.148130834102630615 -0.147498831152915955 0.120095714926719666 0.112162530422210693 0.012662789784371853 -0.046841759234666824 -0.155575215816497803 0.041457790881395340 -0.045518178492784500 -0.144504100084304810 0.032982386648654938 -0.103740215301513672 0.138036742806434631 -0.036699082702398300 0.075674667954444885 -0.070940747857093811 -0.134581238031387329 0.104523144662380219 -0.100851707160472870 0.021826833486557007 0.073515564203262329 -0.019037861377000809 0.112714447081089020 -0.187832504510879517 -0.116822339594364166 0.137415200471878052 -0.066980622708797455 -0.151148244738578796 0.089883930981159210 -0.030556572601199150 0.088879711925983429 -0.065041534602642059 0.065661884844303131 0.091547086834907532 0.174797907471656799 0.056570876389741898 0.050178587436676025 0.165914550423622131 -0.135387808084487915 0.154093965888023376 -0.132743015885353088 0.013323772698640823 -0.050389386713504791 -0.139110267162322998 -0.060927595943212509 0.115194320678710938 0.003002873156219721 0.062318287789821625 -0.112180925905704498 0.111280381679534912 0.056418899446725845 0.137670904397964478 0.039289694279432297 -0.117488414049148560 -0.163939207792282104 0.007796934805810452 0.131701841950416565 -0.137600839138031006 -0.105291225016117096 -0.075450666248798370 -0.079536803066730499 -0.018850632011890411 -0.169993326067924500 -0.015118611045181751 -0.099709048867225647 0.026312068104743958 -0.096571318805217743 0.017037300392985344
0.137985810637474060 -0.077684797346591949 0.001382833579555154 0.149491086602210999 0.173599258065223694 0.038733713328838348 -0.029142128303647041 -0.162181764841079712 0.136835172772407532 -0.057965792715549469 0.127019852399826050 -0.179525524377822876 0.115731157362461090 -0.035546667873859406 -0.125551447272300720 0.009471050463616848 -0.196025982499122620 0.144327506422996521 0.191781952977180481 -0.091039031744003296 0.070600107312202454 0.106979221105575562 0.120203621685504913 -0.038857646286487579 0.024351323023438454 -0.152693256735801697 -0.034158062189817429 0.086926400661468506 0.105895318090915680 0.159023210406303406 -0.016935136169195175 0.205951318144798279 0.034012574702501297 0.175812512636184692 0.144635096192359924 0.039817046374082565 0.032771859318017960 0.019223928451538086 0.066026717424392700 0.129733487963676453 -0.102201335132122040 0.101114675402641296 -0.069012783467769623 -0.063775271177291870 -0.039620384573936462 -0.078568369150161743 0.106280602514743805 -0.080378159880638123 -0.106645144522190094 0.149479329586029053 0.044136952608823776 -0.179549813270568848 0.124721430242061615 -0.246764987707138062 -0.146342664957046509 0.087049953639507294 -0.006253398023545742 0.047736108303070068 0.178580150008201599 0.102802947163581848 -0.102189697325229645 0.176374897360801697 -0.149585783481597900 -0.079205960035324097 -0.158818811178207397 0.149658650159835815 0.171029627323150635 -0.067865632474422455 -0.059613876044750214 -0.007460684515535831 -0.101816281676292419 -0.124304465949535370 -0.101409569382667542 0.020312348380684853 -0.067139245569705963 0.056005980819463730 0.159583449363708496 0.078699171543121338 0.018484460189938545 -0.017232451587915421 0.115648627281188965 -0.082346089184284210 0.045541308820247650 -0.129280433058738708 0.058702148497104645 0.074490055441856384 -0.176026329398155212 0.106798224151134491 0.178641021251678467 -0.222102537751197815 0.081675879657268524 -0.095247462391853333 0.071282766759395599 0.115175910294055939 0.097345240414142609 -0.143485277891159058 0.075063034892082214 0.159234106540679932 -0.060384888201951981 0.005550784524530172
-0.061683502048254013 0.027260789647698402 0.164259150624275208 -0.059247810393571854 -0.139035776257514954 0.110318928956985474 -0.071957930922508240 0.080298125743865967 0.001000068732537329 0.093380182981491089 -0.053389538079500198 0.111391715705394745 0.094001956284046173 -0.083690047264099121 0.131431058049201965 -0.009586374275386333 0.068367488682270050 -0.059157945215702057 -0.006383800879120827 -0.004916604608297348 -0.095719851553440094 0.045676197856664658 0.040217187255620956 -0.040467504411935806 -0.117226667702198029 0.011481961235404015 0.134640008211135864 0.147855624556541443 -0.180401772260665894 0.131816059350967407 0.035665150731801987 -0.107702963054180145 -0.136835381388664246 -0.106688082218170166 -0.008003451861441135 -0.077956870198249817 0.099736861884593964 0.102725043892860413 -0.042547468096017838 -0.150303870439529419 -0.121895126998424530 -0.115630291402339935 -0.156794488430023193 -0.027672568336129189 -0.003269418841227889 0.007734480779618025 0.100949808955192566 -0.166254609823226929 0.004984327126294374 -0.132129162549972534 -0.008244032971560955 0.002022188389673829 -0.099203437566757202 0.096058249473571777 0.125395923852920532 -0.148545145988464355 -0.076467610895633698 -0.104372777044773102 -0.005878707859665155 -0.017135221511125565 0.041833143681287766 0.032156199216842651 0.059299800544977188 0.093019418418407440 -0.112185105681419373 -0.154594570398330688 0.024667128920555115 -0.042855992913246155 -0.097613841295242310 0.033568106591701508 0.036373507231473923 0.108853287994861603 0.090579695999622345 -0.072697713971138000 0.102300472557544708 -0.023770684376358986 0.034398004412651062 -0.024491453543305397 0.044857773929834366 -0.162013769149780273 -0.125460565090179443 0.156109124422073364 -0.004323877394199371 -0.060826446861028671 0.008030798286199570 0.020525155588984489 -0.094611868262290955 0.169444277882575989 -0.071134932339191437 -0.055800572037696838 -0.049113448709249496 -0.137134537100791931 0.094625584781169891 -0.120220839977264404 0.078748144209384918 0.068598113954067230 -0.012166875414550304 -0.149928495287895203 0.080109603703022003 -0.091994419693946838
0.003724893787875772 -0.098524115979671478 0.051401011645793915 0.138391137123107910 -0.020096614956855774 0.074450552463531494 0.047410313040018082 0.077455960214138031 0.165278404951095581 0.255191564559936523 0.022004861384630203 -0.091440834105014801 -0.136426299810409546 -0.155922025442123413 -0.011205777525901794 -0.019649541005492210 -0.070172287523746490 0.181532844901084900 0.004668566863983870 -0.099486790597438812 0.003361040726304054 -0.197924256324768066 -0.000926593493204564 -0.167029753327369690 -0.183057531714439392 0.108328245580196381 -0.032770104706287384 -0.217345252633094788 0.106916390359401703 0.047123324126005173 0.134968489408493042 -0.115885712206363678 -0.087879218161106110 0.160644203424453735 -0.145849406719207764 -0.071537300944328308 -0.070649191737174988 0.036666564643383026 0.114750541746616364 -0.130152359604835510 -0.059595108032226562 -0.074966177344322205 0.024457091465592384 0.135015219449996948 -0.022332433611154556 0.117948383092880249 -0.119288764894008636 -0.094363063573837280 -0.100082866847515106 0.091550610959529877 -0.197792857885360718 0.081253863871097565 0.149831667542457581 0.053469490259885788 -0.071568287909030914 -0.010611127130687237 0.038416292518377304 0.150556772947311401 0.016317525878548622 -0.099954701960086823 0.148910477757453918 0.005038766190409660 -0.129226803779602051 -0.164586529135704041 0.132378995418548584 0.022545695304870605 -0.016202706843614578 -0.094707593321800232 0.011014546267688274 0.153082251548767090 -0.137940004467964172 -0.116014547646045685 -0.123229950666427612 0.059249423444271088 -0.066078111529350281 -0.125937789678573608 -0.161803752183914185 0.126563578844070435 -0.085106737911701202 -0.133971378207206726 -0.167856305837631226 0.072256267070770264 -0.161683276295661926 -0.144410923123359680 0.215975910425186157 -0.120343953371047974 -0.028982516378164291 -0.060634247958660126 -0.137730315327644348 0.015180930495262146 0.148213490843772888 -0.002758448477834463 -0.068926118314266205 0.183483019471168518 0.062644027173519135 0.147734805941581726 -0.027487905696034431 -0.084442876279354095 0.048209566622972488 0.005691546946763992
0.003069655504077673 0.155444800853729248 -0.001835574395954609 0.098903886973857880 0.075347639620304108 -0.103296436369419098 -0.179706573486328125 -0.037387605756521225 0.068090073764324188 -0.025457257404923439 -0.102159701287746429 0.080243147909641266 0.148239105939865112 -0.154398009181022644 0.162086665630340576 -0.131341233849525452 0.083145752549171448 0.124515980482101440 -0.097442105412483215 -0.103684075176715851 -0.036654848605394363 0.085516721010208130 0.075871191918849945 0.064161635935306549 0.099913403391838074 0.179421186447143555 0.052285037934780121 0.088665209710597992 0.148244932293891907 0.096245147287845612 0.179212734103202820 0.060945451259613037 -0.078909426927566528 -0.201448351144790649 0.140050575137138367 0.058181948959827423 -0.124780341982841492 -0.080330960452556610 -0.110435284674167633 0.052095741033554077 0.056914281100034714 0.118903689086437225 0.033664654940366745 -0.117318272590637207 0.104826942086219788 -0.045560207217931747 -0.161131218075752258 0.055995550006628036 0.117773182690143585 -0.107847586274147034 -0.147958517074584961 -0.134268626570701599 -0.139461666345596313 0.161150023341178894 -0.173181831836700439 -0.013646651990711689 -0.144888758659362793 -0.117937654256820679 0.029985841363668442 -0.026214288547635078 -0.138550311326980591 -0.023272791877388954 -0.059902176260948181 0.130418464541435242 0.097443833947181702 -0.157500118017196655 -0.162222951650619507 -0.106850676238536835 -0.126264616847038269 0.069138087332248688 0.050241190940141678 -0.114733487367630005 0.145587548613548279 0.177018642425537109 0.062925994396209717 -0.008051670156419277 -0.008000458590686321 0.046762350946664810 -0.120683722198009491 0.116824306547641754 0.072946086525917053 -0.164322257041931152 -0.065854638814926147 -0.029923764988780022 0.142295405268669128 -0.026103576645255089 -0.017180014401674271 0.075215086340904236 -0.117656514048576355 0.111664935946464539 -0.127631559967994690 0.045601509511470795 -0.164836585521697998 -0.168115794658660889 -0.014095329679548740 -0.169297680258750916 -0.057176146656274796 -0.020008677616715431 0.046307619661092758 0.107200488448143005
-0.037264682352542877 0.114944636821746826 -0.022099621593952179 -0.110039696097373962 -0.166210070252418518 -0.124717295169830322 -0.108389265835285187 0.002119729993864894 0.126425683498382568 -0.115211546421051025 -0.089701503515243530 -0.063406668603420258 0.111127451062202454 0.096872501075267792 -0.138275712728500366 -0.010236157104372978 0.137265071272850037 0.038156144320964813 -0.122093722224235535 -0.042232330888509750 -0.055558227002620697 -0.086114928126335144 0.079302474856376648 -0.145320579409599304 0.000235254396102391 -0.015264715068042278 0.082137830555438995 0.198680743575096130 -0.124066665768623352 -0.119023256003856659 -0.110198825597763062 -0.120886631309986115 0.023728359490633011 -0.112859144806861877 -0.010588585399091244 -0.197481676936149597 -0.036136176437139511 -0.104378037154674530 -0.067988127470016479 0.077755659818649292 -0.124568693339824677 0.001340288901701570 -0.005949580110609531 0.122538410127162933 0.076572507619857788 0.065593123435974121 0.106672018766403198 0.071868613362312317 -0.126928806304931641 -0.009434150531888008 0.138299539685249329 -0.057048890739679337 0.141642987728118896 0.186199799180030823 -0.157173365354537964 -0.141136944293975830 -0.078438572585582733 0.069546557962894440 0.142038121819496155 -0.103985436260700226 -0.119051679968833923 -0.181726485490798950 -0.035340409725904465 -0.000329785718349740 -0.027564633637666702 -0.091028690338134766 -0.052222132682800293 -0.152830883860588074 -0.069908604025840759 0.128762707114219666 0.014999188482761383 0.146323040127754211 -0.057266999036073685 0.062238089740276337 0.029637238010764122 -0.165521815419197083 0.066080652177333832 0.036648951470851898 0.132199257612228394 0.176933124661445618 -0.149174869060516357 -0.104182206094264984 -0.008371558971703053 -0.086622506380081177 -0.034902065992355347 -0.126455068588256836 0.079482749104499817 0.162519112229347229 -0.022413067519664764 0.145496085286140442 0.115405879914760590 -0.174751847982406616 0.024232041090726852 0.157937422394752502 -0.062421310693025589 -0.090928092598915100 0.057250231504440308 -0.117350883781909943 0.054902382194995880 -0.122600957751274109
0.079663351178169250 0.037027664482593536 0.158342123031616211 0.094972185790538788 -0.132985398173332214 -0.110971815884113312 -0.133133858442306519 0.114960782229900360 -0.158618539571762085 0.013429314829409122 -0.116927817463874817 0.120096243917942047 -0.067392803728580475 0.067117169499397278 0.111092425882816315 -0.001894446671940386 0.115236610174179077 0.146398827433586121 -0.045842468738555908 0.136689290404319763 0.072720162570476532 -0.000163451448315755 0.011641640216112137 0.120150208473205566 -0.170138239860534668 -0.028252957388758659 -0.074188582599163055 -0.010347726754844189 0.193196773529052734 0.103971153497695923 0.067429959774017334 0.139371097087860107 0.138345912098884583 -0.117506429553031921 -0.015843136236071587 -0.155634611845016479 -0.101431086659431458 -0.077858835458755493 0.042854234576225281 0.043171837925910950 0.036566078662872314 -0.027963791042566299 0.047017261385917664 -0.166609883308410645 -0.170775070786476135 0.048201933503150940 0.017559072002768517 0.064851999282836914 0.036733783781528473 -0.133932828903198242 -0.098691575229167938 -0.111290372908115387 0.170679330825805664 -0.203848838806152344 0.033004201948642731 -0.040925707668066025 -0.000616524659562856 -0.028404584154486656 -0.132474392652511597 0.041675273329019547 0.029363352805376053 -0.002525470452383161 0.021400529891252518 0.127450361847877502 -0.143008500337600708 0.048560738563537598 -0.009367698803544044 -0.133467033505439758 -0.151025474071502686 0.127351105213165283 0.004770721774548292 -0.040133006870746613 -0.128160327672958374 -0.067469015717506409 0.139679268002510071 -0.085404895246028900 0.096071064472198486 -0.072535879909992218 -0.133894175291061401 -0.098306737840175629 0.142184048891067505 0.000893962569534779 0.154056012630462646 -0.073310688138008118 -0.141786292195320129 -0.077347248792648315 -0.071864888072013855 0.049159858375787735 -0.136560350656509399 0.057957276701927185 0.040654420852661133 -0.077215217053890228 0.157693922519683838 0.060742322355508804 0.093607589602470398 0.121512256562709808 -0.122588396072387695 -0.052214283496141434 -0.088423393666744232 -0.049850691109895706
-0.023347493261098862 -0.100781269371509552 0.155607700347900391 -0.140891268849372864 -0.017180878669023514 -0.166659325361251831 -0.062455948442220688 0.088961690664291382 -0.181405112147331238 -0.045329820364713669 -0.175228759646415710 -0.051097139716148376 -0.093245394527912140 0.167061865329742432 -0.115446120500564575 0.088146075606346130 0.025164602324366570 0.075109399855136871 -0.126605480909347534 0.099225468933582306 -0.103762097656726837 -0.093587584793567657 -0.131602764129638672 -0.076170988380908966 -0.179948523640632629 0.110928438603878021 -0.144405648112297058 0.161996945738792419 0.154684603214263916 0.157270461320877075 -0.103790462017059326 0.000456464505987242 -0.162764474749565125 -0.089252084493637085 0.083447583019733429 0.002215962158516049 0.045203249901533127 -0.188839331269264221 -0.051511637866497040 0.054424922913312912 -0.078948341310024261 -0.148602306842803955 0.104499973356723785 0.088216900825500488 0.086099199950695038 0.190967738628387451 0.008547724224627018 0.155340582132339478 0.064147755503654480 -0.078037239611148834 -0.017930472269654274 -0.148418009281158447 0.175288990139961243 0.083096630871295929 0.171967089176177979 -0.174641370773315430 -0.147184550762176514 -0.063165023922920227 -0.069446064531803131 -0.110404066741466522 -0.015989085659384727 0.027023993432521820 -0.121185287833213806 0.089947797358036041 0.018857993185520172 0.017735606059432030 0.011594987474381924 0.037447776645421982 0.057254806160926819 -0.073386758565902710 0.055417116731405258 -0.092561095952987671 -0.249851733446121216 -0.164428755640983582 0.003325840923935175 -0.056478176265954971 0.134277373552322388 0.041827052831649780 -0.141039595007896423 -0.156919911503791809 0.081302084028720856 0.108369939029216766 0.117786385118961334 0.096038460731506348 0.061771910637617111 -0.056786470115184784 0.060964841395616531 0.136907562613487244 -0.041044589132070541 -0.138202846050262451 0.155090451240539551 -0.125588372349739075 -0.091395400464534760 -0.150259003043174744 0.059731397777795792 0.024373654276132584 -0.065716080367565155 -0.074990749359130859 0.027699261903762817 0.014404008165001869
0.090615823864936829 0.052887659519910812 -0.141953870654106140 0.008818722330033779 0.148941695690155029 0.065743871033191681 0.129869908094406128 -0.118912495672702789 -0.068181619048118591 -0.050518624484539032 -0.057864628732204437 0.050265684723854065 -0.154816389083862305 -0.076035574078559875 -0.070149905979633331 0.118257179856300354 0.028746329247951508 -0.117296293377876282 0.043958187103271484 0.012330335564911366 0.056940093636512756 -0.048614718019962311 0.073332376778125763 -0.139592945575714111 0.098686873912811279 0.089267931878566742 -0.174366921186447144 -0.099862277507781982 -0.070951394736766815 0.053885392844676971 -0.095744833350181580 0.179836273193359375 -0.108605980873107910 0.145863011479377747 -0.092182792723178864 -0.041730385273694992 -0.148046031594276428 -0.051669050008058548 -0.142899081110954285 0.154659822583198547 0.098214499652385712 -0.089337959885597229 0.159880697727203369 -0.097672790288925171 0.110291309654712677 0.133142933249473572 -0.146323353052139282 0.146529778838157654 -0.113218724727630615 -0.009064102545380592 0.084519937634468079 -0.068009935319423676 0.024333270266652107 0.016040198504924774 -0.077088236808776855 -0.140163511037826538 0.133662313222885132 -0.135627910494804382 -0.035732679069042206 -0.080238804221153259 0.005708605516701937 0.182081282138824463 -0.101907134056091309 -0.087208628654479980 0.127649173140525818 -0.058343004435300827 -0.130729824304580688 0.025873985141515732 -0.113266758620738983 0.081141315400600433 -0.063636787235736847 0.047992099076509476 -0.149140954017639160 -0.136278122663497925 -0.106616698205471039 0.006092160008847713 -0.052692096680402756 -0.140132531523704529 -0.113039411604404449 -0.027354586869478226 -0.044935658574104309 -0.024976721033453941 0.154914528131484985 -0.015502925030887127 -0.012277600355446339 0.137336909770965576 -0.122932307422161102 -0.019241044297814369 0.097523123025894165 -0.052012912929058075 -0.104454949498176575 0.013487165793776512 -0.012703030370175838 -0.056081291288137436 0.083053335547447205 0.167972147464752197 -0.032342817634344101 -0.127328366041183472 0.073728188872337341 0.040525797754526138
-0.072580322623252869 -0.006586252246052027 0.142296388745307922 0.003791222581639886 -0.028079293668270111 -0.009670902974903584 0.135427042841911316 -0.181919783353805542 0.093735761940479279 -0.012439393438398838 0.113200858235359192 0.012460780330002308 0.032058395445346832 -0.135444566607475281 -0.091155417263507843 -0.158257797360420227 -0.017483681440353394 0.096553683280944824 -0.141845688223838806 0.025299625471234322 0.080975539982318878 -0.092198103666305542 -0.024428449571132660 -0.046134389936923981 0.052395045757293701 0.128836289048194885 0.086013354361057281 -0.135422796010971069 -0.084408067166805267 -0.125908911228179932 0.067895099520683289 -0.176886156201362610 0.060115948319435120 -0.080110654234886169 0.098206222057342529 -0.155610918998718262 0.150782927870750427 -0.026185359805822372 -0.016575025394558907 0.000046096080041025 0.065885290503501892 0.070336140692234039 0.186541572213172913 0.130019173026084900 0.039037108421325684 0.107645899057388306 0.180604785680770874 0.133812710642814636 -0.015085676684975624 0.015473308041691780 0.069241866469383240 0.113490112125873566 0.045139636844396591 0.046387139707803726 -0.162711277604103088 -0.117844261229038239 0.139942586421966553 -0.149467408657073975 0.097272790968418121 0.124271228909492493 -0.172602519392967224 0.106133431196212769 -0.092499122023582458 -0.073040187358856201 0.051527153700590134 -0.079066485166549683 -0.150565624237060547 -0.096903614699840546 -0.101411096751689911 -0.078510507941246033 -0.061848722398281097 0.034675046801567078 0.229658782482147217 0.051701657474040985 -0.156228214502334595 0.166798219084739685 0.066338717937469482 -0.012834722176194191 -0.112648777663707733 0.086943812668323517 0.126133099198341370 0.092324852943420410 0.136920869350433350 -0.050291191786527634 -0.164121687412261963 0.095758378505706787 -0.006124057341367006 -0.090611785650253296 0.068743467330932617 0.010794915258884430 -0.033705763518810272 -0.015594929456710815 -0.105521477758884430 0.125942245125770569 -0.037432607263326645 -0.070991307497024536 -0.098638527095317841 -0.138134479522705078 -0.009414997883141041 0.135208621621131897
-0.153004050254821777 0.037580441683530807 -0.059537220746278763 0.031768597662448883 0.119012787938117981 -0.025457981973886490 0.040168404579162598 -0.144218936562538147 0.126788184046745300 -0.033808156847953796 -0.193703934550285339 0.035662356764078140 0.124177031219005585 -0.116503722965717316 -0.026436593383550644 0.063177965581417084 0.078385889530181885 0.161307677626609802 0.018205249682068825 -0.151694625616073608 -0.165037587285041809 -0.080611787736415863 0.040708612650632858 -0.156492799520492554 -0.120881199836730957 -0.163274645805358887 0.031042754650115967 0.100089281797409058 -0.050490360707044601 0.018154410645365715 0.002708347514271736 -0.001390515477396548 -0.009047167375683784 0.175812199711799622 0.136886164546012878 0.009020538069307804 0.129373550415039062 -0.149170339107513428 0.063138201832771301 -0.010643997229635715 -0.058872032910585403 0.137692600488662720 -0.183832019567489624 0.086237750947475433 -0.018810747191309929 0.161153614521026611 0.132833674550056458 -0.045376591384410858 -0.132728815078735352 0.180155515670776367 -0.034460999071598053 0.100551657378673553 0.020515929907560349 0.090376116335391998 -0.150661468505859375 -0.003032613312825561 -0.135556325316429138 -0.007876302115619183 -0.131954237818717957 0.080069512128829956 -0.013310174457728863 -0.108527593314647675 -0.088283352553844452 -0.063282072544097900 -0.091965891420841217 -0.148709803819656372 0.066960386931896210 0.172992676496505737 0.128902226686477661 -0.031146166846156120 0.057319231331348419 0.027897866442799568 -0.130008086562156677 -0.005578450858592987 -0.023037614300847054 -0.009530362673103809 0.075533308088779449 -0.078845947980880737 -0.025202767923474312 -0.158842042088508606 -0.086878694593906403 -0.098234929144382477 0.130040735006332397 0.145286932587623596 -0.106823377311229706 -0.169606238603591919 -0.067659817636013031 -0.110653713345527649 0.172124937176704407 -0.157132700085639954 0.098779417574405670 -0.015803428366780281 -0.159409165382385254 -0.071384273469448090 -0.063920848071575165 0.145718291401863098 -0.108718030154705048 -0.006274046842008829 0.089526869356632233 -0.053915601223707199
-0.087354108691215515 0.115898042917251587 -0.050287373363971710 0.147992983460426331 0.106425501406192780 0.088798470795154572 -0.001233696239069104 0.036246307194232941 -0.134853795170783997 -0.118688084185123444 -0.036616988480091095 -0.067690856754779816 -0.034032031893730164 -0.046584930270910263 -0.137174367904663086 -0.050842367112636566 -0.094906970858573914 0.004440763033926487 -0.005663579329848289 -0.116200909018516541 -0.133154511451721191 -0.021966923028230667 0.074849873781204224 0.170891314744949341 -0.035346150398254395 -0.079184219241142273 0.020280430093407631 -0.150037512183189392 0.159592911601066589 0.088437095284461975 0.099202185869216919 0.069485738873481750 -0.104757286608219147 -0.064558528363704681 0.067282795906066895 0.084244489669799805 0.017909666523337364 0.088259130716323853 -0.134126543998718262 0.105264119803905487 -0.088313117623329163 0.090289101004600525 0.056043654680252075 0.134471625089645386 -0.145432785153388977 -0.037099782377481461 0.013836598023772240 -0.145885109901428223 0.012440208345651627 0.005018908530473709 -0.031018478795886040 -0.157889589667320251 0.030774228274822235 0.014923813752830029 0.069916360080242157 -0.056013423949480057 -0.031383741647005081 0.062118858098983765 -0.077761083841323853 -0.098106831312179565 0.132786095142364502 -0.098359107971191406 -0.103678673505783081 0.008049564436078072 -0.056459117680788040 -0.103603854775428772 0.021510010585188866 -0.116625666618347168 -0.004380649421364069 -0.168717965483665466 -0.044444553554058075 -0.148376718163490295 -0.240556269884109497 -0.119915060698986053 0.111451312899589539 0.022826274856925011 0.143217772245407104 0.109700880944728851 -0.087903894484043121 0.113079592585563660 0.094409242272377014 0.038007091730833054 -0.012702747248113155 -0.015394950285553932 0.036829527467489243 -0.179352819919586182 0.110597185790538788 0.080685019493103027 0.054162442684173584 -0.056432019919157028 -0.135260596871376038 0.068583503365516663 0.123301185667514801 0.096504718065261841 0.105799481272697449 -0.052009660750627518 -0.175844743847846985 -0.017117878422141075 0.179293617606163025 -0.169516056776046753
-0.108961135149002075 0.028062924742698669 0.119418099522590637 -0.074046894907951355 0.145532414317131042 0.043587096035480499 -0.007937245070934296 -0.083786979317665100 0.165170341730117798 -0.134486004710197449 -0.010020584799349308 0.060088522732257843 0.013387864455580711 0.113617107272148132 -0.015526847913861275 0.150188341736793518 0.040644381195306778 -0.031733464449644089 0.122608810663223267 -0.032928146421909332 -0.040683738887310028 0.110787093639373779 -0.041659750044345856 0.088703289628028870 0.120884194970130920 0.012074249796569347 -0.158345714211463928 0.157342165708541870 0.155706182122230530 0.011992624029517174 -0.044659614562988281 0.114315874874591827 0.094262033700942993 0.040170684456825256 0.147209450602531433 -0.137193143367767334 0.026998901739716530 0.144369840621948242 -0.052004415541887283 -0.087287776172161102 0.045162778347730637 -0.164747774600982666 -0.034761000424623489 0.032872989773750305 -0.009014848619699478 0.181245893239974976 -0.187174126505851746 -0.116484768688678741 0.159416124224662781 0.061677567660808563 0.010453016497194767 -0.101466260850429535 -0.138523519039154053 0.052099630236625671 0.041631441563367844 -0.012954518198966980 0.020523017272353172 0.034788347780704498 0.108872659504413605 0.050839055329561234 0.065713927149772644 -0.067389830946922302 -0.052256081253290176 -0.007621755357831717 0.076284021139144897 -0.115635193884372711 -0.179427221417427063 0.118479751050472260 0.142266348004341125 0.154559522867202759 0.185851976275444031 0.001492250361479819 0.064242094755172729 0.148798316717147827 -0.022124404087662697 -0.062946356832981110 0.160385265946388245 0.126524522900581360 0.119855195283889771 0.006841436959803104 -0.144775062799453735 -0.006557242479175329 0.064113907516002655 -0.019689192995429039 -0.076828151941299438 0.041933894157409668 0.076925434172153473 0.100584767758846283 0.184396311640739441 0.067794963717460632 -0.023125613108277321 -0.029768688604235649 -0.021187942475080490 -0.057127982378005981 0.137258082628250122 0.105739690363407135 -0.084978915750980377 0.045911736786365509 0.104853421449661255 0.007626011036336422
0.127515926957130432 0.087115645408630371 0.134823963046073914 -0.106936298310756683 -0.012053492479026318 -0.077529445290565491 0.122072495520114899 -0.098037190735340118 -0.084182299673557281 0.123812310397624969 -0.094495840370655060 -0.090690240263938904 0.011197794228792191 -0.158085018396377563 -0.172226250171661377 0.161694362759590149 0.092558406293392181 -0.099038958549499512 -0.055750481784343719 -0.140227138996124268 -0.134908348321914673 -0.089080840349197388 0.029003264382481575 0.121794946491718292 -0.134752139449119568 -0.116239652037620544 -0.084919966757297516 0.075120732188224792 -0.123096346855163574 0.107004716992378235 0.176131412386894226 0.065290883183479309 0.129759654402732849 -0.155573859810829163 0.124871410429477692 0.119936130940914154 0.174195975065231323 -0.069469906389713287 0.107432447373867035 0.014945263043045998 0.152993917465209961 -0.010174600407481194 0.061857517808675766 -0.007405729964375496 0.038706269115209579 -0.177331626415252686 0.079073235392570496 -0.164656966924667358 0.120967589318752289 -0.192251250147819519 -0.145885288715362549 -0.032816756516695023 -0.034794732928276062 -0.150667011737823486 -0.102817848324775696 -0.104515500366687775 -0.010376119986176491 0.129083886742591858 0.093835562467575073 0.100827224552631378 -0.151310816407203674 -0.120177648961544037 -0.030381856486201286 0.002648337744176388 0.099121354520320892 0.110313013195991516 -0.180576816201210022 0.140152677893638611 0.004019392188638449 0.013593490235507488 0.080822169780731201 -0.169605031609535217 0.073580265045166016 -0.093473687767982483 -0.027082636952400208 0.096663117408752441 -0.065765574574470520 -0.023652028292417526 -0.038795068860054016 0.158338189125061035 -0.064206823706626892 0.046273313462734222 -0.162581920623779297 0.003739830804988742 0.189628183841705322 0.139259621500968933 -0.091201238334178925 0.073190368711948395 -0.175781652331352234 0.017143275588750839 0.039437312632799149 0.129976406693458557 0.165451005101203918 -0.158920764923095703 0.082650139927864075 -0.179269030690193176 -0.029799504205584526 -0.128967657685279846 -0.043363414704799652 -0.063841760158538818
-0.122969083487987518 0.145120158791542053 -0.107740193605422974 0.002800743328407407 -0.130440533161163330 -0.041186552494764328 -0.166464656591415405 0.017831068485975266 -0.027409287169575691 -0.166219949722290039 -0.095006972551345825 0.014262003824114799 -0.039267692714929581 -0.006793857552111149 0.072507165372371674 -0.016105357557535172 0.132967129349708557 0.102696068584918976 -0.099024176597595215 0.053989127278327942 0.004172842483967543 0.090820141136646271 -0.155404552817344666 -0.077155284583568573 -0.175299555063247681 -0.044309258460998535 -0.165043577551841736 0.156902447342872620 -0.008925775997340679 0.129664719104766846 -0.066394649446010590 -0.098033577203750610 -0.017842788249254227 0.138541951775550842 -0.030355567112565041 -0.039338428527116776 -0.027619961649179459 -0.122697211802005768 -0.056814741343259811 -0.085887901484966278 -0.010095724835991859 -0.104329809546470642 -0.100919745862483978 -0.033664721995592117 -0.101825505495071411 -0.062851436436176300 0.132668599486351013 -0.126112222671508789 0.104373052716255188 0.001997439889237285 -0.050448879599571228 -0.044850803911685944 0.097611404955387115 -0.042430680245161057 0.145905762910842896 0.103364504873752594 0.065992049872875214 -0.045781381428241730 0.034560494124889374 0.100686281919479370 -0.130513995885848999 -0.133245512843132019 -0.024138366803526878 0.052931755781173706 -0.025614442303776741 -0.011090657673776150 0.099312439560890198 0.124355241656303406 0.021505605429410934 0.173838302493095398 -0.006661997176706791 0.020004786550998688 -0.028632951900362968 0.079178668558597565 0.072646342217922211 0.070676617324352264 0.069579921662807465 -0.046355344355106354 0.020331472158432007 0.099411219358444214 -0.045105110853910446 0.104131676256656647 -0.115771658718585968 0.011776232160627842 0.097607322037220001 0.098528876900672913 -0.062838286161422729 0.159356012940406799 0.072288386523723602 0.128918528556823730 -0.094087950885295868 -0.103112757205963135 -0.166475027799606323 0.083663374185562134 -0.004767824430018663 0.028824854642152786 0.105996280908584595 0.083625920116901398 -0.044918809086084366 0.064991943538188934
-0.059919197112321854 0.116351917386054993 0.046261258423328400 0.070425346493721008 -0.057675275951623917 0.048563003540039062 -0.038145024329423904 0.142802283167839050 -0.131757095456123352 -0.146428421139717102 0.164915472269058228 -0.072650536894798279 0.149548351764678955 0.131389394402503967 -0.056301277130842209 -0.081167556345462799 0.085285402834415436 -0.123136840760707855 -0.110028311610221863 0.069446608424186707 -0.056857958436012268 -0.072255127131938934 -0.116718456149101257 -0.117653682827949524 0.113397292792797089 0.050179164856672287 0.019146434962749481 0.109488181769847870 -0.161991834640502930 -0.007290639448910952 -0.022334605455398560 0.042298212647438049 0.080893278121948242 0.054762318730354309 0.149953588843345642 0.083571001887321472 -0.135783478617668152 -0.039232928305864334 -0.162312269210815430 -0.080955244600772858 0.066528312861919403 -0.065611720085144043 0.107070438563823700 0.098697356879711151 -0.132705375552177429 0.003627048339694738 0.188779726624488831 -0.032932233065366745 0.107273727655410767 -0.140304908156394958 0.010170931927859783 -0.056609157472848892 0.162518784403800964 0.059597581624984741 0.055308770388364792 -0.080498844385147095 0.125582784414291382 -0.153825938701629639 -0.106106594204902649 -0.153999060392379761 -0.012922382913529873 0.074511624872684479 0.065994165837764740 0.139320388436317444 -0.005465430673211813 -0.084655091166496277 -0.062555573880672455 -0.161751255393028259 0.035031821578741074 0.014923324808478355 0.159934431314468384 -0.087922647595405579 0.149445667862892151 0.072247259318828583 -0.145925223827362061 0.027972113341093063 0.095093943178653717 0.010494613088667393 -0.006975152064114809 -0.133502408862113953 0.036454781889915466 -0.044402331113815308 -0.095636732876300812 0.030692482367157936 -0.180475383996963501 0.008304934948682785 0.145260587334632874 -0.104138538241386414 0.034728765487670898 -0.049101147800683975 -0.108039371669292450 0.045677635818719864 0.165188297629356384 -0.010156866163015366 0.012868966907262802 -0.030629992485046387 0.132066950201988220 0.062412723898887634 -0.045268703252077103 -0.050156235694885254
-0.033645849674940109 -0.079482726752758026 0.195360526442527771 -0.032898072153329849 -0.018862083554267883 -0.062430147081613541 0.132609561085700989 -0.026715407148003578 -0.113001421093940735 -0.121794499456882477 -0.152823120355606079 0.044140405952930450 0.073013432323932648 0.128495052456855774 0.111658185720443726 -0.045865919440984726 0.031639970839023590 -0.123288132250308990 0.100252270698547363 0.032521951943635941 0.173225715756416321 0.154577136039733887 0.190977677702903748 0.133064717054367065 -0.093396633863449097 -0.093037366867065430 0.178335905075073242 -0.053259752690792084 -0.122985586524009705 0.088535517454147339 -0.055234089493751526 0.202189818024635315 0.006149507127702236 -0.003972672391682863 -0.158666715025901794 0.040855173021554947 0.061043232679367065 -0.040435034781694412 -0.134308576583862305 -0.065796792507171631 -0.151600092649459839 0.122303888201713562 -0.144314691424369812 -0.190194740891456604 -0.070890478789806366 0.078000403940677643 -0.157287731766700745 -0.049145482480525970 0.094321042299270630 -0.009646783582866192 0.139003366231918335 -0.082580044865608215 -0.184514150023460388 0.044441469013690948 0.072562769055366516 0.002335826866328716 -0.102392740547657013 0.029411861672997475 -0.189132958650588989 -0.113253280520439148 -0.014653054997324944 -0.040488101541996002 0.077261269092559814 0.030301669612526894 -0.205472066998481750 -0.135205283761024475 -0.065153352916240692 0.046706043183803558 0.119233787059783936 0.142836689949035645 -0.179321020841598511 -0.033745583146810532 0.004007009323686361 -0.123797431588172913 -0.156574264168739319 0.130137071013450623 -0.006825035437941551 -0.080542638897895813 0.092526152729988098 0.112956240773200989 -0.055256199091672897 0.016779074445366859 -0.023078473284840584 -0.028911462053656578 -0.134370267391204834 0.166353762149810791 0.081259600818157196 0.122273989021778107 -0.102388225495815277 -0.027648130431771278 -0.149208918213844299 -0.011219556443393230 -0.114037252962589264 -0.138248026371002197 0.076100565493106842 -0.087825186550617218 -0.113816909492015839 0.193342372775077820 -0.027940327301621437 -0.144437804818153381
0.101419791579246521 -0.050275616347789764 0.059043440967798233 -0.181120917201042175 0.069180488586425781 -0.084101758897304535 -0.126065269112586975 0.019925886765122414 0.053861036896705627 -0.114067614078521729 0.055305059999227524 0.126293450593948364 0.184007048606872559 0.108073852956295013 0.088778980076313019 -0.118860833346843719 -0.118379078805446625 -0.207403600215911865 -0.147484824061393738 -0.118365824222564697 0.160780206322669983 -0.015855830162763596 -0.100889742374420166 -0.042728595435619354 0.013701396994292736 -0.080353662371635437 -0.039920389652252197 -0.194464027881622314 0.073588982224464417 -0.011728008277714252 0.120644941926002502 0.031492304056882858 0.035811673849821091 -0.002485943026840687 -0.134131461381912231 -0.022731779143214226 -0.017019711434841156 -0.137811899185180664 -0.185674160718917847 -0.129449129104614258 0.050912089645862579 0.040853496640920639 -0.164547130465507507 0.032893992960453033 0.149304315447807312 -0.053085874766111374 0.166026636958122253 0.093040645122528076 0.144994959235191345 -0.100505523383617401 0.001920870039612055 0.039744120091199875 -0.061480131000280380 -0.105047285556793213 0.033851113170385361 0.187410578131675720 -0.066011056303977966 -0.007687977049499750 0.106283523142337799 0.126802757382392883 0.176999911665916443 -0.164721742272377014 -0.014864864759147167 0.059966649860143661 -0.151781216263771057 -0.144001156091690063 -0.133326783776283264 0.024835480377078056 -0.074612565338611603 -0.083099283277988434 -0.036365393549203873 0.112633034586906433 0.048475615680217743 0.140984550118446350 -0.160050854086875916 0.173202380537986755 0.020262610167264938 -0.124784596264362335 -0.154295206069946289 -0.019631974399089813 -0.078620761632919312 -0.157745927572250366 -0.160899892449378967 0.107499226927757263 0.059406705200672150 0.016020735725760460 -0.104448199272155762 -0.016681414097547531 0.170484751462936401 -0.079786866903305054 0.032396897673606873 0.120255634188652039 -0.093504592776298523 0.135623782873153687 0.161959797143936157 0.006208782549947500 -0.105938643217086792 -0.017210688441991806 0.092980533838272095 0.051720093935728073
-0.162921249866485596 0.129086300730705261 0.060567539185285568 -0.097423128783702850 0.174748465418815613 0.154815196990966797 -0.041039694100618362 -0.166369855403900146 -0.059172675013542175 -0.086507186293601990 -0.050886441022157669 -0.086460508406162262 -0.075554862618446350 0.157472535967826843 -0.102170214056968689 -0.002438037190586329 0.039899781346321106 0.098800323903560638 -0.148462161421775818 0.058489728718996048 -0.015628255903720856 0.034037958830595016 0.023572659119963646 -0.018694706261157990 -0.039866790175437927 -0.116711027920246124 -0.166828513145446777 0.015026875771582127 0.004345869645476341 -0.016141789034008980 0.051657091826200485 -0.050662707537412643 0.092256523668766022 0.053257249295711517 -0.002468349412083626 -0.172982856631278992 0.012532279826700687 -0.033813547343015671 0.170681193470954895 -0.034298773854970932 0.015812678262591362 0.119160227477550507 0.092738561332225800 0.094404287636280060 0.133151367306709290 0.158201292157173157 -0.149227529764175415 0.022581046447157860 -0.025373764336109161 -0.059625055640935898 -0.054080091416835785 0.045400384813547134 -0.082942686975002289 0.063471935689449310 -0.095491543412208557 -0.136165723204612732 -0.111074715852737427 0.091256976127624512 0.065846927464008331 -0.157034203410148621 0.049441676586866379 -0.075318530201911926 -0.068123295903205872 0.088406816124916077 -0.008539516478776932 -0.028563609346747398 0.033122573047876358 -0.096468836069107056 0.078098766505718231 0.113612666726112366 0.018505770713090897 0.154820978641510010 -0.166021004319190979 0.007652092259377241 0.062533199787139893 -0.199369058012962341 0.110926404595375061 0.094085320830345154 0.090039804577827454 0.116444371640682220 0.098564684391021729 -0.116484753787517548 -0.140248477458953857 0.093939177691936493 -0.021775830537080765 -0.116560995578765869 -0.049183566123247147 -0.106128357350826263 0.182189092040061951 -0.162119895219802856 -0.082522280514240265 -0.162950381636619568 0.113185457885265350 -0.119496986269950867 -0.104677453637123108 -0.116031102836132050 0.153163701295852661 -0.113351516425609589 0.006637123413383961 -0.003254262963309884
0.186950847506523132 0.168642580509185791 -0.030160976573824883 0.028895484283566475 0.095285393297672272 -0.022681359201669693 0.123756244778633118 -0.027754530310630798 -0.007929124869406223 -0.144824117422103882 -0.124646298587322235 0.051770426332950592 0.075731433928012848 -0.033767741173505783 -0.164189562201499939 0.139772295951843262 0.073657900094985962 -0.114598535001277924 -0.066029474139213562 0.000114616210339591 0.175687476992607117 0.007935378700494766 -0.183172062039375305 -0.103252023458480835 0.006061853840947151 -0.176486790180206299 0.133020073175430298 0.129443168640136719 0.150393173098564148 -0.109724067151546478 0.011991900391876698 0.010310890153050423 -0.133559927344322205 -0.148241162300109863 -0.163537591695785522 -0.050425507128238678 0.047718644142150879 0.131436243653297424 -0.042817596346139908 -0.045829076319932938 -0.020441289991140366 0.148796200752258301 0.106590092182159424 0.182787597179412842 -0.060095764696598053 -0.069621980190277100 -0.066375531256198883 -0.100932307541370392 -0.127275571227073669 0.085125818848609924 0.012721522711217403 -0.057823386043310165 -0.073438778519630432 0.005340779665857553 -0.146182700991630554 -0.038842882961034775 -0.090856581926345825 -0.041678123176097870 -0.013080378994345665 -0.108505569398403168 -0.172253072261810303 -0.077706582844257355 0.082386754453182220 0.047229073941707611 -0.046357497572898865 -0.136244907975196838 0.121769078075885773 -0.090504735708236694 -0.046859264373779297 0.117420442402362823 -0.084778301417827606 0.107896432280540466 0.092922829091548920 -0.116737529635429382 0.177885875105857849 0.008065802976489067 0.136967062950134277 -0.108415722846984863 -0.140580683946609497 0.098650999367237091 0.144416704773902893 -0.148270025849342346 -0.026886601001024246 0.096613995730876923 -0.035707384347915649 -0.080434590578079224 -0.000532812729943544 0.181978285312652588 -0.090777844190597534 0.116343319416046143 -0.079639524221420288 -0.150073289871215820 0.106799274682998657 -0.079925715923309326 -0.059340193867683411 0.075900442898273468 0.095062375068664551 -0.202133968472480774 0.140214100480079651 -0.146863207221031189
