#Layer 8 Weights:
-0.151154100894927979
-0.201192304491996765
-0.001675920793786645
0.000191542974789627
-0.171686574816703796
0.000318843347486109
0.082156293094158173
-0.002253630198538303
0.084225267171859741
0.019749959930777550
-0.176132723689079285
-0.156424075365066528
-0.001900393399409950
-0.126241922378540039
0.001070805941708386
-0.063691124320030212
0.032074049115180969
-0.054176487028598785
-0.161925435066223145
-0.217940315604209900
0.000382989441277459
-0.157952740788459778
0.004421310499310493
-0.063561387360095978
0.149544283747673035
0.010051954537630081
0.201182767748832703
-0.016969406977295876
-0.048010434955358505
0.235429048538208008
0.170810475945472717
0.198976457118988037
0.009525986388325691
-0.210623607039451599
-0.121083676815032959
0.126326605677604675
-0.048675749450922012
0.200276017189025879
-0.033342123031616211
0.049465194344520569
-0.150089904665946960
-0.093824341893196106
-0.021367715671658516
-0.044548936188220978
-0.163254588842391968
-0.049002893269062042
-0.037799697369337082
0.102386914193630219
0.164656475186347961
0.191405907273292542
-0.005632935091853142
-0.228957921266555786
-0.060752056539058685
0.232613801956176758
-0.026976777240633965
0.002298884792253375
-0.096671566367149353
0.172419145703315735
-0.180375397205352783
0.000856196391396224
0.053647201508283615
-0.162003025412559509
0.002819390268996358
0.000424197438405827
0.002410127315670252
-0.227526828646659851
-0.202155128121376038
0.109441481530666351
0.001848787418566644
0.051648240536451340
0.046162631362676620
0.086183436214923859
-0.286648094654083252
-0.174836263060569763
-0.232966035604476929
0.199637189507484436
-0.001975306076928973
-0.156467512249946594
-0.104792371392250061
0.185888990759849548
0.167747020721435547
0.084070511162281036
0.159710288047790527
-0.183384582400321960
0.178128272294998169
0.172085240483283997
-0.141864925622940063
-0.183509290218353271
0.214267507195472717
-0.197315827012062073
-0.034294303506612778
-0.111901618540287018
0.181972190737724304
0.025760641321539879
-0.054190240800380707
0.193516418337821960
0.089153975248336792
0.034678369760513306
-0.054987207055091858
0.084542267024517059
